GIS
30
0.0
18
Geographical
Located
Subsidiary
User-Owner-Inventor-Manufacturer
Employment
Citizen-Resident-Religion-Ethnicity
Near
Org-Location
Business
Membership
Family
Investor-Shareholder
Student-Alum
Lasting-Personal
Ownership
Founder
Artifact
Sports-Affiliation
1058
829
34 0
40 0 1
1 0 1 2
2 0 1 2 3
2 0 1 2 3 4
2 0 1 2 3 4 5 6 7
2 0 1 2 3 4 5 6 7 8 9 10
1 0 1 2 3 4 5 6 7 8 9 10 11
1 0 1 2 3 4 5 6 7 8 9 10 11 12
1 0 1 2 3 4 5 6 7 8 9 10 11 12 13 14 15 16
27 0 1 2 3 4 5 6 7 8 9 10 11 12 13 14 15 16 17
2 0 1 2 3 4 5 6 7 8 9 10 11 12 13 14 15 17
2 0 1 2 3 4 5 6 7 8 9 10 11 12 13 14 17
2 0 1 2 3 4 5 6 7 8 9 10 11 12 13 15
1 0 1 2 3 4 5 6 7 8 9 10 11 12 13 15 17
1 0 1 2 3 4 5 6 7 8 9 10 11 12 13 17
1 0 1 2 3 4 5 6 7 8 9 10 11 12 14 15 17
1 0 1 2 3 4 5 6 7 8 9 10 11 12 15 16 17
1 0 1 2 3 4 5 6 7 8 9 10 11 12 16
2 0 1 2 3 4 5 6 7 8 9 10 11 13 14
2 0 1 2 3 4 5 6 7 8 9 10 11 13 14 15
3 0 1 2 3 4 5 6 7 8 9 10 11 13 14 15 16 17
1 0 1 2 3 4 5 6 7 8 9 10 11 13 14 15 17
2 0 1 2 3 4 5 6 7 8 9 10 11 13 14 16 17
1 0 1 2 3 4 5 6 7 8 9 10 11 13 14 17
1 0 1 2 3 4 5 6 7 8 9 10 11 13 15
1 0 1 2 3 4 5 6 7 8 9 10 11 13 15 16 17
1 0 1 2 3 4 5 6 7 8 9 10 11 13 15 17
1 0 1 2 3 4 5 6 7 8 9 10 11 13 17
1 0 1 2 3 4 5 6 7 8 9 10 11 15
1 0 1 2 3 4 5 6 7 8 9 10 11 15 16 17
1 0 1 2 3 4 5 6 7 8 9 10 11 15 17
1 0 1 2 3 4 5 6 7 8 9 10 12 13 14 15 17
1 0 1 2 3 4 5 6 7 8 9 10 12 13 14 16
2 0 1 2 3 4 5 6 7 8 9 10 13
1 0 1 2 3 4 5 6 7 8 9 10 13 14
1 0 1 2 3 4 5 6 7 8 9 10 13 14 17
3 0 1 2 3 4 5 6 7 8 9 10 13 15
2 0 1 2 3 4 5 6 7 8 9 10 14
1 0 1 2 3 4 5 6 7 8 9 10 14 15
1 0 1 2 3 4 5 6 7 8 9 10 14 17
2 0 1 2 3 4 5 6 7 8 9 10 15
1 0 1 2 3 4 5 6 7 8 9 11 12 14 15 16
1 0 1 2 3 4 5 6 7 8 9 11 16 17
1 0 1 2 3 4 5 6 7 8 9 14
1 0 1 2 3 4 5 6 7 8 11 13 14
1 0 1 2 3 4 5 6 7 9 10 11
1 0 1 2 3 4 5 6 7 9 10 11 12
1 0 1 2 3 4 5 6 7 9 10 11 12 17
1 0 1 2 3 4 5 6 7 9 10 11 13
1 0 1 2 3 4 5 6 7 9 10 11 14
1 0 1 2 3 4 5 6 7 9 10 15
1 0 1 2 3 4 5 6 7 9 11 12
1 0 1 2 3 4 5 6 7 9 13
1 0 1 2 3 4 5 6 7 10
1 0 1 2 3 4 5 6 7 10 11 13 14
1 0 1 2 3 4 5 6 7 10 17
3 0 1 2 3 4 5 6 8 9 10
1 0 1 2 3 4 5 6 8 9 10 11 13 16
1 0 1 2 3 4 5 6 8 9 10 11 13 17
1 0 1 2 3 4 5 6 8 9 10 11 15
1 0 1 2 3 4 5 6 8 9 10 11 17
1 0 1 2 3 4 5 6 8 9 10 13
1 0 1 2 3 4 5 6 8 9 10 13 14
1 0 1 2 3 4 5 6 8 9 10 13 14 15 17
1 0 1 2 3 4 5 6 8 9 10 13 14 17
1 0 1 2 3 4 5 6 8 9 10 14 15
1 0 1 2 3 4 5 6 8 9 10 17
1 0 1 2 3 4 5 6 8 10 13 14 15 16
1 0 1 2 3 4 5 6 8 10 16
1 0 1 2 3 4 5 6 9
1 0 1 2 3 4 5 6 9 10 12
1 0 1 2 3 4 5 6 9 10 14
1 0 1 2 3 4 5 6 9 10 14 17
1 0 1 2 3 4 5 6 10
1 0 1 2 3 4 5 7
1 0 1 2 3 4 5 7 8
1 0 1 2 3 4 5 7 8 9 10 11 12 13
1 0 1 2 3 4 5 7 8 9 10 11 12 13 16
1 0 1 2 3 4 5 7 8 9 10 11 17
1 0 1 2 3 4 5 7 8 9 10 12 13 15
2 0 1 2 3 4 5 7 8 9 10 13 14
1 0 1 2 3 4 5 7 8 9 10 13 14 16
1 0 1 2 3 4 5 7 8 9 10 13 15 17
1 0 1 2 3 4 5 7 8 9 10 17
1 0 1 2 3 4 5 7 8 9 11 15
1 0 1 2 3 4 5 7 8 10 13 14
1 0 1 2 3 4 5 7 8 10 15
1 0 1 2 3 4 5 7 9
1 0 1 2 3 4 5 7 9 10
1 0 1 2 3 4 5 7 9 10 11 12
1 0 1 2 3 4 5 7 9 10 11 13 17
1 0 1 2 3 4 5 7 9 11
1 0 1 2 3 4 5 7 10 17
1 0 1 2 3 4 5 8
1 0 1 2 3 4 5 8 9 10
1 0 1 2 3 4 5 8 9 10 11
1 0 1 2 3 4 5 8 9 10 11 14
1 0 1 2 3 4 5 8 9 10 11 14 17
1 0 1 2 3 4 5 8 9 10 12 13
1 0 1 2 3 4 5 8 9 10 12 13 17
1 0 1 2 3 4 5 8 9 10 14
1 0 1 2 3 4 5 8 9 17
1 0 1 2 3 4 5 9 10 11 13 14
1 0 1 2 3 4 5 9 11
1 0 1 2 3 4 5 9 11 14 16
2 0 1 2 3 4 5 10
1 0 1 2 3 4 5 10 11 13 15
1 0 1 2 3 4 5 10 14
1 0 1 2 3 4 6 7 8 9 10
1 0 1 2 3 4 6 7 8 9 10 12 14
1 0 1 2 3 4 6 7 8 9 13
1 0 1 2 3 4 6 8 9
1 0 1 2 3 4 6 8 10 11 13
1 0 1 2 3 4 6 8 11
1 0 1 2 3 4 6 9 10
1 0 1 2 3 4 6 9 11 12
1 0 1 2 3 4 6 11 13
1 0 1 2 3 4 7
1 0 1 2 3 4 7 8 9 10 13 14 16
1 0 1 2 3 4 7 8 10 17
1 0 1 2 3 4 7 9 10 15
1 0 1 2 3 4 7 9 13
1 0 1 2 3 4 7 9 15
1 0 1 2 3 4 7 10 11
1 0 1 2 3 4 7 12
1 0 1 2 3 4 7 13
1 0 1 2 3 4 8
1 0 1 2 3 4 8 10 13 16
2 0 1 2 3 4 9
1 0 1 2 3 4 9 10
1 0 1 2 3 4 12
1 0 1 2 3 5 6
1 0 1 2 3 5 6 8 9 10 13 14 15 16
1 0 1 2 3 5 6 8 11 13
1 0 1 2 3 5 7 8 9 10 12 13 14
1 0 1 2 3 5 7 10 11 12 17
1 0 1 2 3 5 8
1 0 1 2 3 6 9
1 0 1 2 3 6 10
1 0 1 2 3 7
1 0 1 2 3 7 8 9
1 0 1 2 3 8 10 13
1 0 1 2 3 11 13 14
5 0 1 2 4
2 0 1 2 4 5
1 0 1 2 4 5 6
5 0 1 2 4 5 6 7
1 0 1 2 4 5 6 7 9 11 15 17
1 0 1 2 4 5 6 7 10 14 15 16
1 0 1 2 4 5 6 7 11
2 0 1 2 4 5 6 7 17
1 0 1 2 4 5 6 12 16
12 0 1 2 4 5 7
1 0 1 2 4 5 7 8 9 10 11 13 15 17
2 0 1 2 4 5 7 9
1 0 1 2 4 5 15
1 0 1 2 4 6
1 0 1 2 4 6 7
2 0 1 2 4 7
2 0 1 2 4 7 9
1 0 1 2 4 8 9 10 11 17
1 0 1 2 4 8 13
1 0 1 2 4 9 12
1 0 1 2 4 12 14
1 0 1 2 5
1 0 1 2 5 6
2 0 1 2 5 6 7
1 0 1 2 5 7
1 0 1 2 5 17
1 0 1 2 6 7
1 0 1 2 6 7 9 11
1 0 1 2 6 9
1 0 1 2 8 15
1 0 1 2 10
11 0 1 3
10 0 1 3 4
6 0 1 3 4 5
2 0 1 3 4 5 6
1 0 1 3 4 5 6 7 8 9 10
2 0 1 3 4 5 6 7 8 9 10 13
1 0 1 3 4 5 6 7 8 9 10 13 15 16
1 0 1 3 4 5 6 7 8 9 10 13 17
1 0 1 3 4 5 6 7 8 9 11
2 0 1 3 4 5 6 7 8 10
1 0 1 3 4 5 6 7 9 11
1 0 1 3 4 5 6 7 9 11 12 13 14 15
1 0 1 3 4 5 6 7 9 13 17
1 0 1 3 4 5 6 7 10
1 0 1 3 4 5 6 7 10 13
1 0 1 3 4 5 6 7 11
2 0 1 3 4 5 6 8
1 0 1 3 4 5 6 8 9 10 11
1 0 1 3 4 5 6 8 9 10 12 13 17
1 0 1 3 4 5 6 8 9 10 13
1 0 1 3 4 5 6 8 9 10 15
1 0 1 3 4 5 6 8 9 10 16
1 0 1 3 4 5 6 8 9 12 15
1 0 1 3 4 5 6 9 10
1 0 1 3 4 5 6 9 10 11 16
1 0 1 3 4 5 6 9 10 12
1 0 1 3 4 5 6 9 10 13 14
1 0 1 3 4 5 6 9 11 14
1 0 1 3 4 5 6 9 11 15 17
1 0 1 3 4 5 6 10
1 0 1 3 4 5 6 10 11 12 13 14
1 0 1 3 4 5 6 10 12
1 0 1 3 4 5 6 16
2 0 1 3 4 5 7
1 0 1 3 4 5 7 8 9 10 11 14
1 0 1 3 4 5 7 8 9 10 11 15 17
1 0 1 3 4 5 7 8 10
1 0 1 3 4 5 7 8 10 13
1 0 1 3 4 5 7 9 10
1 0 1 3 4 5 7 9 10 13 14 16 17
1 0 1 3 4 5 7 9 10 15 17
1 0 1 3 4 5 7 9 11 17
1 0 1 3 4 5 7 9 12 15
2 0 1 3 4 5 8
1 0 1 3 4 5 8 9 10
1 0 1 3 4 5 8 9 10 11 14
1 0 1 3 4 5 8 9 10 12
2 0 1 3 4 5 8 9 10 13
1 0 1 3 4 5 8 9 10 13 14 15
1 0 1 3 4 5 8 9 10 13 17
1 0 1 3 4 5 8 9 10 14
1 0 1 3 4 5 8 10 13
1 0 1 3 4 5 8 11 12
3 0 1 3 4 5 9 10
1 0 1 3 4 5 9 10 11 12 13
1 0 1 3 4 5 9 10 14 15
1 0 1 3 4 5 9 12 13 15
6 0 1 3 4 5 10
1 0 1 3 4 5 10 12 13 15
1 0 1 3 4 5 10 15 17
2 0 1 3 4 5 11
1 0 1 3 4 5 13
1 0 1 3 4 6
1 0 1 3 4 6 7 9 10
1 0 1 3 4 6 7 9 10 13
1 0 1 3 4 6 7 10
1 0 1 3 4 6 7 17
1 0 1 3 4 6 8 9
1 0 1 3 4 6 8 9 10
1 0 1 3 4 6 8 9 10 13 17
1 0 1 3 4 6 8 9 15
1 0 1 3 4 6 8 10 11 13 14 16
1 0 1 3 4 6 8 10 12 13
1 0 1 3 4 6 8 10 13
2 0 1 3 4 6 8 11
1 0 1 3 4 6 8 11 13 17
4 0 1 3 4 6 9
1 0 1 3 4 6 9 10
1 0 1 3 4 6 10 11 12 17
1 0 1 3 4 6 11
3 0 1 3 4 7
1 0 1 3 4 7 8 14 17
1 0 1 3 4 7 9 10
1 0 1 3 4 7 10
1 0 1 3 4 7 13 17
1 0 1 3 4 8
1 0 1 3 4 8 9
1 0 1 3 4 8 9 10
1 0 1 3 4 8 9 17
2 0 1 3 4 8 10
1 0 1 3 4 8 10 13 17
1 0 1 3 4 8 13
1 0 1 3 4 9
1 0 1 3 4 9 10 14 15
1 0 1 3 4 9 17
3 0 1 3 4 10
1 0 1 3 4 10 11 14 16
1 0 1 3 4 10 15
1 0 1 3 4 13
5 0 1 3 5
2 0 1 3 5 6
1 0 1 3 5 6 7
1 0 1 3 5 6 7 8 10
1 0 1 3 5 6 9 11 16
1 0 1 3 5 6 14
1 0 1 3 5 7 10
1 0 1 3 5 7 10 12
1 0 1 3 5 8 10 13 14
1 0 1 3 5 9
1 0 1 3 5 9 10
1 0 1 3 5 9 10 14
1 0 1 3 5 9 11 15
1 0 1 3 5 16
9 0 1 3 6
2 0 1 3 6 7
1 0 1 3 6 7 8 10 11 13 17
1 0 1 3 6 8
1 0 1 3 6 9 10
2 0 1 3 6 9 10 14
1 0 1 3 6 9 10 14 15
1 0 1 3 6 9 11 15
1 0 1 3 6 11 14 15
1 0 1 3 7
1 0 1 3 7 8 16
1 0 1 3 8 9
1 0 1 3 8 10 12 17
1 0 1 3 8 10 13 17
1 0 1 3 9
4 0 1 3 9 10
1 0 1 3 9 10 16
3 0 1 3 10
1 0 1 3 10 13
2 0 1 3 13
1 0 1 3 15 17
1 0 1 3 16
1 0 1 3 17
15 0 1 4
10 0 1 4 5
1 0 1 4 5 6
3 0 1 4 5 6 7
1 0 1 4 5 6 9 10
8 0 1 4 5 7
1 0 1 4 5 7 8 9 10
1 0 1 4 5 7 9
1 0 1 4 5 7 9 17
1 0 1 4 5 8 9 10
1 0 1 4 5 8 10 14
1 0 1 4 5 9
1 0 1 4 5 10 13
1 0 1 4 5 10 13 14 15
1 0 1 4 5 12
4 0 1 4 6
1 0 1 4 6 7
1 0 1 4 6 8 9
2 0 1 4 6 10
1 0 1 4 6 10 11
1 0 1 4 6 10 13 14
1 0 1 4 6 14 17
1 0 1 4 6 15
10 0 1 4 7
1 0 1 4 7 8 17
1 0 1 4 7 9 10
1 0 1 4 7 10
1 0 1 4 7 12
3 0 1 4 8
1 0 1 4 8 9 11 13
1 0 1 4 8 10
1 0 1 4 8 15 16
3 0 1 4 9
1 0 1 4 9 10
2 0 1 4 10
1 0 1 4 10 13
1 0 1 4 12
1 0 1 4 13
1 0 1 4 14
12 0 1 5
5 0 1 5 6
6 0 1 5 6 7
1 0 1 5 6 9 10
1 0 1 5 6 10
5 0 1 5 7
1 0 1 5 8
1 0 1 5 8 9
1 0 1 5 10
1 0 1 5 11
1 0 1 5 15
27 0 1 6
3 0 1 6 7
1 0 1 6 7 16
1 0 1 6 8
1 0 1 6 8 13
1 0 1 6 9
1 0 1 6 14
7 0 1 7
1 0 1 7 8 11 13 17
1 0 1 7 15
1 0 1 8 10
1 0 1 8 10 13
1 0 1 8 11
1 0 1 9
1 0 1 9 15
1 0 1 10
1 0 1 10 16
1 0 1 11 16 17
1 0 1 14
1 0 1 17
7 0 2
2 0 2 3 4
1 0 2 3 4 5 6
1 0 2 3 4 5 8 9 10 11 12 13 14
1 0 2 3 4 5 8 9 10 13 17
1 0 2 3 4 5 9 11
1 0 2 3 4 6 7
1 0 2 3 4 7
1 0 2 3 4 9 11 15
1 0 2 3 5 6 9 11
1 0 2 3 5 8
1 0 2 3 6 7 15
2 0 2 3 7
1 0 2 3 7 9 11
1 0 2 3 7 11
1 0 2 3 8 10 13
4 0 2 4
1 0 2 4 5
5 0 2 4 5 7
1 0 2 4 5 7 9 15
1 0 2 4 5 7 10 11 14 15 17
1 0 2 4 5 7 12 15
1 0 2 4 5 9
1 0 2 4 6
1 0 2 4 6 10 12
1 0 2 4 6 15
1 0 2 4 7
1 0 2 4 7 8 9
1 0 2 4 7 8 9 11 15 17
1 0 2 4 8 9
1 0 2 4 9
2 0 2 5 6
1 0 2 6
4 0 2 6 7
6 0 2 7
1 0 2 7 9
1 0 2 16
6 0 3
1 0 3 4
1 0 3 4 5
1 0 3 4 5 6
1 0 3 4 5 8
1 0 3 4 5 8 9 10 11 14
1 0 3 4 5 10 12
2 0 3 4 6
1 0 3 4 6 7
1 0 3 4 8 9 17
1 0 3 4 8 13
1 0 3 4 9
1 0 3 4 9 10
1 0 3 4 10
1 0 3 5
1 0 3 5 6 8 10
1 0 3 5 7 8 13 17
1 0 3 5 9
8 0 3 6
1 0 3 6 9
2 0 3 6 16
1 0 3 7 9
2 0 3 9
1 0 3 10
1 0 3 13
1 0 3 16
7 0 4
3 0 4 5
2 0 4 5 6 9
3 0 4 5 7
1 0 4 5 7 17
1 0 4 5 9
3 0 4 6
2 0 4 7
1 0 4 7 8
1 0 4 7 8 9 10 17
1 0 4 8
1 0 4 8 9
2 0 4 9
1 0 4 9 13
1 0 4 9 15
3 0 5 6
4 0 5 7
1 0 5 8 9
1 0 5 10
1 0 5 17
53 0 6
1 0 6 7
1 0 6 9
1 0 6 10
2 0 6 12
2 0 7
1 0 7 16
1 0 8 9
2 0 9
1 0 10
1 0 10 14 17
1 0 12
48 1
2 1 2
2 1 2 3
2 1 2 3 4
2 1 2 3 4 5
1 1 2 3 4 5 6 7
1 1 2 3 4 5 6 7 8 9 10
1 1 2 3 4 5 6 7 8 9 10 11 12 13 14 15 17
1 1 2 3 4 5 6 7 8 9 10 14
1 1 2 3 4 5 6 7 8 10 11 13
1 1 2 3 4 5 6 7 9
1 1 2 3 4 5 6 7 9 10
1 1 2 3 4 5 6 7 9 15
1 1 2 3 4 5 6 8 9 10 11 13 14 17
1 1 2 3 4 5 6 9 15 17
1 1 2 3 4 5 6 11 12
2 1 2 3 4 5 7
1 1 2 3 4 5 7 8 9 10 12 13
1 1 2 3 4 5 7 8 9 10 13
1 1 2 3 4 5 7 8 9 10 13 14
1 1 2 3 4 5 7 8 10
1 1 2 3 4 5 7 9
1 1 2 3 4 5 7 9 10
1 1 2 3 4 5 7 9 14 15
1 1 2 3 4 5 8
1 1 2 3 4 5 8 9 10 13
1 1 2 3 4 5 8 9 11 12 14 15 17
1 1 2 3 4 5 9
1 1 2 3 4 5 9 10
1 1 2 3 4 5 9 10 13
1 1 2 3 4 5 9 10 13 16 17
1 1 2 3 4 5 9 13
2 1 2 3 4 6
1 1 2 3 4 6 7 8
1 1 2 3 4 6 7 8 9 10 13
2 1 2 3 4 6 7 9
1 1 2 3 4 6 7 9 15
1 1 2 3 4 6 7 10
1 1 2 3 4 6 8 9
1 1 2 3 4 6 11
2 1 2 3 4 7 8 9
1 1 2 3 4 7 8 9 10
1 1 2 3 4 7 8 9 10 11
3 1 2 3 4 7 9
1 1 2 3 4 8
1 1 2 3 4 8 11
1 1 2 3 4 9
2 1 2 3 4 9 10
1 1 2 3 4 10 11 12 17
1 1 2 3 4 11
1 1 2 3 5
1 1 2 3 5 6 8 10
1 1 2 3 5 6 11
1 1 2 3 5 7
2 1 2 3 6
1 1 2 3 6 8 10 13
1 1 2 3 8
1 1 2 3 10
1 1 2 3 12
1 1 2 3 13
7 1 2 4
3 1 2 4 5
1 1 2 4 5 6 9 10 12 14
1 1 2 4 5 6 13
2 1 2 4 5 7
1 1 2 4 5 7 8
1 1 2 4 5 7 9
1 1 2 4 5 8
1 1 2 4 5 8 9
1 1 2 4 5 8 9 10 14
1 1 2 4 5 8 9 14 15
1 1 2 4 5 9 11 14 15
1 1 2 4 5 10
1 1 2 4 5 10 16
2 1 2 4 6 7
1 1 2 4 6 8
1 1 2 4 6 10
1 1 2 4 6 10 13 16
1 1 2 4 6 14
4 1 2 4 7
1 1 2 4 7 8 9 10 11
1 1 2 4 7 8 10
2 1 2 4 7 9
1 1 2 4 7 9 10
1 1 2 4 7 9 13
2 1 2 4 7 10 13
1 1 2 4 8
2 1 2 4 8 9
1 1 2 4 8 9 14
1 1 2 4 8 16 17
2 1 2 4 9
1 1 2 4 9 10
1 1 2 4 9 10 13 17
1 1 2 4 10 13
1 1 2 4 15
1 1 2 6 8 17
1 1 2 7 9
1 1 2 7 9 10 17
1 1 2 7 11
1 1 2 9
1 1 2 11
1 1 2 12
49 1 3
33 1 3 4
10 1 3 4 5
7 1 3 4 5 6
1 1 3 4 5 6 7 9 10
1 1 3 4 5 6 8 9 10
1 1 3 4 5 6 8 9 10 11 12 13 14 15
1 1 3 4 5 6 8 9 10 11 12 13 14 15 17
1 1 3 4 5 6 8 9 10 11 12 13 15
1 1 3 4 5 6 8 9 10 11 13
1 1 3 4 5 6 8 9 10 11 13 14 15
1 1 3 4 5 6 8 9 10 12 13 14 15 17
1 1 3 4 5 6 8 10
1 1 3 4 5 6 8 11
1 1 3 4 5 6 9
1 1 3 4 5 6 9 10
1 1 3 4 5 6 9 11
1 1 3 4 5 6 10
1 1 3 4 5 6 10 11
1 1 3 4 5 6 10 12 13
1 1 3 4 5 6 11 14
2 1 3 4 5 7
1 1 3 4 5 7 8
1 1 3 4 5 7 8 10 12 13 14
1 1 3 4 5 7 8 10 15
1 1 3 4 5 7 8 13
1 1 3 4 5 7 9 11
1 1 3 4 5 7 10 17
2 1 3 4 5 8
1 1 3 4 5 8 9
4 1 3 4 5 8 9 10
1 1 3 4 5 8 9 10 11 12 13
1 1 3 4 5 8 9 10 11 13 14
1 1 3 4 5 8 9 10 11 13 14 16 17
1 1 3 4 5 8 9 10 13
1 1 3 4 5 8 9 10 14 15
1 1 3 4 5 8 9 11 13
3 1 3 4 5 8 10
1 1 3 4 5 8 10 11 13 15 17
1 1 3 4 5 8 10 12
8 1 3 4 5 9
1 1 3 4 5 9 10
1 1 3 4 5 9 14
4 1 3 4 5 10
1 1 3 4 5 10 11
1 1 3 4 5 10 12 13
2 1 3 4 5 10 13
1 1 3 4 5 11
1 1 3 4 5 13
1 1 3 4 5 17
9 1 3 4 6
1 1 3 4 6 7
1 1 3 4 6 7 8 9 10 12 13 14
1 1 3 4 6 7 8 10 13
1 1 3 4 6 7 11
1 1 3 4 6 7 15
2 1 3 4 6 8
2 1 3 4 6 8 9
1 1 3 4 6 8 9 10 13
1 1 3 4 6 8 10
1 1 3 4 6 8 10 13
6 1 3 4 6 9
1 1 3 4 6 9 10
1 1 3 4 6 9 10 13
1 1 3 4 6 9 11 13 15
1 1 3 4 6 9 14
2 1 3 4 6 10
1 1 3 4 6 11
1 1 3 4 6 14 17
2 1 3 4 7
1 1 3 4 7 8
1 1 3 4 7 9 11
1 1 3 4 7 13 17
1 1 3 4 7 14 17
6 1 3 4 8
3 1 3 4 8 9
1 1 3 4 8 9 10 13
2 1 3 4 8 9 10 17
1 1 3 4 8 9 13
6 1 3 4 8 10
1 1 3 4 8 10 11 13 14
1 1 3 4 8 10 13
1 1 3 4 8 13
1 1 3 4 8 15
9 1 3 4 9
4 1 3 4 9 10
1 1 3 4 9 15
3 1 3 4 10
1 1 3 4 10 12 13
1 1 3 4 10 13
1 1 3 4 10 14
1 1 3 4 10 15
2 1 3 4 11
1 1 3 4 11 12
1 1 3 4 11 17
1 1 3 4 13 17
1 1 3 4 14
1 1 3 4 15
11 1 3 5
2 1 3 5 6
1 1 3 5 6 7 10 13 15
1 1 3 5 6 8
1 1 3 5 6 8 10 13
1 1 3 5 6 9
1 1 3 5 6 9 13 15
1 1 3 5 6 9 15
1 1 3 5 6 10
1 1 3 5 6 13
1 1 3 5 6 14
2 1 3 5 7
1 1 3 5 8
1 1 3 5 8 9
1 1 3 5 8 9 13
1 1 3 5 8 10 11
5 1 3 5 9
2 1 3 5 9 10
6 1 3 5 10
1 1 3 5 10 13
1 1 3 5 10 17
26 1 3 6
1 1 3 6 7 8 9 10 13 17
1 1 3 6 7 10
1 1 3 6 8
1 1 3 6 8 10 13
1 1 3 6 8 10 13 15
1 1 3 6 8 11
4 1 3 6 9
1 1 3 6 9 11
1 1 3 6 9 15
1 1 3 6 11
1 1 3 6 14
1 1 3 6 17
3 1 3 7
1 1 3 7 8 10
1 1 3 7 8 10 13
1 1 3 7 8 10 17
2 1 3 7 9
1 1 3 7 9 10 13
1 1 3 7 11
5 1 3 8
2 1 3 8 9 10
1 1 3 8 9 10 13 17
1 1 3 8 9 13 17
1 1 3 8 9 15
2 1 3 8 10
6 1 3 9
2 1 3 9 10
8 1 3 10
1 1 3 10 13
1 1 3 11
1 1 3 12
1 1 3 13
2 1 3 14
1 1 3 14 17
48 1 4
28 1 4 5
5 1 4 5 6
1 1 4 5 6 7 8 14
1 1 4 5 6 8 9 10
1 1 4 5 6 8 10
1 1 4 5 6 9 15 17
1 1 4 5 6 15
2 1 4 5 7
1 1 4 5 7 8
1 1 4 5 7 8 10 13 14
1 1 4 5 7 8 13
1 1 4 5 7 9 17
1 1 4 5 7 10
5 1 4 5 8
1 1 4 5 8 9 10 12
1 1 4 5 8 9 14 15
1 1 4 5 8 10 13
1 1 4 5 8 10 15
7 1 4 5 9
1 1 4 5 9 10
1 1 4 5 9 10 11
1 1 4 5 9 11 14 15
1 1 4 5 9 12 13
2 1 4 5 9 15
2 1 4 5 10
1 1 4 5 10 13
1 1 4 5 10 14
1 1 4 5 12
1 1 4 5 13
1 1 4 5 15
1 1 4 5 17
11 1 4 6
2 1 4 6 7
1 1 4 6 8 13
5 1 4 6 9
2 1 4 6 10
1 1 4 6 10 13
1 1 4 6 11 13
1 1 4 6 11 15
3 1 4 7
1 1 4 7 8
1 1 4 7 8 9
2 1 4 7 9
1 1 4 7 9 10
1 1 4 7 12
10 1 4 8
1 1 4 8 9
1 1 4 8 9 10
1 1 4 8 9 10 12
1 1 4 8 10
1 1 4 8 10 12 13 14
1 1 4 8 10 13
1 1 4 8 13
1 1 4 8 16
18 1 4 9
1 1 4 9 10
2 1 4 9 11
3 1 4 9 13
1 1 4 9 14 17
1 1 4 9 15
1 1 4 9 17
9 1 4 10
5 1 4 12
1 1 4 12 17
2 1 4 13
1 1 4 13 17
1 1 4 15
1 1 4 17
23 1 5
8 1 5 6
2 1 5 6 7
1 1 5 6 8 9 10 12 13
1 1 5 6 8 10
2 1 5 6 10
1 1 5 6 13
2 1 5 7
1 1 5 7 9 13 15
1 1 5 7 10 16
1 1 5 7 12
3 1 5 8
1 1 5 8 9 10
1 1 5 8 10
1 1 5 8 11
1 1 5 9
1 1 5 9 10
1 1 5 9 10 13 14
1 1 5 9 10 15
1 1 5 9 12
1 1 5 9 13
2 1 5 9 17
4 1 5 10
1 1 5 10 12
1 1 5 10 13
2 1 5 12
1 1 5 15
25 1 6
1 1 6 7
1 1 6 7 9
2 1 6 8
1 1 6 8 9 10
1 1 6 8 12 13
1 1 6 9
1 1 6 9 14
1 1 6 10
1 1 6 10 15
1 1 6 11
1 1 6 13
1 1 6 17
8 1 7
1 1 7 8 9 17
1 1 7 8 10 13
3 1 7 9
1 1 7 11
6 1 8
1 1 8 9
1 1 8 9 10
1 1 8 9 10 13
4 1 8 10
1 1 8 10 17
3 1 8 13
1 1 8 13 17
4 1 9
1 1 9 10 13
1 1 9 14
1 1 9 15
8 1 10
1 1 10 13 14
1 1 10 13 17
2 1 11
1 1 11 17
3 1 13
1 1 15
11 2
5 2 3
3 2 3 4
1 2 3 4 5 7
1 2 3 4 5 7 9
1 2 3 4 5 8
1 2 3 4 5 9
1 2 3 4 6 9
1 2 3 4 6 14
4 2 3 4 7
2 2 3 4 9
1 2 3 4 9 11 14 15
1 2 3 4 9 13
1 2 3 4 10
1 2 3 5 7 16
1 2 3 6
1 2 3 6 7
8 2 3 7
3 2 3 7 9
1 2 3 7 11
1 2 3 9
1 2 3 10
1 2 3 10 13
12 2 4
3 2 4 5
1 2 4 5 6 14
5 2 4 5 7
2 2 4 5 7 9
1 2 4 5 7 9 10
1 2 4 5 7 10
1 2 4 5 8
1 2 4 5 8 9
1 2 4 5 8 9 10
1 2 4 5 8 9 10 13 17
1 2 4 5 8 13
2 2 4 5 9
1 2 4 5 9 11 14 15
1 2 4 5 9 14
1 2 4 5 9 15
1 2 4 5 10 13
4 2 4 7
5 2 4 7 9
1 2 4 7 9 10
1 2 4 7 9 14 15
1 2 4 7 11
1 2 4 8
1 2 4 8 9
1 2 4 8 9 14 15 17
1 2 4 8 10 11
1 2 4 8 12
1 2 4 8 15
21 2 4 9
1 2 4 9 11
1 2 4 9 11 14
1 2 4 9 11 14 15
1 2 4 9 14
1 2 4 9 14 17
1 2 4 10
2 2 4 11
2 2 4 12
1 2 4 15
1 2 4 17
2 2 5 7
18 2 7
1 2 7 9 12
2 2 7 11
4 2 9
1 2 9 11 14
4 2 11
91 3
5 3 4
5 3 4 5
1 3 4 5 6
1 3 4 5 7 10
1 3 4 5 8
1 3 4 5 8 9 10 11 13
1 3 4 5 9
1 3 4 5 9 10
1 3 4 5 9 11
1 3 4 6
1 3 4 6 7
1 3 4 6 8
1 3 4 6 10
1 3 4 6 10 17
1 3 4 7 10
1 3 4 8 17
1 3 4 9
1 3 4 9 10
1 3 4 9 10 15
1 3 4 9 11 14 15
1 3 4 11
1 3 4 11 14
1 3 4 17
2 3 5
1 3 5 6
1 3 5 6 7 10 14
1 3 5 6 10 14
1 3 5 8 10 13 14
1 3 6
1 3 6 7 10
1 3 6 8 9
1 3 7
1 3 8 10 13
1 3 8 14
1 3 8 16
2 3 9
1 3 10 11 15
1 3 11 16 17
1 3 15
7 3 16
76 4
12 4 5
1 4 5 6 17
6 4 5 7
1 4 5 7 8 9 10 13 14
1 4 5 7 9 10 12
1 4 5 7 17
3 4 5 8
1 4 5 8 9
1 4 5 8 9 10 13
1 4 5 8 9 10 13 14
1 4 5 8 9 14 15
7 4 5 9
2 4 5 9 10
1 4 5 9 11 15
2 4 5 9 14 15
1 4 5 9 15
1 4 5 10 11
1 4 5 14
1 4 6 8
4 4 7
1 4 7 8
4 4 7 9
1 4 7 14
7 4 8
4 4 8 9
1 4 8 9 10
1 4 8 9 12
1 4 8 10
1 4 8 13
1 4 8 17
25 4 9
1 4 9 11
1 4 9 11 15
1 4 9 12
1 4 9 14
1 4 9 14 15
1 4 9 14 17
5 4 9 15
1 4 9 17
1 4 10
1 4 10 17
4 4 11
3 4 11 14
1 4 11 14 15
1 4 11 15
1 4 12
2 4 13
1 4 14 15
3 4 15
2 4 17
9 5
1 5 7
1 5 7 12
1 5 7 14
2 5 8
1 5 8 9 10 13 14
4 5 8 10 13
1 5 8 13
3 5 9
1 5 9 10
1 5 10 13
4 6
9 7
1 7 8 10 13
4 7 9
12 8
4 8 9
1 8 9 10 13
5 8 10
8 8 10 13
3 8 13
7 9
2 9 11
3 9 15
50 10
6 10 13
1 10 15
1 11
1 11 14
4 13
2 16
3359
a0=(voice-over)
m1=fired
Cheong
m6=nablus
m3=one
m1=high
hm12=companies:Russian
hm2=beach
m0=between
hm12=people:world
airborne
m5=his
britain
b1=coast
a1=throw
hm1=Gary
hm1=palace
hm2=plant
hm2=Earth
m0=or
Democratic
a1=its
m1=across
a0=opened
m1=reportedly
m6=was
b1=talked
b1=country
m4=same
hm2=places
b1=getting
hm12=they:home
hm12=army:Israeli
b1=five
hm12=Iraqi:tanks
b1=korean
b0=seeing
b0=terrorist
a1=it.
m0=entertainment
b1=fire
hm1=spokeswoman
hm1=majority
a1=probably
m1=uh
a1=in.
Limited
hm1=agents
hm1=network
m7=have
a1=over
a1=every
hm1=snipers
hm2=co-workers
m0=last
hm1=street
hm2=Royal
m1=well
a1=scheduled
Control
Foreign
b1=use
life
Post
hm2=Dutch
a1=went
m2=down
m9=on
hm12=Walter
m5=you
b0=saying
b1=cnn
m1=saddam
hm1=Roh
hm12=exiles:Iraqi
Training
hm2=closet
hm12=Saddam:hometown
a0=shot
a1=night.
m2=bush
subtype12=Land-Region-Natural:Water-Body
a1=team
b1=killing
hm1=borders
hm12=troops:city
b0=arab
hm2=retreat
m4=small
hm12=outskirts:Baghdad
b1=since
a1=expected
police
Corp
b0=entire
m6=back
m0=way
a1=u.n.
m1=also
hm2=nukes
&amp;
m3=like
m3=house
m1=such
dist=9
hm1=both
Planning
m2=major
College
m4=have
a1=part
b0=forward
b1=based
m1=them
b1=saddam
m0=really
m6=his
hm1=tourist
a0=push
b0=president,
hm2=arsenal
m8=last
b0=special
m2=close
subtype12=Non-Governmental:Address
m0=like
m1=has
hm12=Kurds:Iraqi
hm2=students
Humanitarian
hm1=cabinet
hm1=service
hm12=students:schools
a0=bombed
b0=out
subtype12=Government:Region-General
b1=cross
m5=after
b1=been
b1=murder
hm2=doctors
m1=embark
m0=throughout
m21=the
Music
a0=became
b0=keep
a0=:
hm12=they:weapons
m1=security
m7=president,
Spain
m1=3rd
hm2=homeland
m3=more
hm2=pakistan
m0=life
hm1=Air
m6=after
m3=army
subtype12=Subarea-Facility:Subarea-Facility
hm12=soldiers:iraqi
m1=friends
Rodgers
m3=when
12
Sites
a1=(on
m2=philippines,
hm2=gun
association
hm1=Americans
westchester
hm1=folks
m0=moved
hm12=room:hotel
a1=war
b0=today,
m1=founded
subtype12=Individual:Chemical
hm1=factions
hm1=Michael
subtype12=Educational:Educational
hm1=McCarthy
Street
a1=expel
subtype12=Subarea-Facility:Population-Center
a0=convicted
b1=within
hm2=Lebanon
Johnson
m3=shopping
a1=together
hm12=city:West
m18=of
marina
a1=armored
Lejeune
m10=or
m0=want
hm12=I:West
hm2=Kut
m1=probably
hm1=US
Consultants
a1=came
georges
party
a1=doing
m2=turn
type2=Plant
m4=if
side
b1=long
m0=flight
b1=morning,
m0=embedded
hm1=White
congress
a0=troops
m8=agreed
stewart
m13=in
Windsor
m8=tuesday,
hm2=mortars
a0=don't
subtype12=Land-Region-Natural:State-or-Province
m7=australia
a1=formerly
a1=five
La
mobil
m1=other
bay
m13=to
hm1=Officials
m0=used
a1=years
m0=aboard
m10=all
m3=air
louis
hm12=Kelly
a0=late
b0=um,
hm12=members:council
b0=vice
a1=sunday
Systech
subtype12=Subarea-Vehicle:Water
m1=10
a0=blew
m3=held
b1=defense
subtype12=Population-Center:Boundary
east
hm1=owners
hm12=lawmakers:U.S
a0=began
a1=sharon
Reconstruction
m5=one
hm2=san
hm1=desert
a0=fired
a0=president
a1=security
b0=correspondent
m0=based
subtype12=Water-Body:Region-International
m0=then
m9=--
hm1=girls
hm12=Center
m2=largest
type2=Address
a1=engaged
m1=adult
a1=beginning
subtype12=Educational:State-or-Province
b1=arafat
hm2=Ohio
hm2=russian
hm1=Kevin
Hospital
hm2=Administration
Conservation
m2=kurdish
hm12=his:baby
omnimedia
b1=sharon
m1=success
hm12=Rula
b0=political
hm2=offices
a1=face
m3=come
m3=back
b0=particular
a0=veto
m4=live
m3=head
Arabia
m3=police
hm1=Refugees
m0=:
subtype12=Sports:Building-Grounds
m11=other
m0=under
hm2=firm
hm1=reserves
Middle
strip
subtype12=Individual:Projectile
b0=call
hm1=Garner
m14=a
hm12=fighters:Iraqi
hm1=pond
b1=million
m2=very
hm2=stations
hm12=Gerhard
hm1=BAGHDAD
a0=under
river
b1=weapons
hm1=ministry
O'Neal
hm1=Al-Douri
b0=protect
a1=president
hm1=crews
hm2=air
b0=gen.
hm12=My:wife
m1=oil
b0=different
hm2=aol
b0=qaeda
b0=shows
m1=between
b0=armored
b0=found
subtype12=Plant:Population-Center
m0=ground
hm2=michigan
a1=four
hm1=Chairman
m2=secret
hm2=Supreme
m3=inside
b1=especially
m4=into
hm2=parks
hm12=washington:d.c
hm2=afghanistan
on
a1=there's
hm12=part:world
Wallace
b1=unit
Electric
m6=into
Slack
hm2=Homeland
hm12=her:home
m16=to
m2=these
agency
hm12=members:Iraq
in
b0=mr.
b1=either
Development
m7=blair
hanna
m2=guard
b0=man
Guards
m5=is
b0=washington,
hm2=Syria
hm1=173rd
m6=iraq,
hm12=Michael
m15=a
b1=letter
a1=prevent
m16=in
m2=injured
b1=monday
Schroeder
Real
a0=does
a1=sure
hm1=Governor
a1=seven
m3=going
m1=sent
m2=president
hm2=African
hm2=boss
hm12=his:mother
European
hm12=desert:Iraqi
m1=largest
a0=accused
a0=islamic
Hotel
hm12=his:government
jersey
a0=here
b0=half-
m1=marines
a0=didn't
hm12=Gary
hm12=his:doctors
hm2=Minneapolis
hm12=member:UACC
a0=she
b0=here,
m6=tony
m17=to
movement
a1=lost
a1=germany
hm1=Judge
hm12=his:home
b0=including
a1=chirac
m18=and
hm12=you:members
hm1=republican
hm1=parliament
m15=field
m5=qatar
Store
hm1=Gerhard
m2=second
hm2=Nasiriya
a0=instead
hm12=suburbs:Baghdad
hm2=security
m4=korea,
m4=--
hm1=lawyers
a1=several
a1=here.
Republic
a1=marine
m3=i
hm2=grenades
hm2=Tennessee
a0=sunday
club
hm2=fields
b1=me
b1=attack
hm2=carrier
Hang
m2=police
m4=several
type1=GPE-Cluster
m0=resistance
Impact
hm1=Walter
hm1=firm
b1=land
hm2=Department
m1=himself
m11=they
m0=need
Trade
hm12=leader:Palestinian
hm12=U.S:tanks
Calvary
m4=network,
Safety
subtype12=Path:Water-Body
hm12=Jane
hm1=Bill
Marine
m0=including
subtype12=Land-Region-Natural:Celestial
a0=here.
m8=an
hm1=region
hm2=Austin
a1=ambushed
b1=later,
b0=woman
a1=particularly
hm2=trucks
b1=base
Sea
m1=north
b1=happened
hm1=colleagues
Sadler
Assistance
hm2=Vermont
m2=york
hm1=Rula
Air
Valley
a1=show
a1=neighbors,
Management
m2=news
m10=send
a1=sentenced
m4=east
m1=possibly
hm2=bases
m2=has
m10=secretary
hm2=site
hm12=Brent
magazine
hm12=people:Palestinian
hm1=CORRESPONDENT
hm1=passengers
hm12=My:brother
free
hm12=Air
b1=surrendered
a1=here
hm12=his:sons
hm1=building
hm12=she:service
hm1=envoy
hm1=Prime
b1=international
hm12=pilot:base
b0=abandoned
a1=mosul
m3=infantry
a1=control
hm1=protestors
a0=pulled
subtype12=Path:Airport
hm12=troops:Baghdad
type1=Address
area
subtype12=Media:Media
b0=war,
m7=southern
Islamic
Council:UN
b0=meanwhile
hm12=he:home
museum
type1=Celestial
b0=however,
Janata
hm1=giants
subtype12=Indeterminate:Government
b1=month
b0=tikrit,
m1=use
m0=three
hm2=temple
a1=facing
hm2=ships
m1=owns
a1=days
m18=from
hm12=Chancellor:German
a1=six
b0=tell
hm2=Philadelphia
a1=john
m12=of
m0=defense
b1=talk
m0=behind
hm12=you:here
m3=is
hm2=client
hm12=soldiers:US
m1=want
factor
b1=call
m3=states
hm1=mark
m2=left
b0=residential
b1=possible
m0=vice
m7=into
b1=coalition
m2=near
hm2=AIG
fair
b0=only
hm1=fort
hm1=dictator
hm2=employees
b1=state
m8=80
b1=keep
hm2=Baath
m5=was
Muslim
m1=outside
Estate
palace
hm12=your:uncle
a1=killed.
m13=been
b0=likely
Box
hm2=Hebron
hm2=majority
b0=us-led
b0=still
hm1=Blair
hm2=Colorado
hm2=my
hm2=Manhattan
b1=including
b1=small
hm2=pentagon
hm1=Protesters
hm1=intelligence
(ph)
Kut
Marines
hm2=7th
a1=likely
a1=pick
hm12=Prime
a1=holding
hm1=Brent
m6=would
hm12=president:iraqi
b1=much
hm1=television
b0=though
Mechanical
m2=some
subtype12=Nation:Airport
hm2=israel
Memorial
a1=and,
hm1=sites
hm2=council
hm1=european
hm1=Jane
b1=close
m9=co-workers
a0=gerhard
m0=going
a1=fleischer
mosque
hm12=him:compound
m3=members
subtype12=State-or-Province:Building-Grounds
m13=such
m0=spent
hm12=my:car
hm2=University
m1=chief
hm1=radio
b1=i've
hm2=militia
hm2=fleet
m3=know,
caribbean
b0=got
hm1=couple
b1=commanders
m3=during
b0=no
m4=other
hm12=Kevin
hm12=your:state
m4=miles
m3=been
b1=today
a0=they
hm12=BAGHDAD:Iraq
b1=reports
m8=have
m1=control
a1=positions
m7=strip
hm1=militant
m2=inside
m1=biological
b1=apparently
m1=those
m0=returned
m1=serving
m4=president
a0=tom
m2=work
million
hm1=Consulate
hm2=We
hm1=hotel
hm12=terrorist:organization
Ltd
m4=thousands
a1=basra.
hm12=173rd
Jakarta
len
hm12=President:Russian
a0=friday
hm12=my:parents
m2=about
a1=december
a1=fighting
Business
m1=while
junior
m12=help
m0=arrived
bolden
Television
b1=thursday
m3=new
airlines
subtype12=Building-Grounds:County-or-District
m1=palestinian
m0=chief
hm2=Congress
m0=special
m1=only
hm1=guard
b1=office
a1=death
hm2=territory
norial
a1=leader
hm2=firearms
m5=university
Radio
hm1=cameraman
m0=police
b0=yesterday
b1=point
a0=reported
hm2=Asian
b1=summit
b1=way
m4=their
b0=1937,
a1=300
hm12=Secretary:Defense
lion
a1=could
hm2=ministry
hm2=charities
Tuchman
a1=many
m7=for
a0=robert
hm12=jim
m10=from
hm2=girlfriend
a1=november
Delegates
b1=destroyed
m6=he
a0=vivendi
hm2=AZ
m9=his
hm2=basra
hm1=Hussein
a1=apparently
hm12=Secretary:U.S
a1=few
b0=jewish
b0=wonderful
b0=here's
a0=surrendered
Task
m1=down
b0=support
hm12=city:Iraq
a1=year
subtype12=State-or-Province:State-or-Province
hm2=manager
hm1=half
hm2=woman
hm1=gunmen
m7=up
hm2=Fairfax
b1=that,
b0=home
Amin
hm12=officials:British
b1=left
hm2=grandmother
b0=insurance
hm12=you:co-workers
hm2=program
b1=southern
hm12=your:cabinet
hm1=voters
wizards
cross
m5=two
a1=washington.
b0=eight
hm1=George
a1=washington,
command
hm1=citizens
m2=arab
m19=the
hm2=rifles
a0=up
m2=remain
b1=now,
a0=might
a0=donald
hm2=counterpart
hm2=Vietnam
hm2=benton
hm2=modesto
hm2=NOAA
b1=across
m0=mostly
hm1=directors
subtype12=Building-Grounds:State-or-Province
hm1=courthouse
subtype12=Nation:Celestial
Asian
hm12=capital:Iraqi
subtype12=Path:Nation
hm1=edge
subtype12=Path:Region-General
hm1=headquarters
hm1=areas
subtype12=Nation:Continent
hm1=port
Creek
subtype12=Land-Region-Natural:Nation
hm12=border:Iraq
subtype12=Population-Center:State-or-Province
subtype12=Subarea-Facility:Building-Grounds
subtype12=Path:Path
hm12=hospital:Paris
type1=County-or-District
subtype12=Region-General:State-or-Province
subtype12=Region-International:Celestial
type1=Subarea-Facility
hm1=possessions
hm1=heart
hm12=border:Iraqi
hm12=center:city
hm1=neighborhood
a0=(ap)
subtype12=Nation:GPE-Cluster
subtype12=Nation:Region-International
hm1=room
subtype12=Airport:Nation
subtype12=Population-Center:Nation
m2=east
hm2=Umm
hm2=Kuwait
Petersburg
a0=tuesday
hm2=jail
a1=week,
hm2=Saint
m0=inside
hm2=planet
Qasr
hm2=desert
hm2=d.c
Province
harbor
hm1=all
hm2=Tel
Airport
angeles
diego
b0=army
b1=live
field
hm2=asia
hm2=south
a1=officials
hm2=Pakistan
hm2=mars
hm2=los
hm2=virginia
hm2=street
m11=to
b0=service
m0=across
base
hm2=gaza
m0=such
hospital
Aviv
b1=al
Africa
b1=iraqi
a1=central
a1=thursday
a1=take
type2=Population-Center
Bank
a1=now
b1=an
a0=as
b0=other
a1=a
m0=of
dist=1
dist=2
dist=3
b0=a
a0=.
a0=,
mtype12=NOM:NOM
mtype12=PRO:NOM
b1=the
b0=the
s2=7
s2=9
s2=3
s2=4
s2=0
s2=1
a1=the
s3=1
s3=2
a0=and
m1=the
a0=in
b0=of
s1=4
s1=2
s1=1
mtype12=PRO:NAM
mtype12=NAM:NAM
b1=to
b0=and
m0=and
b0=to
b1=of
m1=to
mtype12=NOM:NAM
s1=5
b1=and
b0=--
a1=to
a0=for
m0=,
mtype12=NOM:PRO
a0=is
m0='s
mtype12=NAM:NOM
b1=a
m2=a
a0=that
m4=of
a0=of
m3=of
dist=4
m3=the
m2=the
b1=by
a1=and
a1=in
a0=from
a0=were
a0=has
b1=that
b0=that
a1=not
a0=to
a1=said
b1=on
b0=by
b1=with
b1=for
b1=is
b1=in
m5=the
a1=which
m8=the
m1=in
b1=from
m0=is
b0=on
b0=in
a0=with
m0=in
b1=at
a0=last
m0=have
a0=after
a1=his
a1=that
a0=on
a1=he
b0=as
m2=of
m6=the
a0=?
a1=been
m1=a
m3=a
a1=was
m5=and
m0=was
a0=at
b0=some
b0=three
a1=we
b1=as
a1=some
a1=were
a1=with
a0=have
m2=and
hm1=one
b0=with
m1=and
a0=had
b0=from
s2=2
b1=most
b0=an
a1=on
a1=has
States
a1=more
a1=i
a1=have
b0=many
a1=it
b1=their
a1=their
a1=be
b1=out
a0=will
hm1=your
a0=are
b1=some
m0=for
b1=but
a1=had
hm2=its
b1=least
b1=than
a1=at
a0=a
b0=at
m3=and
m2=on
m11=the
m4=a
m7=and
a1=baghdad
m0=at
m9=of
a0=which
a1=but
mtype12=NAM:PRO
a1=other
a1=no
of
m1=british
University
a1=from
b1=how
a1=two
b1=u.s.
Union
a1=new
hm2=school
b1=outside
m5=a
m5=of
hm1=their
m4=in
m5=that
hm2=house
m0=-
b0=major
b1=which
a1=you
b0=small
hm2=Israel
hm2=San
Francisco
m4=war
a1=monday
hm2=Indonesia
county
hm2=North
hm2=London
hm2=city
hm2=iraq
type2=State-or-Province
hm2=Iraq
type2=Nation
a1=as
type12=ORG:GPE
York
hm2=New
a1=about
type2=Continent
hm2=countries
hm2=Florida
hm2=Palestinian
hm2=South
b0=six
hm2=Virginia
type2=Special
hm2=Russian
hm2=new
type2=County-or-District
hm2=country
a0=who
hm2=Iraqi
hm2=United
hm2=state
a1=where
hm2=Washington
a1=southern
International
hm2=Central
b1=top
m0=would
b1=even
type2=Educational
b1=only
hm2=district
hm2=town
hm2=baghdad
type2=Region-General
york
hm2=chicago
hm2=Japan
hm1=which
b0=oil
a1=friday
m8=her
hm2=what
m0=here
hm2=compound
hm2=apartment
air
b1=around
hm2=road
hm2=building
a1=may
m2=all
hm2=location
b1=over
a1=close
b1=hotel
b1=had
hm2=hotel
m2=are
b1=miles
b0=her
house
hm2=white
hm2=home
b0=same
b1=first
b0=any
b1=captured
a0=...
a1=u.s.
a0=where
b1=about
b0=when
b0=his
a0=was
a1=they
m0=are
a0=because
a1=she
a1=one
m2=in
m4=the
b1=this
m1=an
m0=the
m1=u.s.
b0=this
m0=to
a1=of
a0=or
b1=was
m0=on
m0=from
a1=there
m1=on
m1=that
m5=to
a0=."
m1=of
b0=palestinian
b1=i
a0=there
b1=into
b0=one
hm2=here
a1=--
a1=is
b0=have
b1=one
b1=three
m4=and
a0=but
m3=in
b0=those
b1=those
hm2=that
a0=,"
a0=--
b0=is
b0=was
b1=all
hm1=Saddam
m0=has
b1=are
b0=all
m6=to
a0=took
a0=over
a0=also
b0=my
hm12=Saddam
a0=_
b0=claimed
a0=could
b1=us
a1=killed
a0=and,
a1=going
a1=an
a0=since
m6=in
m1=are
a1=being
b1=army
a1=just
b0="
a0=-
m2=out
m2=iraqi
a0=when
m1=with
m0=with
hm2=one
a0=right
m6=and
m4=to
m7=the
m2=with
m3=iraqi
b1=up
hm2=office
type2=Building-Grounds
m1=one
m9=the
hm2=center
b1=military
b1=british
m7=on
m1=be
a1=by
a1=week.
m10=and
b0=``
b1=our
b1=now
b1=other
b1=talks
b1=her
b1=it
m10=of
m3=at
m8=and
a1=they're
b0=which
a1=getting
a1=back
m0=also
b1=that's
a0=during
b1=troops
m1=was
b0=five
b1=there
a0=near
b1=hit
b1=near
hm2=area
a0=the
m4=from
hm2=station
b0=our
m1=from
m3=this
hm2=part
hm1=some
b1=then
m1=including
m1=this
type2=Airport
hm2=airport
hm2=buildings
international
airport
hm2=mosque
type2=Subarea-Facility
m1=near
type2=Path
b1=republican
b0=guard
m3=to
hm2=camp
b0=another
hm12=saddam
hussein
hm1=saddam
m2=an
m1=by
b0=main
b1=its
b0=international
m3=his
m6=with
m4=was
b1=both
m3=other
a1=then
a1=come
m12=a
b0=your
hm2=saddam
b1=took
a0=while
m0=all
m6=or
b1=get
m0=into
m1=over
m1=as
hm2=Germany
a1=week
a1=however,
m4=on
hm2=florida
city
m5=at
m1=i
m1=there
a0=tonight.
b1=security
hm2=France
a1=iraq's
a1=baghdad,
Carolina
Virginia
hm2=Indiana
hm2=Pennsylvania
hm2=Illinois
m1=new
hm2=Arkansas
hm2=Jordan
b1=far
hm2=Singapore
m5=from
hm2=there
hm2=West
a1=baghdad.
b1=another
hm2=Turkey
a1=saying
type2=GPE-Cluster
hm2=Texas
hm2=where
a1=do
hm2=Iran
hm2=Russia
b0=said
a0=this
b0=several
b1=have
b0=uh,
m1=iraq's
b1=um,
b0=where
a1=north
b0=military
a1=troops
a1=northern
Center
b1=control
a1=iraq
b1=along
a1=now.
m7=at
b1=because
hm2=washington
River
hm2=Los
m2=new
hm2=Moscow
Angeles
hm2=Atlanta
hm2=atlanta
hm2=Spain
a0=.,
b0=state
hm2=America
b1=has
a0=if
hm1=Most
m2=western
m1=he
a1=than
a1=because
a1=if
a1=three
m1=her
a0=called
House
m1=international
a0=killed
b0=police
a1=iraq.
a0=early
Medical
m2=military
a0=making
a1=florida.
hm2=california
hm2=Fallujah
m0=out
hm2=texas
hm2=neighborhood
beach
Island
a1=hebron,
hm2=region
hm2=Wisconsin
hm2=California
hm2=capital
m1=southern
hm2=Boston
m3=bank
hm2=earth
type2=Celestial
type2=Region-International
City
m0=around
hm2=suburbs
hm2=Baghdad
a0=got
b0=their
a1=west
hm2=land
hm2=states
hm2=world
hm2=london
a1=coalition
a1=well
a0=all
b1=i'm
b1=arrested
m3=miles
hm2=outskirts
type2=Land-Region-Natural
m15=in
type2=Boundary
b0=cnn
hm2=border
Strip
type2=Water-Body
m3=baghdad
m0=near
m4=southern
hm2=highway
m0=today
m2=west
b0=southern
m1=northern
m2=were
hm2=Gaza
bank
a1=basra,
m5=west
Square
b0=kurdish
m0=when
m2=northern
hm2=Basra
hm2=Jerusalem
hm2=west
Gulf
b0=its
m0=just
m2=was
b0=central
m1=just
Hood
hm2=germany
hm2=Paris
b0=northern
hm2=Najaf
b1=off
hm2=Canada
m8=in
a1=whose
a0=about
m2=um,
m7=in
b0=into
national
3
b0=little
a1=it's
hm2=park
Bay
hm1=washington
hm1=plant
hm2=Malaysia
hm1=parts
hm1=Security
hm12=Security
hm1=house
b0=off
a1=british
a1=would
a0='s
a1=are
a1=including
Korea
Army
type12=ORG:ORG
type1=Nation
m0=air
type1=Medical-Science
hm1=school
type1=Media
type1=Commercial
m1=main
a1=while
hm2=USA
a1=iraq,
hm2=Turkish
hm2=maryland
hm2=Chinese
hm2=Canadian
hm2=British
hm2=U.S
East
hm2=US
hm2=iraqi
hm2=our
hm2=American
b0=top
a1=thanks
a1=will
hm2=China
hm2=Britain
b0=new
a0=would
hm1=board
hm2=European
type12=GPE:GPE
subtype12=Nation:Nation
hm1=hospital
type12=FAC:GPE
b1=through
subtype12=Building-Grounds:Population-Center
type1=Building-Grounds
subtype12=Medical-Science:Nation
hm1=parks
subtype12=Commercial:Population-Center
hm1=office
hm1=court
hm1=bureau
m1=second
hm1=part
hm1=country
hm1=coast
hm1=North
hm12=North
hm1=nation
hm1=Iraq
a1=used
a1=use
a1=kurdish
b1=forces
m0=own
b1=right
b1=these
b1=israeli
b1=down
hm2=them
m0=former
a1=american
a1=out
m1=my
b1=inside
b1=got
a0="
b1=where
hm1=countries
hm1=home
hm1=city
type1=Population-Center
b0=near
type12=GPE:FAC
hm2=complex
type1=Special
type1=State-or-Province
hm1=it
m1=off
b0=up
hm1=Russia
hm1=state
b1=home
m0=s
type2=Land
a1=state
hm2=museum
m2=united
hm2=Saudi
carolina
m3=mexico,
hm1=center
hm2=Connecticut
hm2=Arizona
hm1=rest
a1=police
b0=local
District
hm2=Indian
hm2=Japanese
hm2=Georgia
b0=large
a0=remain
b0=air
b0=presidential
m1=most
County
b0=key
hm2=their
m0=should
a1=like
a1=according
American
b1=new
a0=just
hm2=Egypt
b0=outside
b1=fighting
m1=central
a1=others
hm2=Middle
hm2=Maryland
b0=not
a1=i'm
hm2=Alabama
hm1=bridge
hm1=village
hm1=field
hm1=airport
type12=LOC:LOC
hm1=capital
hm1=cities
hm1=town
hm1=border
al-Balah
type12=LOC:GPE
subtype12=Region-General:Nation
type1=Boundary
hm1=fields
hm1=base
type1=Region-International
subtype12=Region-General:Population-Center
type1=Land-Region-Natural
hm2=edge
type12=LOC:FAC
hm1=highway
subtype12=State-or-Province:Nation
subtype12=Building-Grounds:Boundary
subtype12=Water-Body:Nation
subtype12=Population-Center:Population-Center
hm1=streets
subtype12=Building-Grounds:Nation
m2=southern
type1=Airport
hm1=bridges
subtype12=Population-Center:Region-General
type1=Region-General
hm2=junction
subtype12=Airport:Population-Center
type1=Plant
type1=Path
hm1=complex
type1=Water-Body
subtype12=Airport:Region-General
type12=GPE:LOC
hm12=base:border
hm1=area
subtype12=Path:Population-Center
subtype12=Region-General:Region-General
hm1=site
subtype12=Land-Region-Natural:Population-Center
type12=FAC:FAC
hm1=road
subtype12=Boundary:Nation
subtype12=Building-Grounds:Building-Grounds
subtype12=Building-Grounds:Path
hm1=suburbs
hm1=outskirts
type12=FAC:LOC
m2=iraq
b1=held
school
high
hm1=houses
subtype12=Building-Grounds:Region-General
hm1=stations
b0=each
African
hm1=states
a1=friends
a0=received
b0=high
hm12=Yasser
stock
m1=itv
m7=out
m3=southern
m2=been
m3=paris
m3=out
hm1=Yasser
m1=gathered
H.
m2=into
b0=ground
hm2=Afghanistan
m9=israeli
Arafat:hospital
hm2=sea
hm12=who:there
m2=through
m1=back
hm2=kuwait
hm12=he:hospital
hm12=people:here
hm12=troops:where
exchange
subtype12=Indeterminate:Region-General
subtype12=Indeterminate:Building-Grounds
hm12=they:there
m11=of
m4=city
m1=reached
m4=prime
hm2=china
m0=died
subtype12=Indeterminate:Population-Center
m4=bizy
m12=at
m5=were
Woodruff
Lounge
b0=secretary
hm12=Judy
Woodruff:Washington
m2=news,
m5=minister
m3=british
hm12=he:prison
hm2=Rwanda
b0=egyptian
hm1=body
b1=take
m13=and
hm1=police
b1=american
m3=--
b0=give
hm1=forces
a1=this
type1=Group
hm1=they
m0=that
type1=Government
s2=5
b0=iraqi
m2=to
type12=PER:GPE
m7=of
hm1=force
hm1=groups
b1=--
a1=who
b0=for
a0=said
b1=after
b1=said
a1=into
a0=today
hm1=our
type12=PER:ORG
a0=,''
a0=)
b1=or
m0=had
b0=two
hm1=guys
a1=before
hm1=unit
dist=5
hm1=units
b0=british
and
b1=say
b0=u.s.
m1=into
Division
Infantry
b0=about
m1=have
hm12=3rd
hm1=team
hm1=3rd
b1=saying
m3=by
Airborne
b0=how
a1=for
m2=for
m1=more
hm1=american
m9=and
m5=in
type1=Non-Governmental
hm1=us
m3=an
m6=of
a0=like
s2=8
m0=went
m4=out
hm1=7th
b1=every
m1=war
b1=no
hm1=101st
hm12=7th
hm12=101st
m1=foreign
b0=retired
subtype12=Group:State-or-Province
b0=now
a0=saying
subtype12=Government:Nation
hm2=u.s
m1=us
b1=(xinhua)
b0=four
b0=senior
a0=says
type2=Government
type2=Non-Governmental
b0=(ap)
m1=--
subtype12=Government:Population-Center
a1=washington
m14=and
a0=by
b1=be
a1=called
b1=life
a0=only
b1=(afp)
states
b0=told
a0=gave
hm2=U.N
Nations
a1=tuesday
a1=told
a0=may
b0=or
m1=defense
a1=ever
b1=would
hm2=unit
b1=(ap)
Cavalry
hm2=coalition
b1=time
b0=be
b1=they
m4=for
m1=now
b1=any
b1=who
type1=Entertainment
b0=1,000
m2=home
hm2=schools
hm12=I:home
m5=this
m0=up
b0=ship
m3=has
m3=their
hm2=palace
b1=police
hm1=crew
m3=forces
hm2=field
m4=up
m2=use
subtype12=Individual:Subarea-Facility
m6=they
m1=arrested
hm2=ranch
subtype12=Government:Building-Grounds
subtype12=Non-Governmental:Building-Grounds
m0=captured
hm2=checkpoint
type12=ORG:FAC
a0=across
m5=as
hm2=prison
m2=control
hm2=facility
m1=killed
m11=in
subtype12=Individual:Path
m1=fought
m3=that
m21=of
m3=or
one
m7=by
hm2=homes
m0=make
m0=abandoned
subtype12=Group:Subarea-Facility
type12=PER:VEH
hm1=iraqis
m1=able
m1=already
m1=what
subtype12=Group:Subarea-Vehicle
m11=a
type2=Subarea-Vehicle
m7=or
m14=as
hm1=marines
hm2=place
m0=do
m15=the
m1=allowed
a1=even
b0=-
hm1=pilot
b1=-
hm12=I:here
m5=for
m4=or
b1=reporter:
m1=get
m12=the
a1=fire
m5=on
b0=until
a1=he's
m0=took
b0=seven
b0=israeli
hm1=executive
hm2=hospitals
a1=los
m2=air
hm1=militia
m2=back
a0=within
m6=at
hm2=store
m1=worked
m0=now
b0=believe
m1=our
m1=out
hm1=personnel
hm1=casualties
b1=killed
a0=outside
a0=today.
b1=attacks
b1=against
b1=it's
hm1=man
b1=air
a0=than
subtype12=Individual:Population-Center
subtype12=Group:Population-Center
a1=or
hm1=members
hm1=I
type1=Individual
hm1=who
hm1=you
hm1=his
hm1=he
m2=as
m0='re
hm1=troops
b0=these
m8=of
hm1=son
b1=so
b0=are
hm1=He
b0=while
b1=here,
a0=so
a1=also
a0=into
b0=iraq,
b1=when
a1=so
b1=know
b1=bush
m1=his
a0=back
b1=he's
hm1=member
hm1=people
type1=Indeterminate
hm1=my
mtype12=PRO:PRO
m0=--
Hussein
m3=with
hm1=men
hm1=You
a1=after
hm1=she
b1=you
hm1=fighters
hm1=officers
b1=still
hm1=terrorist
hm1=commanders
b1=several
b0=had
hm1=officials
a0=we
hm1=women
hm1=sister
b1=we
b1=pictures
b1=not
m8=a
a1=all
b1=two
hm1=friend
a0=once
m3=be
b1=whether
a1=saddam
hm1=sailors
b0=chinese
a0=shortly
b1=baghdad
m5=iraqi
m10=in
m1=about
hm2=hospital
m1=is
b0=but
b1=his
dist=6
m4=by
m4=that
m1=been
m1=not
m7=to
hm1=soldiers
m1=who
m0='ve
subtype12=Individual:Building-Grounds
hm2=court
dist=7
hm1=Marines
a1=iraqi
type12=PER:FAC
m6=a
a0=i
m0=who
m1=iraqi
b0=coalition
b1=just
m9=to
m9=a
m16=a
b1=back
hm1=person
m1=at
b0=after
b1=day
b1=marines
b0=time
m2=american
m0=said
b0=say
b1=four
m0=could
a1=already
hm1=someone
b0=if
b0=because
m2=have
a0=before
b0=know,
b1=russian
m1=got
m4=his
b1=people
b0=reporter:
hm1=her
b0=do
m2=be
m8=to
a0=charged
m5=--
hm1=pilots
a1=taking
m1=some
hm1=officer
b1=being
hm1=president
a0=inside
b0=then
b0=says
b0=both
b0=once
m2=by
hm1=boys
b0=during
m1=these
a0=out
m3=up
b0=since
a1=her
m0=already
m7=from
m1=public
hm1=him
m0=did
hm2=restaurant
m0=ran
b1=men
m9=in
m0=am
m4=so
m1=inside
m0=there
hm1=residents
m4=were
hm1=enemy
m1=women
hm1=gunman
b0=suicide
m1=live
hm1=we
hm1=journalists
b0=yeah,
hm1=bomber
m10=the
m1=up
m3=from
m3=have
m0=a
a0=along
m2=that
a1=what
m0='ll
b0=president
hm1=They
hm1=terrorists
hm1=civilian
b1=palestinian
m8=be
hm1=bush
hm1=everybody
a0=he
hm1=Sharif
b0=young
hm1=parents
a1=them
hm1=family
b1=could
hm1=them
hm1=kid
a1=saddam's
subtype12=Group:Airport
subtype12=Group:Building-Grounds
m0=back
subtype12=Group:Path
m4=an
m2=now
hm2=bridge
m0=opened
m6=on
hm2=room
m8=iraqi
m5=by
m9=from
hm1=demonstrators
m0=blew
subtype12=Individual:Airport
hm2=courthouse
m3=outside
hm2=streets
m2=baghdad
hm2=residence
hm2=base
m0=get
m1=fire
hm2=embassy
m1=two
hm1=We
m3=on
m1=had
m7=a
hm1=anyone
m2=up
m5=are
m18=the
m0=were
m14=the
m2=us
m10=a
m1=taken
m2=over
m15=as
hm1=Iraqi
hm1=American
a1=my
b0=so
m0=will
a0=!
b0=army's
m5=with
m1=take
m4=be
m0=can
m2=going
m1=several
m2=this
b0=know
b0=before
m4=with
b1=will
hm1=Bush
hm1=wife
b1=go
m10=to
m13=of
hm1=Iraqis
hm2=headquarters
m8=on
m10=with
a0=until
b1=city
m1=three
m11=and
hm1=baby
b0=perhaps
a1=located
b1=going
m3=two
hm1=mother
b0=let
m12=and
m6=out
m19=a
m0=may
m7=with
m0='d
hm1=professor
hm2=Pentagon
a0=reports
b0=more
hm2=Seoul
press
b0=minister
hm1=Kelly
hm1=ministers
hm1=President
dist=8
hm1=inspectors
m2=korean
hm12=Tim
hm1=Martin
a1=moving
hm1=Minister
hm1=general
Chilcote
b0=prime
b0=baghdad,
hm1=jim
hm1=correspondent
hm12=you:there
b1=senior
hm12=Greg
Jersey
hm12=I:there
b1=last
hm1=judge
hm1=mike
hm12=mike
hm1=commandos
Ewart
Milam
hm12=Ryan
m10=at
hm1=Richard
m7=u.s.
hm12=Martin
hm1=Tim
hm2=north
hm12=Richard
hm12=people:there
b1=meet
hm1=Ryan
hm2=FL
hm12=officials:hospital
subtype12=Group:Special
m0=(ph)
subtype12=Individual:Continent
subtype12=Individual:Special
b0=i'm
subtype12=Individual:GPE-Cluster
subtype12=Group:Continent
b1=like
hm1=experts
b0=million
hm1=teacher
b1=well,
hm1=Greg
hm1=governor
hm1=scientist
hm1=counterpart
a0=monday
subtype12=Individual:County-or-District
hm1=workers
hm1=soldier
m2=you
a1=mahmoud
a0=do
hm1=journalist
hm1=doctors
subtype12=Group:GPE-Cluster
hm1=civilians
hm1=judges
m2=from
hm1=reporters
b0=american
hm2=village
subtype12=Individual:State-or-Province
hm1=that
b1=between
m1=uh,
subtype12=Individual:Nation
subtype12=Group:Nation
a1=texas,
b0=armed
b0=foreign
b1=he
a0=named
b0=first
a0=died
a0=get
m1=for
a1=trying
hm1=community
hm1=reporter
a0=say
subtype12=Individual:Government
b1=she
b0=what
m6=for
hm1=official
b1=also
hm1=leaders
hm1=sources
hm1=lawmakers
hm1=representatives
a1=allowed
m2=former
subtype12=Individual:Non-Governmental
m0='m
b1=former
hm1=leader
m0=lives
b1=lot
b1=told
a0=told
b1=thousands
a0=tell
a0=around
b1=fact
hm12=Karl
m0=coming
a0=found
m2=south
hm12=gary
m0=over
hm1=Karl
tuchman
hm1=gary
Penhaul
m3=was
hm2=Hong
Kong
b1=iraq,
hm12=John
hm1=John
m2=u.s.
hm1=elements
b0=us
m2=time
m2=at
m2=had
m1=it
m0=by
hm2=united
a1=time
hm12=forces:Iraq
a1=us
b0=u.n.
b0=most
hm1=teams
a0=made
university
hm1=CEO
m1=you
hm1=employees
b1=were
m0=works
hm1=Putin
m2=i
hm1=minister
m2=--
m0=work
hm1=spokesman
m2=two
b1=what
m0=got
b0=think
m0=go
m15=to
a1=bush
hm1=chairman
b1=days
b0=board
hm1=Jeff
hm1=diplomats
b0=security
b1=plo
hm2=White
m3=army's
hm1=ambassador
hm1=ambassadors
b0=deputy
m8=for
m7=was
b0=leader
hm12=Jeff
m1=saddam's
hm2=church
b1=my
b1=should
m4=over
a1=very
hm12=michael
hm1=michael
hm1=head
hm2=National
m3=for
a1=found
b1=meeting
hm1=husband
m0=first
hm1=bill
a0=ordered
b0=see
a1=go
m1=your
subtype12=Group:Educational
m4=at
m8=at
hm2=college
b1=hundreds
hm1=players
b1=saturday
m1=kurdish
a1=how
m0=started
m1=still
m0=joins
subtype12=Group:County-or-District
m0=home
hm1=prisoners
hm12=I:New
m1=were
m0=live
m5=out
hm1=child
a1=outside
subtype12=Indeterminate:Nation
hm1=babies
hm12=people:Iraq
b1=hi,
hm2=hometown
m0=still
hm1=Judy
subtype12=Individual:Celestial
hm1=defenders
subtype12=Group:Celestial
b1=news
hm1=Muslims
subtype12=Group:Region-International
hm2=Chamchamal
subtype12=Individual:Region-General
m0=within
b0=130
m1=around
hm2=Pittsburgh
subtype12=Individual:Region-International
hm1=protesters
subtype12=Group:Region-General
type12=PER:LOC
hm1=brother
m0=as
hm1=boy
m1=their
m0=close
England
m1=which
hm1=group
a0=known
hm1=two
hm1=i
hm1=patients
b0=sergeant
b1=don't
a0=did
b0=people
hm1=militants
a1=want
hm1=woman
hm1=father
hm1=students
hm1=friends
hm12=David
hm1=David
a0=live
hm1=families
hm1=girl
hm1=daughter
hm1=children
m2=family
hm1=bombers
m0=came
hm1=Kurds
hm12=forces:Baghdad
m1=south
m2=around
subtype12=Individual:Land-Region-Natural
m13=on
hm12=forces:city
subtype12=Group:Water-Body
hm12=they:Baghdad
m0=come
hm2=mall
hm2=Camp
Ali
m2=outside
hm2=Karbala
m0=where
subtype12=Group:Land-Region-Natural
hm12=troops:Iraq
hm12=forces:baghdad
David
b0=cnn's
m6=an
m3=now
subtype12=Group:Boundary
m1=cnn,
subtype12=Individual:Water-Body
hm2=Persian
m2=is
hm1=me
m6=iraqi
m4=two
a1=working
m3=into
a1=see
m4=iraqi
m2=his
m17=the
m5=family
m1=going
hm2=jerusalem
DC
hm2=Beijing
m6=vice
m4=president,
m12=in
hm2=Houston
a1=people
m13=the
m0=travel
National
Defense
b1=officials
m16=the
m1=go
m3=president
m2=political
a1=discuss
Arafat
a0=next
hm1=student
b1=hussein
b0=like
hm1=She
a0='re
hm1=Giuliani
hm2=Saddam
m0=two
Bush
W.
m12=to
hm1=Toefting
a1=captured
m1=being
b1=time,
m14=in
b1=house
hm1=Clinton
m1=left
m1=we
b0=take
hm1=Jessica
m0=gave
Lynch
b0=family
m8=that
m1=birth
a1=him
a1=serving
m3=as
hm1=shareholders
m6=from
m1=moved
m0=found
m13=a
bin
hm12=Foreign
subtype12=Sports:Educational
hm12=Army:U.S
subtype12=Media:Commercial
subtype12=Government:Special
subtype12=Entertainment:Commercial
a0=spokesman
a0=forces
hm12=military:US
subtype12=Non-Governmental:Non-Governmental
hm1=Foreign
hm1=agency
hm1=navy
hm1=Navy
m1=theme
b1=korea
hm1=Marine
department
Agency
hm1=Republican
m0=.
b1=states
Guard
Force
guard
Command
Korean
hm1=military
Central
hm2=department
Brigade
type2=Commercial
a1=up
a0=went
hm2=which
hm1=Army
m0=oil
hm1=company
hm1=Central
hm12=Central
hm12=Republican
hm1=regime
type1=Educational
hm1=army
hm1=industry
hm1=government
type1=Sports
the
hm1=companies
b1=give
a0=goes
m0=new
hm2=State
hm2=U.S.
Cavalry:U.S.
hm2=u.n
hm12=forces:U.S
Affairs
hm2=Foreign
hm2=army
a1=quoted
hm12=military:Iraqi
News
Department
hm2=Indonesian
hm2=british
hm2=israeli
b1=baghdad,
b0=(afp)
hm2=Israeli
hm1=division
m0=news
hm2=american
b0=interim
b1=think
hm2=we
a1=when
m0=security
subtype12=Group:Government
a0=said.
b0=former
b0=against
b1=according
type2=Religious
type2=Media
hm2=Republican
hm2=government
m1=first
hm1=administration
Institution
subtype12=Government:State-or-Province
League
Studies
Council
division
for
Strategic
a1=another
Party
Universal
m0=foreign
a0=should
hm2=team
a1=given
a0=face
m1=former
Ministry
hm2=Army
hm12=divisions:Republican
hm2=parliament
Authority
Staff
subtype12=Government:Government
a1=both
hm2=force
hm2=party
hm1=committee
Committee
Court
Forces
Chiefs
m1=special
a1=refused
Relations
hm2=military
hm1=divisions
hm2=Senate
type2=Entertainment
subtype12=Group:Commercial
hm2=company
hm2=republican
type2=Sports
b0=seen
hm2=Vivendi
Interactive
School
hm2=Harvard
hm2=network
hm2=Auburn
m0=-based
subtype12=Non-Governmental:Nation
hm1=department
subtype12=Non-Governmental:Population-Center
type1=Religious
Command:U.S
subtype12=Media:Nation
hm1=organization
hm1=arm
type12=ORG:LOC
a1=universal
hm1=business
hm12=military:U.S
hm1=club
subtype12=Sports:Nation
hm1=operations
hm1=Center
hm12=army:Iraqi
hm1=Court
hm1=media
Institute
m0=operates
subtype12=Commercial:Nation
hm2=House
subtype12=Sports:Sports
Appeal
hm2=UN
hm2=corporation
b1=usa
hm2=Carnival
subtype12=Commercial:Commercial
b0=interactive,
hm2=plane
type2=Biological
hm2=guns
type2=Underspecified
hm12=royal
m2=nuclear
hm2=boat
hm2=ammunition
Korea:weapons
hm2=vehicles
hm2=tanks
hm2=weapon
m1=nuclear
subtype12=Commercial:Water
type12=PER:WEA
hm2=planes
subtype12=Government:Water
hm1=iraqi
subtype12=Group:Exploding
subtype12=Sports:Land
subtype12=Nation:Land
hm1=IT
hm2=convoy
hm1=u.s
hm2=missiles
hm12=its:weapons
subtype12=Individual:Air
hm2=bus
hm2=bombs
hm2=cars
subtype12=Nation:Projectile
type12=ORG:VEH
hm2=jet
hm12=they:them
hm2=helicopter
hm1=coalition
hm2=weapons
hm2=bomb
subtype12=Nation:Water
ship
m1=fly
subtype12=Group:Shooting
type12=ORG:WEA
subtype12=Nation:Building-Grounds
subtype12=Nation:Air
subtype12=Government:Underspecified
subtype12=Nation:Shooting
subtype12=Nation:Path
subtype12=Commercial:Building-Grounds
type12=GPE:WEA
hm2=missile
hm2=helicopters
hm2=arms
subtype12=Group:Projectile
subtype12=Nation:Nuclear
subtype12=Commercial:Land
hm12=it:weapons
hm2=rifle
subtype12=Nation:Exploding
hm2=submarine
m3=chemical
subtype12=Individual:Shooting
subtype12=Group:Land
hm2=artillery
hm2=deck
type2=Shooting
subtype12=Nation:Underspecified
subtype12=Individual:Land
hm1=royal
hm12=their:weapons
subtype12=Group:Water
subtype12=Government:Land
hm1=israeli
hm1=Russian
type2=Chemical
subtype12=Individual:Exploding
subtype12=Media:Building-Grounds
type2=Nuclear
hm2=WEAPONS
hm2=warplanes
subtype12=Individual:Water
hm2=carriers
subtype12=Individual:Subarea-Vehicle
hm12=IT:WEAPONS
subtype12=Government:Air
a1=mass
type12=GPE:VEH
subtype12=Group:Underspecified
hm2=vehicle
subtype12=Individual:Underspecified
subtype12=Group:Air
b1=abandoned
force
hm1=mayor
m0=armed
b0=19-year-old
b1=iraq
b0=were
m0=military
a0=moved
hm1=doctor
b1=northern
b1=do
m0=intelligence
b1=many
b1=_
a1=inside
a1=make
m3=south
m0="
m14=to
m1=or
b0=between
b1=well
b0=whether
b1=six
a1=still
a0=came
subtype12=Individual:Commercial
hm1=managers
type2=Medical-Science
hm1=player
hm1=Arab
hm1=own
m3=small
a1=since
b1=know,
m0='
hm1=British
hm1=its
b1=see
space
hm2=ones
hm1=owner
hm2=ship
hm2=houses
hm1=U.S
b0=why
hm2=it
hm1=founder
type2=Exploding
type2=Water
hm2=aircraft
hm2=car
type2=Projectile
type2=Air
hm2=tank
hm1=Director
hm1=source
hm12=forces:American
hm12=President:U.S
hm12=troops:British
hm12=officials:U.S
hm12=Marines:U.S
hm2=NBC
hm12=officials:government
m1=u.n.
hm12=officials:Pentagon
hm12=analyst:our
hm2=Military
hm2=Defense
hm12=forces:coalition
a0=moving
hm2=navy
hm2=enron
hm1=Chancellor
hm12=troops:Israeli
hm12=officials:American
hm12=official:U.S
hm12=Secretary:State
subtype12=Group:Medical-Science
a0=tony
hm12=troops:our
hm12=president:our
hm12=troops:coalition
hm12=chief:police
hm1=executives
a1=w.
hm2=CNN
m0=prime
hm2=CIA
b1=while
a1=powell
State
hm1=authorities
b1=uh
hm12=forces:u.s
hm12=your:company
hm12=inspectors:U.N
hm12=troops:Iraqi
hm12=forces:British
hm12=officials:u.s
hm12=marines:u.s
a0=george
a1=well-run?
hm1=Ambassador
hm2=ITN
hm2=ITV
a1=toward
hm12=officials:Iraqi
hm12=President:US
army
hm12=officials:US
hm12=soldiers:U.S
hm12=correspondent:our
hm1=diplomat
hm12=soldiers:Iraqi
hm12=correspondent:CNN
hm12=official:US
hm2=cnn
hm12=officials:military
hm12=officials:South
a0=colin
hm12=secretary:state
hm12=troops:u.s
m3=states,
hm2=fbi
hm2=EU
hm12=President:Iraqi
hm12=troops:U.S
Chilcote:CNN
a1=attended
hm12=Minister:British
hm12=officials:Palestinian
hm1=analyst
hm1=scientists
hm1=editor
hm12=troops:American
b0=tuesday,
hm12=officers:police
a0=saddam
a1=blair
a1=hussein
hm1=politicians
hm12=his:state
a1=under
hm2=German
hm2=palestinian
hm12=forces:Iraqi
state
hm2=Kurdish
hm2=nation
type2=Group
a0='
hm2=Our
a0=john
hm2=forces
hm1=lawyer
m0=political
subtype12=Group:Group
type12=PER:PER
b1=members
hm1=candidate
hm1=Kurdish
hm12=leader:Iraqi
subtype12=Individual:Religious
subtype12=Group:Media
hm2=groups
hm1=Senator
b0=(
a1=uh,
hm2=group
Hussein:regime
hm2=regime
subtype12=Group:Non-Governmental
b0=well,
hm2=police
hm2=board
Education
Parenthood
hm2=French
news
a0=said,
Cross
Services
War
a0=general
m1=insurance
a0=work
hm12=members:board
b1=appointed
hm1=adviser
m2=british
hm1=Erdogan
a0=vladimir
hm2=3rd
hm1=commander
hm1=secretary
hm2=committee
hm1=His
b0=now,
a0=still
a1=putin
hm2=they
hm12=officials:administration
subtype12=Group:Religious
security
a1=arafat
hm2=Justice
hm12=members:regime
hm1=chief
hm1=director
m0=senior
Press
hm12=leader:PLO
a0=yasser
hm1=attorney
hm2=Toyota
hm2=USCF
Intelligence
Security
hm1=leadership
hm2=Joint
hm2=Navy
hm2=Center
hm1=Secretary
b0=chief
hm2=Hamas
hm2=PLO
subtype12=Individual:Entertainment
hm2=imclone
subtype12=Individual:Educational
hm2=organization
hm2=administration
subtype12=Individual:Sports
hm2=NCA
hm2=hamas
Qaeda
hm2=al
Association
subtype12=Group:Sports
hm2=Marine
a0=jack
subtype12=Indeterminate:Commercial
warner
time
hm2=service
hm12=his:company
hm2=companies
subtype12=Individual:Medical-Science
subtype12=Individual:Media
Entertainment
hm2=university
hm1=ceo
a0=believe
hm12=I:company
Polar
Museum
Foundation
hm1=coach
m1=top
hm12=people:Iraqi
hm12=your:country
hm1=citizen
hm12=his:country
hm2=fighters
hm12=civilians:Iraqi
hm12=boy:Palestinian
hm12=Arab:world
hm12=Kurdish:fighters
hm12=their:country
b1=group
m0=media
hm12=his:people
hm2=troops
subtype12=Individual:Group
subtype12=Individual:Individual
subtype12=Group:Individual
subtype12=Indeterminate:Group
type2=Individual
hm2=people
hm1=exiles
m0=suicide
hm1=Muslim
b1=uh,
hm1=Her
m0=outside
m2=miles
subtype12=Path:Building-Grounds
hm2=Kirkuk
subtype12=Non-Governmental:State-or-Province
subtype12=Media:Population-Center
subtype12=Entertainment:Nation
subtype12=Commercial:Celestial
subtype12=Commercial:State-or-Province
subtype12=Sports:Population-Center
subtype12=Non-Governmental:Special
subtype12=Non-Governmental:Region-General
subtype12=Educational:Population-Center
m3=lot
b1=hezbollah
Congress
United
b1=(1)
hm12=his:cabinet
hm2=colleagues
hm2=attorney
b1=appoint
a1=current
subtype12=Group:Indeterminate
hm2=Cabinet
hm12=member:board
a1=why?
hm2=lawyers
hm2=lawyer
a1=term?
m0=representing
hm2=authority
hm2=cabinet
Squadron
b0=uh
hm2=families
hm2=members
type2=Indeterminate
m8=neighbors,
hm2=crew
subtype12=Indeterminate:Individual
hm2=his
hm2=her
m5=parties
m7=friends,
hm2=you
hm1=My
a1=family
hm2=teacher
hm2=friends
hm2=Bush
group
hm2=organizations
hm2=union
b0=controversial
hm2=UACC
hm2=Security
hm12=members:Security
subtype12=Nation:Non-Governmental
type12=GPE:ORG
Carousel
qaeda
hm12=Bush:administration
m0=unborn
hm12=her:sister
hm2=father
hm12=you:family
hm12=their:families
hm2=relatives
hm2=brothers
hm12=his:father
m0=ex
hm2=wife
hm12=my:ex
hm2=cousin
hm12=his:family
hm12=baby:mother
hm12=my:dad
hm2=aunt
hm12=her:parents
hm2=kid
hm2=brother
hm1=B
b0=murdering
hm12=my:husband
hm2=son
b0=killing
b1=laci
a0=laci
hm2=uncle
hm12=her:husband
hm12=my:kids
hm2=husband
hm12=my:father
hm2=daughter
hm2=kids
hm2=dad
hm12=his:daughter
hm2=mom
hm12=his:wife
hm2=child
hm2=ex
hm12=her:daughter
hm12=his:brother
hm2=baby
hm2=mother
hm2=sons
hm12=his:son
hm12=her:family
hm12=their:son
hm2=sister
hm2=parents
hm12=my:wife
m2=meet
m0=loved
hm12=my:family
hm2=family
hm2=children
hm12=their:ones
Toyoda
hm1=shareholder
hm2=business
hm2=friend
hm12=my:friend
hm2=roommate
hm12=you:friends
type1=Subarea-Vehicle
type12=VEH:VEH
32.09486792354353
26.507916415027594
34.11286976273701
26.932661052152337
23.342360292778572
32.68095025179057
23.937385148844196
32.16850445834148
25.649498508892687
27.557992813444038
39.73868101227528
26.752205139962474
15.858314574071455
29.69154914831967
17.902475519075058
23.34120367392563
33.43727881773122
39.10319125007849
16.111135646974994
30.79339994334285
33.76442120278126
28.16088676676019
38.95858223438579
36.817828805665975
23.610303262678116
21.878086802314304
21.563314043624583
36.85926291180358
24.48837807613727
28.949362767006377
33.1875951768665
28.91555950571424
31.049483733826793
26.745059621574388
29.58617501715519
13.175230683288714
6.664262202258243
13.349893623132775
15.432921973802609
26.11944145782786
10.148547159648905
15.452278841691053
26.640062553872944
20.05491303676332
25.738887166045128
23.82898789356346
13.056143801714844
7.448100611859595
10.148547159648917
15.452278841691047
24.258236204888846
17.87266226970369
22.211875447993336
23.17300382668855
9.000205824496351
12.43535269503563
14.133643944238191
18.070963752561976
22.33941707903129
11.43412842621787
30.111787922136415
3.714754992902961
34.69850577997752
8.925361132332267
72.9696916241614
10.441659691683542
16.54436718236662
20.545798080440175
21.52512700213599
16.61702121518558
11.711898822762643
13.454898892366153
18.450360146653402
14.154368347302524
15.64087617860728
14.27973525868579
15.251146169732912
-1.074505966105276
15.291413904972496
20.508770433178547
11.213965519464955
34.33027056077894
5.541134545674974
29.664809717387655
26.484120743533218
13.566237534167145
17.07045382850874
20.613027686332202
13.466227805690094
26.94561168361926
11.711898822762643
13.454898892366163
18.836269806588025
4.238113505218268
16.258518364718533
33.037821583892146
22.272381833512693
14.983124904355128
27.458934114788978
16.166504771358934
20.394692787163404
34.4061658467842
9.668276474881306
13.161069666561662
17.009653682558334
28.758037973205653
25.893604581776973
12.844832675204213
10.718919781937636
12.455014494923802
16.544367182366614
20.54579808044017
4.303259966616155
29.89664107835852
6.345069076495345
23.17437040952581
20.108542205799125
9.90290651357234
15.553435972895592
21.5602180945408
8.676086943839747
24.844411358155515
13.698985648025113
16.433066965186832
4.741727461224153
9.880636992566803
11.69896604943228
8.22237864015435
18.005250576451935
10.249716903246798
22.23256193060088
13.947451922618146
12.318433090241983
22.482240761394223
11.438813139601365
7.945684500544799
9.949684812109354
-16.83217328295591
-43.157972191945284
-29.400829095543234
7.164389471589728
16.345370044898832
8.070668452121772
9.832154472788167
-0.021977263296380833
3.6334626517662585
-7.47981176684311
16.544724274681574
4.200386771962093
12.839525477693407
-0.5644917163957073
-30.66173972872082
-15.51266636282802
1.1236200020406182
17.29330116918096
5.2767732010791235
1.2305509128960588
20.765128163299185
8.360929520278992
49.59389836080339
-17.429888821713373
-5.830348907755498
0.9727632028789692
14.482746913278216
-14.416175418826723
5.007008071510707
-17.263970186778327
6.645483918236009
10.68739566370201
5.429271169879027
8.194012976936254
14.053427310876524
-11.394274266299433
1.8080331130701592
-6.23623986792423
0.7482124788485189
12.178638182650857
2.0613195849087713
13.847361052213738
4.244661093563222
11.341199739516487
7.265926878621869
-1.9801901890812044
-22.407079977651122
14.992293790168342
8.715742973597237
-17.005841777738823
8.953157056317973
-2.1250482171708867
-3.0758577161728
3.8673042078306583
10.087468054113932
16.54994710139449
10.216313929612502
-23.622375472866157
-1.3082756131458462
37.086503568897506
7.5322344204772556
-1.9792839004370317
-3.0964945540869717
-5.829948551885833
6.360530012316879
3.6605945486956593
3.4199577179594844
10.26269572342662
-0.5651598778989624
11.457657391067208
-2.8936847278636653
-0.1553970523109509
-25.461603020753035
-7.2719584984483845
-45.954297703671095
4.502536314548641
-36.82655151826768
5.244988339808316
0.8369872977492476
-11.239113143481461
4.816484117540507
-9.28932942411583
6.093614441977968
0.1873727432979897
-14.658374573085483
-38.794874364154666
-21.551902670549293
7.932232700375142
20.416967243095193
-32.03100735077202
-3.811165605516957
-1.52316985029536
-4.497823200933518
-6.9118617188390195
6.2891504295942635
12.105455551272923
0.5401103365576096
1.9352204386133014
-0.4121339782626743
3.6388516076027546
5.858431947755172
2.3830914134188275
-5.846910622214175
-4.5934439287756454
-4.9493529590101435
-1.2291046561926295
-0.19075576785561843
-16.28133458272506
-17.86583511715032
-10.177229548235168
-15.45729004300431
-17.098878318602033
-30.60303448011572
-13.287731487679578
-4.8723714758751635
8.382371573124612
-2.0561456283084882
4.14433912194559
1.7673603479722226
-4.2530361678214375
-4.953873008684722
-4.614559043599515
-12.219663964957373
-0.7871036189682856
-0.12529473469046648
-11.130805876674835
-21.444505542820433
-12.54011332323649
-23.220346268154735
-17.72507575318014
-13.499354030375876
-36.09853517801433
-7.720602484402262
6.764574141425484
-8.653852109839278
4.013904143856879
-2.21152054922676
-19.589459862289548
6.331073567772254
-15.601470598321335
2.2226896208832523
-2.95168815357341
-1.6910037410411283
0.33435227837514847
-28.193666540029515
-7.966136918992798
-19.285272195781687
5.394239058734785
-16.91297972978948
-18.375362934362116
0.9378031910807771
-0.8151745877345395
-8.569408636317839
12.46470970295677
-1.243961902038245
7.862245476429771
-4.302943917052028
-9.909510923764042
-4.063635769606989
0.8541346398241392
-9.912341476206011
4.853058112707373
6.130241098856448
-12.13299247153078
-27.28933181969711
-41.790243624229994
1.9391706699582916
-3.6908161004594278
3.03458510356569
3.72071110168614
-6.114095093649766
3.9312417285920622
-0.912898085464251
2.988311037709466
8.350414847673353
-5.0385518877233295
-4.723438113131498
-2.656991304943068
-5.828620245160357
-11.213682083406034
-4.299563799026799
-10.817577109345024
-4.126593247577322
-9.812785631135945
-12.011351266914655
-8.239057238482058
5.845519610333851
2.349653432759781
0.062260702545828384
2.3131207585286306
2.5378045887333966
3.5242896269590105
-7.510097568640067
-2.899753914865864
-6.7745248283628205
-4.242761551735416
-4.517126288698241
-25.72878668193292
-22.081538154789868
5.932628565956913
-8.236185969652011
-21.41706496876552
-3.0316701233335124
-10.123296298349544
-2.4826800453525397
4.769919051013763
1.3579575851516363
7.229955180469899
4.249596101148188
1.7009111134761001
-1.3567745982637103
-13.282031649964146
-13.901780488072777
-0.47261835661230034
-9.209855798354338
-22.394246983323562
-5.461721482414058
-32.60288519839334
-10.452739858951992
-14.57180565309054
12.077510483709053
-31.666166423694094
-18.12488868049525
2.6484585948218546
-21.268783458037596
4.545829960938005
-2.16391859573614
-6.465112241811798
-10.753914346249418
-32.03708977858653
3.685651478850801
-5.393345074430675
7.22582463205783
-18.73312991981307
-10.29551894179343
1.9421517107468809
-9.59962049731348
-48.174061676475
-43.99913202766353
-66.92541524536496
5.8039153030734685
0.304455358681047
-0.9694307261997372
3.6344519253095977
4.514262393845816
-2.6367212820563743
-5.585771062914233
8.363611106840123
-23.571298320221146
-6.773784358070825
-5.102594681846309
-32.841807820889294
-2.51237759896286
-5.119932023090084
-3.265953922077876
-12.631367193156237
-24.463481337487476
-18.324326453520925
4.502939127129688
-7.399460488901027
5.313835785615832
6.80814863757131
3.565645918730353
-7.265132446441918
7.395421548792233
-3.8354725102395504
-14.148311324982332
0.4069233586518761
0.1351336681028097
-35.50202966258891
-17.113112526555145
-41.237055138714375
-5.815172624765584
7.192651403624589
-15.38496426493295
-10.160530168734834
-20.38695791202962
10.34666089066021
-9.791961496641592
3.335795150405533
-6.523794898506934
-15.551028669499027
-7.038455668352579
-25.349596093683495
-9.596796058862626
-11.59525430102279
-10.39468369303033
-16.04624637780987
-21.54510193527041
-7.699112740978361
-39.58345462816706
-34.64057965959948
-50.92969867855111
-21.495627468939468
-6.126960033333118
4.589862054419696
4.579517701486447
0.20321449844137351
3.8864639885923538
12.135490963700525
1.644871964293801
1.1387126880547789
-25.972869972387556
-24.19708477412594
-2.1504676189136145
-6.460874872122139
-33.212103890247455
-2.6168371092111853
-40.11948273196707
3.8756880947185586
-2.0735940275101834
-24.32755291308479
5.34890227010463
-17.403278306069225
9.275048259999458
1.008856214953226
-0.6963157377439724
2.9995702591373
1.8009698740497768
3.2868230659264164
-7.728781928569289
1.3561848526773992
0.016630822286888947
-2.795476154155549
-6.692219529371883
-27.546172203654827
-11.339375768958334
-11.506323765679088
-40.09070793430284
-20.453706949480896
-10.500023600476554
10.106646052766994
-31.645890486272773
3.8526590230096103
-2.89753702408761
-8.55345606993191
-0.669677149179317
-13.710898595831289
-6.55564902482511
-4.760242312359984
-9.028446900858619
-4.681373414821259
-16.800258662563813
-12.38211335721269
-39.98261715541687
-19.037349298851087
-34.29283488799096
-13.518071794007472
-13.951440306879823
-63.14852071266509
-1.6725104356894942
2.9325834127296257
8.863551563588212
-1.6226180767947165
-46.08351011870849
-8.927250326979816
-1.1054131175830753
-0.6252238870576745
4.681461359619214
-19.83251900000389
-28.000637001084158
-6.365758072796563
-8.862261015461373
-14.579962325581167
-44.60193760486469
-9.683096891905672
3.593796138850445
-4.514629354607645
-5.623734661100718
6.614594758581407
5.860343431581915
5.45744245743457
-3.6660115000153564
-2.332807053382366
-7.778148174989911
0.18797813282350884
-11.754684343195528
-25.399592524010004
-19.167520872954036
-17.498281276629285
-9.768598203997055
-28.404525299878117
-15.304809907540239
-20.696679837904977
-6.53326395906136
4.495828180311006
1.7234054211288434
2.753566959074203
1.4113821780467424
1.156022298971719
3.0965336995384396
-1.104837257227068
2.4080028497530606
2.4577260429706955
-8.504565360068398
2.5828255128970588
-3.496204810366261
-9.251905935331534
6.072476962061209
-36.53112423344175
-26.334245729606288
-3.657901585263441
0.6289401075458239
6.676807067422686
-18.612633353376523
5.503409480113165
-4.250675195546331
-2.1733539282482255
-0.6874775506922237
-6.546561645866739
-2.226284457108691
0.5150706731987666
2.634846036894964
-19.99361082732885
-20.835237181689894
-6.256496731506611
-13.595780677536123
-15.692763101452634
-24.63433509409818
-20.29148779732754
-3.255720773139031
-4.960767495995612
4.816910182319011
-3.7318709129034584
9.618182008208452
3.814217569190439
-30.51339344824312
-3.020003709228079
-20.22996206969735
-3.951705234175008
-31.54224952006095
-6.626113684290198
-18.941734149621166
-75.31787452433578
-29.591563838330817
-18.027359971793405
-32.02213995986966
-10.1647187211009
2.0796287443949644
1.5157376797326103
3.5496203641638004
4.932823455909306
1.679027513614765
3.3400414567145793
-9.90108578486065
-0.4592939190063552
-10.46153308814133
-10.519730660208705
4.5428386077933185
-15.505745881865975
3.8534206136629474
-17.464975877680093
5.302314764475906
-17.69332549908238
-7.584004280251575
-15.340909636032066
5.242230094406718
2.8505372402269202
6.584573574175076
-7.007706502648924
-0.7799136293562059
-8.029666841125197
-9.519371153289311
4.3636480507192505
6.03548130773531
7.0377185954985935
-20.59555492272087
-15.081669137613908
2.407614074545083
-15.939063835494029
-12.024269446345262
-3.0217035910004864
-7.977437056036097
8.44195478887445
1.2742389447067137
1.805615873565455
1.2283363074464404
8.027415068344048
5.2273319880111835
-4.626056710034187
-12.086837411071153
3.4875214196619955
-13.256904297641043
-6.960581152590315
-8.300761203761503
-25.22949847866458
-17.486020649902176
-10.606639804465289
-7.897508319727105
11.377955003493446
-4.974900575710289
8.51660801723586
0.17822069238780047
-5.722341112191753
-2.439646308052663
0.111103926616833
-1.7076613759137649
6.251908367262027
-12.156195404197453
14.234635328636775
4.851906568675163
5.658673150151118
-0.06986228022593055
-1.6736632358480938
-0.9525862843377255
-10.812262173473249
-8.018652373641281
15.179599830672752
-7.5521711122072785
-20.124090807340384
-20.449113548173074
9.5893656951163
-16.589600623354013
3.594781422337868
-3.143019558891085
-9.21956587637611
-2.352912816149642
-16.048074910099945
-7.739788429515744
-11.982365890055934
-8.34643023038537
-5.186040052434995
-17.961625840053074
-6.607311891741043
-26.236179934241438
-22.078677691864733
-51.86083380312146
-13.67710909415954
3.501320115758607
-9.46657115468088
2.1814629904733183
-21.383042609549904
8.330810482055313
3.519835985054078
-4.968244397469745
-0.9943910137826393
-14.545137101674298
-0.6676588840159958
-10.713762662947598
-17.915143723325375
-17.93812337658355
-29.630754575210084
-25.826482498309797
-23.128297502310296
-29.507661119038506
-12.070675828993213
-25.656038609206497
-18.25980230155969
-20.89470664055878
11.413633616954488
-27.079064998161588
1.3983441961834666
-18.84784162547479
-33.723155204853924
2.2924675936438668
3.643108732043732
5.856978508398836
-33.7056667461051
-26.33122246519614
-3.0522972544699725
0.4814391706419108
-6.0035819898890574
-12.615840166444954
-22.46133758627091
-2.2792057841265025
7.2206199135845335
-10.864190017146974
-14.983967801395865
-4.19913758903543
12.120408311457833
0.4436969918995044
-24.0836848336587
-49.07167179779964
2.9984686414483193
-35.96669561754576
-4.917465426068008
-8.354653631831793
-6.674160184613026
-15.510517803973652
-9.161768923849028
-1.4090452293761515
8.509092314437035
7.081468137195777
1.7328401017799613
-40.57590443902983
1.3698895852370394
-1.3989646420145423
-2.7854240222183866
2.020378102465667
-13.808537145850208
-10.89357782973251
-51.653092490470485
-47.033410120372295
-8.65696725720982
-49.16209872381782
-44.790616693477894
-17.357767930985904
-4.701206080795707
-1.5515349602936976
10.958334116107448
-5.157575048247736
-0.07602218453355425
-1.5927235394826158
-9.27876692383053
18.43577514568035
13.284565462068343
-16.30030594207155
-5.256299280063393
-1.3687546212840287
10.61710610494565
4.246111136664578
-0.7666400604048123
-3.837395621948052
-32.27548864330437
-38.851169188374975
4.879316551351948
-0.27752567401031736
-2.3433099507701436
4.7221750176120425
-4.251418099340834
-40.72434025510734
-32.70494516860009
7.747096775435603
14.849524865413713
-0.9969298590549323
27.499591554036606
-8.014099498788028
0.8545866272673104
13.684978847963615
2.071459709636845
-15.905962513837567
3.4409278569568564
-9.056634226927143
-7.051571953067718
0.8001057995602907
-5.2411756840010515
-8.17148041368507
7.098488426105122
11.392674345872237
2.101127186283992
20.49134285027312
-6.711467521278791
-1.9756506836513044
-23.02948124579376
11.367011720365477
-7.147752015526043
7.9988675764010715
-11.990910409766482
2.1000625282477174
-4.7900057751315614
7.020060260419877
-19.63222508088705
9.052540948216613
-0.2664197790737095
1.1669452668630163
6.396141699948835
5.611382662483773
18.531910453393127
-13.366869550173591
8.114827322500181
0.3675450610923554
-0.7140938672251349
5.943911024551834
-8.990550720146867
-0.16636271637606592
10.525301842025263
-2.359909605045363
3.7202231860209656
4.447421718734303
7.585483321806761
-16.053048395221996
4.501649607204202
-10.727858808244221
-2.784920718011944
4.894729605329413
16.339026750216444
-34.27398837753786
13.826385811859065
-13.481790797110335
-7.723299747283875
-13.341584747852492
-31.761997209466134
6.626196038559095
-15.388378469983591
-17.492978751726515
-41.905718667271174
-4.824598647570019
-19.548183562860903
17.544671928792557
6.657777225430134
6.4469834184670605
-0.7618075609901993
1.8652981907330624
3.051648899945098
-59.27496131104532
7.982112025605403
2.8912437563871887
-3.261894838775299
-0.9277187293883422
-30.10888928806705
1.9403066173161179
-37.6041429713136
-4.710925700368807
-29.12038802756848
-59.109545309393376
-12.72764805711966
-9.778332713680758
-2.26053508911165
11.516737255683696
1.675753146175428
2.4962869804821928
-4.2034647504161855
-3.807639378452613
-4.245425581096578
-8.197987445757075
-19.32689770009969
0.9134291073724548
-10.918213242699148
-18.178241048677904
-34.526147384738124
-13.393802402594506
-13.954828391139188
-21.801960236299426
-11.153700941867998
9.954051602412026
-4.713937401913855
6.0189436384449975
0.3109783671732651
-2.7478891958989276
-11.721833242994167
-23.73445485325735
-16.298154965710925
13.295015791932267
11.485427493925965
17.31486385374428
19.411109389482814
14.191737296132153
10.26484196948672
-7.192589341431842
-13.699674145540742
-21.293653764636026
3.932638962317181
10.142543118708899
1.4760966839044385
-21.60998881155715
1.1414055538784484
-5.3537139141786625
8.2536869637665
9.51439076678812
-11.027074457976612
25.063359188479634
-3.802749234420696
2.8340924565974
4.267702800428262
0.7810699979879119
4.063476206096842
9.470959995972411
1.6427760343470443
2.2687755561800045
1.5387393139889427
3.9042782734671357
-1.2910535139151773
17.59691513858211
-10.406711342686894
-4.158589718769535
-1.5070211933168687
5.114777388266209
-14.191961372207825
12.415954212077253
-1.4770177735398886
-5.59334532445785
-20.08408070052821
-5.248829681908478
4.749397850505892
-27.67371612783352
-28.307015116802717
33.53603065137721
14.531485614171952
0.11958527917763315
18.159858977633743
13.448268037711149
2.4118500123324815
-20.39394500434681
-18.332754506866728
-1.4834348069057417
-1.9002328550233116
9.029178185467638
-53.5024239861438
-24.715233822216575
-17.64994023429703
-10.223115549823536
-26.526086344279573
-34.283859622693384
-13.654428845725732
-8.434564746203094
-1.3247431800829466
7.185937575281272
-8.19899326950657
-15.910632919960236
4.595482262447562
-10.1505427939169
-33.70406516346774
-4.687231227898792
-1.529526289940462
-6.4229986713512925
10.38659321655159
-24.62971030456185
18.752984847608413
-25.468396899292486
-21.833930195644818
17.680743559147746
-11.765677232457167
1.0652448147049656
-0.8850946968318878
-3.266343686304043
-6.671114853801452
-0.09000021363493671
13.423817921186085
-38.64424105238083
-3.8912632187765777
-31.97873651659323
11.539898519011015
8.886968847395831
-18.034710913683334
-4.7821497065664
-19.51836945226243
5.765668998958102
2.4542476884976674
-19.36979222769277
0.8969316355178414
-9.567583546639977
6.680416551931696
-0.8513359323347407
3.5374146927634076
-10.224530649224539
-12.350615081807707
-4.7203763134893535
-2.511446648290797
-3.190484312182896
6.864038097106862
5.3302121370725475
-27.75328261912073
3.5244119311947575
10.318435265893601
4.352956268428547
16.21272257100431
-1.0168307330716524
-1.6662353577636786
-18.593254064459664
12.87862177331117
-12.077521753358049
-21.743835424262443
-7.409183769559526
-33.67703401460411
-0.9923692205636399
0.3718793986464042
-3.6208990379404327
5.767375326603924
-10.863413892741107
-4.965312353794708
-0.7025639480672319
-22.21176422873052
5.781612930764622
-3.1935004931019826
5.024117422285018
-3.089805282444102
-0.5371716023697926
12.280531610897029
0.061573891712526585
1.9079871815952933
-3.063635298551624
3.4185533906786447
-13.342124148256588
17.33501620648434
6.941038117274753
12.438961549313591
15.256347611336126
-8.622576768271916
-13.09794659986584
2.588931023651466
4.793774720473036
3.97575808299684
2.2006725760652266
-21.578195309043927
2.2579220733435816
-9.168828961083765
-5.580111072306491
-16.031549891462518
2.705633710433374
6.216725829587851
6.397598360197303
3.4983761908386177
40.59590828865632
8.959421692718976
-3.263420379091344
-0.9307379628797321
13.435210829724998
10.770757268321683
-15.692344965987623
9.001234492824654
-17.13627674040136
10.619934878379363
16.281420171735267
-9.812513723424136
-7.638726918667311
31.522433930361824
-16.317142181371196
-18.990191119588
13.35145883520934
-27.09967931886709
0.555733735026092
-4.830037893825236
12.475775862316956
-0.4578672951283378
-37.90288570331699
10.087527609746772
11.32340328700704
-4.320200427561966
3.9614128005133633
-7.13646366996984
24.753523341974464
11.777843375861877
3.9384296030117976
6.019800188323442
3.8599554858656324
-13.827215470481308
-2.3366070175569504
-12.147371129655426
5.517888334766458
18.046950052297667
-16.101953597284616
-13.190904426335512
2.327143299031102
-19.708144102431017
-10.983180490637526
-2.9620887046459115
-2.5651963590679836
9.20469414972066
-7.234909500252996
-1.2298489019497334
6.227590059917713
22.54196019155856
1.7873187744657772
1.2352544273049118
-13.762643413952892
3.3571381748289744
-17.414334696578575
-14.408467957966192
-21.548327589669075
-4.368237292672369
-2.6553735644894476
1.8917988031748378
16.65145451835111
18.316646721747745
-21.788159120749288
10.293355967811964
7.477936887142131
4.113828100895981
-9.473338168540595
-39.159908581299305
-5.570165912430202
-4.247209173961423
-23.911137437162477
12.241964988174649
-25.37957813712918
-25.36915602523033
-1.9168312902883862
-1.8540705139888578
-5.5244075407270525
7.781392316199355
-4.747201247716186
-4.951411886300493
3.1500070973733982
-12.391118700008377
13.87718617626602
-3.27035203730121
-4.0395231034203904
1.5043730988357402
-2.029682092782327
-0.17283808828664604
0.13251767226093492
-5.224222981211369
9.066115520558714
-9.162028003417447
0.2408488928306589
3.599448455657142
-12.937353702484419
8.15774141282359
-37.42406416441976
-11.839449131082043
0.2845983433901451
-32.096689750607005
3.447551199913055
11.663958304985314
8.508453406959038
10.539605025330456
-42.851734796746776
-15.926861837565193
20.20025646655469
4.333444319814223
-18.370720707232337
5.361317420717691
-4.5983643263539715
-15.438914321524951
19.274077858851467
21.912877570740697
-12.464717832832472
38.872008416264734
15.031165999952604
32.07499859752341
5.321335529847531
-3.0525356064068
5.280565755634587
-8.919093778237755
5.102975099767981
13.724882592000865
-19.935713295317925
-12.400222966302156
-16.87725204979655
7.6043587802597585
4.022702242784645
4.7257049118039305
-13.00838416610204
-5.913377443895535
-7.506109693587529
-3.3646458296374036
-13.592174884549241
1.9928055346745197
5.787268301715456
0.7753111275159179
6.493190101763412
0.9519728246741077
15.760790192417378
-20.825765342049625
-12.923301153795197
9.197045555254924
-5.535027197130091
3.100618895186767
12.629312638693532
18.03551579306916
5.057708353958653
-15.42135693429138
12.149008056577761
-13.918938024098363
-0.7629857487204397
-27.939865551234526
12.280585439216157
-1.420594177100312
-14.79791290874323
-10.321395864048753
21.85340925328214
-33.66863719168675
38.8714896005387
-14.35541316609472
4.4962567802240185
-2.6864704623929443
2.814751438749486
4.434859936563184
3.7666890581056496
21.822920621043504
-11.838516622738512
15.789937528574518
-17.94859851754193
5.177360412091696
24.15590364850076
-52.50040091556051
-50.48916933446888
3.7403913917957365
-15.853715172787089
10.809738689791992
2.757407546628901
7.224924604382377
-3.3374240387338823
-1.0016725906410804
16.566577777962525
4.112377712826289
8.761293485622
12.882143245427997
-23.085590722392304
9.758605874166312
-14.80918340941618
1.7994901098799567
-1.6071236413635281
19.94456041531507
8.289032468596572
-8.206477204390001
11.990344002188952
-20.575294276955372
-26.055335351867974
-15.163616267117835
58.08044770343993
-2.291481987104694
-7.799975250395047
-6.622160182583012
10.687011789699481
9.158472568106564
6.046528990417988
-1.8622341218269343
1.9951463330346075
-26.132056137387778
14.422092670803615
9.654772446325655
-10.692540361208462
-1.2714679656640562
-0.5197187820012844
-12.00073255377074
5.856575485460416
-6.375908067869902
-12.254662282646168
1.8398765395447172
-27.502143905186976
2.0052481793466117
25.44509431215407
8.709528614247995
17.90912362107333
-3.2550583589732036
13.385498369636307
42.14530179413645
-5.398196089138441
8.517457981343352
-14.013845613104541
9.148478936469619
2.3493823968085357
-6.107253326540686
6.5933361796177445
-0.7803304180428019
-6.7804259490292225
8.171778687684167
-5.1638295858942485
1.7888996770798828
6.288091815920523
-27.190148819938265
3.617293085613305
1.0883291115730722
14.85792619764086
1.9545714460145294
-9.978655372708602
-5.669722758252976
-2.460793501678236
27.196078656710547
28.810521433209228
-10.162331697118761
10.943929186033593
13.54272337401913
-11.136430691923673
-6.133293881271704
12.954086160601312
-10.280870138709954
-17.572535447846047
10.519680854418565
-10.72800335245498
3.98218770075859
5.275405968576446
-28.97846250684252
28.467745152859322
-47.04889018814363
-20.64449067108232
20.058669777279633
0.2306295480311369
5.499311642459342
12.73711975530527
-12.949456114917059
-13.356769633113885
22.785870867740766
0.46996315270982714
-5.258766527395642
8.678571465312249
18.228521936288175
-73.12339793501647
3.185766939665809
7.62848464519694
-12.926360319729147
7.505393125958751
-11.064682060167312
-20.516493090461413
26.42273179972125
-6.129344051694601
10.312138887075852
0.1916560302286221
-0.38405081454479
17.598069643172305
-0.7195568273092381
-10.71533264346659
9.91386363266838
1.335060999937593
-12.990281108758445
14.046962078976094
-15.324576916647713
5.110651755125085
23.624283977316892
-0.9850214439798699
2.7833718117423807
38.47345261002541
0.3180420215302171
7.285581997402543
-4.046715766017868
11.226330401781576
6.794162248347759
0.7246271861620119
-9.618513609781314
-9.258500858638747
-10.866448147600993
-0.4536790178868566
-5.8495758856755495
0.007973530751266555
14.531057845866854
2.4363817397326852
-3.465369155492177
1.2907048110242303
-9.6910074922015
-20.020316699445054
6.971209359806711
-13.401727920322664
17.633003670459132
-33.893585066816414
2.613978747753007
37.9509876451341
5.544296513975437
5.44348793155796
-5.870212679565499
-1.4873881280384842
8.711126376782506
12.482467815185176
-20.29740817840627
2.610030993781711
11.197217703678144
0.13947660529791062
-11.08297017455667
-16.04766613137114
-0.05225499148907664
24.231985244034043
26.924807302173043
-19.29603318096109
5.698179522620395
8.322079371287852
4.655528877196989
12.367292501205178
-2.7032216482081894
-2.0318247173630155
9.898500664358927
-2.055185498735943
21.432841320657843
-2.081189129935455
20.210664180337517
5.175863878822256
7.66367880429667
6.552199398864344
-14.372095428964368
12.260115933919117
-18.410832021838825
-2.4245406378194025
2.4898275830658436
-10.61316431701731
11.359913731720503
12.859503452511229
21.747983110524466
-4.591716219373346
12.91300702991132
-8.251656028832256
-2.2613163057604018
-14.986944645584005
6.765944423381137
-28.325942448850096
15.141035210191683
-3.6813418237312505
-42.91171244537317
7.020441288898692
16.004514413438642
-2.9330665421951965
10.269012525474293
-4.320837317280741
-23.32180088425214
-16.335795305071326
2.667215926340505
-6.164227200846213
-4.5110350014267695
8.549799848322966
3.4122884575792516
15.462722199839698
-6.718631178780912
8.070810817009995
10.720021632996989
5.1718264237605
7.114502423698568
1.8000748910512099
-12.09362451461578
-8.347536323270965
15.886639414881232
-3.5660521398466702
1.7279824222016238E-4
-1.7077333253631939
3.176646762987361
29.34992976531252
-3.6613843032886155
-9.770209801498316
15.651128843623724
-20.154018755502214
8.585522590739208
20.554187661427495
32.82205000534734
-10.961370482190521
-12.456061096984687
28.00312725963423
-13.646765780165566
14.195514974424949
5.925497274379464
-10.120626904811106
15.145988834832643
-48.07330519534092
5.682401431060466
-2.8498263143914873
-3.902470222347492
-27.612394695660196
-22.954700459625073
12.761996320558248
-25.87673334293052
4.835980007213724
10.336493984390245
3.1077159640016885
11.532011969796482
-5.025095252039214
9.565036896302466
-24.72799863668131
-8.611694146591649
-23.118290816049665
-4.878475075616914
28.77646233628197
10.567581846888526
17.90903843784317
-40.75783798128628
-26.56968419320029
-40.674645251813814
-22.287214410603948
-44.874987689246275
17.076928729297997
-15.711811859597336
-20.846014527610976
-44.91388493754391
12.06552149678566
8.885360441729613
-2.3385490612363142
11.983836785046899
-23.038728469253527
-34.3502059193129
6.974544528076083
1.9491857533860941
-17.627189882451894
60.61878249705924
5.585187144328515
12.943171845302597
-14.095975487681102
2.730321806838793
2.9709907887299067
-30.499549519088625
-7.61759370667526
-0.990614044497113
-8.929279458571466
-27.877995189308724
-7.106900653326235
2.8539700647497703
15.018871726057517
7.337791838748311
-38.00365929928078
-35.33711114822021
-7.44925942157961
26.823315190039008
21.537616202341272
11.529563399935656
11.836572977119417
7.596801559078528
10.532489384880453
14.440300614846027
7.879083214241147
-27.607085925461213
10.66164414326738
-24.138814540547724
-5.556882100032927
13.087328857487389
24.548490574450867
-20.30536696498818
-2.8813510032834087
-0.02321438713394964
11.184441333109719
2.6354963918410483
-9.836343673728793
2.3785130614590964
22.48611310669975
3.249421328750235
14.457767434149208
3.733604403134379
11.370855277543487
14.509553120535696
8.16567091273756
7.666041565976517
-10.902343788212944
6.1668638625886505
-22.5680622272655
-28.06899522986411
3.873710781038529
-0.3310920648462288
6.739689003537859
13.708281050788935
16.85402784016541
-7.36110648891078
-2.185377037653547
21.46105793576668
-2.4194490808131044
-6.034050049813045
-3.7219799484232237
-23.5341442246963
7.548293274682525
4.561896442984278
12.75259531596882
-7.148360144616334
8.342346220666942
10.572065974035427
9.402437277963646
-12.589432842502179
5.791421858491608
31.766641013312128
1.8643859356488783
28.41261426860052
-40.01021098049507
6.603757863180361
4.41678201334802
-6.9054925520073835
12.170507080240956
-39.478679768951125
-28.85258450912488
-5.537453615486449
-9.925703011003575
2.559370344011559
16.83352795438716
5.2906407824834885
11.386391903949663
-20.32986704002778
-2.275710759232478
19.126393774469012
14.78350149771623
-13.393529980071937
24.408734948132416
16.232108690489728
1.0053306468844256
-35.53744609794221
-4.22071240028181
38.85499623139564
15.81489838494716
0.7807421251217328
5.0972990573595895
32.82987170389973
-20.547882982820955
-5.489000553085072
13.927139190263405
7.3471747804644085
5.447055603574086
-14.08536390744562
-3.153852134287144
12.557930476603772
2.572736583424429
1.0203238406681128
4.848570193570232
46.69986284546664
6.767378735911473
2.597655571249313
15.411736023101774
7.43309312012615
-23.718410567805392
0.3253351109799363
13.500439123024583
-35.73409699658669
-4.373387196362248
2.204832920346796
0.45373853468901015
3.0190027103407546
10.443313456735591
-2.9262591701326945
-11.437478124941709
1.8566565034316338
-7.632701698612289
-1.5118841400719714
21.929079287296442
11.70611181680495
7.464423864254687
-2.9047610507020565
-9.184226061079876
11.389005125097068
0.6095304260924235
-27.224922377744914
-1.8468627387874021
-2.7131770842528606
6.35214044422478
10.1261214966143
3.057753431818159
-8.43815166535131
19.20217578893928
12.14652410728846
9.522128449332662
2.8475234155002536
1.332124441248312
-0.33986540536706933
-3.2446775536322643
0.09591609614083926
12.09544490120018
20.389847647624773
-7.843663823222577
-13.247037712270767
-12.639250507610907
12.576380853231708
7.6191532813513705
-9.67285700001365
3.017729964119572
0.33858921554872534
12.087080222976699
4.137381479445809
0.1819883605533008
19.079107077299387
10.631345102380251
0.20780871185564598
10.193695619984181
33.65017745691423
13.00902934417699
16.851474101024248
-10.715718185788237
47.74841833673017
0.18751446397562965
2.051144749252764
23.100154987893788
-10.595272866083198
-13.80156858188592
-15.223604710890347
17.59792701673925
19.64555263429226
-20.095787986487533
7.729946771857055
12.192426257327153
3.8705766588986297
7.113135541651461
-12.076816866921178
22.01512831820028
-30.340576505900138
-25.623663863573615
-3.7617677440088038
0.8538494306473359
8.633470145039775
2.8980665119045055
-32.41758638320731
4.932874418462811
29.088397058643977
13.458529521142504
-1.3756275306812487
2.9313296594383615
21.531819885026106
2.5091237807842925
-4.934393551695382
38.93716851066077
-9.115110631131227
8.347695330025857
19.857845663862946
-15.65694116872449
9.048430874833976
10.566735922561548
13.61758268546691
-9.958637029046184
-3.7707374985777697
13.790238071242749
2.186560656607995
11.501649068711174
-20.299289193312703
-6.25479852802727
-0.9574009089027162
6.852507669346586
22.115317650076765
12.613768136709032
12.77366202206294
-3.4631106584531928
7.248079322945054
-27.07896324028191
-10.939720334880942
19.699393594718362
-10.195159982475253
-2.5784830454010383
19.869090920505855
52.119929943407804
-14.233508000890158
-4.876533111916165
14.432426211978074
-16.172412728347002
3.997948017068106
-3.8284348670135486
30.5401683017857
25.402100142981453
-5.566372716121782
45.385457730788886
23.63752591067294
7.606804279931485
-2.147411369441679
16.555941177718786
-3.910855064384019
4.548922924670753
-11.98391280606466
45.155090924640525
20.80006348274847
12.418209837953984
7.011864889667596
4.752380124722853
5.4046936385498014
8.729595734677764
13.201077869918066
13.246703684680243
14.91165801277648
4.864458132762969
-18.73703424526311
0.6180377023221542
4.774490345992081
3.761620543116534
-1.5919594116230416
21.388884991885384
-27.46817298226161
6.111169810040055
2.2253533512911687
0.017697842117556428
9.506931239942027
-9.792807588378743
4.070453128936805
2.5947901201519574
13.531432554088237
-8.870146812335589
-4.9260338434794475
-0.885199521945914
10.18695273469501
8.72099068662323
2.61340054501819
6.237620120033769
2.25444684251799
-1.003238935693628
-12.243597191590768
-13.145811168728024
-0.5119736160377053
13.192468544012034
5.243855000102906
0.8036446583426059
16.2349134069741
20.39889380588833
37.867125123717514
13.714070785872053
-19.110090927706004
16.03939868334431
-17.211804582676642
9.368331567559991
18.8357185566188
9.325518277731536
15.105994150829035
11.176018900044857
-0.3856296901269036
15.395077372132766
26.103380557218372
-16.08383965007471
-0.7773488434063989
-26.73463429458641
-5.001581346632248
9.386414378357582
0.14400384556199963
1.3783303581695259
5.71292473086917
-43.07196768365123
5.6563008979409055
4.368519754808237
3.5552504059737435
-3.555756773696469
-28.19975295678733
-1.9142506011713492
-2.701274641264484
1.2973171643300758
11.445760543188293
-14.808232533181355
-16.93523194054907
8.484514694268574
-0.10960205640237863
1.623894100656777
19.64033983808904
33.325383340555646
-20.84070103434408
-18.91387586944537
-11.323309453055908
-2.436105748979813
15.244487014600516
-7.730880657936181
-0.33837746798380713
26.13864147389304
-42.36531919647116
-10.994700870628423
-19.242918791474434
44.445892774853164
17.62109277326003
9.323525484379356
-26.7096697030675
3.6809787665306453
-15.58406737571022
0.85423703915388
5.040742055449941
-19.54570006661198
-45.512193205138345
-7.242464491605542
10.636201302628198
33.83395375586521
11.766687787458775
-8.148515977295713
-14.283007321174656
-26.00764781943503
1.2408404846389733
11.146998397464888
9.95267377867869
-10.004320763363877
-10.264896507621131
11.82950025740367
-5.894384135526704
13.421375060523264
12.851726613677185
26.273880317817202
-5.277853882989234
-8.461734624654827
-3.2240136243266266
4.696009785856138
23.79275729311137
-21.213814185729454
-0.5704667862578112
6.379223338437794
0.24031709420408343
7.432082034860907
36.56384445577051
0.47318300962051274
-5.308890385470545
0.16487588641987405
8.06028514151692
1.332252069400544
27.947042706347315
-23.524071379568685
-19.732854456529747
-37.847111819611946
15.314946816153292
9.819020718059797
4.189844809162416
3.335295646774843
0.22790889666717562
13.373793233367008
5.772987777102775
-2.4076603299997084
5.103290651288551
9.202832894263203
-20.624266039901876
25.377244199712983
38.1461440287062
-18.772066065527664
-24.910860665374454
0.8305690047506114
-18.445904998229178
6.524904469342786
22.761495123839946
24.430485153399733
13.886746433864293
0.3222242111944308
64.38408103594044
6.911147446306835
-0.48759372351812313
5.880393937085561
-1.8667701951075228
4.75511986020895
8.38226558853016
3.2376741070845045
13.005500142740122
-10.35829281704726
-1.7381380908943342
-6.106679960468997
11.45240117832717
12.80817190194376
-14.189001390883416
9.71717321831686
21.356406728214886
-12.518412358510544
-3.5077724219085686
6.687627027083949
-14.427755138185493
-28.650176345887463
-31.595016723063367
27.427166343459685
16.9965102947096
22.528932804244928
9.636557845264166
18.944451171444662
14.242246514294097
-5.912178620053954
-17.85031519472023
-3.520518627469114
-32.35133499079798
13.090790751963215
9.826333675936697
16.568773639322316
-11.407242965843032
16.238671525355272
11.068724549098407
-1.4156511378660295
19.582149586195428
-14.4256870450267
4.170156902744779
18.3365776446066
-14.015425529028194
14.923431301359695
16.25625313881642
-6.4244013779493745
1.824959853812411
22.422538847689356
5.33837195543035
7.923965623113602
7.886079895174337
4.343026026857207
20.00399549904238
-0.9399358706430573
-3.377904494228816
-14.985821112750893
7.997104676846899
10.278760926498853
-17.397491690263287
16.193190864959284
29.42950419197471
-17.600858547924954
23.262989609422906
22.41379822615875
-30.22874535572612
10.099796909572307
-4.737214087346949
-30.13047323643032
17.43528893871457
-9.013037262160742
1.1155190446267458
27.50885864732218
2.926344307134346
-0.27350616394501326
-12.003865550028138
18.726553595142533
10.838038461665544
2.492962245898152
-6.5274752683101624
16.10255806507541
-15.754755243293406
21.75345241189951
18.868488221639566
1.4262202909095745
-36.29924660401037
11.368288556615962
19.02479779162103
-42.10814104156123
46.89639336922173
12.99921970797132
-24.42669525313539
8.65111833469908
17.63613991176317
33.3328246628675
-6.25714136642371
-10.083956236841242
13.876877323180816
-6.62249736264609
5.900745854565089
9.582923420565326
1.135764227922672
9.950494561444945
-6.757429649347433
4.043301624120643
36.906083318282654
39.10428000897724
-6.8969502468960995
26.05912779456033
12.628408053529949
-12.004616622805596
7.86502470598782
7.517835989670441
2.7397467722824724
11.76851621561836
0.21046507374957857
14.076713022152838
13.697891488297145
-22.498917369745094
12.732105300475416
-28.15543174994667
-5.633032199998562
3.9264012660541545
9.249514238531116
-44.166214340812125
2.530121541267184
10.21474082588902
8.564226766831066
5.539933500015363
18.041371250566424
0.511655285134949
-6.451010198573146
12.860241229275948
-3.4478268767319955
6.959412832572519
16.915912375634118
1.5714480100089125
2.457308332380505
12.365203763957043
47.80166039176849
-11.013409550232765
1.20856033342258
6.198571539693707
10.987486442550232
17.139047535697426
-29.462510316023046
24.19714651057515
-8.490646879965624
17.60476668569052
-2.9846167609976897
-7.225445620901951
20.23853912334839
10.493623215752898
7.016826683645216
1.7087971440648553
-24.475457606017
1.1635502664900403
16.659728555742223
38.129526356312226
32.03236492567467
7.636286650609952
1.3812595116553623
15.884172795273086
9.862163668359962
-8.600531002533925
29.268233420123305
0.11366948199168718
34.750891587524215
-1.0698445186010843
25.18189547487465
19.207998822853014
30.322918961556276
2.5451681550379894
-15.559205547001458
17.25209532695165
28.664280176563626
23.106233116819737
18.945414123437452
14.348907190426084
-7.292437044058348
11.869678598081638
-2.193562884060654
10.85430432522104
14.051859925580231
21.80147767218848
17.70765380334364
2.3597197310392275
2.41005201845567
-9.824950241644403
9.343786863637451
2.438816735724338
26.94906662626454
-3.562462100076633
2.6975330159488475
14.834385928944332
12.973753803090172
-7.3674535874431735
19.437371338351294
-10.48996137197791
34.017523824050095
21.339870338932975
62.09413312652363
-2.044827840460643
-7.830381515857543
29.102269907953456
17.422189558305035
8.440975222899645
17.643969355105874
2.6139701425187973
65.33233191086978
11.031107108406932
-24.565833345882243
-1.6245143648621367
26.73668836777657
-1.4318674511169622
10.278340547777901
2.412010479003148
-8.147746470667999
-15.852237997841042
-46.38512776223821
8.324513079337507
9.13476598913316
-0.4235061131686576
7.550709072387275
0.5002746498892754
5.944799739078377
-2.6134291467826114
8.50493502314718
-14.259727450859726
7.508731700444212
3.885831345672057
10.503284844852159
7.147230192746756
0.31979468841770187
8.321622588695247
-5.706265044402489
10.805004802515313
19.49215217771296
0.21441968482318569
23.14376281339818
-3.0298687822051917
6.639125113869948
24.893353719972403
3.7353618983053094
9.199178515828997
-19.598295245633874
21.736358845445483
-0.7014570078178259
3.2831090336093
0.6390666479494623
-4.454041224242195
10.681146183124705
14.110371415123256
-4.8152442719451845
15.220961346465419
14.824586733538151
2.203224598415713
-0.6377559849992605
-1.1559565138717331
0.6504340898394799
-9.736913239405443
10.710544725912676
-9.239111648850537
6.013135882736384
-1.1412700378899223
0.05753198903876089
20.70091659276547
15.085919640133397
10.928153726824581
-8.625442413357273
7.786333796470734
6.673212616915496
7.610663123689058
25.621992672322325
2.254175296310043
6.2238711960498865
9.479676279115406
18.53878975548264
7.962356747251082
-49.260195235950555
11.971364418348271
-29.94414092424681
-1.4736430188968748
11.031124564713764
10.320366891350853
16.20254358000125
0.43027848745235686
12.975157907499275
-17.430491857813713
-5.426766986493171
21.00620435794865
30.317473277989016
28.421820703942753
31.794413125861002
-4.231910698145265
34.37200459517171
10.363745670862565
22.650419452980458
20.287663988225475
4.9337495922253485
-0.32707698336999047
27.026105728981992
9.338876385517258
6.130738797975921
4.443657436218774
-29.542539142069437
17.892783640611178
7.674651951463185
3.49144549294183
40.80024398491133
50.95475089011355
10.161663063472766
16.41543806025674
2.986656705461243
-3.7575101205343877
9.312921037245133
24.512660585867195
-9.19601048578767
15.103251081670141
-22.91037982944709
3.022147941016561
0.36141214667447535
11.557027188118727
7.091221159544813
3.2156840252742325
17.354214421587415
16.642338735037022
4.352352201310437
34.28103534496532
17.991663946609492
9.36321461103948
0.8129483212979913
13.67359132120038
-21.008651157578814
14.202912703708456
64.01861458602929
30.598447329241235
-9.354681116979464
-1.428299854955808
16.295480955801064
5.118013840553299
-4.144955225851401
2.413045174808644
13.185654789152178
30.73015591574984
2.6227093394840177
3.9306897726639507
26.254265211814058
7.358735400837634
9.929933280267823
-17.463153939584643
5.883024554815914
70.34070857636385
-8.543615876646394
4.240814087921491
12.30657317875387
14.161222484269981
-2.187932411872051
6.130799479787023
39.298941871271595
2.2086276994641736
14.326762699800284
-17.108281713005304
20.62868774760623
15.107963065047475
39.026543504816175
78.49077061396184
8.356325451703475
16.23679878677338
29.23446826772204
-12.146243728730735
17.801441117156475
47.04874910720874
2.12871125039511
7.324047854724194
2.708481005451451
-8.088840541478667
28.025015319119362
18.098900715692395
-5.906931287821766
48.827114802024376
47.881609254504205
-16.011273463650326
10.808598023411877
14.46276437752492
3.351593949342832
12.97679413759479
1.62256849083938
0.9075481583520665
-0.21432999377492779
15.455431990418068
6.804792526099348
6.455071933921594
17.257980768566938
-2.901117555557029
17.05149284958931
19.2885115254976
25.95347757672126
17.723849212326236
10.829698587265307
-8.609017154868482
32.82773776457445
8.339958322566462
8.53738685989643
-1.8925285857991652
12.29395259216129
41.59499308601524
19.293115791483675
-20.805267297280803
22.631859739713104
16.95017531614478
17.061955578923772
3.8099729169271983
-2.0354941532043243
5.506928923170936
5.147503291789667
7.6835532995795415
-8.770557031754675
7.597802416470395
-6.801104597394173
-14.970294695693314
3.4490730084714105
8.526213006369137
31.08462090482569
38.119771334390606
19.553777322749735
-21.270531679109414
9.435714668717926
16.398836743789595
-21.312214789628758
-7.118487038101759
13.682381463190973
20.277227943603314
23.030193308881458
22.857075750571212
-12.324485661504994
-2.972018408894685
11.353960095361442
9.094741466224574
-8.375004962334136
22.955850173168486
-18.60643898376973
-5.854334590210178
12.093490610659652
38.57929102778513
-5.531313786985529
-9.145190237564716
-1.5992047920865144
18.046662088502394
14.311337433228177
-2.1370825576603583
-37.00738455797746
14.011679596536618
-1.4320375171930064
19.407536995162562
15.071427181866238
8.535453007716873
7.888867805854028
-3.108888920547298
16.92585328427086
3.206895708213977
35.316835890126846
36.49321626435123
-12.218832520180557
5.909829570938681
4.4914385838000905
28.96871681541304
6.312504203079829
54.30179011679798
-8.92324403512645
1.8911923898401852
36.55064810062319
8.777241232188324
34.91146136288445
12.70746933567064
24.37769726559445
-7.514203382508189
38.23236168396984
14.64315319571576
11.807307987594411
13.839434769923589
-15.65257110795182
-28.940256090218405
-4.433872964276971
49.36985154748275
23.253964710354406
26.400326321633575
-11.653293936050805
15.482312503151226
1.5383536195162308
4.638490190723246
4.845127979000908
17.315775689008237
-11.601839853115042
25.385330575945005
9.308332368626662
19.175994222819046
-11.764489679477695
