GIS
10
0.0
2
noEvent
event
4
21
3 0
127 0 1
5 1
156
Recipient+2
Giver+0
Org+0
jihad/n
protest/n
Sentence+0
Recipient+1
cross
quit
fight/n
Destination+0
blast/n
torture
birth/n
Origin+4
injured
divorce/n
Time-Starting+3
Time-Starting+4
Prosecutor+2
Position+4
knife
Vehicle+1
transfer/n
Victim+0
Recipient+3
Victim+2
Victim+1
fight
Giver+4
assault
Victim+3
fighting/n
Victim+4
elect
Sentence+1
Entity+4
assault/n
Entity+0
bankruptcy/n
Entity+1
Entity+2
Entity+3
loan/n
appeal/n
meeting/n
raid/n
charge/n
election/n
Time-Before+0
launch
Time-Before+1
sentence/n
call/n
Crime+0
strike
hearing/n
injury/n
donate
Crime+3
Crime+4
Crime+2
conflict/n
Place+4
strike/n
violence/n
injure
Time-Within+0
Time-Within+1
Agent+1
Time-Within+2
Time-Within+3
Agent+0
Time-Within+4
Place+2
Place+3
Place+0
Place+1
detain
talk/n
convict
battle/n
kill
shot/n
trial/n
hit
Destination+1
Person+1
Person+0
head
dead
Person+4
marry
Person+3
Person+2
wedding/n
death/n
successRate=2
successRate=3
successRate=4
successRate=5
Adjudicator+2
Adjudicator+1
Adjudicator+4
war/n
Adjudicator+3
letter/n
Adjudicator+0
attack/n
bomb
suicide/n
Time-Starting+0
Time-Starting+1
Time-Starting+2
Artifact+1
Artifact+2
Artifact+4
die
warfare/n
Artifact+0
Prosecutor+1
Defendant+1
Prosecutor+0
Defendant+0
Position+1
Instrument+3
Defendant+3
Position+0
Instrument+2
Defendant+2
fire/n
Instrument+1
Defendant+4
Instrument+0
explosion/n
suit/n
charge
Target+3
Target+2
wound/n
Instrument+4
Target+4
Attacker+1
Target+1
Attacker+0
Target+0
Attacker+3
bomb/n
Attacker+2
step
Attacker+4
Org+1
shoot
conviction/n
Crime+1
bombings/n
22.94184259629915
14.07333842098703
24.892994675691096
0.39337973080124966
-0.3574642618737358
-6.08148827444807
2.859279506656171
-3.21440892510811
2.0793305678481997
1.1676822939831606
-0.9957689631041187
0.3692686530622522
-0.3222404312399021
-1.5184674221269236
0.9901451596020192
1.4620767660239407
-0.7261165633069038
-3.9508444801623757
2.8556240312095387
-8.902181887961058
3.1073298800802855
-1.600362845023213
0.9531809442631323
-7.117674318028866
2.800561527629233
13.798185500075764
-11.884970057129758
-5.823345422215684
3.6134450449549687
1.8085932562610263
-2.2113524566652756
-1.5198078652026148
1.3529011128222281
-15.286747341436008
3.047364063910117
1.0958842060951355
-1.624364292162747
0.1105723312755722
-0.05775174660652338
-1.0767434958667716
1.30054678580382
-9.941157998603334
3.0684681813825225
-11.318735986370333
4.7500660377350865
-1.9294030923144139
1.0992658066121248
-12.471877709453267
2.996061590344195
3.9393326621568057
-8.146954573738054
-4.975592651404037
2.1002568349742394
2.243141275949985
-2.6626861537744553
2.4486938735385952
-4.767972623221411
4.768352927152169
-12.5913793494581
-12.613969334508647
2.6075460512144164
2.808695272568148
-8.647350449711002
-0.7463488148709152
0.5646633532654368
2.9208311685276067
-4.712417507963902
6.3728891045228515
-6.956680470323899
-13.903458208770187
2.6883984346252965
-12.635188078016286
4.3311366382476155
-11.504920480133007
4.615535784374998
-40.872621730581585
4.4467116756479275
-3.4067391681841483
2.6944932637828583
2.247890841843171
-2.636032306499966
-3.3240738793644655
1.6626441802958714
1.2605740705882407
-0.36558883479206417
-7.604894363022126
5.022735968789761
-2.456795856540227
1.6319536495930016
0.016415417804987342
0.0018282536067584232
-1.217127229321274
0.8412647751245048
3.354733053844594
-3.7411641358936434
0.11517534452623357
-0.042761284787051324
2.61133852793255
-1.8022209304869685
4.133129363992928
-4.7896106529068545
-0.7533396151322038
0.5307912115685762
-1.5976337790765776
1.0256265039712509
0.819397710614878
-0.6335880315023759
-0.7471579757248601
0.6015111400490856
-1.6984775503477865
1.0950488446359339
3.372798015789508
-11.416841130942931
1.0810855078120896
-1.6806919866295833
12.217363586401454
-8.381305500506032
-3.390607409626311
2.1883650659890908
3.090104000152534
-2.865507363667346
-0.091025290170056
0.11639961823570899
2.663234023659541
-0.7351543036240638
3.2174614249056983
-8.60599893031593
-1.1365328893941418
1.171065801732485
-1.1671090503673787
1.006383628364547
-8.973041924968285
2.920112183613947
-2.8522523761585274
6.6678306272431005
1.8991931676211244
-3.3694695795468643
-4.536927125459165
3.7081465369706046
-4.804465919683834
1.750824299106552
-4.924668948835955
2.3406149551794506
-10.38290055217138
3.5960230231587893
0.868520601453115
-0.5078517125067155
-0.32619897881401894
0.3459704736763527
3.152996778642642
-4.744097906239375
0.004264914822678989
0.06737657780577422
-5.72914542673768
2.083344236944855
-0.010918334641397465
0.043628711735238745
3.4991560303833737
-3.126809228359046
-3.1217178313525915
1.6178908998102446
2.618329215874173
-0.7468416023327764
-8.133385514697956
2.3283956978069713
0.43012040740023594
0.23606261806128037
2.9259199447973963
-2.2400730777206226
0.16285856969451018
-0.07951579588962776
-8.282515371108952
1.9980732895581186
1.0173326230782997
-1.1051804312971891
-13.110061653423406
3.8764058262047527
5.099105071150038
-6.045225436731128
-1.5255470137041767
1.3461430992183367
5.649819492791409
-6.982984733387354
3.8309599026319274
-18.173923638788988
2.9397750669091773
-5.9288904465994925
3.571257673793239
-12.581236469832948
-3.950771067708868
1.566153688462529
-1.8430390033665662
1.3001462862873443
1.322222012340424
-2.1491552714221402
-13.245474533072054
4.383683661007033
0.0636930213963689
0.062093685695282286
-15.2312126469166
3.7137269338360523
-2.0146155652693296
1.5975337257196656
9.356832345671954
-14.889799633193254
2.1216395760742115
-3.293872498519203
-5.804974373478222
2.4874086022617155
0.9208953232970898
-0.7656452669855844
-7.701431869457338
3.1300733300352017
-2.9962881188166333
1.4050389935803524
-10.79397988098002
3.2846333574673063
4.274603976582554
-3.52118420467128
-3.6368850402314523
1.901163793902948
2.6553824529707946
-1.9295302691140241
-20.826273335494687
3.1980333596293327
1.0886354419260669
-1.302219039562681
7.283206187809675
-6.513744664363466
-2.035361568234336
1.4379670344076128
-1.3355566432269455
0.8558825096429254
-7.437563717611527
4.2237683086743125
-6.575343222547887
1.9718164023485094
-6.5197882433838545
2.6658787625020253
1.1856469835732866
-0.8169302730769958
-0.7246920759564976
0.5048060812670658
-2.462211272529412
1.2803976253248708
3.206784574314392
-3.4714843974731053
0.039844747790674706
-0.015574204629507094
-3.0702658118174346
3.192411316642471
-4.549685271130691
2.6725596508533767
-3.5164006454292136
2.9935429566460043
-4.4117446051948495
1.9141894228752534
12.044392545171553
21.373198129568333
14.591260699534295
22.632938373993547
21.615530773824858
