GIS
13
0.0
35
Victim
Time-Within
Place
Instrument
Target
Artifact
Vehicle
Destination
Agent
Attacker
Time-After
Origin
Person
Time-Before
Time-At-End
Entity
Plaintiff
Adjudicator
Money
Defendant
Giver
Crime
Sentence
Recipient
Time-Holds
Position
Price
Buyer
Seller
Time-At-Beginning
Time-Starting
Org
Time-Ending
Beneficiary
Prosecutor
982
555
31 0
4 0 1
3 0 1 2
5 0 1 2 3 4 5 6 7 8 9 10 11 12 13 14 15 16 17 18 19 20 21 22 23 24 25 26 27 28 29 30 31 32 33 34
1 0 1 2 3 4 5 6 7 8 9 10 11 12 13 14 15 16 17 18 19 20 21 22 23 24 25 27 28 29 30 31 32 33 34
1 0 1 2 3 4 5 6 7 8 9 10 11 12 13 14 15 16 17 19 20 21 22 23 24 25 27 28 29 30 31 32 33 34
1 0 1 2 3 4 5 6 7 8 9 10 11 12 13 15 16 17 18 19 20 21 22 23 24 25 26 27 28 29 30 31 32 33 34
1 0 1 2 3 4 5 6 7 8 9 10 11 12 13 15 16 17 18 19 20 21 22 23 24 25 26 27 28 31 32 33 34
1 0 1 2 3 4 5 6 7 8 9 10 11 12 14 15 16 17 18 19 20 21 23 24 26 27 28 31 33 34
1 0 1 2 3 4 5 6 7 8 9 10 11 12 14 15 16 17 18 19 20 21 23 24 27 28 30 31 34
1 0 1 2 3 4 5 6 7 8 9 10 11 12 15 17 20 23 24 26 27 31
1 0 1 2 3 4 5 6 7 8 9 10 12 15 16 17 19 20 21 22 30 31 32 33
1 0 1 2 3 4 5 6 7 8 9 11 12 13 14 15 16 17 18 19 20 21 22 23 24 25 27 28 29 30 31 33 34
1 0 1 2 3 4 5 6 7 8 9 11 12 13 15 16 17 18 19 20 22 23 27 28 30 34
1 0 1 2 3 4 5 6 7 8 9 11 12 13 15 20 23 25 27 28 31
1 0 1 2 3 4 5 6 7 8 9 11 12 15 16 17 18 19 20 21 22 23 24 25 27 28 31 34
1 0 1 2 3 4 5 6 7 8 9 11 12 15 16 17 18 19 20 21 22 23 24 25 27 31 32 33 34
1 0 1 2 3 4 5 6 7 8 9 11 12 15 17 18 19 20 21 22 23 24 25 26 27 28 29 30 31 32 33 34
1 0 1 2 3 4 5 6 7 8 9 11 12 15 17 18 19 20 22 23 25 26 30 31 33
1 0 1 2 3 4 5 6 7 8 9 11 12 15 17 20 21 25 27 28 33
1 0 1 2 3 4 5 6 7 8 9 12 14 15 16 17 18 19 20 21 23 24 25 27 28 29 30 31 32 33
1 0 1 2 3 4 5 6 7 8 9 12 14 15 16 17 19 20 21 23 24 27 28 30 31 33 34
1 0 1 2 3 4 5 6 7 8 9 12 15 16 17 19 20 23 25 27 28 31 33 34
1 0 1 2 3 4 5 6 7 9 10 11 12 13 14 15 17 18 19 20 21 23 24 25 29 30 31 32 33
1 0 1 2 3 4 5 6 8 9 11 12 15 16 19 20 21 23 25 27 31 33
1 0 1 2 3 4 5 6 8 9 11 12 15 17 18 19 21 23 27 31
1 0 1 2 3 4 5 6 30
1 0 1 2 3 4 5 7 8 9 10 11 12 14 15 17 19 20 21 23 24 25 26 30 33
1 0 1 2 3 4 5 7 8 9 10 11 12 15 17 18 19 20 21 22 23 24 27 30
1 0 1 2 3 4 5 7 9 10 11 12 15 16 17 19 20 21 23 25 28 30
1 0 1 2 3 4 5 7 9 11 12 15 16 18 19 20 21 22 24 31
1 0 1 2 3 4 5 8 9 11 15 16 20 21 23 27 30
1 0 1 2 3 4 5 8 9 12 14 15 17 18 19 21 24 25 26 27 28 31 34
1 0 1 2 3 4 5 8 9 12 15 18 19 23 27 31
1 0 1 2 3 4 5 8 9 15 18 19 20 21 23 24 25
1 0 1 2 3 4 8
1 0 1 2 3 4 8 9 10 13 14 15 24 29 30 32
1 0 1 2 3 4 8 9 12 13 29 30 32
1 0 1 2 3 4 8 9 30
1 0 1 2 3 4 8 9 31
1 0 1 2 3 4 9
1 0 1 2 3 4 9 13 15 24 30 32
1 0 1 2 3 4 9 29 32
1 0 1 2 3 5 6 7 8 9 11 12 14 15 24 31
1 0 1 2 3 5 7 8 9 12 14 19 21 24
1 0 1 2 3 5 9 12 15 16 19 20 23 25 27 31
1 0 1 2 3 7 8 9 10 11 12 14 15 19 20 21 22 23 24 25 27 29 34
1 0 1 2 3 7 8 9 11 12 15 19 20 23 24 25
5 0 1 2 3 8
1 0 1 2 3 8 9 30
1 0 1 2 3 8 10
1 0 1 2 3 8 10 12 13 24 29 30 32
1 0 1 2 3 8 10 12 19 22
4 0 1 2 3 8 12
1 0 1 2 3 8 12 24
1 0 1 2 3 8 12 25
1 0 1 2 3 8 13 24
1 0 1 2 3 8 29
1 0 1 2 3 9
1 0 1 2 4
1 0 1 2 4 5 6 7 8 9 12 15 16 17 19 20 23 27 28 31 34
1 0 1 2 4 5 6 7 9 10 11 12 13 15 17 19 21 23 24 25 30 31 32
1 0 1 2 4 5 6 8 9 12 15 19 30
1 0 1 2 4 5 6 8 9 15 17 19 21 24 32
1 0 1 2 4 5 8 9 10 12 13 15 16 17 19 27 28 31
1 0 1 2 4 5 8 9 11 12 15 17 19 20 31
1 0 1 2 4 5 8 9 12 15 16 19 21
1 0 1 2 4 5 9
1 0 1 2 4 5 10 12 15 20 24 29 30 31
1 0 1 2 4 6
1 0 1 2 4 6 7 11 12 15 17 19 24 26 28 30 32
1 0 1 2 4 8 9
1 0 1 2 4 8 9 24
1 0 1 2 4 8 9 25
1 0 1 2 5 6 7 8 10 11 13 14 24 29 30 32
1 0 1 2 5 6 7 8 11 12 17 18 19 20 21 22 23 27 29 31 32
1 0 1 2 5 6 8 11 12 25
1 0 1 2 5 7 11 15 18 19 21 24 28
1 0 1 2 5 10 15 17 18 20 23 24 27 33
5 0 1 2 8
1 0 1 2 8 10 12 21 29
1 0 1 2 8 12
1 0 1 2 8 12 21 30 32
1 0 1 2 12 29 30
1 0 1 2 32
1 0 1 3 4 5 6 8 9 10 12 15 16 19 22 23 24 25 31
1 0 1 3 4 5 8 9 11 12 15 19
1 0 1 3 4 5 9 12 15 18 22 31
1 0 1 3 4 9 15
1 0 1 3 5 6 7 8 9 12 13 15 17 20 22 23 27 28
1 0 1 3 8 12
1 0 1 3 8 13 15 25
1 0 1 4
1 0 1 4 5 8 9 11 12 19 23
1 0 1 4 5 8 9 12 15 17 19
1 0 1 4 5 9 12 15 23
1 0 1 4 14
1 0 1 4 15
1 0 1 5 6 7 8 11 14 24 29 30
1 0 1 5 7 11 15
1 0 1 5 8 9 12 15 17 19 20 24 31
1 0 1 5 9 12 15 16 19 20 23 25 27 31
1 0 1 5 12 15 17 18 19 20 22 23 25 27 28 33
1 0 1 5 15 20 23
1 0 1 7 9 11 15
1 0 1 8 12
1 0 1 12
1 0 1 12 14 25
1 0 1 12 15 19 24
2 0 2
1 0 2 3
1 0 2 3 4 5 6 7 9 11 15 16 17 19 23 28 31 33
1 0 2 3 4 5 6 8 9 11 12 15 16 17 19 20 21 23 25 27 28 31 33 34
1 0 2 3 4 5 6 8 9 11 12 15 17 19 20 27 28 31
1 0 2 3 4 5 7 9 12 15
1 0 2 3 4 5 8 9 12 15 16 19 28
1 0 2 3 4 5 12 15 16 18 20 21 24 27 31
1 0 2 3 5 6 7 8 9 12 15 17 20 23 25 27 28 31 33
1 0 2 3 5 6 8 9 11 12 15 19 34
2 0 2 3 8
2 0 2 3 8 12
1 0 2 3 12 30
1 0 2 4 5 6 7 8 9 11 12 13 15 17 19 21 22 23 25 27 31 32 33 34
1 0 2 4 5 8 9 11 12 15 16 19 20 23
1 0 2 4 5 8 9 12 17 19
1 0 2 4 5 9 12 15 16 19 27
1 0 2 4 7 11 12 15 17 21 22 23 25 27
3 0 2 4 8 9
1 0 2 4 11 12 19 21
1 0 2 5 6 10 12
1 0 2 5 7
1 0 2 5 7 8 31
1 0 2 5 7 9 12 13 16 17 19 21 24
1 0 2 5 8 9 12 15 16 31
1 0 2 5 8 9 12 23
1 0 2 5 8 12 20
1 0 2 5 9 12 15 21 25
1 0 2 7
2 0 2 8
1 0 2 8 9
2 0 2 8 12
1 0 2 8 12 32
1 0 2 9
1 0 2 12
1 0 3 4
1 0 3 4 5 6 8 9 12 15 16 17 19 20 23 27 28
1 0 3 4 5 8 9 12 15 17 19 20 21 27 28 31
1 0 3 4 5 8 9 12 15 19 20 21
1 0 3 4 5 8 9 12 15 23
1 0 3 4 5 9 12 15 17 19 23 27 31 33
1 0 3 4 5 9 12 16 24
1 0 3 4 7 9 12 13 17 18 20 24 27 31
1 0 3 5 6 9
1 0 3 5 8 9
1 0 3 5 8 12
1 0 3 5 9 20 23 27
2 0 3 8
1 0 3 8 9
1 0 3 8 9 12
1 0 3 8 9 12 20 27
1 0 3 8 12
1 0 3 8 12 24
5 0 3 12
9 0 4
1 0 4 5
1 0 4 5 8
2 0 4 5 8 9
1 0 4 5 8 9 11 12 15 19 23 33
1 0 4 5 8 9 12 15
1 0 4 5 8 9 12 15 16 17 19 20 23 27 28 31 33 34
1 0 4 5 8 9 12 15 16 17 19 20 23 27 31 33
2 0 4 5 8 9 12 15 16 19
1 0 4 5 8 9 12 15 16 19 20
1 0 4 5 8 9 12 15 16 19 20 23 31 33
1 0 4 5 8 9 12 15 16 19 23 31
1 0 4 5 8 9 12 15 16 19 27
1 0 4 5 8 9 12 15 19 20 23
1 0 4 5 8 9 12 15 19 20 27 34
1 0 4 5 8 9 12 15 19 23
2 0 4 5 8 9 12 19
1 0 4 5 8 9 15 17 19 20 23 27
1 0 4 5 8 9 15 27 33
2 0 4 5 8 9 27
1 0 4 5 8 15 19
1 0 4 5 9
1 0 4 5 9 12 15 19 23
1 0 4 5 9 12 15 20
1 0 4 5 9 12 19 23 28
1 0 4 5 9 15
1 0 4 5 9 15 21
1 0 4 5 9 16
1 0 4 5 9 28
3 0 4 5 12
3 0 4 5 12 15
1 0 4 5 12 15 20
1 0 4 5 12 15 33
1 0 4 5 12 16 19
1 0 4 5 12 23 25
3 0 4 5 15
1 0 4 5 19
1 0 4 6
1 0 4 6 11 15
1 0 4 7 8 15 25 31
3 0 4 8 9
1 0 4 8 9 12 15
1 0 4 8 9 12 15 19 20 23 27 28
1 0 4 8 9 12 19
1 0 4 8 9 19
1 0 4 8 12
1 0 4 8 12 15 19 23
1 0 4 8 15 21
2 0 4 9
1 0 4 9 15 19
1 0 4 9 15 19 20 28
1 0 4 9 15 20 23 33
1 0 4 9 28
1 0 4 10
2 0 4 12
1 0 4 12 15
1 0 4 12 15 25
1 0 4 12 25
1 0 4 15
1 0 4 19
1 0 4 23
1 0 5
1 0 5 6 7 9 15 19
1 0 5 8
1 0 5 8 9
1 0 5 8 9 12
1 0 5 8 12
1 0 5 8 12 15 17 19
1 0 5 8 15 19
1 0 5 8 15 19 27
1 0 5 8 15 23 27
1 0 5 9 12 15 16 23 28
1 0 5 9 12 15 25
1 0 5 9 15
1 0 5 12
3 0 5 12 15
1 0 5 12 15 19
1 0 5 15 19
1 0 5 15 23
27 0 8
1 0 8 9
1 0 8 9 12 15 16 28 31
1 0 8 9 12 19
1 0 8 9 15
1 0 8 9 15 20 28 31
12 0 8 12
2 0 8 12 15
1 0 8 12 21
1 0 8 12 25
1 0 8 15
1 0 8 18 26 31
1 0 9
1 0 9 12 31
2 0 9 15
6 0 12
1 0 12 13
1 0 12 15
1 0 12 15 18 20 23
1 0 12 15 19 33
1 0 12 15 25
1 0 15 19
1 0 23
1 0 25
25 1
10 1 2
1 1 2 3 4
1 1 2 3 4 5 6 7 8 9 11 12 15 16 17 19 20 21 23 25 27 31 32
1 1 2 3 4 5 6 7 8 9 11 15
1 1 2 3 4 5 6 9 12 15 16 22
1 1 2 3 4 5 7 8 9 10 11 30 31 32
1 1 2 3 4 5 7 8 9 11 12 15 17 19 20 21 22 23 27
1 1 2 3 4 5 7 8 9 12 15 25
1 1 2 3 4 5 7 9 15 16 17 20 21 23 27 30 31 34
1 1 2 3 4 5 15 19 20 25
1 1 2 3 4 8 9
1 1 2 3 4 8 9 31
10 1 2 3 4 9
1 1 2 3 4 9 10 13
1 1 2 3 4 9 10 13 15 24
1 1 2 3 4 9 12 15 25 30
1 1 2 3 4 9 13 15 24
1 1 2 3 4 9 13 24
1 1 2 3 4 9 13 24 30
1 1 2 3 4 9 13 29
3 1 2 3 4 9 15
2 1 2 3 4 9 15 24
1 1 2 3 4 9 15 24 30
1 1 2 3 4 9 17 19 21 32 34
3 1 2 3 4 9 24
1 1 2 3 4 9 24 30
2 1 2 3 4 9 30
1 1 2 3 4 9 30 32
1 1 2 3 7 8 9 11 15 17 18 21 22 23 24 25 26 28 29
3 1 2 3 9
1 1 2 3 9 14 24
1 1 2 3 9 15 24
1 1 2 3 9 24
1 1 2 3 15 19 21
5 1 2 4
1 1 2 4 5 7 9 11 18 23 31 32
1 1 2 4 7 15
1 1 2 4 7 15 21 31
7 1 2 4 9
1 1 2 4 9 12
1 1 2 4 9 12 15 20 34
1 1 2 4 9 13 30
1 1 2 4 9 14
1 1 2 4 9 15
1 1 2 4 9 15 30
1 1 2 4 9 16 19
3 1 2 4 9 24
1 1 2 4 9 30
1 1 2 4 12 15 17
1 1 2 4 24 30
1 1 2 5
1 1 2 5 6 7 8 10 11 12 15 30
1 1 2 5 6 7 8 11 12 14 15 19 24 29
1 1 2 5 6 7 13 18 21 29 30 32
1 1 2 5 7 8 10 11 12 15 24 29
1 1 2 5 7 8 11 12 15 23 25 30 31
1 1 2 5 7 8 12 15 21 25 31
1 1 2 5 7 11 12 15 17 19 21 24 25 26
1 1 2 5 7 11 23
1 1 2 5 7 13 15
2 1 2 5 7 15
1 1 2 5 7 19 21
1 1 2 5 7 27
1 1 2 5 8 11 14 28
1 1 2 5 8 11 27
1 1 2 5 8 12 13 27 28 33
1 1 2 5 8 15
1 1 2 5 9 12 27 28
1 1 2 5 10 13 18 20 23 24 26 27 28 29 30 32 33
1 1 2 5 10 18 20 23 24 32 33
1 1 2 5 12 15 25 26 27 28
1 1 2 5 18 20 23 26 27 28 29 33
1 1 2 5 20 23 27 28 33
1 1 2 5 23
1 1 2 5 26 27 28
1 1 2 5 26 27 28 33
1 1 2 6 8 11 13 14 17 20 21
1 1 2 6 24
1 1 2 7 8 10 11 12 13 14 15 16 17 18 19 21 22 24 29 30 32 34
1 1 2 7 13
1 1 2 7 17 19 21 30 32
1 1 2 8 9
1 1 2 8 9 12 15
1 1 2 8 10 12 13 14 15 24 25 29 30 32
1 1 2 8 10 13 24 29 30 31 32
1 1 2 8 12 14 15 16 17 19 21 34
1 1 2 8 12 15 16 17 18 19 21 22 34
1 1 2 8 12 15 20
3 1 2 8 12 15 25
1 1 2 8 12 16 17 18 19 21 22 34
1 1 2 8 12 16 17 19 21 22 24 34
1 1 2 8 12 21
1 1 2 8 12 21 29 32
1 1 2 8 13 31
1 1 2 8 19
1 1 2 8 31
1 1 2 9
1 1 2 9 11 12 23
1 1 2 9 12 15 27
1 1 2 9 24
1 1 2 9 32
1 1 2 10 12 13 15 18 20 23 25
1 1 2 10 12 15 18 20 21 33
1 1 2 10 12 15 25
1 1 2 10 12 15 25 29 30
1 1 2 10 12 15 25 31
1 1 2 10 13 15 24 29 30 32
1 1 2 10 15 24
1 1 2 10 15 29 30
1 1 2 10 15 30
4 1 2 12
1 1 2 12 13 14 15 25
1 1 2 12 13 15 17 19 21 30
1 1 2 12 13 17 19 21 22 34
1 1 2 12 13 25 32
4 1 2 12 15
1 1 2 12 15 21
1 1 2 12 15 24 25
3 1 2 12 15 25
1 1 2 12 15 25 29
1 1 2 12 15 25 29 30
3 1 2 12 15 25 30
1 1 2 12 16 18 19 21 22
1 1 2 12 17 18 19 21 22 24 29 30 34
1 1 2 12 17 19 21 22 30
1 1 2 12 21
1 1 2 12 24
1 1 2 12 31 32
1 1 2 13 15 30
1 1 2 13 30
1 1 2 14 15
1 1 2 14 17 19 21 22
13 1 2 15
1 1 2 15 17
1 1 2 15 17 18 21
5 1 2 15 24
1 1 2 15 24 30 32
2 1 2 15 24 32
1 1 2 15 29
1 1 2 15 30
1 1 2 15 32
1 1 2 16 17
1 1 2 16 17 19 21 24
1 1 2 16 17 21 24
1 1 2 16 19 21
2 1 2 17 19 21
1 1 2 17 19 21 24 30 34
1 1 2 17 19 21 30 34
1 1 2 17 19 21 34
1 1 2 18
1 1 2 18 20 23
1 1 2 18 20 23 33
1 1 2 20 30
1 1 2 21
4 1 2 24
1 1 2 29 30
1 1 2 29 31
1 1 2 30 32
2 1 2 31
1 1 3 4 9 15 24
1 1 3 9
3 1 4
1 1 4 5 31 33
5 1 4 9
1 1 4 9 15
1 1 4 9 18 23
1 1 4 9 24
1 1 5 6
6 1 5 6 7
1 1 5 6 7 8
1 1 5 6 7 8 10 11 13 14 29 32
1 1 5 6 7 8 10 11 15 18 20 23 29
1 1 5 6 7 8 10 11 24
4 1 5 6 7 8 11
1 1 5 6 7 8 11 13 15 24 30
1 1 5 6 7 8 11 24 30
1 1 5 6 7 8 11 24 30 32
1 1 5 6 7 8 11 30
1 1 5 6 7 8 30
1 1 5 6 7 10 11 12 13 14 15 30
1 1 5 6 7 10 11 13
2 1 5 6 7 11
1 1 5 6 7 11 13 14
1 1 5 6 7 11 14 30 32
1 1 5 6 7 11 24
1 1 5 6 7 11 30
1 1 5 6 8 11
1 1 5 6 8 11 12
2 1 5 7
2 1 5 7 8
1 1 5 7 8 11
1 1 5 7 8 11 12 13 15 25
1 1 5 7 8 11 15 24
1 1 5 7 8 12 15 25 31
3 1 5 7 11
2 1 5 7 11 12 15
1 1 5 7 11 12 15 19
1 1 5 7 12 15
1 1 5 7 14
1 1 5 7 15
1 1 5 7 18 19 22 31
1 1 5 8 9 15 27
2 1 5 8 11
1 1 5 8 11 12 15 25 31
1 1 5 8 12 15 16
1 1 5 9 12 19 31
1 1 5 13 18 20 23 26 27 28 33
1 1 5 14
1 1 5 18 23 27 28 33
1 1 5 20 23 26 33
1 1 5 20 23 27 28 33
2 1 5 26 27 28
1 1 5 29
1 1 6 7 8
1 1 6 7 11 32
1 1 6 8 11 14
1 1 7
1 1 7 8 11 12
1 1 7 10 13
2 1 7 11
1 1 8 10 29
1 1 8 12
1 1 8 12 15
1 1 8 12 15 31
1 1 8 12 21 24
1 1 8 19 22
4 1 8 31
1 1 9
1 1 9 12
3 1 9 24
1 1 9 32
1 1 10
1 1 10 12 15 25
1 1 10 13 14 24 29
1 1 10 13 14 24 29 30 32
1 1 10 13 24
2 1 10 13 30 32
1 1 10 24
6 1 12
1 1 12 13
1 1 12 14 17 19 21 24 30
1 1 12 15
3 1 12 15 25
2 1 12 16 19
1 1 12 18
1 1 12 18 20 23
1 1 12 18 25
1 1 12 19 24
1 1 12 21
1 1 12 25
3 1 13
1 1 13 18 23 33
2 1 13 30
2 1 14
1 1 14 24
7 1 15
2 1 15 24
1 1 15 24 30
2 1 15 30
1 1 15 31
2 1 16 19
1 1 17 19 21 24
1 1 18 20 23
1 1 18 20 23 30 33
1 1 18 23
1 1 18 23 26 28
3 1 19
4 1 19 21
1 1 19 21 34
1 1 19 22
1 1 20 23
2 1 21
3 1 24
1 1 24 30
2 1 29 30
1 1 29 30 32
11 1 30
4 1 30 32
1 1 31
2 1 32
34 2
3 2 3 4
1 2 3 4 5
1 2 3 4 5 7 9 24
1 2 3 4 5 8 9 12 15
1 2 3 4 5 9 12 15 17 21 31
1 2 3 4 5 9 12 15 17 31
11 2 3 4 9
1 2 3 4 9 10 15
3 2 3 4 9 15
1 2 3 4 9 15 24
1 2 3 4 9 15 30
1 2 3 4 9 29
1 2 3 4 12 15
1 2 3 4 15 24
1 2 3 5 6
1 2 3 5 6 7 8 11
1 2 3 5 7 15 32
1 2 3 5 12
2 2 3 8
1 2 3 8 9
1 2 3 9
1 2 3 9 11 12 15 17 20 25 28
1 2 3 9 15
10 2 4
1 2 4 5 7 8 9 11 14
2 2 4 5 7 11
1 2 4 5 7 11 23
1 2 4 5 8 9 12 15 17 20 23 31 34
1 2 4 5 8 12 15 23 31
1 2 4 5 12
6 2 4 7
1 2 4 7 9 15 16 19
1 2 4 7 9 19
6 2 4 7 11
1 2 4 7 11 15
1 2 4 7 23
11 2 4 9
1 2 4 9 10
1 2 4 9 12 15
1 2 4 9 13
1 2 4 9 15 30
1 2 4 9 32
1 2 4 10 24 30
1 2 4 11 31
1 2 4 20
1 2 5
2 2 5 7
1 2 5 7 8 9 12 15 19 20 25 28
1 2 5 7 11
1 2 5 7 12
1 2 5 7 12 15 21 22
1 2 5 7 12 19 20 23 24 34
1 2 5 8 9 12 19 20
1 2 5 8 9 15 21 33
1 2 5 8 15
1 2 5 9 12 15 16
1 2 5 11 15 23
1 2 5 18 20 23 27 28
1 2 5 18 20 23 27 28 33
18 2 7
1 2 7 8 9 11 15 16 17 19 20 23 27 28 33 34
1 2 7 8 9 11 15 20
1 2 7 8 9 11 15 28
1 2 7 8 9 11 16 17 23 27
1 2 7 8 9 11 34
1 2 7 8 9 15
1 2 7 8 9 15 23 28
1 2 7 8 9 15 28
1 2 7 8 11 12 17 19 21 22 34
1 2 7 8 11 15 23 33
2 2 7 9 11
1 2 7 9 11 15 19 33
1 2 7 9 11 15 27
16 2 7 11
6 2 7 11 15
1 2 7 11 32
1 2 7 11 33
2 2 7 15
1 2 7 15 20
1 2 7 15 20 23
1 2 7 15 27
1 2 7 17 21 22
1 2 8 9
1 2 8 9 11
1 2 8 9 12 15
1 2 8 9 15 16 20 23 31 34
1 2 8 9 15 23 27
1 2 8 9 27
1 2 8 11 15
1 2 8 12 15 16 17 18 19 21 22 34
1 2 8 12 15 16 17 19 21 34
1 2 8 12 15 16 17 19 34
1 2 8 12 16 17 19 34
1 2 8 15 17 19 21 24 34
1 2 8 15 17 23
1 2 8 15 31
1 2 8 15 32
1 2 8 16
1 2 8 17
1 2 8 20
1 2 8 27
2 2 8 31
15 2 9
1 2 9 10 17 19
1 2 9 11 15
3 2 9 15
1 2 9 15 27
1 2 9 23 27 28
1 2 9 24 30
6 2 11
1 2 11 15
1 2 11 17 19
2 2 12
2 2 12 15
1 2 12 15 17 20
1 2 12 15 23
1 2 12 15 24 25 30
4 2 12 15 25
1 2 12 15 25 30
1 2 12 19 21 22 24
11 2 15
1 2 15 16 17 19 21
1 2 15 21
1 2 15 24
6 2 15 25
2 2 15 30
1 2 16 17 19 21
4 2 17
1 2 17 18 21 22
1 2 17 19 21
1 2 17 19 21 34
1 2 17 21
1 2 18 19 20 22 23
1 2 19 21 22
1 2 19 21 24
2 2 19 21 34
1 2 20 23 24 26 27
1 2 20 23 27 28 33
1 2 20 23 28
1 2 20 23 33
1 2 23 27 33
1 2 24 30
32 3
7 3 4
1 3 4 5
6 3 4 5 6
1 3 4 5 8 33
2 3 4 6
8 3 4 9
1 3 4 9 15
2 3 4 9 24
6 3 5
1 3 5 6 7 8 30
1 3 5 6 7 9 15
1 3 5 6 8 9 12 15 16 17 19
1 3 5 8 9 11 12 15 16 17 20 22 27 28 30 34
1 3 5 8 9 12 13 15
1 3 5 8 12 15 31
1 3 5 9 12 15 28
1 3 5 15 19 20
1 3 5 16
2 3 6
1 3 7 8 9 11 15 30 31
1 3 8
9 3 9
1 3 9 15
1 3 9 15 30
1 3 12
1 3 15 16
13 4
1 4 5 6
1 4 5 7
1 4 5 7 8 11 12 31
1 4 5 7 9 11 30
1 4 5 7 9 15 28
1 4 5 7 16
1 4 5 8 9
1 4 5 8 9 10 15
1 4 5 8 9 12 15
1 4 5 8 9 12 15 19 20 27 28
1 4 5 8 9 12 15 20
1 4 5 8 9 15
1 4 5 8 9 15 16 17 19 20 23 27 28 31 33 34
1 4 5 8 9 27 33
1 4 5 8 9 31
1 4 5 8 11
1 4 5 8 12 15 16 19 20
2 4 5 8 15
1 4 5 9
1 4 5 9 12
2 4 5 9 12 15
2 4 5 9 15
1 4 5 9 27
1 4 5 12 15
1 4 5 12 15 19
1 4 5 12 20
1 4 5 12 20 23 33
1 4 5 15
1 4 5 15 33
1 4 5 24 25
1 4 6
1 4 7
1 4 7 15
1 4 8 9
1 4 8 9 15
1 4 8 9 15 31
1 4 8 9 31
1 4 8 12
1 4 8 12 15 19
1 4 8 12 19
1 4 8 15 16 23
1 4 8 15 25
32 4 9
1 4 9 10 12 15
1 4 9 12
1 4 9 12 15
3 4 9 15
1 4 9 15 16 19 23 33
1 4 12 15 21
1 4 12 25
1 4 15 19 20 23 31
1 4 15 31
21 5
10 5 6
3 5 6 7
3 5 6 7 8
1 5 6 7 8 10 11 17 19
4 5 6 7 8 11
1 5 6 7 8 11 20 23
1 5 6 7 8 11 32
2 5 6 7 11
1 5 6 7 24 30
2 5 6 8
3 5 6 8 11
1 5 6 11
6 5 7
1 5 7 8
1 5 7 8 10 11 24
2 5 7 8 11
1 5 7 8 24 32
1 5 7 10 11
3 5 7 11
1 5 7 11 20 23 24
1 5 7 12 15 24 25 32
1 5 7 12 19 26
1 5 7 24 30 31
20 5 8
2 5 8 9
1 5 8 9 12 15
1 5 8 9 12 15 17 28
1 5 8 9 12 15 19 20
1 5 8 9 12 19
2 5 8 9 15 20
1 5 8 10 27 33
4 5 8 11
1 5 8 11 17 19
1 5 8 12
1 5 8 12 15 19
1 5 8 12 27
1 5 8 13
2 5 8 15
1 5 8 15 16 23
1 5 8 15 18
1 5 8 18 31
1 5 8 20 27
1 5 9 12
1 5 9 12 15
1 5 9 12 15 16 27 28
1 5 9 15 20 24
1 5 9 23
2 5 11
1 5 12 15
1 5 12 15 16 19
1 5 12 19 25
1 5 12 20
1 5 12 25
1 5 13 20 23 27 28
5 5 15
1 5 15 17 19
1 5 15 19 23 27 28 31
1 5 15 20
1 5 18 20
1 5 18 20 23 26 33
1 5 18 20 23 27 33
1 5 18 23
1 5 18 23 27
1 5 18 24 28
1 5 18 26 27 28
1 5 19
1 5 20 23 27 33
1 5 20 27
1 5 23
1 5 26 27
2 5 27
3 5 27 28
1 5 27 29
1 5 31
2 6
1 6 11
1 6 11 15
13 7
1 7 8
2 7 8 11
1 7 8 11 12
1 7 8 12 15 19 23 31
1 7 9 11 15
1 7 9 15 31
1 7 9 18 22
27 7 11
1 7 11 22
1 7 11 24 29
1 7 11 30
1 7 12 25
1 7 17
1 7 18 22
6 8
2 8 9
1 8 9 12
1 8 9 12 15 19 23
1 8 9 12 16 20 23 28 34
2 8 9 12 19
1 8 9 15
1 8 9 15 21
1 8 9 15 27 31
1 8 9 15 31
1 8 9 27
1 8 9 27 33
1 8 10 24 30
2 8 12
1 8 12 15
1 8 12 15 16 17 19 34
1 8 12 15 17 18 19 22
2 8 12 15 17 19
1 8 12 15 25
1 8 12 25
1 8 13
1 8 15 16 17
1 8 15 17
1 8 16 17 19 22 34
1 8 16 17 22 34
3 8 19
5 8 31
15 9
1 9 12
2 9 12 19
2 9 15
1 9 15 23
1 9 15 23 28
1 9 18
1 10 12 15 25
1 10 15
1 10 31
2 11
27 12
6 12 15
2 12 15 16 17 19
1 12 15 16 19
1 12 15 17
1 12 15 18 23
2 12 15 19
1 12 15 21 22
1 12 15 24 30
8 12 15 25
1 12 15 25 30
1 12 16 18 21
3 12 16 19
2 12 16 19 21
1 12 16 19 22
2 12 17 19
2 12 17 19 21
1 12 18
2 12 19
2 12 19 21
1 12 19 25
1 12 21 30
2 12 23
5 12 25
1 13 18 20 23 27 28
59 15
1 15 16
2 15 16 19
1 15 16 19 23 34
1 15 16 31
1 15 17
1 15 17 23 34
1 15 18 20
1 15 18 23
1 15 19
1 15 19 20
1 15 20
1 15 20 28
1 15 24
4 15 25
1 15 28
1 15 31
1 16 17 19
3 16 19
2 16 21
2 17
4 17 19
1 17 19 21
1 17 19 21 29
1 17 21
1 18
1 18 20 23
1 18 20 23 24
1 18 20 23 33
1 18 23
1 18 23 27
2 18 26
19 19
1 19 21
2 19 22
1 19 22 25
2 20
2 20 23
1 20 23 24
2 20 23 27 28
3 20 23 27 28 33
5 20 23 33
3 20 27 28
1 20 27 28 33
2 20 28
11 21
2 21 22
3 22
6 23
1 23 27
1 23 33
4 25
1 27 33
8 31
2 34
2449
prevTokenAndType=Personnel_Cabinet
arg=THOUSANDS
prevTokenAndType=Conflict_are
evTypeArg=Elect:January
prevToken=sell
prevTokenAndType=Conflict_were
evTypeArg=Trial-Hearing:murder
chunkPathAndType=Conflict_precede_of
anchor=spoke/n
prevToken=year
anchor=report
prevToken=long
evTypeArg=Transfer-Ownership:troops
arg=Bechtel
prevToken=provides
synPathTypes=Justice_PER_of
evTypeArg=Injure:bullet
chunkPathAndType=Justice_precede_in
prevToken=seized
synPathTypes=Conflict_WEA_of
arg=AIG
evTypeArg=Arrest-Jail:police
chunkPath=follow_PERSON
arg=representatives
chunkPathAndType=Personnel_follow_the
chunkPathAndType=Conflict_precede_in
arg=militant
prevTokenAndType=Transaction_sell
evTypeArg=Attack:Wednesday
synPath=object-1:receive:subject
evTypeArg=Elect:he
prevTokenAndType=Movement_so
evTypeArg=Transfer-Ownership:it
arg=MCI
prevTokenAndType=Life_been
prevTokenAndType=Transaction_"
chunkPath=precede_who_have_be
chunkPathAndType=Justice_precede_to
synPathEvType=Conflict_object-1:stage:subject
anchor=meetings
chunkPathAndType=Movement_precede_want_to
chunkPathAndType=Business_follow_of
evTypeArg=Charge-Indict:prosecutors
chunkPath=follow_on_charge_of
anchor=warfare/n
prevTokenAndType=Movement_up
prevToken=rally
arg=murderer
arg=division
arg=commandos
prevToken=attacked
synPathEvType=Movement_nameMod
arg=two-day
chunkPathAndType=Business_precede_file_for
evTypeArg=Injure:boy
prevTokenAndType=Life_since
evTypeArg=Start-Position:figures
prevTokenAndType=Conflict_because
evTypeArg=Injure:children
evTypeArg=Phone-Write:He
evTypeArg=Meet:two-day
chunkPathAndType=Conflict_precede_at
evTypeArg=Attack:hills
evTypeArg=Attack:North_Korea
arg=citizens
evTypeArg=Elect:Bush
evTypeArg=Elect:Sistani
chunkPathAndType=Life_precede_want_to
prevTokenAndType=Conflict_during
prevToken=So
evTypeArg=Attack:Republican_Guard
chunkPath=precede_would_you
evTypeArg=Meet:Seoul
chunkPath=follow_president
arg=washington
evTypeArg=Attack:March_20
arg=firm
arg=Tvrdik
evTypeArg=Injure:Baghdad
prevTokenAndType=Justice_are
evTypeArg=Attack:targets
evTypeArg=Start-Position:Who
arg=terry_nichols
synPath=object-1:stage:subject
evTypeArg=Charge-Indict:court
chunkPathAndType=Movement_follow_towards
evTypeArg=Arrest-Jail:they
prevToken=her
prevTokenAndType=Movement_before
evTypeArg=Phone-Write:who
anchor=charges
arg=obstruction_of_justice
synPathEvType=Movement_of
anchor=fax/n
evTypeArg=Attack:sniper
arg=jurisdiction
chunkPath=precede_should_be
evTypeArg=Transport:territory
prevTokenAndType=Business_on
prevTokenAndType=Life_second
chunkPath=precede_would_like_to_see
arg=Niagara_Falls
arg=Northern_Ireland
anchor=out-raised
anchor=extermination/n
arg=united_states
chunkPath=precede_have_(_negated_)
evTypeArg=Transport:Wednesday
arg=Sistani
arg=tank
arg=room
prevTokenAndType=Justice_If
prevTokenAndType=Personnel_is
arg=luster
evTypeArg=Transport:Seoul
arg=students
prevToken=killed.
arg=places
evTypeArg=Die:women
prevToken=ending
chunkPathAndType=Business_follow_by
synPath=object:lot:of
evTypeArg=Attack:america
prevTokenAndType=Personnel_appointed
prevToken=create
arg=neighborhood
anchor=conquer
evTypeArg=Attack:town
prevTokenAndType=Business_up
prevTokenAndType=Conflict_began
prevToken=california.
evTypeArg=Attack:Fallujah
prevTokenAndType=Movement_along
prevToken=believe
chunkPath=precede_she_have
anchor=correspondence/n
arg=ceo
arg=rounds
synPathTypes=Contact_PER_object-1:have:subject
arg=1980
arg=Ohio
arg=1985
synPath=object:q:of
evTypeArg=End-Position:Senator
evTypeArg=Injure:mall
arg=Basson
prevToken=/
evTypeArg=Die:THOUSANDS
chunkPathAndType=Personnel_precede_'m
arg=1992
arg=1997
anchor=forum/n
prevTokenAndType=Movement_have
anchor=penetrate
evTypeArg=Transfer-Money:government
prevToken=clear
arg=physician
evTypeArg=Meet:us
prevTokenAndType=Movement_see
evTypeArg=Die:group
chunkPath=follow_near
evTypeArg=Transport:unit
prevToken=represent
prevToken=leading
arg=sympathizers
evTypeArg=Transfer-Money:her
arg=minor
evTypeArg=Attack:1994
evTypeArg=Attack:1991
evTypeArg=Sentence:his
anchor=due
anchor=talks/n
evTypeArg=Charge-Indict:they
prevToken=acquiring
chunkPathAndType=Personnel_precede_otherName
arg=africa
prevTokenAndType=Personnel_which
anchor=riot
chunkPathAndType=Movement_follow_for
arg=candidate
anchor=fine
arg=currently
evTypeArg=Transfer-Ownership:base
evTypeArg=Transport:bush
chunkPath=precede_,_people
chunkPathAndType=Personnel_follow_from
evTypeArg=Meet:Iraq
evTypeArg=Attack:iraqis
anchor=pound
prevTokenAndType=Justice_The
anchor=crumble
synPathTypes=Movement_ORG_subject
arg=Army
chunkPathAndType=Personnel_follow_GPE
prevTokenAndType=Conflict_engage
evTypeArg=Transfer-Ownership:Vivendi
evTypeArg=End-Position:her
chunkPath=precede_'d
prevTokenAndType=Contact_what
chunkPathAndType=Conflict_precede_will
prevTokenAndType=Justice_this
arg=attacker
evTypeArg=Transfer-Ownership:them
chunkPathAndType=Justice_follow_on_charge_of
evTypeArg=End-Position:Colin_Powell
anchor=case/n
evTypeArg=Transport:person
prevTokenAndType=Movement_until
chunkPathAndType=Transaction_follow_for
evTypeArg=Injure:one
evTypeArg=Appeal:his
chunkPath=precede_begin
anchor=transfer/n
evTypeArg=End-Position:his
chunkPath=precede_--
arg=Jews
evTypeArg=Die:Jews
chunkPath=precede_face
chunkPath=precede_GPE
prevTokenAndType=Justice_but
evTypeArg=Die:one
arg=Belgrade
arg=delegates
evTypeArg=Charge-Indict:executives
prevTokenAndType=Justice_an
anchor=landing/n
evTypeArg=Attack:vehicles
arg=Sharif
chunkPathAndType=Contact_precede_will
evTypeArg=Start-Position:her
chunkPathAndType=Personnel_precede_would_like_to_see
arg=Jerusalem
chunkPath=precede_didn't
anchor=air/n
prevToken=ship
arg=Greece
arg=iran
arg=carrier
prevToken=erupted
synPathTypes=Transaction_GPE_nameMod
chunkPathAndType=Conflict_follow_into
chunkPathAndType=Movement_follow_her_to
arg=martha_stewart
arg=infant
anchor=retreat/n
arg=headquarters
prevTokenAndType=Transaction_get
prevTokenAndType=Transaction_buy
arg=silver_cross
prevToken=plus
prevTokenAndType=Personnel_see
prevToken=me
evTypeArg=Attack:us
evTypeArg=Declare-Bankruptcy:enron
arg=passengers
arg=Britain
anchor=rape/n
anchor=bloodshed/n
prevTokenAndType=Personnel_In
prevTokenAndType=Personnel_-
chunkPath=precede_need_to
prevToken=tell
prevTokenAndType=Transaction_at
chunkPathAndType=Justice_precede_and
evTypeArg=Transport:men
arg=port
arg=body
evTypeArg=Attack:its
evTypeArg=Transport:outskirts
anchor=force
prevTokenAndType=Personnel_a
prevToken=want
chunkPathAndType=Contact_precede_be
evTypeArg=Attack:camp
evTypeArg=Attack:airport
prevTokenAndType=Business_with
synPathEvType=Business_of
prevTokenAndType=Conflict_think
arg=Vang
chunkPathAndType=Personnel_follow_president
chunkPath=precede_,_the
prevTokenAndType=Justice_give
arg=Najaf
arg=cars
prevToken=prison.
anchor=purchase/n
arg=boat
chunkPath=follow_include
prevToken=Because
prevTokenAndType=Business_create
arg=Gov
prevToken=slaughtered
evTypeArg=Meet:We
prevTokenAndType=Justice_charges.
evTypeArg=Transport:Sunday
arg=lobby
prevToken=end
prevToken=compensating
arg=Singapore
evTypeArg=Die:she
chunkPathAndType=Conflict_follow_between
arg=themselves
arg=palace
arg=malvo
prevToken=involving
arg=february
chunkPath=follow_him_to
prevToken=elect
arg=Muslims
anchor=smash
evTypeArg=Attack:He
chunkPath=precede_might
anchor=pardon
prevTokenAndType=Personnel_started
evTypeArg=Attack:Israelis
evTypeArg=Be-Born:child
anchor=withdraw
prevToken=opened
chunkPathAndType=Transaction_precede_'s
synPathEvType=Contact_object-1:have:subject
evTypeArg=Transport:us
arg=commanders
arg=fbi
anchor=begin
arg=attackers
arg=heart
prevTokenAndType=Life_just
anchor=target/n
anchor=previously
prevTokenAndType=Personnel_says
arg=Boston
arg=mortars
arg=prosecutor
chunkPathAndType=Transaction_precede_get
chunkPathAndType=Movement_precede_'ll
evTypeArg=Transfer-Ownership:she
arg=saudi_arabia
prevTokenAndType=Life_wounding
evTypeArg=Demonstrate:Iraqis
prevToken=keep
prevTokenAndType=Life_injuring
arg=Afghanistan
evTypeArg=Transport:officials
prevTokenAndType=Movement_reached
evTypeArg=Meet:board
prevTokenAndType=Conflict_slaughtered
arg=Lebanon
chunkPathAndType=Movement_precede_have_to
prevTokenAndType=Movement_leaving
arg=china
chunkPath=follow_off
synPathTypes=Conflict_LOC_object
arg=areas
prevTokenAndType=Transaction_acquiring
chunkPathAndType=Personnel_precede_GPE_otherName
synPathTypes=Conflict_PER_object-1:stage:subject
anchor=punch/n
anchor=follow
arg=student
evTypeArg=Attack:car
arg=December_2001
evTypeArg=Start-Position:there
anchor=message/n
prevToken=MALE
prevTokenAndType=Contact_is
evTypeArg=Transport:Boston
prevToken=named
arg=operations
arg=California
prevTokenAndType=Conflict_but
anchor=gathering/n
evTypeArg=Release-Parole:your
prevTokenAndType=Justice_because
synPathEvType=Personnel_nameMod
chunkPathAndType=Personnel_precede_would_you
evTypeArg=Attack:ship
prevToken=should
arg=compound
evTypeArg=Transfer-Ownership:him
evTypeArg=Attack:Saddam_Hussein
evTypeArg=Start-Org:they
prevToken=coming
anchor=targeting
evTypeArg=Attack:outskirts
arg=early_Friday
prevTokenAndType=Conflict_shot
prevTokenAndType=Transaction_when
prevToken=appointed
prevTokenAndType=Movement_make
chunkPath=precede_would_be
chunkPathAndType=Transaction_follow_:
chunkPathAndType=Personnel_precede_will
prevToken=woman
prevTokenAndType=Conflict_Iraq
arg=station
prevTokenAndType=Conflict_On
arg=Pearl
anchor=one
prevTokenAndType=Transaction_paid
prevToken=become
arg=Most
chunkPath=precede_otherName
evTypeArg=Transport:building
anchor=electoral
arg=boys
evTypeArg=Meet:you
arg=cleric
arg=Saint_Petersburg
arg=targets
anchor=jihad/n
evTypeArg=Attack:Gaza
arg=Senator
evTypeArg=Meet:shareholders
arg=states
prevTokenAndType=Personnel_elect
arg=organizations
arg=mob
arg=figures
arg=gunmen
chunkPath=precede_be_to_be
evTypeArg=Attack:Britain
chunkPath=precede_go_to_be
arg=district
synPathEvType=Transaction_poss
prevTokenAndType=Contact_``
arg=executives
evTypeArg=Attack:Bush
chunkPath=precede_on
chunkPath=follow_in_GPE
anchor=secure
arg=january
arg=florida
prevTokenAndType=Justice_prison.
prevTokenAndType=Movement_And
evTypeArg=Transport:Saturday
evTypeArg=Divorce:his
evTypeArg=Transport:desert
chunkPath=precede_GPE_otherName
evTypeArg=Transfer-Money:we
prevTokenAndType=Justice_year
evTypeArg=Attack:yesterday
prevToken=given
prevToken=Cabinet
arg=three
synPathTypes=Conflict_ORG_subject
evTypeArg=Transfer-Ownership:Iran
anchor=departure/n
evTypeArg=Sentence:your
arg=officer
anchor=blind
arg=Republican_Guard
anchor=haul
evTypeArg=Meet:Friday
prevTokenAndType=Movement_:
anchor=destruction/n
arg=six
arg=knife
anchor=buys
synPathTypes=Business_ORG_of
chunkPath=follow_a
chunkPath=precede_be_able_to
evTypeArg=Attack:journalists
anchor=evacuate
anchor=pled
prevToken=another
prevTokenAndType=Personnel_named
chunkPathAndType=Personnel_precede_get
anchor=control/n
anchor=select
synPath=object-1:face:subject
evTypeArg=Transport:bus
prevTokenAndType=Movement_took
evTypeArg=Attack:helicopter
prevTokenAndType=Conflict_inside
evTypeArg=Transfer-Money:They
prevTokenAndType=Conflict_down
prevTokenAndType=Life_blew
evTypeArg=Charge-Indict:she
arg=parts
prevTokenAndType=Life_which
chunkPathAndType=Movement_precede_did
prevToken=became
arg=Los_Angeles
chunkPath=precede_at
arg=New_England
arg=peterson
chunkPath=precede_may_have
synPathTypes=Conflict_PER_poss
chunkPathAndType=Conflict_follow_from
evTypeArg=Transport:base
arg=Rumsfeld
arg=banks
arg=side
evTypeArg=Transport:house
evTypeArg=Attack:hotel
arg=its
arg=cities
prevToken=troops
arg=18
arg=Bali
chunkPathAndType=Conflict_follow_near
arg=blasphemy
evTypeArg=End-Position:CEO
anchor=attacks
chunkPathAndType=Life_follow_in_the
evTypeArg=Transfer-Money:someone
evTypeArg=Phone-Write:mother
prevTokenAndType=Justice_sued
arg=Germany
evTypeArg=Transport:Afghanistan
chunkPathAndType=Movement_precede_'s
evTypeArg=Transport:Monday
evTypeArg=Attack:place
evTypeArg=Transfer-Money:reporter
arg=target
prevToken=buy
evTypeArg=Die:crew
prevTokenAndType=Movement_coming
prevToken=headed
synPathTypes=Justice_Crime_of
arg=girl
arg=Umm_Qasr
evTypeArg=Appeal:Anwar
prevToken=now
evTypeArg=Attack:fighters
arg=April_30
anchor=support/n
anchor=assassinate
arg=Sam_Sloan
evTypeArg=Attack:Iraqi
prevTokenAndType=Transaction_out
evTypeArg=Transport:New_England
evTypeArg=Meet:Blair
anchor=deadly
anchor=attacks./n
prevToken=caused
prevToken=getting
evTypeArg=Transport:Niagara_Falls
evTypeArg=Transport:station
prevTokenAndType=Conflict_drop
evTypeArg=Start-Position:He
evTypeArg=Transport:vehicles
prevTokenAndType=Life_injured
evTypeArg=Die:terrorists
chunkPath=precede_could_be
evTypeArg=Phone-Write:people
chunkPath=precede_'
evTypeArg=Transport:car
prevTokenAndType=Contact_)
evTypeArg=Meet:Washington
anchor=shape
arg=facility
anchor=incursion/n
synPathTypes=Justice_PER_object-1:file:subject
chunkPathAndType=Movement_precede_will_be
prevTokenAndType=Life_leader
evTypeArg=Injure:others
evTypeArg=Die:Arafat
chunkPathAndType=Life_follow_,_include
prevTokenAndType=Life_whether
evTypeArg=Injure:people
evTypeArg=Die:him
evTypeArg=Die:civilians
chunkPath=follow_PERSON_and
evTypeArg=Die:baby
prevToken=murdering
evTypeArg=Die:wife
evTypeArg=Die:son
evTypeArg=Injure:he
prevTokenAndType=Life_surrounding
evTypeArg=Die:journalist
prevTokenAndType=Life_kill
evTypeArg=Die:civilian
evTypeArg=Die:He
prevTokenAndType=Life_lost
prevTokenAndType=Life_murdering
prevToken=surrounding
evTypeArg=Die:Americans
prevToken=leader
evTypeArg=Die:child
evTypeArg=Die:children
chunkPath=precede_illness_and
chunkPathAndType=Life_follow_PERSON_and
evTypeArg=Die:himself
evTypeArg=Die:Marines
chunkPathAndType=Life_precede_illness_and
anchor=die/n
prevTokenAndType=Life_wounded
anchor=injured
anchor=loss/n
prevTokenAndType=Life_over
prevTokenAndType=Life_killed
prevTokenAndType=Life_on
noSynPath
dist=1
dist=2
dist=3
dist=4
dist=5
dist=6
dist=0
chunkPath=precede_
dist=8
dist=7
chunkPath=precede_to
dist=12
prevToken=,
prevToken=by
anchor=take
prevToken=of
prevToken=and
chunkPath=follow_
synPath=object
prevToken=as
dist=9
prevToken=.
prevToken=that
prevToken=in
chunkPath=precede_be
prevToken=with
prevToken=off
prevToken=for
dist=11
prevToken=from
chunkPath=follow_of
dist=15
prevToken=the
prevToken=:
prevToken="
anchor=stab
evType=Conflict
anchor=kill
anchor=shoot
anchor=destroy
anchor=hit
anchor=war/n
chunkPathAndType=Conflict_follow_
anchor=go
prevToken='s
synPath=poss
noChunkPath
prevToken=is
prevTokenAndType=Life_the
anchor=injure
anchor=wound
anchor=casualty/n
anchor=injury/n
anchor=killing/n
chunkPathAndType=Life_precede_to
evType=Life
anchor=death/n
chunkPathAndType=Life_follow_
anchor=die
chunkPathAndType=Life_precede_
prevTokenAndType=Life_.
prevTokenAndType=Life_,
anchor=lose
anchor=dead
anchor=suicide/n
anchor=genocide/n
anchor=slaughter/n
prevToken=)
prevToken=on
chunkPath=precede_,
dist=14
prevToken=said
prevToken=but
prevToken=including
prevToken=killed
prevToken=since
prevToken=hit
prevToken=at
anchor=blow
anchor=slaughter
anchor=eliminate
evType=Movement
anchor=get
anchor=remove
prevToken=over
anchor=pay
chunkPathAndType=Life_precede_,
anchor=murder/n
prevTokenAndType=Life_'s
anchor=died
anchor=assassination/n
anchor=execute
prevTokenAndType=Life_)
anchor=execution/n
prevTokenAndType=Life_in
prevTokenAndType=Life_at
prevToken=after
chunkPath=follow_,
prevToken=out
prevTokenAndType=Conflict_that
prevToken=--
prevTokenAndType=Life_and
prevToken=been
prevToken=injured
chunkPath=precede_have_be
prevToken=think
chunkPath=precede_get
prevToken=wounded
prevToken=today.
prevTokenAndType=Movement_,
anchor=that
prevToken=before
chunkPath=precede_'s
anchor=give
prevToken=all
prevToken=left
prevTokenAndType=Life_:
chunkPathAndType=Life_precede_'s
chunkPath=follow_GPE
prevToken=only
chunkPathAndType=Life_precede_,_be
prevTokenAndType=Life_said
anchor=wound/n
arg=it
synPath=subject
prevToken=when
prevToken=-
prevToken=where
synPath=of
chunkPath=precede_have
prevToken=because
anchor=murder
prevTokenAndType=Life_"
prevTokenAndType=Life_when
prevTokenAndType=Life_of
prevTokenAndType=Life_from
prevToken=to
arg=people
prevToken=are
arg=their
chunkPath=follow_to
anchor=rape
anchor=gun
anchor=torture
chunkPath=precede_,_be
prevToken=took
arg=another
anchor=back
dist=16
chunkPath=precede_have_to
prevToken=how
chunkPath=precede_who
prevToken=be
arg=part
chunkPathAndType=Life_precede_who
anchor=killed
arg=Israeli
chunkPathAndType=Life_precede_be
synPathEvType=Life_object
prevTokenAndType=Life_to
arg=Iraqi
anchor=fall
prevToken=shot
arg=they
prevToken=if
prevToken=say
arg=one
arg=them
prevToken=which
prevToken=about
prevToken=As
arg=bombers
chunkPath=precede_could
chunkPath=precede_that
anchor=hurt
prevTokenAndType=Life_by
arg=bomber
prevToken=why
prevToken=had
synPathEvType=Life_subject
prevTokenAndType=Life_for
prevTokenAndType=Life_--
prevTokenAndType=Life_out
prevTokenAndType=Life_with
chunkPathAndType=Life_follow_of
synPathEvType=Life_of
prevToken=wounding
prevToken=blew
prevToken=kill
arg=opponents
prevToken=injuring
prevToken=perhaps
arg=grandmother
arg=civilian
arg=Ferguson
arg=more
arg=journalists
arg=fighters
arg=soldiers
arg=her
arg=Iraqis
menType=PER
arg=he
arg=person
arg=woman
arg=He
arg=him
arg=his
arg=she
arg=who
arg=you
arg=members
arg=man
arg=men
arg=They
arg=troops
arg=terrorists
arg=Marines
arg=mother
arg=Israelis
arg=wife
arg=Americans
prevToken=whether
arg=sons
synPath=of-1
arg=victims
arg=enemy
arg=officers
arg=baby
arg=boy
arg=many
arg=son
prevToken=''
arg=leader
arg=children
arg=brother
prevToken=among
arg=saddam_hussein
arg=diplomats
arg=me
arg=sister
arg=convoy
prevToken=leaving
prevToken=up
anchor=beat
prevToken=killing
anchor=poison
arg=leaders
arg=someone
prevToken=allow
arg=those
arg=Saddam_Hussein
arg=She
prevToken=``
arg=civilians
evTypeArg=Attack:person
arg=two
arg=others
arg=Arafat
arg=iraqis
arg=4-year-old
arg=child
arg=Shah
arg=employees
arg=minister
arg=governor
arg=american
arg=journalist
arg=himself
arg=crew
arg=some
evTypeArg=Transport:who
arg=soldier
arg=father
arg=pilots
prevToken=And
chunkPath=precede_will_be
prevToken=let
arg=women
arg=i
arg=president
prevToken=reports
arg=my
arg=daughter
prevToken=When
chunkPath=precede_be_to
chunkPath=precede_be_be
arg=friend
prevToken=do
evTypeArg=Die:her
prevTokenAndType=Life_including
prevTokenAndType=Life_killing
chunkPathAndType=Life_precede_have
prevTokenAndType=Life_where
evTypeArg=Die:woman
evTypeArg=Die:Yasser_Arafat
evTypeArg=Die:his
evTypeArg=Die:soldier
evTypeArg=Die:they
evTypeArg=Die:soldiers
evTypeArg=Die:members
prevTokenAndType=Life_say
evTypeArg=Die:bomber
evTypeArg=Die:mother
evTypeArg=Die:you
evTypeArg=Die:troops
evTypeArg=Die:Iraqis
evTypeArg=Die:who
evTypeArg=Die:bombers
evTypeArg=Die:person
evTypeArg=Die:journalists
evTypeArg=Die:people
evTypeArg=Die:he
evTypeArg=Die:men
evTypeArg=Die:man
prevTokenAndType=Life_as
arg=insurgents
arg=group
synPath=object-1:be:subject
arg=American
prevToken=while
synPathEvType=Life_object-1:be:subject
prevTokenAndType=Life_after
prevTokenAndType=Life_think
prevTokenAndType=Life_because
synPathTypes=Life_PER_subject
synPathTypes=Life_PER_object-1:be:subject
prevTokenAndType=Life_but
synPathTypes=Life_PER_object
chunkPathAndType=Life_follow_,
prevTokenAndType=Life_if
prevTokenAndType=Life_that
prevTokenAndType=Life_before
arg=somebody
arg=parents
anchor=do
anchor=did
arg=Yasser_Arafat
prevToken=(
arg=israelis
chunkPath=precede_be_in
arg=Palestinians
arg=demonstrators
synPathTypes=Life_PER_poss
synPathTypes=Life_PER_of
synPathEvType=Life_poss
chunkPathAndType=Life_follow_to
arg=Who
chunkPathAndType=Life_precede_have_be
prevTokenAndType=Life_about
arg=husband
anchor=cost/n
synPath=object-1:have:subject
arg=chief
chunkPath=follow_,_include
arg=reporter
prevToken=lost
evTypeArg=Attack:Monday
arg=Sunday_morning
evTypeArg=Die:last_week
evTypeArg=Die:today
prevTokenAndType=Life_hospital
evTypeArg=Injure:Tuesday
arg=recently
chunkPathAndType=Life_follow_in_hospital
arg=former
arg=1991
arg=1995
evTypeArg=Meet:today
prevToken=hospital
evTypeArg=Die:Monday
arg=recent
arg=yesterday
evTypeArg=End-Position:former
arg=2001
arg=2004
evTypeArg=Attack:tonight
evTypeArg=Attack:Sunday
evTypeArg=Die:Tuesday
chunkPath=follow_in_hospital
evTypeArg=Elect:recent
arg=this_weekend
chunkPathAndType=Business_follow_in
prevToken=died
prevTokenAndType=Justice_In
chunkPathAndType=Contact_follow_at
prevTokenAndType=Personnel_The
chunkPathAndType=Contact_follow_on
prevTokenAndType=Life_In
prevTokenAndType=Contact_at
prevTokenAndType=Life_died
chunkPathAndType=Life_follow_in
anchor=airstrike/n
dist=10
anchor=drop
prevToken=or
anchor=launch
dist=13
anchor=throw
dist=17
prevToken=was
anchor=assault/n
anchor=open
anchor=detonate
chunkPathAndType=Conflict_precede_to
anchor=hit/n
anchor=battle
anchor=clash/n
prevTokenAndType=Conflict_from
prevTokenAndType=Conflict_or
prevTokenAndType=Conflict_:
anchor=attack
anchor=raid/n
anchor=attack/n
anchor=fight
anchor=fire
prevTokenAndType=Conflict_,
anchor=bombardment/n
anchor=bomb
anchor=strike/n
prevTokenAndType=Conflict_and
chunkPathAndType=Conflict_precede_be
synPathEvType=Conflict_object
prevTokenAndType=Conflict_of
chunkPathAndType=Conflict_precede_
prevTokenAndType=Conflict_.
anchor=charge
anchor=explosion/n
anchor=fire/n
prevTokenAndType=Conflict_the
anchor=fighting/n
anchor=strike
anchor=battle/n
prevTokenAndType=Conflict_in
prevToken=a
anchor=drop/n
anchor=terror/n
anchor=fight/n
prevTokenAndType=Conflict_'s
prevTokenAndType=Conflict_a
prevTokenAndType=Conflict_is
dist=20
anchor=ambush/n
prevTokenAndType=Conflict_hit
chunkPathAndType=Conflict_follow_on
prevTokenAndType=Conflict_The
anchor=blast/n
prevToken=into
chunkPath=follow_at
chunkPath=follow_on
anchor=airstrikes/n
anchor=storm
anchor=raid
anchor=combat/n
anchor=front/n
anchor=wipe
anchor=assault
anchor=shot/n
dist=21
prevTokenAndType=Conflict_on
anchor=gunfire/n
prevTokenAndType=Conflict_"
chunkPathAndType=Conflict_precede_,
anchor=action/n
anchor=bombings/n
anchor=clash
prevTokenAndType=Conflict_for
anchor=invasion/n
prevToken=The
prevTokenAndType=Conflict_at
prevToken=home
anchor=head
anchor=come
chunkPath=follow_in
anchor=drive
anchor=be
anchor=put
chunkPath=follow_for
chunkPath=follow_into
anchor=visit
anchor=march/n
anchor=march
chunkPath=follow_over
anchor=deliver
anchor=abandon
anchor=pick
anchor=capture
prevToken=meet
anchor=seize
evType=Transaction
prevTokenAndType=Transaction_in
anchor=win
chunkPathAndType=Transaction_follow_
anchor=provide
prevTokenAndType=Transaction_on
anchor=sell
anchor=buy
chunkPath=precede_and
prevToken=In
evType=Justice
prevToken=within
prevTokenAndType=Justice_in
anchor=it/pro
chunkPath=precede_for
evType=Personnel
evType=Business
prevTokenAndType=Justice_.
prevTokenAndType=Justice_,
prevToken=00
prevTokenAndType=Personnel_and
chunkPathAndType=Personnel_precede_
anchor=name
prevTokenAndType=Justice_of
chunkPathAndType=Justice_precede_
anchor=jail
anchor=arrest
anchor=set
chunkPath=follow_in_the
anchor=found
anchor=terrorism/n
dist=18
dist=19
anchor=uprising/n
anchor=War
anchor=appoint
anchor=release
anchor=retire
prevTokenAndType=Personnel_in
anchor=replace
evType=Contact
anchor=talk/n
anchor=meet
anchor=call/n
anchor=birth/n
anchor=wed
anchor=born
anchor=divorce/n
anchor=resign
prevTokenAndType=Justice_on
anchor=charge/n
prevTokenAndType=Personnel_on
prevTokenAndType=Personnel_at
prevTokenAndType=Personnel_.
prevTokenAndType=Personnel_:
anchor=dismiss
anchor=release/n
prevTokenAndType=Personnel_the
anchor=step
prevTokenAndType=Personnel_for
anchor=former
anchor=hire
prevTokenAndType=Personnel_,
anchor=election/n
chunkPathAndType=Personnel_follow_
anchor=elect
chunkPathAndType=Justice_follow_of
chunkPathAndType=Justice_follow_
anchor=sentence/n
anchor=arrest/n
anchor=marry
anchor=tie
prevTokenAndType=Contact_in
chunkPathAndType=Contact_follow_in
anchor=rally/n
anchor=sentence
prevTokenAndType=Contact_meeting
anchor=protest/n
anchor=talk
prevTokenAndType=Contact_meet
prevTokenAndType=Contact_call
anchor=conference/n
anchor=demonstration/n
prevToken=call
anchor=letter/n
anchor=protest
prevTokenAndType=Contact_from
anchor=demonstrate
prevToken=meeting
anchor=hear
anchor=fine/n
chunkPath=follow_be
anchor=call
prevTokenAndType=Contact_on
prevTokenAndType=Contact_the
prevTokenAndType=Contact_a
anchor=meeting/n
anchor=summit/n
chunkPathAndType=Contact_precede_
prevTokenAndType=Contact_,
chunkPathAndType=Contact_follow_
anchor=discussion/n
anchor=appeal
anchor=sue
anchor=appeal/n
anchor=suit/n
anchor=conviction/n
anchor=convict
anchor=trial/n
anchor=hearing/n
anchor=indictment/n
chunkPathAndType=Transaction_follow_in
anchor=contribution/n
anchor=donation/n
prevToken=At
chunkPathAndType=Justice_follow_in
prevTokenAndType=Conflict_In
prevTokenAndType=Conflict_over
anchor=nine
eleven
chunkPathAndType=Personnel_follow_in
anchor=bankruptcy/n
chunkPathAndType=Conflict_follow_in
chunkPathAndType=Business_follow_
prevTokenAndType=Business_in
prevTokenAndType=Conflict_after
anchor=lob
prevToken=bombing
prevTokenAndType=Conflict_bombing
anchor=crossfire/n
prevToken=gave
prevTokenAndType=Conflict_including
prevToken=attack
prevTokenAndType=Conflict_killed
anchor=abuse/n
chunkPathAndType=Conflict_precede_have_be
prevTokenAndType=Conflict_said
chunkPath=precede_in
anchor=shootings/n
prevTokenAndType=Movement_after
chunkPathAndType=Movement_follow_in
anchor=arrival/n
anchor=sail
anchor=jump
anchor=traveling/n
anchor=flight/n
prevTokenAndType=Movement_that
anchor=arrive
anchor=send
chunkPathAndType=Movement_precede_
prevTokenAndType=Movement_by
anchor=escort
anchor=move
chunkPathAndType=Movement_precede_to
anchor=trip/n
chunkPathAndType=Movement_follow_
anchor=fly
anchor=carry
prevTokenAndType=Movement_.
anchor=return
prevTokenAndType=Movement_on
anchor=flee
anchor=advance
anchor=cross
prevTokenAndType=Movement_in
anchor=journey/n
anchor=rumble
chunkPathAndType=Movement_precede_be
anchor=lift
anchor=travel
chunkPathAndType=Movement_follow_over
anchor=move/n
anchor=advance/n
anchor=smuggle
anchor=leave
anchor=visit/n
anchor=run
anchor=travel/n
prevTokenAndType=Movement_over
anchor=push/n
anchor=transfer
anchor=head/n
anchor=walk
anchor=join
anchor=enter
anchor=attend
prevToken=get
prevToken=then
prevTokenAndType=Movement_but
anchor=withdrawal/n
anchor=out
prevToken=so
prevToken=until
chunkPathAndType=Transaction_precede_
prevTokenAndType=Movement_the
anchor=acquire
prevTokenAndType=Transaction_for
prevTokenAndType=Transaction_.
anchor=export
anchor=sale/n
prevTokenAndType=Movement_since
anchor=mission/n
prevTokenAndType=Movement_at
chunkPathAndType=Movement_precede_and
chunkPathAndType=Movement_follow_on
anchor=extradite
prevToken=came
prevTokenAndType=Movement_is
prevTokenAndType=Movement_left
prevToken=just
anchor=capture/n
prevTokenAndType=Personnel_--
anchor=start
anchor=detain
prevToken=sentenced
prevTokenAndType=Business_that
prevTokenAndType=Business_and
anchor=form
chunkPathAndType=Business_precede_
chunkPathAndType=Conflict_precede_'s
prevToken=arrested
prevTokenAndType=Conflict_before
chunkPathAndType=Conflict_precede_engage_in_major
chunkPath=precede_engage_in_major
prevToken=Iraq
evTypeArg=Transport:now
anchor=appointment/n
menType=Age
menType=Time
arg=now
arg=Friday
arg=today
arg=nine_eleven
anchor=wedding/n
prevToken=On
anchor=divorce
prevTokenAndType=Justice_arrested
anchor=resignation/n
prevToken=fire
anchor=marriage/n
prevTokenAndType=Justice_for
prevTokenAndType=Personnel_with
anchor=quit
anchor=removal/n
chunkPathAndType=Personnel_precede_be
chunkPathAndType=Justice_precede_'s
synPathEvType=Justice_poss
prevToken=release
anchor=sign
chunkPath=follow_ORGANIZATION
prevToken=during
anchor=parole/n
anchor=re/n
arg=Sunday
evTypeArg=Attack:Saturday
arg=Saturday
anchor=skim
arg=Monday
arg=March_20
chunkPath=follow_to_GPE
chunkPathAndType=Movement_follow_to_GPE
arg=a_month
prevTokenAndType=Contact_after
anchor=e-mail
prevTokenAndType=Contact_as
anchor=interview/n
anchor=tell
anchor=discuss
chunkPathAndType=Contact_precede_'s
anchor=phone/n
prevTokenAndType=Contact_.
prevTokenAndType=Contact_for
prevToken=met
prevTokenAndType=Contact_met
prevToken=started
prevTokenAndType=Justice_sentence
prevToken=sentence
chunkPathAndType=Justice_follow_for
anchor=gift/n
anchor=loan/n
anchor=steal
prevTokenAndType=Transaction_a
prevTokenAndType=Justice_:
prevTokenAndType=Justice_until
prevToken=here
prevToken=convicted
anchor=acquit
prevTokenAndType=Justice_convicted
anchor=indict
anchor=prosecution/n
prevTokenAndType=Justice_sentenced
anchor=compensate
prevToken=his
prevTokenAndType=Justice_his
chunkPath=precede_of
evTypeArg=Meet:Wednesday
evTypeArg=Attack:nine_eleven
arg=Wednesday
arg=last_week
prevToken=began
arg=Thursday
evTypeArg=Transport:Thursday
arg=1998
arg=1999
arg=Tuesday
arg=last_year
evTypeArg=Meet:Tuesday
evTypeArg=Attack:Tuesday
arg=September
evTypeArg=Transport:today
evTypeArg=Meet:tomorrow
arg=next_week
arg=this_morning
arg=1994
arg=January
arg=tomorrow
chunkPath=precede_file_for
evTypeArg=Attack:today
arg=tonight
evTypeArg=Attack:capital
evTypeArg=Attack:Karbala
evTypeArg=Attack:iraq
evTypeArg=Attack:Rwanda
evTypeArg=Attack:here
evTypeArg=Elect:US
evTypeArg=Meet:Beijing
evTypeArg=Attack:area
evTypeArg=Die:there
evTypeArg=Attack:there
arg=Tel_Aviv
arg=new_york
prevToken=recent
arg=Vietnam
arg=Rwanda
evTypeArg=Demonstrate:streets
evTypeArg=Attack:city
evTypeArg=Die:hospital
arg=Haifa
prevTokenAndType=Conflict_across
evTypeArg=Attack:Vietnam
evTypeArg=Attack:gaza
evTypeArg=Attack:bridge
prevTokenAndType=Life_outside
prevTokenAndType=Personnel_recent
evTypeArg=Attack:Kut
evTypeArg=Die:Iraq
evTypeArg=Attack:Baghdad
prevTokenAndType=Conflict_around
synPathTypes=Conflict_GPE_of
evTypeArg=Die:checkpoint
evTypeArg=Attack:village
arg=gaza
chunkPathAndType=Conflict_follow_for
prevTokenAndType=Conflict_use
anchor=threat/n
prevTokenAndType=Conflict_was
prevToken=use
anchor=punch
prevToken=time
chunkPath=follow_with
prevToken=says
anchor=violence/n
chunkPathAndType=Conflict_follow_with
evTypeArg=Attack:it
anchor=massacre/n
prevTokenAndType=Conflict_-
anchor=obliterate
anchor=shell
anchor=striking
anchor=explode
prevTokenAndType=Conflict_when
anchor=defeat
anchor=use
prevTokenAndType=Conflict_with
prevTokenAndType=Conflict_as
synPathEvType=Conflict_subject
chunkPathAndType=Conflict_follow_of
prevTokenAndType=Conflict_by
anchor=ambush
prevToken=were
synPathEvType=Conflict_of
prevToken=take
anchor=land
anchor=reach
chunkPath=precede_that_be
chunkPathAndType=Life_follow_when
prevTokenAndType=Life_a
chunkPath=follow_when
anchor=war
chunkPath=follow_from
synPathEvType=Conflict_poss
evTypeArg=Attack:building
prevTokenAndType=Conflict_outside
prevTokenAndType=Conflict_near
chunkPathAndType=Conflict_follow_to
evTypeArg=Attack:baghdad
chunkPathAndType=Conflict_follow_at
evTypeArg=Attack:buildings
arg=cafe
evTypeArg=Attack:home
synPathTypes=Conflict_FAC_object
anchor=invade
menType=FAC
arg=hotel
prevToken=through
arg=we
arg=us
prevToken=captured
prevToken=towards
arg=checkpoint
arg=buildings
arg=site
arg=store
prevToken=outside
prevToken=against
chunkPath=follow_against
arg=building
menType=LOC
prevToken=near
arg=baghdad
arg=home
arg=outskirts
arg=office
arg=center
anchor=targeted
evTypeArg=Attack:their
anchor=strangle
evTypeArg=Attack:we
prevTokenAndType=Conflict_against
anchor=engage
anchor=firefight/n
anchor=aggression/n
evTypeArg=Attack:people
anchor=shooting/n
chunkPathAndType=Conflict_follow_against
anchor=scald
anchor=overthrow
prevTokenAndType=Conflict_to
anchor=campaign/n
prevTokenAndType=Conflict_into
prevTokenAndType=Conflict_since
prevToken=down
arg=houses
prevTokenAndType=Transaction_captured
arg=bridge
arg=prison
synPath=nameMod
arg=airport
prevToken=secure
prevToken=got
anchor=have
prevToken=like
prevToken=an
chunkPath=precede_did
prevToken=day
synPath=object-1:make:subject
prevTokenAndType=Transaction_of
prevTokenAndType=Transaction_,
arg=Florida
prevToken=along
arg=Basra
arg=Mosul
arg=Gaza_Strip
arg=village
prevToken=enter
prevToken=inside
prevToken=entering
arg=mars
arg=camp
arg=mall
arg=place
arg=streets
arg=territory
arg=Middle_East
arg=Paris
prevToken=across
menType=GPE
arg=U.S
arg=United_States
arg=state
arg=u.s
arg=Israel
arg=Washington
arg=US
prevTokenAndType=Justice_to
arg=Turkey
arg=White_House
arg=region
arg=Iraq
arg=country
arg=france
arg=desert
chunkPathAndType=Movement_follow_into
arg=Baghdad
prevToken=around
arg=border
arg=town
arg=New_York
arg=capital
arg=FL
evTypeArg=Transport:Iraq
arg=Karbala
chunkPath=follow_through
arg=London
arg=Kuwait
arg=hospital
arg=Beijing
arg=there
arg=here
arg=iraq
arg=city
arg=Jordan
prevTokenAndType=Movement_into
arg=area
arg=where
arg=Seoul
arg=France
arg=Russia
arg=Pyongyang
chunkPathAndType=Justice_follow_to
arg=israel
arg=countries
prevToken=know
arg=government
arg=nation
arg=Indonesia
arg=texas
prevTokenAndType=Justice_and
synPathEvType=Justice_subject
prevTokenAndType=Justice_that
prevTokenAndType=Justice_)
prevTokenAndType=Justice_the
arg=court
anchor=turn
prevToken=A
synPathTypes=Justice_GPE_subject
chunkPathAndType=Justice_precede_have
anchor=this
arg=Pakistan
anchor=create
chunkPathAndType=Business_precede_to
evTypeArg=Attack:nation
arg=america
evTypeArg=Attack:country
evTypeArg=Attack:Israel
evTypeArg=Attack:Israeli
synPathTypes=Conflict_GPE_poss
evTypeArg=Attack:Iraq
evTypeArg=Attack:Iran
synPathTypes=Conflict_GPE_nameMod
synPathEvType=Conflict_nameMod
evTypeArg=Attack:United_States
evTypeArg=Attack:China
synPathTypes=Conflict_GPE_subject
synPathTypes=Conflict_GPE_object
anchor=resistance/n
prevToken=this
prevToken=persuade
arg=israeli
arg=United_Nations
arg=China
arg=Japan
arg=Iran
anchor=conflict/n
arg=Fallujah
arg=Kut
arg=hills
arg=West_Bank
arg=Malaysia
arg=Gaza
prevToken=leave
prevTokenAndType=Justice_at
synPathEvType=Personnel_of
anchor=married
chunkPathAndType=Personnel_follow_of
prevTokenAndType=Personnel_said
arg=board
arg=jordan
anchor=become
synPathEvType=Personnel_poss
prevTokenAndType=Personnel_of
anchor=new
prevTokenAndType=Personnel_to
prevTokenAndType=Personnel_from
anchor=serve
synPathTypes=Contact_GPE_nameMod
anchor=reunite
anchor=gather
synPathEvType=Contact_nameMod
evTypeArg=Meet:Pyongyang
chunkPathAndType=Contact_follow_to
chunkPathAndType=Contact_follow_from
prevTokenAndType=Contact_to
anchor=telephone/n
evTypeArg=Elect:government
evTypeArg=Elect:Iraq
prevTokenAndType=Justice_from
chunkPathAndType=Justice_follow_on
prevTokenAndType=Contact_and
prevTokenAndType=Personnel_Former
prevToken=retired
prevTokenAndType=Personnel_former
prevTokenAndType=Personnel_retired
prevToken=Former
prevToken=former
anchor=negotiation/n
synPathEvType=Contact_object
anchor=lawsuit/n
evTypeArg=Convict:court
evTypeArg=Sentence:court
evTypeArg=Trial-Hearing:court
evTypeArg=Appeal:court
prevTokenAndType=Justice_a
anchor=guilty
anchor=try
prevTokenAndType=Justice_as
anchor=receive
anchor=face
prevTokenAndType=Justice_'s
anchor=prosecute
anchor=accuse
chunkPathAndType=Transaction_precede_to
chunkPathAndType=Transaction_precede_have
prevTokenAndType=Transaction_from
anchor=raise
prevTokenAndType=Transaction_to
anchor=intifada/n
evTypeArg=Die:explosives
evTypeArg=Attack:arms
evTypeArg=Attack:bomb
evTypeArg=Attack:weapons
evTypeArg=Die:bomb
evTypeArg=Attack:explosives
prevTokenAndType=Conflict_fired
arg=bombs
arg=warplanes
synPathTypes=Conflict_WEA_object
evTypeArg=Attack:anthrax
arg=missile
arg=artillery
arg=bomb
evTypeArg=Attack:bombs
synPathTypes=Conflict_WEA_subject
evTypeArg=Attack:warplanes
arg=anthrax
prevTokenAndType=Conflict_detonated
evTypeArg=Attack:missiles
arg=explosives
prevToken=suicide
prevTokenAndType=Conflict_using
prevTokenAndType=Life_detonated
evTypeArg=Attack:rocket
prevTokenAndType=Conflict_dropped
prevToken=detonated
evTypeArg=Attack:artillery
prevToken=second
evTypeArg=Attack:missile
evTypeArg=Attack:gun
arg=bullet
synPathTypes=Conflict_VEH_subject
evTypeArg=Attack:aircraft
evTypeArg=Attack:planes
evTypeArg=Attack:guns
synPathTypes=Conflict_VEH_object
evTypeArg=Attack:tanks
arg=guns
menType=WEA
menType=VEH
arg=car
arg=vehicles
arg=tanks
arg=aircraft
arg=ship
prevToken=prevent
arg=planes
arg=helicopter
chunkPathAndType=Conflict_follow_,
prevTokenAndType=Conflict_if
prevTokenAndType=Conflict_where
evTypeArg=Attack:one
prevTokenAndType=Conflict_say
evTypeArg=Attack:they
evTypeArg=Attack:them
prevTokenAndType=Conflict_out
prevTokenAndType=Conflict_says
prevTokenAndType=Conflict_about
prevTokenAndType=Conflict_which
arg=rifle
arg=missiles
arg=weapons
arg=gun
arg=arms
arg=ammunition
anchor=launch/n
arg=which
chunkPath=precede_will
chunkPath=follow_by
prevToken=have
arg=that
chunkPath=precede_can
prevToken=ordered
prevToken=dropped
arg=rocket
prevToken=using
prevToken=between
chunkPathAndType=Life_follow_by
chunkPathAndType=Conflict_precede_have
anchor=use/n
prevTokenAndType=Conflict_have
prevTokenAndType=Conflict_had
evTypeArg=Attack:bomber
prevTokenAndType=Conflict_why
prevTokenAndType=Conflict_between
prevToken=firing
prevTokenAndType=Conflict_--
chunkPath=precede_don't
chunkPathAndType=Conflict_follow_by
prevToken=fired
prevToken=drop
prevTokenAndType=Conflict_perhaps
evTypeArg=Attack:children
arg=divisions
evTypeArg=Attack:convoy
prevTokenAndType=Conflict_targeting
prevToken=targeting
chunkPath=follow_and_kill
chunkPathAndType=Conflict_follow_and_kill
evTypeArg=Attack:divisions
prevToken=destroyed
prevTokenAndType=Conflict_destroyed
evTypeArg=Attack:bus
evTypeArg=Attack:boy
arg=plane
prevToken=make
prevToken=see
anchor=push
arg=unit
arg=house
arg=marines
prevToken=not
arg=Bush
arg=I
arg=Saddam
arg=We
menType=ORG
arg=forces
arg=force
anchor=kick
arg=officials
arg=Kurds
arg=guys
arg=7th_Cavalry
arg=personnel
arg=our
prevToken=saying
prevToken=sure
arg=team
arg=units
prevToken=once
arg=guy
arg=girls
arg=member
arg=protesters
arg=friends
chunkPath=follow_the
arg=bus
chunkPath=follow_towards
prevToken=visited
arg=militia
arg=police
arg=regime
arg=hamas
arg=suspect
arg=killer
arg=nichols
arg=families
chunkPath=follow_as
evTypeArg=Attack:troops
evTypeArg=Attack:man
evTypeArg=Attack:soldiers
evTypeArg=Attack:men
prevTokenAndType=Conflict_whether
evTypeArg=Attack:members
prevTokenAndType=Conflict_killing
evTypeArg=Attack:he
evTypeArg=Attack:others
evTypeArg=Attack:They
evTypeArg=Attack:woman
evTypeArg=Attack:units
evTypeArg=Attack:Marines
evTypeArg=Attack:forces
evTypeArg=Attack:terrorists
evTypeArg=Attack:civilians
evTypeArg=Attack:who
prevTokenAndType=Conflict_attack
evTypeArg=Attack:she
evTypeArg=Attack:We
evTypeArg=Attack:Saddam
evTypeArg=Attack:marines
evTypeArg=Attack:militia
evTypeArg=Attack:her
evTypeArg=Attack:regime
evTypeArg=Attack:him
evTypeArg=Attack:his
evTypeArg=Attack:you
evTypeArg=Attack:Iraqis
evTypeArg=Attack:those
evTypeArg=Attack:Americans
evTypeArg=Attack:hamas
prevToken=has
prevToken=engage
anchor=cut
synPathTypes=Conflict_PER_object
synPathTypes=Conflict_PER_subject
prevTokenAndType=Conflict_)
prevToken=give
anchor=hold
arg=President
arg=companies
arg=airline
prevToken=send
evTypeArg=Transport:him
evTypeArg=Transfer-Ownership:airport
prevTokenAndType=Movement_sent
prevTokenAndType=Movement_send
evTypeArg=Transport:their
synPathTypes=Transaction_WEA_object
prevTokenAndType=Transaction_acquire
synPathTypes=Movement_PER_poss
synPathTypes=Movement_PER_object
prevToken=acquire
chunkPathAndType=Movement_precede_can
evTypeArg=Transport:them
synPathEvType=Movement_poss
evTypeArg=Transport:our
synPathTypes=Movement_PER_object-1:make:subject
evTypeArg=Transfer-Ownership:weapons
evTypeArg=Transport:Iraqis
evTypeArg=Transport:journalists
synPathTypes=Transaction_FAC_object
evTypeArg=Transport:president
prevToken=sending
evTypeArg=Transport:rovers
prevTokenAndType=Movement_As
prevTokenAndType=Movement_sending
evTypeArg=Transport:plane
synPathTypes=Movement_VEH_subject
synPathTypes=Movement_VEH_object
arg=rovers
evTypeArg=Transport:tanks
prevTokenAndType=Movement_take
anchor=roll
prevTokenAndType=Movement_--
evTypeArg=Transport:some
anchor=direct
chunkPathAndType=Movement_precede_have
prevTokenAndType=Movement_)
anchor=bring
prevTokenAndType=Movement_to
prevTokenAndType=Movement_of
prevTokenAndType=Movement_as
anchor=transport
anchor=ship
prevTokenAndType=Movement_and
synPathEvType=Movement_object
evTypeArg=Transport:it
anchor=voyage/n
chunkPathAndType=Movement_precede_will
evTypeArg=Transport:they
prevTokenAndType=Movement_when
synPathEvType=Movement_subject
prevTokenAndType=Movement_with
prevTokenAndType=Movement_because
anchor=approach
prevTokenAndType=Movement_get
arg=base
anchor=thrust
prevTokenAndType=Movement_-
anchor=show
anchor=tour/n
prevTokenAndType=Movement_for
anchor=airlifting
anchor=deploy
anchor=deport
prevTokenAndType=Movement_from
chunkPathAndType=Movement_follow_of
prevTokenAndType=Movement_through
anchor=way/n
anchor=pour
anchor=end
prevToken=bring
anchor=close
evTypeArg=Transport:They
evTypeArg=Transport:He
evTypeArg=Transport:soldiers
chunkPathAndType=Movement_precede_expect_to
chunkPathAndType=Movement_precede_could
evTypeArg=Transport:you
evTypeArg=Transport:Bush
evTypeArg=Transport:I
synPathTypes=Movement_PER_subject
evTypeArg=Transport:that
evTypeArg=Transport:we
prevTokenAndType=Movement_say
evTypeArg=Transport:troops
evTypeArg=Transport:We
chunkPathAndType=Movement_precede_try_to
evTypeArg=Transport:she
chunkPath=precede_try_to
evTypeArg=Transport:he
evTypeArg=Transport:forces
prevTokenAndType=Movement_where
arg=gunman
arg=troop
chunkPath=precede_go_to
chunkPath=precede_want_to
arg=your
prevToken=up.
chunkPath=precede_'ve
chunkPath=precede_'ll
chunkPath=precede_from
anchor=expel
evTypeArg=Transport:people
chunkPathAndType=Movement_follow_by
chunkPathAndType=Movement_precede_have_be
anchor=clear
chunkPath=precede_'m
arg=head
chunkPath=precede_would
prevTokenAndType=Movement_said
prevToken=brought
arg=kramers
chunkPath=precede_expect_to
arg=thousands
prevToken=than
chunkPath=precede_do
arg=militants
arg=bush
chunkPath=precede_plan_to
prevToken=what
prevToken=sent
evTypeArg=Transport:her
synPathEvType=Movement_object-1:make:subject
arg=Putin
arg=Anwar
arg=premier
arg=Giuliani
prevToken=put
prevTokenAndType=Transaction_--
arg=Tony_Blair
arg=Vivendi_Universal_Entertainment
chunkPath=precede_schedule_to
arg=Blair
arg=Kelly
prevToken=told
arg=company
arg=family
chunkPathAndType=Transaction_follow_of
synPathEvType=Transaction_object
prevTokenAndType=Transaction_and
prevTokenAndType=Transaction_into
prevTokenAndType=Transaction_with
prevTokenAndType=Transaction_over
prevTokenAndType=Transaction_the
arg=Ocalan
chunkPathAndType=Transaction_precede_be
synPathEvType=Transaction_of
synPathTypes=Transaction_ORG_object
anchor=swallow
synPathTypes=Transaction_ORG_of
anchor=acquisition/n
anchor=bid/n
evTypeArg=Transfer-Ownership:company
evTypeArg=Transfer-Ownership:they
anchor=purchase
arg=business
prevTokenAndType=Movement_aboard
prevToken=aboard
chunkPathAndType=Movement_follow_out-of
chunkPath=follow_out-of
arg=planet
prevTokenAndType=Movement_enter
chunkPath=follow_back_to
evTypeArg=Transport:mars
prevTokenAndType=Movement_entering
chunkPathAndType=Movement_follow_at
prevTokenAndType=Movement_visited
evTypeArg=Transport:planet
prevTokenAndType=Movement_towards
chunkPathAndType=Movement_follow_back_to
prevTokenAndType=Movement_come
evTypeArg=Transport:center
prevToken=come
evTypeArg=Transport:Washington
evTypeArg=Transport:United_States
evTypeArg=Transport:Turkey
anchor=extradition/n
prevToken=?
chunkPath=follow_between
arg=sides
prevToken=him
chunkPathAndType=Movement_follow_to
evTypeArg=Transport:there
evTypeArg=Transport:here
evTypeArg=Transport:Kuwait
synPathTypes=Movement_GPE_object
synPathTypes=Movement_FAC_object
evTypeArg=Transport:state
evTypeArg=Transport:home
evTypeArg=Transport:baghdad
evTypeArg=Transport:area
evTypeArg=Transport:city
prevToken=toward
evTypeArg=Transport:border
evTypeArg=Transport:region
chunkPathAndType=Movement_follow_toward
evTypeArg=Transport:Baghdad
synPathTypes=Movement_LOC_object
evTypeArg=Transport:airport
evTypeArg=Transport:country
evTypeArg=Transport:iraq
prevTokenAndType=Movement_toward
evTypeArg=Transport:hospital
chunkPathAndType=Movement_follow_through
chunkPath=follow_toward
evTypeArg=Transport:London
evTypeArg=Transport:capital
evTypeArg=Transport:town
chunkPath=follow_her_to
prevTokenAndType=Movement_a
prevTokenAndType=Movement_between
anchor=return/n
prevToken=reached
chunkPath=follow_him
chunkPathAndType=Life_precede_find_guilty_of
evTypeArg=Arrest-Jail:we
evTypeArg=Die:Scott_Peterson
synPathTypes=Movement_GPE_subject
chunkPath=precede_find_guilty_of
prevTokenAndType=Life_Trial
arg=military
arg=sniper
arg=serious
arg=You
prevToken=If
arg=Tugle
prevToken=charges.
arg=Palestinian
prevToken=who
arg=army
arg=administration
arg=extremists
arg=coalition
prevToken=After
evTypeArg=Arrest-Jail:you
synPathTypes=Personnel_PER_subject
prevTokenAndType=Personnel_by
synPathTypes=Justice_PER_subject
synPathEvType=Justice_object
prevTokenAndType=Justice_when
synPathTypes=Justice_PER_object
synPathEvType=Personnel_subject
anchor=nominate
prevTokenAndType=Business_by
prevToken=But
prevToken=asked
prevTokenAndType=Justice_by
chunkPathAndType=Justice_follow_by
arg=Scott_Peterson
arg=Peterson
prevToken=Trial
prevTokenAndType=Business_)
prevTokenAndType=Business_,
prevTokenAndType=Business_.
synPathTypes=Business_ORG_subject
synPathEvType=Business_subject
evTypeArg=Attack:militants
chunkPathAndType=Conflict_precede_-_lead
evTypeArg=Attack:Japan
evTypeArg=Attack:groups
evTypeArg=Attack:terrorist
evTypeArg=Attack:U.S
evTypeArg=Attack:u.s
evTypeArg=Attack:Palestinian
evTypeArg=Attack:US
evTypeArg=Attack:Washington
chunkPath=precede_-_lead
evTypeArg=Attack:group
evTypeArg=Attack:israeli
evTypeArg=Attack:coalition
evTypeArg=Attack:military
arg=terrorist
arg=Toefting
arg=Ba'asyir
arg=George_W._Bush
chunkPathAndType=Conflict_precede_go_to
arg=groups
arg=North_Korea
chunkPath=follow_:
prevTokenAndType=Personnel_after
prevTokenAndType=Contact_said
anchor=bankruptcy
chunkPathAndType=Movement_follow_from
prevTokenAndType=Movement_leave
prevTokenAndType=Personnel_think
evTypeArg=End-Position:members
synPathTypes=Personnel_PER_object
evTypeArg=Arrest-Jail:he
evTypeArg=Start-Position:he
evTypeArg=Start-Position:they
anchor=ceremony/n
evTypeArg=End-Position:she
evTypeArg=Arrest-Jail:him
synPathTypes=Personnel_PER_of
evTypeArg=End-Position:people
evTypeArg=End-Position:him
prevTokenAndType=Personnel_hire
prevTokenAndType=Personnel_fired
prevTokenAndType=Personnel_)
synPathTypes=Personnel_PER_poss
prevToken=hire
arg=CEO
evTypeArg=Arrest-Jail:people
evTypeArg=End-Position:he
chunkPathAndType=Personnel_precede_could
evTypeArg=Start-Position:people
prevTokenAndType=Personnel_appoint
evTypeArg=End-Position:I
evTypeArg=Start-Position:I
chunkPathAndType=Personnel_precede_,
prevTokenAndType=Personnel_fire
chunkPathAndType=Personnel_follow_by
synPath=object-1:get:subject
prevTokenAndType=Personnel_if
prevTokenAndType=Personnel_when
arg=Colin_Powell
arg=Al-Douri
prevTokenAndType=Justice_said
chunkPathAndType=Justice_precede_will
arg=Pasko
arg=judge
prevToken=pay
chunkPathAndType=Justice_precede_be_be
arg=sam_waksal
prevTokenAndType=Justice_got
prevTokenAndType=Personnel_since
anchor=retired
prevTokenAndType=Personnel_as
prevTokenAndType=Personnel_be
chunkPathAndType=Personnel_follow_to
chunkPathAndType=Personnel_precede_'s
synPathEvType=Personnel_object
prevTokenAndType=Personnel_that
chunkPathAndType=Personnel_precede_have
anchor=introduce
synPathEvType=Justice_of
arg=Chiluba
synPathTypes=Justice_PER_poss
prevTokenAndType=Justice_where
chunkPathAndType=Justice_precede_be
prevTokenAndType=Justice_including
prevTokenAndType=Justice_after
prevTokenAndType=Justice_before
prevTokenAndType=Justice_think
prevTokenAndType=Justice_with
prevTokenAndType=Justice_if
prevToken=appoint
prevToken=sued
chunkPathAndType=Justice_precede_have_be
chunkPathAndType=Justice_precede_,_be
prevTokenAndType=Justice_say
arg=executive
anchor=custody/n
arg=candidates
arg=Marinello
evTypeArg=End-Position:president
prevTokenAndType=Personnel_put
arg=general
evTypeArg=End-Position:minister
evTypeArg=End-Position:general
prevTokenAndType=Transaction_by
synPathEvType=Contact_poss
arg=Annan
prevTokenAndType=Contact_between
evTypeArg=Meet:Bush
evTypeArg=Meet:leaders
evTypeArg=Meet:Tony_Blair
evTypeArg=Meet:bush
evTypeArg=Meet:members
chunkPathAndType=Contact_follow_with
evTypeArg=Meet:who
evTypeArg=Meet:Putin
anchor=sit
prevTokenAndType=Contact_told
evTypeArg=Meet:we
prevTokenAndType=Contact_when
synPathEvType=Contact_of
evTypeArg=Meet:officials
chunkPathAndType=Contact_follow_of
evTypeArg=Meet:president
synPathTypes=Contact_PER_object
evTypeArg=Phone-Write:he
evTypeArg=Meet:he
anchor=contact
evTypeArg=Phone-Write:they
chunkPathAndType=Contact_precede_can
evTypeArg=Meet:North_Korea
evTypeArg=Demonstrate:protesters
prevTokenAndType=Contact_that
evTypeArg=Meet:I
evTypeArg=Demonstrate:people
synPathEvType=Contact_object-1:get:subject
evTypeArg=Meet:Annan
anchor=write
synPathTypes=Contact_PER_poss
evTypeArg=Meet:their
prevTokenAndType=Contact_of
evTypeArg=Meet:He
synPathTypes=Contact_PER_object-1:get:subject
synPathTypes=Personnel_ORG_object
evTypeArg=Phone-Write:I
evTypeArg=Phone-Write:you
prevTokenAndType=Contact_by
synPathEvType=Contact_subject
evTypeArg=Meet:George_W._Bush
chunkPathAndType=Contact_precede_have
synPathTypes=Contact_PER_subject
evTypeArg=Phone-Write:we
evTypeArg=Phone-Write:us
prevTokenAndType=Contact_''
evTypeArg=Meet:minister
evTypeArg=Meet:they
prevTokenAndType=Contact_where
evTypeArg=Meet:Al-Douri
synPathTypes=Personnel_ORG_subject
evTypeArg=Phone-Write:her
chunkPathAndType=Contact_follow_between
prevTokenAndType=Contact_with
prevTokenAndType=Contact_-
evTypeArg=Meet:people
arg=shareholders
arg=paper
prevTokenAndType=Justice_against
arg=lawyers
arg=enron
arg=judges
arg=SEC
anchor=spend
prevToken=paid
arg=stewart
arg=USCF
arg=EU
arg=Vivendi_Universal
prevTokenAndType=Contact_"
chunkPathAndType=Personnel_follow_as
prevTokenAndType=Personnel_elected
evTypeArg=Elect:president
prevToken=elected
arg=Vivendi
arg=party
synPathTypes=Justice_ORG_subject
evTypeArg=Sue:he
anchor=lawsuits/n
arg=Anwar_Ibrahim
synPathEvType=Justice_object-1:file:subject
synPath=object-1:file:subject
evTypeArg=Trial-Hearing:judge
arg=jury
evTypeArg=Convict:they
evTypeArg=Sentence:he
evTypeArg=Sentence:they
evTypeArg=Charge-Indict:he
anchor=find
anchor=verdict/n
chunkPathAndType=Justice_follow_with
prevTokenAndType=Justice_pay
anchor=pay/n
anchor=fund
anchor=aid/n
prevTokenAndType=Transaction_pay
prevTokenAndType=Transaction_:
synPathTypes=Transaction_Numeric_object
menType=Numeric
prevToken=suing
prevTokenAndType=Justice_suing
synPathTypes=Justice_GPE_object
chunkPathAndType=Justice_precede_find
evTypeArg=Charge-Indict:her
evTypeArg=Sue:companies
synPathTypes=Justice_ORG_object
evTypeArg=Sentence:sam_waksal
arg=Dell
evTypeArg=Sentence:him
chunkPath=precede_find
evTypeArg=Sentence:He
prevTokenAndType=Justice_Trial
chunkPathAndType=Justice_follow_against
evTypeArg=Sue:Dell
synPathTypes=Justice_PER_nameMod
evTypeArg=Convict:Scott_Peterson
evTypeArg=Convict:he
synPathEvType=Justice_nameMod
prevTokenAndType=Justice_over
prevTokenAndType=Justice_serving
prevTokenAndType=Justice_get
prevToken=serving
anchor=park
evTypeArg=Transfer-Money:USCF
evTypeArg=Transfer-Money:him
evTypeArg=Transfer-Money:they
anchor=feathering
prevTokenAndType=Transaction_)
synPathTypes=Transaction_ORG_subject
synPathEvType=Transaction_subject
synPathTypes=Transaction_PER_subject
prevTokenAndType=Transaction_that
synPathTypes=Transaction_PER_object
evTypeArg=Transfer-Money:member
evTypeArg=Transfer-Money:Arafat
anchor=donate
evTypeArg=Transfer-Money:he
synPathTypes=Transaction_GPE_subject
prevTokenAndType=Transaction_if
chunkPathAndType=Transaction_follow_by
prevTokenAndType=Transaction_as
chunkPathAndType=Transaction_follow_from
synPathEvType=Transaction_nameMod
menType=Crime
arg=treason
arg=corruption
evTypeArg=Convict:murdering_his_wife_Laci_and_their_unborn_son
evTypeArg=Appeal:sodomy
evTypeArg=Sentence:sodomy
evTypeArg=Sentence:corruption
evTypeArg=Convict:sodomy
arg=sodomy
arg=murdering_his_wife_Laci_and_their_unborn_son
arg=murder
prevTokenAndType=Justice_faces
prevToken=faces
evTypeArg=Sentence:the_death_penalty
arg=the_death_penalty
menType=Sentence
arg=Member
prevTokenAndType=Transaction_paying
evTypeArg=Transfer-Money:Member
prevToken=paying
anchor=Compensation
evTypeArg=Transfer-Money:members
chunkPathAndType=Transaction_follow_to
prevTokenAndType=Transaction_give
synPathTypes=Personnel_Job-Title_object
menType=Job-Title
prevTokenAndType=Personnel_new
prevToken=new
evTypeArg=Transfer-Ownership:forces
evTypeArg=End-Org:regime
anchor=merge
prevTokenAndType=Business_of
chunkPathAndType=Business_precede_be
synPathEvType=Business_object
evTypeArg=Start-Org:government
anchor=merger/n
synPathTypes=Business_ORG_object
arg=prosecutors
evTypeArg=Trial-Hearing:prosecutors
10.692389969601983
17.91309249313238
12.533972714709005
15.87164979193827
19.25695473077216
18.39213600346058
19.67429985516052
15.174226182843492
12.522803478585065
19.21018792945152
12.536499923978111
16.490015257361197
18.817496426683306
26.17273888326781
10.571809256888583
20.970679941879805
15.88085546689042
23.629955229152873
25.72383005393641
17.033687118767666
12.536499923978111
10.571809256888583
18.90004044179357
10.692389969601983
26.404530465019704
18.078881996976712
10.571809256888583
12.522803478585065
15.500645197621411
14.209452603107263
10.571809256888583
22.09089208397904
31.667465494403253
8.408579724992938
17.169508695559593
25.231352989058298
9.66350927067029
13.536228521326752
14.310130602752894
9.523546263051571
25.411423316679564
15.92017691347216
9.977633213624829
3.5768262618673554
9.174845171106174
23.510540719565594
15.873289471279811
15.673584746698598
2.8126103683905415
6.766640246685702
5.91924927373287
-1.3736579377289306
0.9297294907663565
0.341297257334535
-7.795466518158381
2.3561816732475718
1.0845052762108294
1.2638676997292126
-9.296681688184194
-5.316655982211773
1.173463771726163
-11.365823876310746
-20.107677052636284
3.8437793350328446
-10.172802575153899
-8.448444119748725
-5.034768417948184
-0.8862476985820065
-5.848928965859619
-0.6486346014509197
-7.867001011498823
-5.648547447933775
-4.607591476740188
-4.457510559445186
-28.474010550607474
-7.100418195506107
-14.536188568372697
-10.725420317614068
-7.44618452292659
-4.4551493554379515
-11.444038759504718
-16.723578196281174
-15.575328050718177
3.291891769039389
5.6897515474624685
4.889374638645027
-4.8381785852917725
-0.7512962269618297
0.9317714427310042
-11.47086277039952
2.871402893576696
-0.35199530747840324
-1.1053385935207416
-18.77883860028903
-4.872639872483212
4.98498811187313
-11.685460882283186
-29.401856694651382
4.7753891671169395
-5.777909667583594
-13.697895184105558
-3.2198438349403995
2.0285622277039668
-8.456909539234086
-3.1351950431379505
-5.060582365197966
-6.791442967597823
-9.566302451982084
-2.332077218601675
-25.612228954411126
-11.367352750165992
-18.415418374642005
-38.26955030493484
-8.882945033361768
0.8284491447569957
-43.04999439403091
-23.33908449682142
-31.423903066212127
6.495917968129022
5.27188494414455
5.310446865229877
-8.37974243943231
-0.0962526590059345
6.046357003890079
-11.576935881090087
1.7199854783337947
-3.4489819801416592
1.690420047089146
-13.625778263652153
-9.260825271892568
0.6024482943983123
2.5634714655588864
-26.790799706147848
5.742417467192286
-13.310703433998091
-6.578926847474992
-11.79824297971038
-0.8083714269562012
-6.916385249648874
-3.6787742071854383
-18.10261269965252
-8.21316579959489
-9.856778650836613
-2.495452076692363
-18.296477244446816
-11.165075815258007
-17.0106148866727
-1.2992016385519751
-1.0596729834370824
-0.7067010952502706
-9.896609332365758
-10.297071956236273
-13.95729274545305
5.810609430237751
3.3043330175076613
6.858738379783412
0.31084894561770327
1.521588497687714
0.8498620326187223
-7.080979521213235
-0.5381179291228086
-0.2865857505964722
2.0461982854515557
-11.719300336685011
-2.6533051136535764
-1.5172700442369362
-5.102669052869116
-5.299444804727673
5.606247578731035
-1.6316178577545744
-13.496432685367331
-6.212824432801863
-3.593383515687439
-9.57875308195106
-2.0936565024274283
-9.644651787645714
-6.450721091776322
-8.91589012215794
-6.006832300914397
-6.317516111491594
-12.40533589645238
-10.906547900059474
-5.595252219570108
-3.4624060281934854
-3.6326139464900935
-1.8593906350951581
-9.729341900942718
-11.871811183525399
-1.251078027019032
4.4545834386448355
7.79921225293036
-5.60417614458145
3.208269838092696
-0.5187693543509742
-14.741129813031215
1.531056050896702
1.4774790189985216
1.9162531437088104
-14.708081431088454
-6.9271340184532715
1.0508008734479888
6.32115036340023
3.726039664375248
2.1086529793655786
-12.374249132074754
1.5110743632988806
-17.167252555800946
0.13050508325981136
-7.704161627702212
-6.50906182998301
-21.046642619825132
1.7980631297852274
-8.397333595348456
-3.4949839052231724
-13.861308794864337
0.5201781190640866
-16.435279267141983
-6.124030239715855
-3.0959779171559423
-9.212477346797858
-4.193089116000907
-27.21211692403372
-0.9072274549461945
2.603699880600374
6.124668169133541
6.559738533306253
-2.3264633039862974
-5.316974886776273
-0.6066420731427344
-16.69573819000556
-0.8595052384118316
3.2094033520361376
1.9206780517744688
-7.905857329186024
-3.8393136007663493
-0.47831750426599173
-3.242927442807241
3.249659853998382
5.25721248585805
-0.8978296821973979
-1.6523096733144302
-11.747732460872605
1.4570576350805595
-3.5457754518213735
-2.275333561673456
-9.012558220203646
-2.2175088920702084
2.7731157791900274
-18.42164503252977
-3.2318568132322536
-3.9102806888006447
6.31471173375126
-14.145953112972922
-9.758745433224354
-0.12193521793634954
-5.25925027812366
-13.430029602861525
4.40607760329172
1.1904058693184307
8.154161960771612
-4.728158985963372
6.759079108479531
-6.668149385935642
-6.35185675064505
-8.45295975006567
5.6771750053372365
0.8213827679518468
14.48805384466809
4.997549155634765
-10.638502407301143
4.156175745935501
-2.541434391070516
6.8582453655930795
-6.034089790812827
-4.598330363678338
0.8642526207297778
3.8305320166412296
-4.948573940595164
-24.568320902267118
-6.385450122452609
-17.15369553708842
-15.910676681381599
-15.150591186555655
-3.4679885749456867
-3.0377486160082605
3.7935360191631133
-2.962035067679839
3.4798591432882846
3.425634810617295
-16.579141719205936
5.010188231796808
4.077725112366293
1.6805701699392532
0.9601168202726251
0.45154143094633703
2.9158216955006946
-4.34335616269809
1.0561456507345843
0.41793250063610277
0.3556177025919638
-35.24725398066503
-6.003483987915814
2.8960384589820487
-33.16966468302296
2.4300467450290535
-13.095130519848851
-6.080643756624429
-0.346823423150155
-1.7852146770101909
-4.253440587053435
-3.2818390326463924
-3.872658116984423
-2.1049477507870873
-0.11506528133007832
0.8123180835300685
-9.9374163898891
-4.414739046589567
-10.839527800699651
-16.869204990866848
-23.135630689596944
-0.09465242313444788
-13.40127345178132
-10.531780492519536
-12.174693812732531
4.656492060736331
1.867946164262296
1.5308954753237574
3.9648680984537696
-19.95754940430756
3.1768493705329734
-0.9136794501516836
-20.26109288876823
3.4942538893692467
2.307244216118145
-2.8398112678346568
-22.66521629087226
2.0192902143382176
-3.339406012385642
3.6535368644819877
0.9128150417869496
-2.55194386841034
-14.679751123396827
-1.9835552646788068
-1.686480539665367
-1.3150923036929756
-10.621201766546296
-2.2064236422434553
4.267593061691638
-24.243779019723586
-7.323490341593102
-1.258221574995079
-10.823477078081575
-4.880365369698324
-11.777310669779315
-15.544886196240574
-10.046182880230365
-4.437524643479546
6.313866970889499
8.690784216503692
0.2172051045430703
7.332598459560014
2.9150151919229708
-7.919504350668884
1.7783139898160996
2.6418937623047194
6.8747971262389935
-7.588971786774381
-0.779719604726165
5.750143249126573
10.60400372507062
10.060449763075965
-7.358588935241203
-4.458999347730615
-2.0350780122265864
2.714418865001318
3.8949657603220187
-4.910980191909396
-25.281975507264832
-11.638056389483475
-3.7600003427887794
-0.9184570709044309
7.4802170169788145
-0.2996438253589023
2.583418352638531
-11.048301451644635
-0.5568585035597629
9.243873949782316
9.488597094320195
-8.55591163678249
1.051692982951495
2.3531894194218603
-8.072706206627432
3.814137114805756
9.828785914700092
2.8106428003947435
-3.782246374772609
-6.6976393369183675
6.1784393873068595
-7.027662806771252
3.9103880021737463
-1.552323881410826
-6.329666882919822
-0.9055228951203125
6.0962695087833865
9.46997128961801
1.7176908691226296
-7.02638940016228
-0.9851261607726545
0.5907455160087571
-11.087524693911869
0.25472210149861696
-7.790855162365928
-21.975673360020387
8.341656539118024
8.166446706536581
0.9936007264976459
1.1418270109789215
-12.736562754373105
4.836868552136672
3.099662220096404
-17.880010015032777
9.455285147817085
2.5220446675230317
9.11260161243608
3.849628148160134
-14.400654680682536
2.2044908652283515
19.89043263691633
17.04114097778365
-5.446984848486073
-3.1856540071577255
22.68865028465611
-0.06853669763586989
13.583830458071155
-2.7278050638007154
11.896202525226295
12.300721699296947
4.244010948125041
7.930867240915053
5.131737825280693
10.470811469961088
20.5072134092494
11.97076948399053
9.638371592790419
8.003119285762246
-10.750511537072056
-7.232279714874628
2.6841274233903287
14.283894511888175
-14.24927878629675
-0.20623842376500884
-7.449874577080837
5.9212432983432315
-5.745760239407128
25.60700001535083
31.93242346031375
33.21620974232801
4.511026783336936
-5.220937357774279
-1.5203337611944083
0.4804564427503073
-4.469328618196041
4.130486207974166
-0.22989894747005435
-17.153461647027573
5.258504812760988
2.377084778076051
-11.821782356082585
3.848366862397656
-13.699693735447399
-11.178407650961187
4.156627223582544
-5.366894629412306
3.4645975112029683
-2.136185830277695
-4.712308288893622
0.5471558767398057
-10.103830538217094
-19.635722844922665
-4.685866745388024
-1.2491486870203827
-4.910589125745001
6.50215567633883
-4.66756790406154
6.507642425234371
-10.425178702321835
-1.832769114063906
-2.381335227883776
-5.6878207634488165
-22.161206810346673
-33.96322491737987
-27.642736470684586
4.593813394432058
-19.370899868404766
-14.087822118242087
-6.7276420202008245
-17.92221470382471
11.750426324676223
6.048859408487083
-18.329164359319634
-32.308662021633886
15.522823671674182
-1.5860700090359934
8.030624570542255
14.050755097189805
-1.4538963427312417
-15.100331900158173
10.503741693386303
-11.188455926334491
-14.791299383809728
7.095792542683855
-0.05772263005599099
1.1952693695757057
13.931775607837542
-13.10462998032438
7.826652980418517
-0.48675638881211203
-2.6129454505887164
10.94762359954579
2.7580229443245847
18.2008019621555
8.102629767154227
24.389833985391554
-10.589597426250617
-1.074729686808049
-0.44245648980098595
10.756455519647954
0.44836776745945484
-18.497498463859
0.8698251550207325
3.4979411887792367
15.231475516083758
3.3062006385899116
-16.668940264286668
5.455630290434314
-24.137932475217973
5.890009963544248
2.5474387866728914
-2.8291273159646124
0.7645386868939701
-7.809068375312018
-5.776812998584113
-2.2086160350639843
-1.947473264702802
4.779695816172094
2.026793361523434
4.541701439569988
-5.84390084272974
-8.946663727346877
3.5380611138136686
-5.1158872134027105
-7.551229714683717
9.21718953169729
-10.805379537810548
-3.2918820648477913
-22.362574420578586
-13.538963755297395
-10.454065006317503
-5.377399200022927
-1.6821825034084652
-3.307715068086004
6.223556409064472
-8.2936207544555
-2.440884045888014
4.053970222426996
1.1697552027763356
3.7960645947583966
-16.51792996789001
-2.712015615262775
6.8274430895323235
0.5544198525489206
-5.624251299894279
0.924805210362063
7.163955464635936
3.832022727594758
-13.788413556151601
-6.82565336530519
-7.859341710254791
3.6428908559951756
5.277057377696331
4.977646262714285
-10.292497785478348
-12.747794519311697
-4.043474923988909
-3.6535483351716422
-9.30620559494361
-3.0105068401290245
-5.53395947127266
0.7003051519976023
5.29714455797591
5.380244732481096
1.849697633115468
-4.37151237309338
3.324311056841612
2.5965371336999934
-13.737484435970318
3.0507620261944903
-20.643849657485507
-8.773600041465746
-3.4757545721103495
3.6833461789717883
0.7792625073879482
-20.598920505009943
3.1111856516711676
-1.5395822597882014
-17.196618394067983
-6.813143738930357
-0.9517638862177122
-2.0067888721689315
-17.532052755055396
3.168351494118188
-14.471260389589226
-24.451694381028506
-10.615785421914396
7.541338986363481
1.7845725122029477
1.706663123972843
-14.974560883114098
-8.734212336791076
-15.495376428446017
4.820785572374516
-28.646415633859895
-4.324369551692299
-0.6531979899495219
3.3829660146681415
5.679973310856919
-9.531869580166388
1.19980850090846
-8.706663557443534
-9.630868521955176
2.898973741246371
4.978231655883093
3.041983447480628
-15.81155763666383
-10.529242926941961
4.41323386121906
-12.847158015837527
-12.340923392275082
-1.316905811935039
-9.752223686027826
-15.976449426280954
-6.2519832137457065
3.9588786230600608
1.4055157035714123
0.04396449418433379
-20.839285865554604
-3.7121210207294437
10.765319084951965
-4.807985578268255
5.076852360557649
-1.5842619915989382
-8.875236032073412
5.4405393983873
3.285431786444507
2.666247793294177
2.788753221680244
4.4716356156233115
4.559577448760483
6.510447174869316
1.89245630996426
12.669524044759045
3.4796342121062604
2.0740438297357002
-1.3004414925112702
-5.7109572963392825
10.46334284248689
10.754550608551387
4.1827032920141125
8.603539920149867
-1.5827243486821123
-3.641353529197039
-1.7634641079876072
4.334743745796126
2.2879069062777044
-23.05012391918749
3.35037016413536
8.208854523676932
-8.98151735256122
1.5849216727207682
-10.04841889318317
6.410106240195757
-27.447746213448607
2.794088784721118
4.137058884176275
-4.45389678041324
-6.2323343477899105
-32.679833605798024
11.691679012648317
-2.6602425074793246
-6.178229932171167
6.536170253496347
-3.2599965835390177
9.741968794339252
5.126904659668426
3.029111948805347
-5.1067633944991
-1.3921244550487133
-3.0571495259471444
4.191144282654955
-0.1683212593529113
-25.81233250965371
5.890295316405857
3.297515035976344
4.789160221177074
-10.222628893573841
6.813268567917693
6.4974918115627585
2.407613588489777
1.640024149782275
2.6987093219952283
-21.380201242669433
-4.678504106049774
-6.0271182539967105
7.2650716131926085
6.5147137004892155
-9.775378504217636
2.653443493939285
-1.9532501608283086
-9.346905826064335
8.5407533575067
-10.032197430661853
-29.84766233622994
-2.3323876060050566
0.9870968389588592
2.055454999929761
-0.7465436819378403
-16.200579298604005
5.818431626416547
7.082754404433434
5.37465301288107
4.5019656661620235
-8.739491539390475
-1.9655314301477282
0.20405160992071925
5.631768565173214
4.217691930685297
-9.353790391575883
6.340030260997695
1.5472793366892215
7.501919213206125
-6.200193051156953
4.1402470791132115
-29.129193211105544
7.763423894216961
11.69891206428341
-22.918524613194947
-33.653542268848724
-19.01021249615488
-9.32828723819173
-2.371389423973587
-21.72952756935054
-12.79575593842775
0.04158610077002933
-31.561688445976635
-29.97553352101502
-11.250667978934176
-21.522917852145362
-6.3978778774464145
-30.96352124211098
-29.155321142874655
-32.95645931503363
-19.28831092457501
-21.062455072870755
-18.55295017467495
-27.93883527552425
-6.18894136830985
-3.1145282396297214
-24.454671082634448
1.9981735222484036
-13.287551841352915
8.063867564160628
-12.016558964000208
-10.513431530559005
-7.643797787895537
4.324652678590423
4.189733960331342
0.0033987026875728077
-8.328947983145632
-6.434771403730532
-16.195623474741854
7.917123590485308
-4.402653613230434
-5.787749208314132
6.731800745701324
-2.6997187396889197
-5.58821331953793
-5.977211702502781
-5.559905432514732
-10.612830026320635
2.107468635591829
7.419538688072818
3.943089702626554
-29.9326834532495
-17.289032680358716
10.02316185129935
-4.838045579829551
-0.9114408165774059
0.9917344298217634
-12.225899776544566
5.864705583652277
-7.537810325632121
2.964608515216699
9.98381319165137
-3.881013448335667
-2.918253135540861
-11.10312273989057
8.342427902889764
-7.16993267004595
-0.5153887151870213
11.52502673532327
41.413282437003765
6.3484921141168025
28.191006798145906
0.6216260202210512
8.246278018338002
21.322299722262148
12.980994926324955
26.860958559737238
-3.238467346248499
1.1667630644533318
-8.23359065592966
-16.558120278183157
-12.492102965385275
4.365742149315336
0.9226269559634988
-9.329183396754466
-4.057055686579663
13.762164790713292
-13.330807306042045
4.722209895883351
3.011355366980907
-2.600064253283842
1.1588005200697606
-5.87701241738435
-7.639741820250551
13.8129186707074
1.662320879977583
18.6346019491937
-7.989970776073426
17.21657950970109
-4.567356296521498
14.398068642898505
-20.256508624406774
6.2200018372629895
12.904308152750321
3.5361780430303678
13.424067155757642
8.511986173181938
7.0243585409987945
11.248862758662098
4.910707684754936
20.304213051055594
6.817709885642321
0.1318640457782465
5.542064594765523
-15.614955160232869
7.266030820029778
5.73988912217138
-13.121580730182536
4.748778437858258
-5.030001834322628
-0.863855251786975
22.415641864457687
1.2930841424152801
10.337441611162502
-7.024121312980575
-26.02046676027235
10.554319786345545
-8.852765565680825
-14.407882527087768
-27.34527178199138
-3.7431179467940874
-8.94695044589465
3.722834039420389
18.354289995506708
-1.4362522499945718
1.4165605202033942
-0.4209588562646039
-7.4160811531868305
-18.323568383004215
14.133847965527007
-11.749722567214903
-18.23562397747322
-5.871707133364074
16.207411896409084
10.812351627617513
7.994351978233711
-0.8057228248294898
-6.751751504607755
-3.997270668673645
2.841996063622479
7.92904155792632
-12.112546982892894
-15.503545016852085
7.327648332198827
5.8220006389395165
0.6451364091991767
-7.846789652362324
5.78302266436237
-10.9102159606865
3.45323866977344
6.639184793444482
11.247823584274315
6.596824715758202
4.251537696661274
19.547534204227933
6.651211539015479
17.49156462745512
-1.9884421156969931
14.334566998486427
-3.415498750811944
17.331135442336446
8.144678976236081
21.242807819172093
17.33427307932141
13.087981144492646
10.588644447465008
7.702375965187708
25.40073318821386
4.2760709474303455
14.43180055079072
-16.817102936858003
10.57240557504766
10.855249225769793
1.0085907508110623
0.4245446165907405
-3.3412549561548186
-1.046100897265322
1.0028315927500318
-8.28109127076376
4.3373372654265925
2.537534837125214
-7.586256804485543
-0.10629496541848213
-4.593127993405503
-11.438303168924103
15.66608197244684
-1.347198391198252
5.904896600858884
0.7141373435296228
7.565511834851415
17.369673471907525
2.1123575745296654
7.987904831775728
4.707430425687302
2.9753983716214956
4.337746703777025
-7.056384061890423
15.504320177623857
-12.42842950225231
-0.5640125192743205
5.778398216812263
6.6559642291528025
12.839523338844408
5.0874599927804685
10.272131944707883
7.554642736182215
9.891330778735098
2.8082306727056006
-14.199591665148311
0.6552784441324027
-4.669475342831384
4.682159017935992
20.731954599729477
9.307955213687663
10.158267772392696
13.163285785570732
18.123580530127345
1.283656232078388
-3.3915211099755167
19.259671824441188
0.29191790406685036
4.975664322464721
16.315162330915864
13.63811312495983
10.908787632120061
22.739235704700764
36.24382437923062
25.50912282228048
15.683523255741173
-51.41368755715346
4.808591509347367
7.632635058099613
9.1955119657197
17.31784984295485
-61.639180559925144
16.492616714814215
-11.802901967412616
-18.82447596948108
-10.245192703139764
-10.826403609679073
-3.2916266429301744
-20.35172698743745
-7.442704610857751
-16.50191597765554
10.27920640411988
8.46854884555381
9.177740742736047
10.835453918190343
-10.114004691549296
17.290491697777412
-9.15805498093644
-27.46340382205416
20.593458683883203
7.150261708580511
16.419110573027154
17.630869892543092
9.299502842259468
8.49139408988558
13.697184484324026
6.620104034564642
13.850083991320986
44.510623310119264
14.088906380534985
27.287937800866228
5.419200382571409
17.378801988978957
1.9325677741273286
7.287127210656876
20.128659962637474
30.738896191726663
8.834800546327426
-0.7349209547622285
18.953893225169185
6.210343358633798
14.154026503801852
8.834289546223314
18.5991359469067
2.0578603736523626
4.141797087412505
-6.868931687507054
4.2399833658804695
-4.830611843067543
6.211068186151551
18.345887128053505
11.714464335575808
-9.738138499398417
15.650602602398827
25.850171610697174
26.0272246891669
16.072521353354066
2.2971294809858285
5.770278793641594
6.628067791304574
15.661212742695595
12.811683944525738
42.658338717108315
34.996169454822464
8.340274645778594
9.70808902786715
2.526550511352922
4.045244770322022
12.659195457152876
10.82818058841083
11.363126995772456
-19.381596529744073
-4.352594085692827
7.487599157806059
-4.017243817856539
21.813095792908456
-8.425854778792699
11.730022559379375
-4.001157465659738
-1.6150253937265193
16.299612492664867
13.317586145918414
-0.854081120921381
11.304748744936306
16.32686990443981
3.029088607432404
5.033850214341986
3.076123752986879
24.89440113428761
2.630045674996587
11.670215057689845
15.855851296301836
6.388647938587119
-14.293517158486885
-3.314864544307318
-3.996679961865709
9.402264677639646
7.254286168627441
6.1304034389016335
7.723744493646777
8.606933142608694
9.155889917715598
12.921392641181905
-2.1506116956676777
-8.698865034423472
-0.23718053294749897
1.9886326423382386
-3.3702326425416747
18.29274613041138
-11.96967199588871
-2.0506834935058373
8.438562227657352
9.516928739451703
10.432413027777514
14.783551691975648
6.252064250473526
3.826267132394376
24.4562126015363
-1.8063805374733277
-3.4526923133441314
6.26607849881709
-1.1788732402440816
15.450406586645347
12.956465428897227
-4.542945164406342
9.567623969681337
9.952467035962673
14.060620775156046
-0.6992846777996521
-2.0416722167804693
0.21837638011172444
7.1479827237518405
-3.0019025565745965
6.0507592859883434
25.618989037917146
6.204546953887453
1.3849626160022193
8.449970283171213
7.566975570058958
10.988795581086581
24.157549186477688
14.623172526856774
10.274454203929785
27.144111222713246
8.725449620643277
11.554990479276368
11.123191450855868
20.05145793130321
18.845037924520376
17.699754360263604
8.76309407292781
6.4491312266364185
23.71119828210666
16.902653733159877
15.392563800022764
6.411333929173188
9.147627387121219
12.963613560687321
20.728121242589875
8.295566324431306
17.808164628397723
8.05107778352008
22.514233541841424
24.51369286785895
26.4388393096131
21.0662835477179
6.569029992845721
19.238663815227877
12.389072913661808
-4.851594705352414
15.988123353541674
17.10771899014941
15.29225939684651
26.035503892713407
20.846099640266516
32.95702194743348
20.89839454480706
-3.7367700905501477
2.2698305484288293
27.81152449506269
-7.468041684527453
34.460702849697
15.543780641474505
8.010314650126842
9.527127353737175
10.963224246626027
14.151532098457402
-24.038671792378054
9.665224273311477
-4.9247953708250485
-15.71513377150872
-27.602889183933794
-18.651932834027548
-30.027903800680583
15.553350243968351
7.038464701261157
7.808327319579805
-7.785284775684036
16.173412165979098
28.046554828273692
-23.00675945515381
-15.261326128711893
-5.055140747083194
12.401058239790508
8.130931090149607
-3.2063520305001747
-1.7823324290586944
9.156609657193764
4.4410836142425705
19.984569689555258
6.112483006090893
6.158190712632239
9.53618517610737
-1.7880266715099924
-18.997422447663602
13.861844786711941
0.9343511399122677
-1.4537519209415184
2.409899162649748
3.551007413636272
7.39110149910669
17.213449918714648
7.50274239315101
13.247870168379658
-2.7595714936725506
9.477188766935917
10.643010041857883
14.290298711597382
-8.969163494335836
-17.18484438640166
4.839498415923555
14.754239745839984
9.813960161870165
27.881353391125042
15.786988023228977
15.109832243400733
4.820355171973379
2.675534285364433
16.000465307800706
-4.256146338636498
8.915267007458928
23.226379861109823
-0.11622348436008778
6.518848015816659
12.634639590026573
-4.753780564617493
37.38360195888376
24.64164547640923
20.6038033578644
12.891308048562953
13.362041076354183
7.109970139843429
-0.5639489017954105
38.66761998073673
27.689612839313362
2.0790144174967904
0.0812956965462086
29.264973140709472
26.261389744644877
10.838685901983197
9.961006147243083
16.497371613769428
23.19441587068872
5.570261144500399
-16.05817646934653
-0.43774448797070353
-3.4901165074271905
2.3525102567348206
6.951416609256094
-3.294896233724874
7.941803068001488
3.8584461797856373
5.995265389492641
2.415731199490599
9.22365920207084
15.238088946689187
5.054353612508596
4.827517823581999
-5.143218870087834
8.983053235056921
8.405069248637515
11.425057769885546
10.134948419218649
-11.896832059327025
12.211979942538301
9.096439188736891
3.390987011885427
-11.765637132642382
2.7849820396987734
0.9278760353920532
-3.347991215146694
-6.200685783655764
-1.2468361619462769
-6.008219849350119
7.931360876618968
-9.17691298251846
-8.804626836893267
-2.791166933860743
7.200289298527108
-6.957073355374628
-14.724372007025634
-11.574819692399736
-10.532422803542909
-3.978418381046016
-7.406162931998076
7.631565677948457
-2.47958245774112
9.565193593984825
2.1233209311655727
5.686935206496994
22.55507997952868
-3.5797160712097513
1.3576275660124582
7.290390903299539
6.670253892701787
14.188888612019188
18.686547745546026
23.855351046142363
7.803199695866409
10.287908300279012
13.784272762617318
11.499509465550625
9.184347554802981
6.922561131174755
12.225939865884845
14.85228814793063
-0.9127532555603627
17.00290484029918
17.56198273727847
3.673693010558479
20.702640078318485
7.916959048365788
-11.346934734576998
-1.9630064930090834
7.100618738952951
1.4382078193707537
0.4733653742586025
6.564123374221406
22.20002510979164
6.553560977999831
22.02428560618253
10.045647732215667
10.714500427844014
6.475877659370961
-4.732856620251756
17.715697614292395
22.013589281196282
3.8187784377645646
-1.416998701661416
-11.18776171503279
2.053612355016124
1.3658335680824831
1.058841853367934
15.077531691966437
3.3706776782419325
13.927094920419991
16.377850281564317
6.960490301916507
18.738970558880546
3.9763181256139455
27.658994671765324
-1.403459163283629
14.874140813691163
-15.360915292066066
0.08335107032011542
11.445697514977923
26.60326793934189
7.778821561929876
-4.464374683850927
-2.7182956708038546
-8.021196344883057
10.565521465213054
-2.3500441211490473
2.406693086740004
9.470452499038963
4.011740382576354
-3.0872413047070992
10.846678908148254
6.938140140442567
5.568746277233568
-8.700306835176102
-7.103984034422789
-1.7892814747420054
9.399922998400063
6.109359807082052
34.30220739016335
5.432600585023991
3.181299631858446
18.255767202186167
17.845301804451296
8.617109105755183
35.88560608863075
6.801433909437236
14.477970320555709
12.664198482017039
11.016823709756277
11.235106927330053
17.20442280998972
1.7259325951626643
8.61299574433224
16.31440673153695
8.334000075171735
2.2400501325916933
9.197410166420518
9.933004572950558
-19.28929123097305
6.34559020495399
2.7470174067853446
-0.7602099518111596
10.371370163642238
44.8962115642951
18.85215559877281
2.0516049525408993
20.615998755426205
10.82432856192267
17.75513656569419
9.352831223713036
16.19825275800057
28.81175389446678
10.604539238681284
34.13633380792341
11.45644047428774
5.445537421854246
25.298569173619565
12.746168768983136
-1.6786027859781303
25.513467883653753
1.4529912739797657
8.401553310743312
14.101865002859745
12.40871255176974
49.26363088518413
28.602764847037246
21.774645974588708
-56.28954526110269
5.361150611489261
-82.64705159527355
17.486226484971542
13.729959748658931
14.007700672794641
7.099882240392033
-15.023267129682713
13.35084543369405
-18.221243019079793
-5.8158370686874665
-9.695969465264518
-13.736878366611098
-12.996479014668324
-16.371123836415578
-8.479838053343919
10.327218732716796
5.30746334168733
9.405273837708481
6.188781187240967
9.341665993740175
0.4755825252443171
12.277627519296125
-3.9482008866172578
1.1162791138348889
5.856367763617847
9.784649382157454
0.2932808338712398
10.674295880710634
20.352623373850022
24.610629304239175
-20.363119200977696
23.01525412932209
4.064896945895541
26.73441064919363
-0.3201821353946531
21.172577167456552
22.322407428673056
-11.911265924525779
26.653702695003552
8.373459270202437
14.362384101645596
16.42381815513544
27.050497047804885
0.12416342470976105
2.335962995146353
14.710706183429771
3.784965151503517
10.724045805805458
0.6811069304564011
10.773531993267618
-1.371423383764818
-8.211974461548358
12.354257657623066
22.62511987492818
27.31692704932061
-0.9564638819258718
-2.678230217818185
0.5303940191511429
-5.577692084005835
17.967169635583296
12.66620660039571
-8.58892237174008
19.745357354767986
28.657437123680992
17.944532511209395
4.99691447999128
-0.5943297129627723
19.496910189555777
15.710881446826182
-3.2255615047203388
10.215959669410584
12.33995517301579
14.015609887260126
4.137778246998135
12.086808552197455
36.77543092267151
8.342662052751976
11.107964155216798
21.194535239021064
20.49355054090734
24.8370331049455
13.474289000410602
12.164330357975103
8.199331689576697
20.43082440451995
15.543374477799393
10.05890686778817
31.84966260647801
23.674539490256524
0.2051811988353438
0.3246143012649644
19.5563620157162
56.968415599796785
31.687023948481194
18.394013045297953
55.779675705797125
17.151051519470755
29.80755213720701
12.093740891234386
2.289691575130152
14.395516445235245
18.997705480033222
13.484856395132493
4.830643451700813
33.384466989166086
33.7304141335442
-10.828690965204121
32.18467484530018
24.582787586816615
-3.96367081848436
6.747751039411806
14.214875076189813
10.176051081613894
48.61777442210221
16.35625177369992
27.763020292621423
10.26326708058961
16.924445899445175
54.56999101310238
1.9812154099774846
1.9725837998183353
-7.275487606931773
3.6851976880268853
2.6124250425969326
3.4751697453946755
1.462653691911085
5.2911808059267
25.085103666029937
2.8134906761647525
13.748637503953184
5.644251403058487
-4.162571070945354
13.470454001087527
13.154347887329214
15.478400788345278
8.520410037197152
2.5696914090092475
9.358318986875888
15.160797503846162
-4.051950183771089
-0.14172662283795445
9.315648982443316
1.373966380207627
6.69599752775787
25.892865893758156
2.118015054528164
9.912231442893939
6.9615067702477695
7.038142311475247
10.3780117488754
14.825561895405423
8.31236804722545
23.903308276234803
6.246680342330297
9.723996538813001
4.181452656402543
20.013144275763743
12.732833895501416
25.549889731226045
26.390888788276932
4.632619714049891
9.942403107271915
13.268849988142543
15.986634044905008
1.0399313168605286
-3.0573284901798807
