GIS
13
0.0
35
Victim
Time-Within
Place
Instrument
Target
Artifact
Plaintiff
Adjudicator
Time-After
Money
Defendant
Giver
Crime
Time-At-End
Sentence
Recipient
Person
Position
Entity
Price
Buyer
Seller
Attacker
Time-At-Beginning
Time-Holds
Origin
Destination
Time-Before
Time-Starting
Agent
Org
Time-Ending
Prosecutor
Beneficiary
Vehicle
630
327
8 0
2 0 1
2 0 1 2
1 0 1 2 3
2 0 1 2 3 4 5 6 7 8 9 10 11 12 13 14 15 16 17 18 19 20 21 22 23 24 25 26 27 28 29 30 31 32 33 34
1 0 1 2 3 4 5 6 7 8 9 10 11 12 14 15 16 17 18 19 20 21 22 23 24 25 26 27 28 29 30 31 32 33 34
1 0 1 2 3 4 5 6 7 8 9 10 11 12 14 15 16 17 18 20 21 22 24 25 26 27 28 29 30 31 32 33 34
1 0 1 2 3 4 5 6 7 9 10 11 12 13 14 15 16 17 18 20 21 22 23 24 25 26 27 28 29 30 31 32 34
1 0 1 2 3 4 5 6 7 9 10 11 12 14 15 16 17 18 19 20 21 22 23 24 25 26 28 29 30 31 32 33 34
1 0 1 2 3 4 5 6 7 9 10 11 12 14 15 16 17 18 19 20 21 22 24 26 29 30 31 32 33 34
1 0 1 2 3 4 5 6 7 9 10 11 12 14 15 16 17 18 20 21 22 23 24 25 26 27 28 29 30 33 34
1 0 1 2 3 4 5 6 7 9 10 11 12 14 15 16 17 18 20 22 24 25 26 29 32 33
1 0 1 2 3 4 5 6 7 9 10 11 12 15 16 18 20 21 22 25 26 28 29 30 32 34
1 0 1 2 3 4 5 6 7 9 10 11 12 15 17 18 20 21 22 23 26 28 29 30 33 34
1 0 1 2 3 4 5 6 7 10 11 12 13 15 16 18 20 21 22 24 26 28 29 30 32 33 34
1 0 1 2 3 4 5 6 10 11 12 15 16 17 18 20 22 29 30 33 34
1 0 1 2 3 4 5 7 8 9 10 11 12 13 15 16 17 18 19 20 21 22 24 25 26 27 28 29 30 31 32 33 34
1 0 1 2 3 4 5 7 8 10 11 12 15 16 17 18 20 21 22 23 24 25 26 28 29 30 31 32 33
1 0 1 2 3 4 5 7 9 10 11 12 14 15 16 17 18 19 20 21 22 23 24 25 26 28 29 30 33 34
1 0 1 2 3 4 5 7 9 10 11 15 16 18 19 20 21 22 24 25 26 29 33 34
1 0 1 2 3 4 5 7 11 12 15 16 17 18 19 22 24 25 26 28 29 33
1 0 1 2 3 4 5 7 11 15 20 22 24 25 26 29 30 34
1 0 1 2 3 4 5 9 10 11 12 14 15 16 17 18 20 21 22 25 26 29 30 32 34
1 0 1 2 3 4 5 9 10 11 12 14 16 18 22 25 30
1 0 1 2 3 4 8 13 18 22 23 24 27 28 29 31
1 0 1 2 3 4 22
1 0 1 2 3 4 22 23
1 0 1 2 3 4 22 27 29
1 0 1 2 3 4 22 29
1 0 1 2 3 8 16 24 27 28 29 31
1 0 1 2 3 8 29
1 0 1 2 3 16 17 29
3 0 1 2 3 16 29
3 0 1 2 3 29
1 0 1 2 4 5 9 10 11 12 16 18 20 22 24 25 26 29
1 0 1 2 4 5 9 10 12 17 18 19 20 22 24 29 30 32
1 0 1 2 4 5 10 12 15 16 17 18 22 26 27 28 30 31 34
1 0 1 2 4 7 10 16 18 19 21 25 26 28
1 0 1 2 4 22 24 27 28 31
1 0 1 2 4 34
1 0 1 2 5 7 10 11 12 14 15 16 20 23 25 26 29 34
1 0 1 2 5 8 11 15 16 17 18 21 22 25 26 28
1 0 1 2 5 9 10 12 21 24 25 26
1 0 1 2 5 9 11 12 15 17 18 22
1 0 1 2 5 10 12 16 22 24 29
1 0 1 2 5 16 17 25 29 34
1 0 1 2 10 11 12 14 16 18 20 22 25 26 29
1 0 1 2 12 16
1 0 1 2 16 24 29
1 0 1 2 29
1 0 1 3 4 5 6 7 10 11 15 16 17 18 20 21 22 29 30 32 33 34
1 0 1 3 4 5 16 18 22 25
1 0 1 4
1 0 1 4 5 6 8 10 16 18 21 22 27 29 30
1 0 1 4 5 7 10 16 22 29
1 0 1 5 6 15 16 17 18 22 30
1 0 1 5 8 10 15 16 17 18 22 29 30
1 0 1 5 9 15 16 18 22
1 0 1 5 18 25 26
1 0 1 16
1 0 1 16 29
1 0 1 29
1 0 2 3 4 5 6 7 10 11 15 16 17 18 20 21 22 29 30 32 34
1 0 2 3 4 5 7 9 10 11 14 15 16 17 18 19 22 25 26 28 29 30 33 34
1 0 2 3 4 5 7 16 18 20 22 25 29 30 34
1 0 2 3 4 5 10 12 16 18 20 22 25 29 30
1 0 2 3 4 5 10 15 18 21 25 30 34
1 0 2 3 5 7 11 15 16 18 20 21 22 29 30 33 34
1 0 2 3 5 9 11 12 16 18 20 30
1 0 2 3 16 29
2 0 2 3 29
1 0 2 4 5 6 7 10 11 16 18 20 21 22 26 29 30 32
1 0 2 4 7 10 12 14 15 16 17 18 20 22 25 26 27 29 31 32 33 34
1 0 2 4 22
1 0 2 4 29
1 0 2 5 6 10 11 15 16 17 18 22
1 0 2 5 6 16 18 22 29 30
1 0 2 5 7 10 12 18 22 24 29 34
1 0 2 5 10 16 18 22 29
1 0 2 5 11
1 0 2 5 12 16 17 22
1 0 2 7 22 29
1 0 2 16
1 0 2 16 28
2 0 2 16 29
1 0 2 16 29 31
1 0 2 22 29
1 0 2 27
1 0 2 28 29 31
2 0 2 29
1 0 3 4 5 7 10 11 15 16 18 20 22 29
1 0 3 4 15 16
1 0 3 4 16 22 24
1 0 3 5 7 11 14 16 18 21 22 26 27 34
1 0 3 16
1 0 3 16 29
1 0 3 22 29
3 0 4
1 0 4 5
1 0 4 5 6 7 10 11 15 16 18 20 21 22 29 32 33
1 0 4 5 6 10 11 15 16 18 22 29
1 0 4 5 6 10 12 18 22 29
1 0 4 5 6 10 15 16 18
1 0 4 5 6 10 15 16 18 22 29 33
1 0 4 5 6 10 16 18 20 22 29
1 0 4 5 10 11 15 16 18 22
1 0 4 5 10 11 16 18 29
1 0 4 5 10 11 16 21 22 29 30
1 0 4 5 10 15 16 18 22 25 33
1 0 4 5 10 15 16 18 22 29
1 0 4 5 10 15 16 22 29
1 0 4 5 10 16 18 22
1 0 4 5 10 16 18 25 29
1 0 4 5 11 12 22 29
1 0 4 5 16 18 29
1 0 4 5 18 29
1 0 4 5 20 22 29 33
1 0 4 5 22
2 0 4 5 22 29
1 0 4 5 29
1 0 4 10 11 18 21 22
1 0 4 10 15 22
1 0 4 10 16 25
1 0 4 11 15 22 33
1 0 4 12 18 29
1 0 4 16 18 22
1 0 4 18 26 29 30
1 0 4 21
1 0 5
1 0 5 7 10 29
1 0 5 10
1 0 5 10 11 16 18
1 0 5 10 15 16 18
2 0 5 10 16 22 29
1 0 5 10 18 22 25 29 34
1 0 5 11 16 18 22
2 0 5 16
1 0 5 16 17 18
1 0 5 18
1 0 5 18 22 29
1 0 5 22 34
1 0 9 11 15 16 18
1 0 12 16 29
5 0 16
1 0 16 17
1 0 16 22 29
5 0 16 29
1 0 18
1 0 18 25 26
1 0 22 29
9 0 29
14 1
5 1 2
1 1 2 3 4
1 1 2 3 4 5 6 7 11 15 18 20 22 32
1 1 2 3 4 5 7 8 9 10 12 13 15 16 18 22 24 25 26 28 30 31 33 34
1 1 2 3 4 5 7 10 15 16 17 18 22 25 26 29 31
1 1 2 3 4 5 8 10 11 16 18 22 26 28 29 31 33
1 1 2 3 4 5 15 16 17 18 20 21 22 25 26 27 29 34
1 1 2 3 4 5 17
1 1 2 3 4 5 18 22 25 26 29 34
1 1 2 3 4 10 11 15 16 18 20 22 26 29
1 1 2 3 4 10 12 22 32
1 1 2 3 4 16 17 18 22
3 1 2 3 4 18 22
1 1 2 3 4 18 22 24 28
1 1 2 3 4 18 22 27
5 1 2 3 4 22
2 1 2 3 4 22 24
1 1 2 3 4 22 24 27 28
1 1 2 3 4 22 27
2 1 2 3 4 22 28
2 1 2 3 4 22 30
1 1 2 3 4 22 31
1 1 2 3 5 16 18 25 26 29 34
1 1 2 3 7 9 12 14 15 17 18 19 21 22 24 25 29
2 1 2 3 22
1 1 2 3 22 27
3 1 2 4
1 1 2 4 5 10 16 18 22 28 29
1 1 2 4 5 15 22 25 26 30 31
1 1 2 4 12 26 30
1 1 2 4 16 22
1 1 2 4 17 22
4 1 2 4 22
2 1 2 4 22 24
3 1 2 4 22 28
1 1 2 4 26
1 1 2 4 28
1 1 2 5 7 9 11 15 18 20 33
1 1 2 5 8 9 11 15 19 20 21 23 24 27 31 33
1 1 2 5 8 11 16 24 28 30
1 1 2 5 9 11 15 19 20 21 23 33
1 1 2 5 10 12 26
1 1 2 5 11 15 20 21 33
1 1 2 5 13 16 18 25 26 34
1 1 2 5 15 16 17 18 25 26 28 29
1 1 2 5 16 18 19 20 21
1 1 2 5 16 18 25 26 28 34
1 1 2 5 16 20 21 22
1 1 2 5 16 20 29 33
1 1 2 5 18 26
1 1 2 5 18 26 27
1 1 2 5 18 29
2 1 2 5 19 20 21
1 1 2 5 20 25 29
1 1 2 5 25 26
1 1 2 6 7 8 9 10 12 13 14 16 18 23 24 25 26 27 28 29 32
1 1 2 6 7 10 12 13 16 18 29 32
1 1 2 6 7 10 12 14 16 18 29
1 1 2 7 9 10 12 14 16 28
1 1 2 7 10 12
1 1 2 7 10 12 13 14
1 1 2 7 10 12 24 28 32
1 1 2 7 10 12 26
1 1 2 7 10 12 27 32
1 1 2 7 12 18 24 25 26
1 1 2 7 12 25 27 34
1 1 2 8 9 11 16 18 33
1 1 2 8 9 15 24 31 33
1 1 2 8 16 17 18 23 24 27 28 29 31
1 1 2 8 18
1 1 2 8 18 24
1 1 2 8 18 24 28 31
1 1 2 8 18 28
1 1 2 8 23 29 30
1 1 2 9 10 12 14 16
1 1 2 9 10 12 14 16 29 32
1 1 2 9 12 26 28 31
1 1 2 10 11 15 17 18 22 24 26 29
1 1 2 10 12
1 1 2 11 15 18 20 22 28 29
1 1 2 12
1 1 2 12 16 23 29
1 1 2 13 18
1 1 2 15 25
3 1 2 16
2 1 2 16 17
5 1 2 16 17 18
1 1 2 16 17 18 23
1 1 2 16 17 18 23 28
1 1 2 16 17 18 29
2 1 2 16 18
1 1 2 16 18 29
1 1 2 17 18 24
10 1 2 18
1 1 2 18 22
1 1 2 18 24 28 31
1 1 2 18 24 31
2 1 2 18 28
2 1 2 22
1 1 2 22 24
1 1 2 23 30
2 1 2 28
1 1 2 29
2 1 2 30
1 1 2 31
1 1 2 34
1 1 3 4 5 14 16 18 22 34
1 1 3 4 5 34
1 1 3 4 18 22
1 1 4
1 1 4 9 15 22
1 1 4 11 16 18 22 32
1 1 4 18 22
1 1 5 7 9 10 11 14 15 16 20 21 33
1 1 5 7 16 18 22 30
1 1 5 8 13 23 24 25 26 27 28 29 31 34
1 1 5 8 13 26 27 34
1 1 5 9 11 15 18 25 26 29 34
1 1 5 9 11 15 19 20 21 33
1 1 5 10 14 26
1 1 5 11 15 19 33
1 1 5 13 25 26 34
1 1 5 16 17 18 25 26 29
1 1 5 16 18 26
1 1 5 16 18 29
1 1 5 18 24 25 26 29
1 1 5 18 26
2 1 5 19 20 21
1 1 5 20
1 1 5 23 25 26 28 29 34
1 1 5 24 25 26 29 31 34
1 1 5 24 25 26 34
1 1 5 24 26 29 34
2 1 5 25 26
1 1 5 25 26 27 28 29 34
2 1 5 25 26 27 34
1 1 5 25 26 28 29 34
2 1 5 25 26 29 34
1 1 5 25 29 30
3 1 5 26
1 1 5 26 27 34
1 1 5 26 28 29 34
1 1 5 26 29
1 1 5 26 34
1 1 6 7 10 12 14 16 29 32
1 1 6 7 10 24
1 1 7 9 18
1 1 7 10 12 28 32
1 1 7 12 24
1 1 7 12 24 28
1 1 8
1 1 8 13 23 24 27 28 31
1 1 8 16 17 18
2 1 8 24
2 1 9 11 15
1 1 9 15
1 1 9 15 19 21
1 1 9 15 27 33
1 1 10
1 1 10 12
1 1 10 12 16 18 27 28
1 1 10 14
1 1 10 14 29
1 1 11 15
2 1 16
1 1 16 17
2 1 16 17 18
1 1 16 17 29
1 1 16 17 31
1 1 16 18
1 1 16 18 29 30
1 1 16 22
1 1 16 25 26 29
1 1 16 29
8 1 18
1 1 18 24
1 1 18 24 28
1 1 23 28
1 1 26
2 1 27
1 1 27 28 31
5 1 28
1 1 28 31
3 1 29 30
1 1 30
17 2
2 2 3 4
1 2 3 4 5 22 24 26
1 2 3 4 8 22
1 2 3 4 16
4 2 3 4 18 22
6 2 3 4 22
1 2 3 5 12 16 18 22 30
1 2 3 5 16 18 22 26
1 2 3 5 18 26 31
1 2 3 18
1 2 3 18 22
1 2 3 22
2 2 4
1 2 4 5 15 16 18 30
2 2 4 5 25 26
2 2 4 10 22
1 2 4 14 15 16 17 18 20 25 26
1 2 4 18 22 28
3 2 4 22
1 2 4 22 27
1 2 4 23
2 2 4 25 26
2 2 4 26
1 2 5 9 11 15 20 21
1 2 5 10 11 18 21 22 29
1 2 5 12 14 16
1 2 5 16 18 22 30
1 2 5 16 26
1 2 5 16 34
1 2 5 22 25 26 29
1 2 5 24 25 26 29
1 2 5 25 26
1 2 5 26
1 2 6 7 10 11 15 18 20 21 22 25 26 29 32 33
1 2 6 7 10 12 14 16 29 32
2 2 6 7 10 16 29 32
1 2 6 7 12
1 2 6 10 12
1 2 6 11 15 18 22 29 30 32
1 2 6 29
1 2 7 9 12 14
1 2 7 10
1 2 7 10 12
1 2 7 10 12 14
1 2 7 10 12 14 25 26 32
1 2 7 10 12 32
1 2 7 29
1 2 9 10 11 14 15
1 2 9 11 15 33
1 2 10 12 14 16
2 2 10 12 32
1 2 10 18 25 26 33
1 2 10 22
1 2 11 15 20 21 33
1 2 11 15 20 24
1 2 11 15 21
1 2 11 16 18
1 2 11 18 22 25
1 2 11 29
1 2 14
1 2 15 20 22 25 26 29
1 2 15 20 33
1 2 15 26
2 2 16 17 18
1 2 16 17 18 24 28
2 2 16 17 18 28
1 2 16 17 18 29
1 2 16 18 30
1 2 16 22 26
2 2 17 18
9 2 18
1 2 18 20 22
1 2 18 20 26
1 2 18 21 22 25 26
1 2 18 21 22 26
2 2 18 22
2 2 18 24
1 2 18 24 31
1 2 18 25
1 2 18 25 26
4 2 18 26
1 2 18 29 30
1 2 18 29 31
1 2 20 22 25 26
1 2 21 22 29
9 2 22
1 2 22 25 26 29
1 2 22 28
1 2 22 29
4 2 25
12 2 25 26
1 2 25 26 29
1 2 25 26 33
6 2 26
1 2 29 30
16 3
5 3 4
1 3 4 5
1 3 4 5 6 7 9 11 14 15 18 20 21 22 27 28 29 32
1 3 4 5 7 11 12 16 17 18 21 22 25 33 34
3 3 4 5 34
1 3 4 9 11 16 20 22 27 30
1 3 4 18 22
1 3 4 18 22 28
2 3 4 22
1 3 4 22 24
3 3 5
1 3 5 6 10 16 18 29 34
1 3 5 18 22 29
1 3 6 7 11 14 18 20 22 29 32
1 3 16
1 3 18 22
1 3 18 22 26
2 3 22
1 3 29
2 4
1 4 5 6 7 10 11 15 18 20 21 22 29 30 32
1 4 5 6 10 11 16 18 29
1 4 5 9 30
1 4 5 10 15 16 18 22
1 4 5 11 15 16 18 22 29 30 32
1 4 5 11 16
1 4 5 11 16 18 20 22 29 32
1 4 5 16 22
1 4 5 17 24
1 4 5 18
1 4 5 18 22
1 4 5 18 22 29
1 4 5 20 22
1 4 5 20 22 29 33
1 4 5 22
1 4 5 22 25 26 28
1 4 5 22 29
1 4 5 25 26 29
1 4 10 11 15 16 22
1 4 10 15 16 18 29
1 4 10 15 18 22 33
1 4 16 18 22
1 4 16 22 29
1 4 18 22 29
1 4 18 22 29 30
13 4 22
10 5
1 5 6 16 18 20 21 22
1 5 7 10 25 26 29
1 5 7 11 15 18 22 29
1 5 7 16 18 22 29
1 5 8 25 26
1 5 9 11
1 5 9 11 15 19 33
1 5 9 11 15 20 21 33
1 5 9 11 15 20 33
1 5 9 18
1 5 9 21 24
1 5 10
1 5 10 11 16 18 29
1 5 10 18 29
1 5 11 15 16 33
1 5 11 15 18
1 5 11 15 20 33
1 5 11 15 25 26 29 34
1 5 11 18
1 5 11 18 22 29
1 5 11 20
1 5 15
1 5 15 18
1 5 15 18 20 21 30
1 5 15 22
1 5 16 17 18 24 26 31
1 5 16 17 18 26 29
2 5 16 18
1 5 16 18 22
1 5 16 18 22 29
1 5 16 29
1 5 16 29 30
2 5 18
1 5 18 22 26
3 5 18 29
1 5 20 21
1 5 20 23
1 5 24 25 26
1 5 24 25 26 29
2 5 25
2 5 25 26
1 5 25 26 28
1 5 25 26 29
1 5 25 26 29 34
2 5 25 26 34
4 5 25 29
1 5 25 29 34
2 5 25 34
2 5 26
1 5 26 28 30
2 5 26 29
1 5 26 29 30
1 5 26 29 34
1 5 26 34
1 5 27 29
13 5 29
5 5 29 34
2 5 34
2 6 7 10 16 29 32
1 6 7 14 29 32
1 6 7 14 32
2 6 10
1 6 10 12 16
1 6 10 22
1 6 11 15 16 22 32
1 6 16 18 21 22 29 30
1 7
1 7 10
1 7 10 12
1 7 10 14 16 18 29
1 7 10 16 18 29
1 7 15 18 32
1 8 16 17 18
3 9 11 15
1 9 11 15 20 21 27
1 9 11 15 24
1 9 12 16
2 9 15
1 9 15 16 18
2 9 19
1 9 22
4 10
1 10 11 16 22 29
1 10 11 18
1 10 12 16
1 10 12 18 24 29 32
1 10 15 16 18 26 29 30
3 10 16
1 10 16 22
2 10 29
1 11
1 11 15
1 11 15 20
2 11 15 20 21
2 11 15 20 21 33
1 11 15 24
3 11 15 33
1 11 18
2 11 20 21
1 11 21
2 12
1 14
6 15
1 15 16
1 15 16 18
1 15 18 21 22
1 15 20
1 15 20 21 22
12 16
2 16 17
6 16 17 18
1 16 17 18 29
1 16 17 26
2 16 18
1 16 18 22 29
1 16 18 29 30
1 16 22
1 16 24
1 16 24 28
1 16 29
4 17
3 17 18
32 18
2 18 22
1 18 22 26 29
1 18 22 29
1 18 22 29 30
1 18 22 30
1 18 24
1 18 26
3 18 28
1 18 30
1 20 22 29
9 22
1 22 29
1 22 29 33
1 23 28
1 25
23 25 26
1 25 26 29
1 25 26 29 34
1 25 26 31
9 26
1 29
3 29 30
4 30
1 32
3 34
1354
chunkPath=precede_could
evTypeArg=Transport:Washington
anchor=targeted
prevTokenAndType=Business_)
prevTokenAndType=Business_,
prevTokenAndType=Justice_before
arg=lobby
evTypeArg=Die:Iraqis
prevTokenAndType=Conflict_about
arg=the_death_penalty
prevTokenAndType=Movement_left
chunkPathAndType=Conflict_follow_at
arg=Fallujah
anchor=slaughter/n
anchor=spoke/n
prevToken=compensating
synPathTypes=Transaction_ORG_of
prevToken=provides
chunkPathAndType=Business_follow_in
chunkPath=precede_don't
anchor=smash
anchor=pardon
arg=AIG
anchor=approach
prevTokenAndType=Conflict_bombing
anchor=withdraw
prevToken=opened
anchor=marriage/n
arg=companies
prevToken=until
evTypeArg=Attack:who
chunkPathAndType=Personnel_follow_the
evTypeArg=Attack:capital
prevTokenAndType=Conflict_where
arg=Sunday_morning
anchor=begin
arg=attackers
anchor=extradition/n
anchor=previously
arg=MCI
evTypeArg=Sentence:the_death_penalty
prevTokenAndType=Transaction_"
synPathTypes=Life_PER_object-1:be:subject
anchor=quit
arg=planes
chunkPath=follow_,_include
prevTokenAndType=Movement_visited
prevToken=lost
prevTokenAndType=Conflict_-
anchor=meetings
prevTokenAndType=Justice_said
synPath=object-1:have:subject
arg=sister
arg=boy
prevToken=rally
evTypeArg=Transfer-Ownership:she
arg=saudi_arabia
prevTokenAndType=Transaction_give
evTypeArg=Demonstrate:Iraqis
evTypeArg=Attack:Karbala
chunkPathAndType=Conflict_precede_-_lead
chunkPathAndType=Business_precede_file_for
chunkPath=precede_that
arg=store
prevTokenAndType=Life_over
arg=desert
arg=house
evTypeArg=Attack:North_Korea
evTypeArg=Meet:their
evTypeArg=Elect:Sistani
prevTokenAndType=Life_killing
arg=Sunday
evTypeArg=Attack:Republican_Guard
evTypeArg=Attack:gaza
arg=demonstrators
evTypeArg=Meet:Seoul
prevTokenAndType=Contact_is
prevTokenAndType=Movement_is
anchor=hold
evTypeArg=Start-Position:he
evTypeArg=Meet:He
arg=vehicles
anchor=murder/n
anchor=abandon
anchor=merge
prevToken=Iraq
prevToken=On
evTypeArg=Meet:members
synPathEvType=Life_object-1:be:subject
evTypeArg=Sentence:he
chunkPath=precede_engage_in_major
synPathEvType=Personnel_of
prevTokenAndType=Life_where
prevTokenAndType=Conflict_whether
evTypeArg=Attack:members
evTypeArg=Attack:We
arg=Vivendi_Universal_Entertainment
chunkPathAndType=Transaction_follow_:
arg=obstruction_of_justice
anchor=fax/n
arg=Indonesia
chunkPath=precede_-_lead
arg=insurgents
arg=jurisdiction
prevTokenAndType=Business_on
arg=region
anchor=out-raised
arg=israelis
chunkPath=precede_get
anchor=divorce
prevTokenAndType=Personnel_said
prevTokenAndType=Justice_over
arg=murdering_his_wife_Laci_and_their_unborn_son
anchor=extermination/n
prevTokenAndType=Justice_'s
evTypeArg=Attack:group
evTypeArg=Die:his
evTypeArg=Meet:you
evTypeArg=Die:journalists
arg=Sistani
arg=business
arg=luster
chunkPathAndType=Personnel_follow_to
prevToken=killed.
prevTokenAndType=Personnel_if
arg=places
prevTokenAndType=Movement_because
chunkPath=precede_would
chunkPathAndType=Contact_follow_at
anchor=terrorism/n
evTypeArg=End-Position:he
anchor=clash
prevToken=within
chunkPathAndType=Contact_precede_have
arg=gunmen
anchor=custody/n
anchor=shell
arg=reporter
chunkPath=precede_can
prevTokenAndType=Conflict_In
prevToken=been
prevToken=how
arg=executives
chunkPath=precede_she_have
anchor=escort
anchor=combat/n
chunkPathAndType=Personnel_precede_'s
anchor=secure
synPathTypes=Personnel_PER_of
evTypeArg=Phone-Write:we
evTypeArg=Attack:israeli
prevTokenAndType=Movement_And
prevToken=(
evTypeArg=Transport:Kuwait
chunkPathAndType=Personnel_precede_'m
evTypeArg=Transport:Saturday
arg=1999
anchor=forum/n
synPath=object-1:be:subject
evTypeArg=Attack:aircraft
anchor=have
arg=aircraft
evTypeArg=Attack:yesterday
prevTokenAndType=Business_by
evTypeArg=Attack:marines
arg=families
arg=three
evTypeArg=Transfer-Ownership:forces
evTypeArg=Transfer-Ownership:Iran
chunkPathAndType=Justice_precede_'s
prevToken=bombing
evTypeArg=Transfer-Money:her
evTypeArg=Transfer-Money:USCF
anchor=direct
anchor=blind
anchor=due
prevTokenAndType=Movement_-
anchor=talks/n
arg=Republican_Guard
anchor=haul
evTypeArg=Elect:government
prevToken=attack
arg=helicopter
arg=sam_waksal
arg=killer
anchor=buys
anchor=walk
arg=streets
prevToken=dropped
evTypeArg=Meet:today
arg=Russia
prevToken=bring
arg=new_york
arg=Pakistan
prevTokenAndType=Conflict_fired
prevTokenAndType=Movement_take
arg=head
anchor=control/n
anchor=select
anchor=pound
evTypeArg=Convict:he
arg=saddam_hussein
eleven
chunkPath=follow_when
prevTokenAndType=Life_said
arg=civilian
anchor=explode
anchor=suit/n
arg=pilots
anchor=guilty
anchor=war
evTypeArg=Transfer-Money:They
chunkPath=precede_schedule_to
prevTokenAndType=Life_after
evTypeArg=Transport:Bush
anchor=negotiation/n
chunkPathAndType=Business_precede_to
evTypeArg=Meet:president
chunkPathAndType=Transaction_follow_by
chunkPathAndType=Movement_precede_try_to
arg=nine_eleven
chunkPathAndType=Movement_precede_did
anchor=hurt
arg=himself
prevToken=became
chunkPath=precede_do
anchor=transfer/n
anchor=discussion/n
anchor=strangle
prevToken=take
prevToken=reports
chunkPath=follow_through
prevTokenAndType=Movement_towards
evTypeArg=Attack:units
chunkPath=precede_file_for
evTypeArg=End-Position:his
prevTokenAndType=Life_say
evTypeArg=Attack:his
evTypeArg=Die:wife
arg=hotel
chunkPathAndType=Conflict_precede_engage_in_major
anchor=gunfire/n
chunkPath=precede_face
evTypeArg=Transport:country
arg=bus
prevTokenAndType=Transaction_--
arg=Belgrade
evTypeArg=Attack:you
arg=delegates
evTypeArg=Attack:Saturday
evTypeArg=Charge-Indict:executives
evTypeArg=Die:son
evTypeArg=Start-Position:her
arg=Bali
arg=blasphemy
anchor=air/n
evTypeArg=End-Position:CEO
prevToken=ship
arg=guy
evTypeArg=Transfer-Money:someone
arg=Greece
arg=my
prevToken=why
prevToken=what
arg=executive
prevTokenAndType=Life_a
chunkPathAndType=Justice_precede_have
chunkPath=precede_try_to
evTypeArg=Attack:place
arg=Saddam_Hussein
prevTokenAndType=Justice_Trial
evTypeArg=Transfer-Money:reporter
arg=infant
evTypeArg=Die:crew
prevToken=00
prevToken=shot
arg=silver_cross
prevToken=headed
chunkPathAndType=Movement_precede_and
chunkPathAndType=Conflict_follow_for
chunkPathAndType=Movement_follow_by
evTypeArg=Convict:they
evTypeArg=Attack:artillery
prevToken=like
prevTokenAndType=Life_)
chunkPathAndType=Contact_precede_'s
chunkPath=follow_towards
evTypeArg=Declare-Bankruptcy:enron
evTypeArg=Attack:them
arg=United_Nations
prevToken=But
chunkPathAndType=Conflict_follow_to
prevTokenAndType=Transaction_the
anchor=married
anchor=support/n
arg=Sam_Sloan
prevTokenAndType=Transaction_at
anchor=wipe
prevTokenAndType=Transaction_out
arg=Saddam
evTypeArg=Die:mother
evTypeArg=Meet:Blair
anchor=force
prevTokenAndType=Justice_including
anchor=launch
dist=20
evTypeArg=Die:Marines
arg=american
prevTokenAndType=Life_for
prevTokenAndType=Contact_a
chunkPathAndType=Contact_follow_between
chunkPathAndType=Movement_precede_have_be
evTypeArg=Attack:airport
prevTokenAndType=Conflict_'s
chunkPathAndType=Personnel_precede_have
evTypeArg=Attack:nine_eleven
chunkPath=precede_,_the
prevTokenAndType=Contact_"
prevToken=do
anchor=shape
arg=some
anchor=indict
arg=tonight
prevTokenAndType=Conflict_--
arg=houses
arg=guys
evTypeArg=Attack:baghdad
evTypeArg=Injure:others
evTypeArg=Die:Arafat
evTypeArg=Injure:people
evTypeArg=Die:Yasser_Arafat
evTypeArg=Die:civilians
evTypeArg=Die:soldiers
chunkPathAndType=Life_precede_have_be
prevTokenAndType=Life_kill
chunkPathAndType=Life_precede_'s
prevTokenAndType=Life_killed
prevTokenAndType=Life_at
prevTokenAndType=Life_on
anchor=suicide/n
noSynPath
dist=3
dist=2
dist=1
dist=5
dist=0
chunkPath=precede_
prevToken=,
prevToken=and
dist=7
dist=9
prevToken=.
chunkPath=precede_be
dist=4
dist=6
chunkPath=follow_
dist=8
prevToken=for
chunkPath=precede_to
prevToken=of
chunkPath=follow_of
evType=Conflict
anchor=hit
chunkPathAndType=Conflict_follow_
anchor=kill
anchor=shoot
evType=Life
anchor=death/n
anchor=lose
chunkPathAndType=Life_precede_
chunkPathAndType=Life_follow_
prevTokenAndType=Life_.
anchor=die
anchor=injure
anchor=casualty/n
dist=11
prevToken=the
prevToken=on
prevToken=at
anchor=war/n
prevToken=hit
anchor=get
prevToken=from
prevToken=over
prevToken="
prevToken='s
anchor=remove
noChunkPath
anchor=execute
prevTokenAndType=Life_,
anchor=wound
prevToken=that
chunkPath=follow_,
prevToken=killed
prevToken=said
prevToken=think
chunkPath=precede_'s
prevToken=after
prevToken=:
anchor=that
chunkPath=follow_GPE
prevTokenAndType=Life_and
prevTokenAndType=Life_the
synPath=subject
synPath=object
prevToken=when
prevToken=with
arg=it
chunkPath=precede_have
synPath=of
prevTokenAndType=Life_of
prevTokenAndType=Life_when
anchor=murder
prevToken=)
prevToken=to
anchor=torture
anchor=rape
synPath=poss
chunkPath=precede_have_to
dist=14
prevToken=where
chunkPath=precede_who
prevToken=be
prevToken=are
anchor=fall
prevTokenAndType=Life_from
synPathEvType=Life_object
chunkPathAndType=Life_precede_be
prevTokenAndType=Life_to
anchor=blow
anchor=dead
anchor=execution/n
prevTokenAndType=Life_'s
anchor=killed
arg=they
arg=one
prevToken=which
prevToken=--
prevTokenAndType=Life_with
synPathEvType=Life_subject
arg=bomber
prevToken=killing
arg=civilians
prevToken=kill
arg=children
menType=PER
arg=people
prevToken=including
arg=his
arg=he
arg=she
arg=who
arg=He
prevToken=if
arg=her
arg=members
chunkPath=precede_have_be
arg=their
prevToken=but
prevToken=say
arg=person
arg=mother
arg=troops
arg=soldiers
arg=terrorists
arg=Marines
arg=journalists
arg=others
prevToken=whether
chunkPath=precede_,_be
arg=Arafat
prevToken=``
arg=woman
prevToken=up
arg=iraqis
arg=crew
prevToken=And
chunkPath=precede_be_be
arg=him
arg=wife
arg=man
arg=men
prevToken=because
arg=Americans
arg=son
arg=baby
arg=president
prevToken=''
arg=Iraqis
prevToken=As
anchor=cost/n
anchor=do
synPathTypes=Life_PER_of
synPathEvType=Life_poss
chunkPathAndType=Life_follow_of
synPathTypes=Life_PER_poss
synPathEvType=Life_of
arg=chief
arg=father
synPathTypes=Life_PER_object
prevTokenAndType=Life_if
prevTokenAndType=Life_that
prevTokenAndType=Life_think
synPathTypes=Life_PER_subject
arg=Yasser_Arafat
prevToken=left
arg=soldier
arg=women
prevTokenAndType=Life_including
chunkPathAndType=Life_precede_have
evTypeArg=Die:people
evTypeArg=Die:soldier
evTypeArg=Die:they
evTypeArg=Die:he
evTypeArg=Die:members
evTypeArg=Die:troops
arg=2001
evTypeArg=Die:last_week
arg=last_year
evTypeArg=Die:today
prevTokenAndType=Life_hospital
arg=this_morning
chunkPathAndType=Life_follow_in_hospital
arg=September
arg=1995
evTypeArg=Attack:today
prevToken=hospital
arg=today
chunkPath=follow_in_hospital
arg=yesterday
chunkPathAndType=Personnel_follow_in
prevToken=died
prevTokenAndType=Contact_at
prevTokenAndType=Life_died
chunkPathAndType=Life_follow_in
anchor=hit/n
dist=17
prevToken=in
dist=10
dist=12
anchor=take
prevToken=was
anchor=drop
dist=13
anchor=charge
anchor=fire
prevTokenAndType=Conflict_and
chunkPathAndType=Conflict_precede_be
chunkPathAndType=Conflict_precede_
prevTokenAndType=Conflict_.
prevTokenAndType=Conflict_,
anchor=attack/n
anchor=attack
anchor=strike/n
anchor=assault/n
anchor=clash/n
anchor=fighting/n
anchor=fire/n
anchor=bomb
anchor=fight
anchor=strike
anchor=battle/n
anchor=open
anchor=destroy
prevTokenAndType=Conflict_in
anchor=go
prevToken=a
anchor=genocide/n
anchor=fight/n
anchor=bombardment/n
prevTokenAndType=Conflict_hit
anchor=explosion/n
chunkPathAndType=Conflict_follow_on
chunkPath=precede_,
prevToken=into
chunkPath=follow_on
anchor=shot/n
anchor=eliminate
anchor=bombings/n
anchor=front/n
anchor=airstrikes/n
anchor=raid
prevTokenAndType=Conflict_for
prevTokenAndType=Conflict_the
anchor=invasion/n
chunkPathAndType=Conflict_precede_,
prevTokenAndType=Conflict_on
chunkPath=follow_at
prevTokenAndType=Conflict_at
anchor=pay
evType=Transaction
prevToken=since
chunkPathAndType=Transaction_follow_
chunkPath=follow_over
anchor=provide
anchor=come
anchor=be
anchor=win
anchor=head
anchor=seize
anchor=capture
anchor=march/n
anchor=visit
prevToken=meet
anchor=sell
anchor=buy
anchor=pick
chunkPath=follow_into
evType=Justice
prevTokenAndType=Justice_.
prevTokenAndType=Justice_,
chunkPathAndType=Justice_follow_
anchor=convict
anchor=sentence
anchor=trial/n
prevTokenAndType=Justice_in
anchor=charge/n
chunkPath=follow_for
chunkPath=precede_and
anchor=release
prevTokenAndType=Transaction_in
evType=Personnel
anchor=call/n
anchor=talk/n
evType=Contact
anchor=meet
evType=Business
chunkPathAndType=Justice_follow_of
prevTokenAndType=Justice_of
chunkPath=follow_in
prevToken=is
anchor=conviction/n
dist=15
chunkPathAndType=Justice_follow_in
anchor=arrest
anchor=rally/n
dist=18
anchor=born
anchor=birth/n
prevTokenAndType=Life_in
anchor=resign
anchor=step
chunkPathAndType=Personnel_follow_
anchor=replace
prevTokenAndType=Personnel_for
anchor=election/n
anchor=former
anchor=hire
prevTokenAndType=Personnel_,
chunkPathAndType=Personnel_precede_
prevTokenAndType=Personnel_at
prevTokenAndType=Personnel_.
chunkPath=precede_for
prevTokenAndType=Personnel_the
prevToken=The
prevTokenAndType=Contact_meeting
prevTokenAndType=Contact_on
anchor=protest/n
prevTokenAndType=Contact_meet
prevTokenAndType=Contact_from
chunkPath=follow_be
anchor=demonstrate
anchor=conference/n
prevToken=meeting
prevTokenAndType=Conflict_"
anchor=meeting/n
anchor=summit/n
chunkPathAndType=Contact_follow_
prevTokenAndType=Personnel_in
anchor=War
anchor=battle
prevTokenAndType=Conflict_is
anchor=bankruptcy/n
prevTokenAndType=Contact_in
chunkPathAndType=Contact_follow_in
anchor=it/pro
chunkPathAndType=Business_follow_
prevTokenAndType=Business_in
chunkPathAndType=Conflict_follow_in
prevToken=In
prevToken=or
prevToken=off
prevTokenAndType=Conflict_that
prevTokenAndType=Conflict_killed
chunkPath=precede_in
dist=21
prevTokenAndType=Conflict_said
anchor=give
prevToken=before
evType=Movement
anchor=arrive
anchor=send
chunkPathAndType=Transaction_precede_
prevToken=get
prevTokenAndType=Transaction_for
prevTokenAndType=Movement_in
anchor=leave
anchor=head/n
prevToken=so
anchor=visit/n
anchor=march
anchor=export
anchor=sale/n
anchor=acquire
prevTokenAndType=Movement_,
anchor=fly
chunkPathAndType=Movement_follow_
chunkPathAndType=Movement_precede_
anchor=travel/n
anchor=advance
anchor=trip/n
anchor=cross
anchor=return
anchor=carry
anchor=move
chunkPathAndType=Movement_precede_to
anchor=out
anchor=enter
anchor=travel
anchor=push/n
prevTokenAndType=Movement_on
prevTokenAndType=Movement_.
anchor=advance/n
anchor=jump
chunkPathAndType=Justice_precede_
anchor=sue
anchor=fine/n
anchor=hearing/n
chunkPathAndType=Justice_follow_for
prevTokenAndType=Justice_for
prevToken=just
menType=Time
anchor=retire
menType=Age
arg=now
anchor=gift/n
anchor=sign
anchor=steal
prevTokenAndType=Transaction_a
anchor=skim
prevToken=here
anchor=prosecution/n
prevTokenAndType=Justice_on
prevTokenAndType=Justice_sentenced
prevToken=sentenced
anchor=compensate
anchor=divorce/n
prevTokenAndType=Justice_arrested
anchor=re/n
anchor=removal/n
chunkPathAndType=Personnel_precede_be
anchor=name
prevTokenAndType=Personnel_on
anchor=appointment/n
anchor=start
prevToken=arrested
anchor=extradite
anchor=capture/n
prevToken=call
anchor=letter/n
anchor=interview/n
anchor=talk
anchor=discuss
prevTokenAndType=Contact_call
prevTokenAndType=Contact_,
prevTokenAndType=Contact_.
anchor=call
prevTokenAndType=Contact_for
arg=last_week
chunkPathAndType=Movement_follow_on
arg=Saturday
arg=Monday
arg=Friday
arg=Wednesday
evTypeArg=Meet:Tuesday
evTypeArg=Transport:Thursday
arg=1998
arg=Tuesday
arg=Thursday
anchor=form
anchor=set
anchor=found
prevTokenAndType=Business_that
evTypeArg=Attack:iraq
evTypeArg=Attack:Rwanda
evTypeArg=Attack:Kut
evTypeArg=Die:Iraq
prevTokenAndType=Conflict_over
evTypeArg=Attack:Baghdad
prevTokenAndType=Conflict_around
prevToken=outside
evTypeArg=Attack:Iraq
arg=Vietnam
arg=Rwanda
arg=Paris
arg=gaza
prevTokenAndType=Conflict_near
evTypeArg=Attack:city
evTypeArg=Die:hospital
prevToken=around
anchor=threat/n
evTypeArg=Attack:it
anchor=punch
anchor=use
prevToken=time
prevTokenAndType=Conflict_with
synPathEvType=Conflict_subject
prevTokenAndType=Conflict_of
chunkPathAndType=Conflict_follow_of
anchor=obliterate
chunkPathAndType=Conflict_precede_to
anchor=raid/n
synPathEvType=Conflict_object
prevTokenAndType=Conflict_when
anchor=defeat
chunkPath=follow_with
prevToken=-
anchor=reach
synPathEvType=Conflict_of
prevTokenAndType=Conflict_a
chunkPathAndType=Conflict_follow_with
evTypeArg=Attack:building
synPathTypes=Conflict_FAC_object
arg=us
prevToken=through
menType=FAC
prevToken=against
chunkPath=follow_against
chunkPath=follow_to
anchor=campaign/n
prevTokenAndType=Conflict_against
prevTokenAndType=Conflict_into
chunkPathAndType=Conflict_follow_against
prevTokenAndType=Conflict_to
anchor=ambush
menType=LOC
arg=building
prevToken=towards
arg=checkpoint
prevTokenAndType=Transaction_of
synPath=nameMod
prevToken=got
prevToken=says
prevToken=secure
prevToken=took
anchor=invade
anchor=drive
arg=airport
arg=bridge
menType=GPE
prevTokenAndType=Justice_and
prevTokenAndType=Justice_)
synPathEvType=Justice_subject
anchor=appeal/n
anchor=lawsuit/n
arg=government
synPathTypes=Justice_GPE_subject
prevTokenAndType=Justice_a
prevTokenAndType=Justice_at
anchor=try
anchor=sentence/n
prevTokenAndType=Justice_to
anchor=indictment/n
arg=court
anchor=receive
anchor=donation/n
anchor=serve
anchor=prosecute
anchor=accuse
arg=Iraq
prevToken=this
chunkPathAndType=Transaction_precede_have
chunkPathAndType=Transaction_precede_to
prevTokenAndType=Transaction_from
arg=board
chunkPath=follow_from
anchor=this
chunkPathAndType=Justice_follow_to
arg=state
prevTokenAndType=Transaction_to
arg=center
prevTokenAndType=Personnel_of
anchor=new
anchor=become
prevTokenAndType=Personnel_from
anchor=elect
prevTokenAndType=Personnel_and
anchor=put
dist=16
prevToken=former
prevTokenAndType=Personnel_former
prevTokenAndType=Contact_to
synPathTypes=Contact_GPE_nameMod
anchor=reunite
anchor=gather
synPathEvType=Contact_nameMod
chunkPathAndType=Contact_follow_to
anchor=protest
evTypeArg=Elect:Iraq
anchor=demonstration/n
arg=Japan
arg=Pyongyang
arg=United_States
arg=Washington
synPathEvType=Conflict_poss
arg=China
prevTokenAndType=Contact_the
prevTokenAndType=Contact_and
chunkPathAndType=Contact_precede_
prevToken=leave
arg=there
arg=Seoul
arg=Beijing
arg=where
arg=here
anchor=turn
prevToken=A
arg=country
arg=US
synPathTypes=Conflict_GPE_nameMod
arg=israeli
synPathEvType=Conflict_nameMod
evTypeArg=Attack:United_States
evTypeArg=Attack:Israel
evTypeArg=Attack:China
synPathTypes=Conflict_GPE_subject
synPathTypes=Conflict_GPE_object
prevTokenAndType=Conflict_from
arg=u.s
anchor=conflict/n
arg=Israel
arg=Kut
arg=border
arg=New_York
arg=Karbala
arg=city
arg=france
arg=town
arg=capital
arg=baghdad
arg=FL
arg=home
arg=London
arg=Baghdad
arg=outskirts
arg=iraq
arg=Kuwait
arg=Turkey
arg=area
arg=Florida
prevToken=enter
prevToken=near
arg=Basra
arg=place
arg=hospital
anchor=create
evTypeArg=Attack:missiles
arg=explosives
evTypeArg=Attack:bomb
evTypeArg=Attack:weapons
arg=bombs
arg=warplanes
synPathTypes=Conflict_WEA_object
prevToken=detonated
arg=missile
arg=gun
arg=artillery
arg=bomb
evTypeArg=Attack:bombs
synPathTypes=Conflict_WEA_subject
evTypeArg=Attack:warplanes
evTypeArg=Attack:missile
synPathTypes=Conflict_VEH_subject
evTypeArg=Attack:guns
evTypeArg=Attack:tanks
arg=guns
synPathTypes=Conflict_VEH_object
menType=WEA
prevToken=by
prevToken=as
menType=VEH
arg=tanks
arg=car
prevToken=about
prevTokenAndType=Conflict_as
prevTokenAndType=Conflict_by
anchor=detonate
evTypeArg=Attack:they
prevTokenAndType=Conflict_which
arg=missiles
arg=weapons
arg=arms
chunkPath=precede_will
prevToken=have
chunkPath=follow_by
prevToken=fired
chunkPathAndType=Conflict_follow_by
prevToken=between
prevTokenAndType=Conflict_between
chunkPathAndType=Conflict_precede_have
prevTokenAndType=Life_by
prevToken=destroyed
prevTokenAndType=Conflict_destroyed
menType=ORG
arg=officials
prevToken=out
arg=them
arg=we
arg=leader
arg=you
arg=personnel
chunkPath=follow_the
arg=our
arg=unit
arg=We
arg=units
arg=forces
arg=7th_Cavalry
anchor=push
arg=marines
prevToken=see
arg=someone
arg=She
prevToken=give
anchor=cut
prevToken=allow
arg=leaders
arg=regime
evTypeArg=Attack:troops
synPathTypes=Conflict_PER_object
evTypeArg=Attack:she
evTypeArg=Attack:soldiers
evTypeArg=Attack:he
evTypeArg=Attack:people
evTypeArg=Attack:woman
evTypeArg=Attack:regime
evTypeArg=Attack:Marines
evTypeArg=Attack:we
evTypeArg=Attack:forces
evTypeArg=Attack:terrorists
prevTokenAndType=Conflict_if
evTypeArg=Transport:their
synPathTypes=Transaction_WEA_object
synPathEvType=Movement_poss
evTypeArg=Transport:soldiers
evTypeArg=Transfer-Ownership:weapons
evTypeArg=Transport:journalists
synPathTypes=Transaction_FAC_object
evTypeArg=Transport:forces
synPathTypes=Movement_PER_poss
synPathTypes=Movement_PER_object
chunkPath=precede_plan_to
anchor=bring
arg=They
chunkPath=precede_want_to
prevTokenAndType=Movement_from
chunkPathAndType=Transaction_follow_of
synPathEvType=Transaction_object
prevTokenAndType=Transaction_,
prevTokenAndType=Transaction_and
arg=thousands
prevTokenAndType=Transaction_over
arg=Ocalan
arg=I
chunkPath=precede_will_be
arg=member
prevToken=all
chunkPathAndType=Transaction_precede_be
anchor=ship
arg=family
chunkPath=precede_'ll
synPathEvType=Transaction_of
synPathTypes=Transaction_ORG_object
synPath=object-1:make:subject
arg=company
prevToken=sent
anchor=end
anchor=throw
arg=Putin
arg=i
arg=bush
arg=Bush
chunkPath=precede_'m
arg=that
arg=Blair
arg=protesters
arg=which
prevToken=brought
arg=kramers
chunkPath=precede_did
evTypeArg=Transfer-Ownership:company
anchor=purchase
anchor=pour
prevTokenAndType=Movement_for
chunkPathAndType=Movement_follow_of
evTypeArg=Transport:her
prevTokenAndType=Movement_through
prevTokenAndType=Movement_over
anchor=rumble
prevTokenAndType=Movement_and
prevTokenAndType=Movement_of
synPathEvType=Movement_object
anchor=flee
prevTokenAndType=Movement_but
anchor=kick
anchor=expel
prevTokenAndType=Movement_with
prevTokenAndType=Movement_when
prevTokenAndType=Movement_as
evTypeArg=Transport:it
anchor=arrival/n
prevTokenAndType=Movement_get
anchor=close
anchor=tour/n
prevTokenAndType=Movement_)
anchor=back
anchor=land
prevTokenAndType=Movement_--
prevTokenAndType=Movement_said
evTypeArg=Transport:we
evTypeArg=Transport:they
prevTokenAndType=Movement_say
evTypeArg=Transport:He
prevTokenAndType=Movement_by
evTypeArg=Transport:troops
evTypeArg=Transport:people
evTypeArg=Transport:you
evTypeArg=Transport:We
evTypeArg=Transport:she
evTypeArg=Transport:I
evTypeArg=Transport:he
synPathTypes=Movement_PER_subject
prevTokenAndType=Movement_that
chunkPathAndType=Movement_precede_be
chunkPathAndType=Movement_precede_will
chunkPathAndType=Movement_precede_have
synPathEvType=Movement_subject
synPathTypes=Movement_VEH_object
prevTokenAndType=Movement_As
synPathTypes=Justice_PER_subject
prevTokenAndType=Justice_that
prevTokenAndType=Justice_by
chunkPathAndType=Justice_follow_by
synPathEvType=Justice_poss
synPathTypes=Justice_PER_poss
chunkPathAndType=Justice_precede_be
anchor=action/n
prevToken=If
arg=group
arg=judge
evTypeArg=Sentence:they
anchor=find
synPathEvType=Justice_object
synPathTypes=Justice_PER_object
arg=SEC
prevTokenAndType=Personnel_after
anchor=loan/n
anchor=contribution/n
anchor=pay/n
prevTokenAndType=Transaction_by
anchor=fund
synPathEvType=Justice_of
prevTokenAndType=Transaction_:
prevTokenAndType=Transaction_pay
prevToken=pay
menType=Numeric
synPathTypes=Transaction_Numeric_object
chunkPath=follow_:
evTypeArg=Charge-Indict:her
evTypeArg=Sentence:him
prevTokenAndType=Justice_against
chunkPathAndType=Justice_follow_against
arg=your
arg=USCF
prevTokenAndType=Justice_with
prevTokenAndType=Justice_the
prevToken=?
chunkPathAndType=Justice_precede_have_be
chunkPathAndType=Justice_precede_,_be
prevTokenAndType=Justice_if
arg=Ba'asyir
arg=Scott_Peterson
prevToken=Trial
anchor=park
evTypeArg=Transfer-Money:they
synPathTypes=Transaction_PER_subject
synPathEvType=Transaction_subject
synPathTypes=Transaction_ORG_subject
prevTokenAndType=Transaction_.
prevTokenAndType=Transaction_that
anchor=feathering
synPathTypes=Transaction_PER_object
evTypeArg=Transfer-Money:member
evTypeArg=Transfer-Money:Arafat
arg=EU
prevTokenAndType=Transaction_)
synPathTypes=Transaction_GPE_subject
prevTokenAndType=Transaction_if
menType=Crime
chunkPathAndType=Justice_follow_with
menType=Sentence
arg=Member
evTypeArg=Transfer-Money:Member
prevToken=paying
anchor=Compensation
prevTokenAndType=Transaction_paying
evTypeArg=Transfer-Money:members
arg=Marinello
arg=jordan
arg=North_Korea
chunkPathAndType=Transaction_follow_to
arg=Iran
chunkPathAndType=Personnel_follow_of
prevTokenAndType=Personnel_think
arg=CEO
synPathTypes=Personnel_PER_object
evTypeArg=Arrest-Jail:people
anchor=appoint
evTypeArg=End-Position:she
chunkPathAndType=Life_follow_to
prevTokenAndType=Personnel_hire
evTypeArg=End-Position:I
anchor=wed
prevToken=hire
arg=general
evTypeArg=End-Position:general
anchor=retired
synPathEvType=Personnel_poss
prevTokenAndType=Personnel_as
synPathEvType=Personnel_object
prevTokenAndType=Personnel_that
prevTokenAndType=Personnel_to
synPathEvType=Personnel_subject
anchor=return/n
arg=somebody
arg=Al-Douri
prevToken=know
anchor=run
arg=terrorist
anchor=marry
prevTokenAndType=Personnel_since
synPathTypes=Personnel_PER_subject
chunkPathAndType=Personnel_follow_as
synPathTypes=Personnel_Job-Title_object
menType=Job-Title
chunkPath=follow_as
prevTokenAndType=Personnel_retired
prevToken=retired
evTypeArg=Elect:president
synPathEvType=Contact_poss
arg=Annan
prevTokenAndType=Contact_between
evTypeArg=Meet:Bush
evTypeArg=Demonstrate:people
evTypeArg=Meet:leaders
evTypeArg=Meet:Annan
evTypeArg=Meet:bush
synPathTypes=Contact_PER_poss
prevTokenAndType=Contact_of
synPathTypes=Personnel_ORG_object
evTypeArg=Phone-Write:I
chunkPathAndType=Contact_follow_with
synPathEvType=Contact_subject
synPathTypes=Contact_PER_subject
evTypeArg=Meet:Putin
anchor=sit
evTypeArg=Meet:we
prevTokenAndType=Contact_''
arg=minister
evTypeArg=Meet:officials
evTypeArg=Meet:minister
synPathTypes=Contact_PER_object
evTypeArg=Meet:they
evTypeArg=Meet:Al-Douri
evTypeArg=Meet:he
evTypeArg=Phone-Write:her
anchor=contact
evTypeArg=Meet:North_Korea
evTypeArg=Demonstrate:protesters
prevTokenAndType=Contact_with
prevTokenAndType=Contact_that
synPathTypes=Conflict_PER_subject
chunkPath=follow_between
arg=U.S
arg=police
prevToken=while
arg=administration
anchor=phone/n
prevToken=visited
prevTokenAndType=Contact_met
synPathEvType=Contact_object
prevToken=met
arg=enron
arg=extremists
chunkPath=precede_go_to
evTypeArg=Attack:u.s
evTypeArg=Attack:US
evTypeArg=Attack:Japan
chunkPathAndType=Conflict_precede_go_to
evTypeArg=Attack:terrorist
evTypeArg=Attack:coalition
evTypeArg=Attack:Iraqis
evTypeArg=Attack:U.S
arg=military
arg=coalition
prevToken=began
chunkPathAndType=Movement_follow_from
evTypeArg=Transport:area
chunkPathAndType=Movement_follow_to
evTypeArg=Transport:city
evTypeArg=Transport:there
prevToken=toward
prevTokenAndType=Movement_at
chunkPathAndType=Movement_follow_into
synPathTypes=Movement_GPE_object
chunkPathAndType=Movement_follow_toward
synPathTypes=Movement_FAC_object
evTypeArg=Transport:Iraq
evTypeArg=Transport:state
evTypeArg=Transport:Baghdad
synPathTypes=Movement_LOC_object
evTypeArg=Transport:airport
evTypeArg=Transport:iraq
evTypeArg=Transport:United_States
prevTokenAndType=Movement_toward
chunkPath=follow_toward
evTypeArg=Transport:London
evTypeArg=Transport:home
evTypeArg=Transport:capital
evTypeArg=Transport:town
evTypeArg=Transport:Turkey
prevTokenAndType=Movement_to
prevTokenAndType=Movement_into
prevTokenAndType=Movement_enter
chunkPathAndType=Movement_follow_in
evTypeArg=Transport:here
chunkPath=follow_back_to
chunkPathAndType=Movement_follow_back_to
prevTokenAndType=Movement_come
chunkPathAndType=Movement_follow_at
evTypeArg=Transport:hospital
prevToken=come
chunkPathAndType=Life_follow_by
prevTokenAndType=Business_.
chunkPathAndType=Business_precede_
synPathEvType=Business_subject
synPathEvType=Business_object
evTypeArg=Start-Org:government
anchor=bankruptcy
synPathTypes=Business_ORG_object
arg=prosecutors
synPathTypes=Movement_VEH_subject
arg=plane
evTypeArg=Transport:plane
19.262707376666278
15.624563884780365
26.794071869509402
15.467509389531324
18.721335991854072
16.627789234346622
15.439400315876558
18.273066548846888
21.874798304682905
0.3253354771964598
11.873358695776433
4.14523823443
27.37272788134645
12.431903756336766
16.957835007862744
27.156095463906436
17.146711406621158
18.49181829698165
33.01128876532311
10.953460976422292
17.271820233120316
22.629891771619167
1.3519140777978658
7.437449475231936
4.5381840213677815
-1.4386422852713965
1.0006750107353817
0.7913814245355688
-14.881467813846799
-8.828375848891863
-11.189513075821562
-3.4480865547436235
-1.810901625578735
-4.673254833598329
-1.3528998364533829
-32.178122677025186
-11.210599401070056
-2.370637703478195
1.2409264055440863
-3.2974147698666645
5.007334318005179
-25.65468571919991
-4.369412279431236
-12.083262014542019
2.3178133762023947
-18.2767065376836
-6.93747439319216
-4.0743244934060385
3.2359712077129466
-14.316587491514971
-8.007529663278227
1.6863046797929364
-4.924775925214357
-14.515455766612371
-13.268144871259706
-17.29018445477058
-7.756921571268641
2.1895860057009426
4.650705649560014
3.6498775038209974
-1.2833766442756027
-0.39882100233274675
2.2717591223536884
-1.6526447756370353
-16.78848965480696
2.183800951915714
-3.392568579344908
-11.774072438153071
-13.997604576097753
-1.8860539231715605
6.898824171079177
-13.737189756836123
-5.585116662252455
-3.8936724114273122
-7.879251896250082
6.540747453779155
1.5095853071320302
-7.29848854686929
-1.5045134243384641
3.310310264750776
2.1923777160501436
-0.5406368208037249
1.300177266515751
1.4702672086424378
-5.416586567873356
-8.051888002020414
2.2628610253966035
-4.0236683832237965
-9.442335683312768
-6.966774246935522
-8.065670234705841
-5.934345353728082
6.865730048048361
3.841798721131638
1.6483506797336913
-7.632840077689614
-3.7471067311774395
4.807380154992606
-7.932335373820653
-3.314182977905235
-6.264618273197498
-10.098048316183268
-3.616685906083781
-11.044818880049139
-3.246344407247361
-10.619736718796485
-1.7788022342046843
4.106288550976911
-3.765401801819208
8.886026412398426
-12.17177868071948
-6.9534796653755535
-13.251144651677631
1.9568160863230153
4.679933919541058
-1.6633476505805884
-8.053397090570165
2.8844453714893956
3.146185442020161
-0.41074129338372534
-2.2846920351969877
-1.4595827475996699
-10.590312787453053
-13.061380579679126
-5.004300334234232
-12.678869668721198
3.0335504076563877
4.705712535471312
5.284246351978815
-7.246181459373799
-0.3193040678778871
4.114190202165755
2.6346652413794804
-14.651027845161266
0.2577067460628596
-2.4144022763404114
2.135369037174728
-8.927493002001674
-2.3747034540514553
-1.6280015451109855
-6.541152773129206
4.787777612037781
0.4748597644675372
4.929896500492235
-8.494294331106804
-41.33228105824587
-0.40691839288968756
-12.142133464027538
-3.501593714462074
2.49410641169414
-9.67786951829838
-11.874299936897438
0.986250867414558
-0.2405869697694012
-29.14471554147292
-30.801056917161493
-25.709462880406495
-10.11231189429833
1.5796825719656928
4.682767019130052
6.245834468701583
1.2763499031288126
1.6387401216754869
3.5952611156632566
8.407765653145617
-9.00547278907333
-5.6094717895136545
0.8592657325169051
-3.0757705413395016
0.4103241804897042
17.901225979649674
-0.12543931150690824
3.65024130191726
-2.695881105399086
-20.903260903887688
2.7003277326914943
5.8271050702413
-17.413463200752272
1.9797454692423329
0.4312813680274573
6.269617180396944
-12.003481259810936
4.291588121441938
7.914811919731793
-8.757653964750862
-5.1215009557919196
-8.911939880599997
-5.625523883484554
-6.670417191381597
-2.386393953811049
4.604870034803172
3.9310533364606024
0.002462494876885213
2.2144732425253832
-0.07127030420357139
3.8281430125778373
-20.77706537974049
-3.70321145595761
-0.9120330873252152
-1.656209242091553
-1.2149868695350472
-5.747943265034728
-2.7569044805335476
-0.5782522418138014
4.0737116080044995
1.39702354261957
3.171349115878834
-5.995884854349021
-6.0321598785376755
-6.283918604308252
-0.06717735616219178
-9.316752152343712
-2.040886684063077
-11.706657062847505
1.4033698653602067
-22.463531008593968
1.6161833589803658
-1.7295197039485162
-25.80194570697511
-21.925831934228007
-10.826877009059952
-2.0762530824526655
4.691367605337643
-0.6420944371680828
-0.9455145133683844
5.187581737566454
-19.432767936924638
4.165375437480925
1.5071590615801385
0.19508068597481487
-13.59788244419862
-2.37728441153299
1.9700753990186968
-3.855632989993892
-15.304913460774598
-1.1931023206968696
2.611199815205107
-24.939724845726857
4.617119630919536
-2.054370320141159
-2.2140188672092522
-8.105184458949278
2.49296515232562
2.2724101576655125
-17.274120217079837
4.893323734033611
-9.884496534092388
1.791475874598821
-0.009297722963207411
-10.001974372322497
1.2199195244955097
0.17630053266713652
-3.247242521590554
-2.995794485773454
2.3299481243417417
-3.6718943394828845
6.284683368464962
0.1623564389104326
8.777930606629951
-6.437521260901661
-6.595245232608539
3.0482541015158224
-5.9201000546210345
-10.861873631112214
-6.9095677256545125
5.757769465254167
-8.656077653011351
4.674885165147042
9.417786410258604
-0.6893076086246256
1.9893122610573393
7.515897062074472
-11.045588751181132
-11.864564945320941
-24.16932803726647
-9.417275745686545
-5.848752097369835
4.06725916870716
1.2113714551941726
-6.723270257341618
-4.279730438901545
7.515669366969552
-8.717572418762504
-3.358025552877675
-3.843399549540752
-1.7690661986843519
5.147373953911253
3.9642248635703776
-4.783014150333049
-8.070864009003845
-0.3482870181000939
5.4694893857253115
6.475543327330842
-1.5749216973781528
-13.855710987149108
4.275408333874344
-2.579294000002834
7.594162668974592
-10.398754884535204
1.7335897053129976
-3.7325598406749414
-13.503581642547802
-0.6073641532026381
8.129708977167596
5.908000078216964
-1.8579026584449647
-0.39268994081750264
8.712391447378081
8.601940677370113
0.2643045171141062
2.3810615557720043
-6.1218174440871715
16.308244480093876
-4.538373367008034
4.592074261979543
3.2787195702249754
14.282669378476747
6.155609280675446
0.888624054743151
-6.660829026887145
6.896251572075605
-5.310622430042542
-3.6423846011088967
4.543917236838567
-1.3241254903363404
1.0041693703358736
6.73989339650163
10.578465066785302
5.78604142793062
-5.350658431791031
1.6577221008212721
-6.179886945523194
10.986030448993809
8.360153271200339
5.7138765131332425
1.733286234927292
-8.55705106838304
1.3604474023758875
15.177749635224261
-0.6155923695102792
7.080952951614884
-10.70710966926977
6.96475172568467
18.421204195108782
4.763342968650596
15.664042877838021
-3.2073289355563057
19.06928186944438
-5.9487418179527065
11.150543510661654
10.62392926252868
3.6078495575369316
-6.306798956535998
16.291229280832017
-8.485952748568684
9.234613393624318
3.910310375817824
2.319640944572605
-6.307691499800011
1.8529648934573428
-0.9309179917034758
4.892826013347282
3.23175315604884
4.7863721240927655
4.032896019696761
2.9110586468129336
-15.269721946588453
-3.4343433369854597
-1.1533119439806931
5.499178838387488
8.244428296377638
4.700271539584236
9.507191405773582
0.7430569068756432
-0.5581921103589189
-20.59337665428789
-4.6182678897870915
5.41272670164944
-2.8208503641752225
-9.21742209044556
-8.481490509772879
-7.8921044022353986
8.387808039894
-8.825386562615698
-10.202807638772107
-0.9902576894592716
6.120674709648856
6.019042612217543
-4.610148315623914
5.474721881577874
-2.9253560080083707
-4.891563172167029
-5.715699240237023
8.82094937213873
-3.0101527148604443
-2.013979364720878
-3.563815404469535
-8.091883505709868
-11.949332516673689
-1.2729304627838718
12.8335308065586
4.064838614259468
2.3456474267087493
6.224046353346958
9.29157361286079
-7.940829132784281
6.090103096279412
0.5144458624192616
-6.8928440587505655
-1.2779512786080944
-17.07538615079253
-1.2961245695998724
-3.95730247684678
-2.158040365920133
29.281005850211223
2.4350490890156684
0.8954684008566649
0.2933699757338337
3.39166333236773
-0.3911262696015384
-8.197854571192185
-8.366281230682413
0.5821208116772691
-20.685110696800365
-8.667482590678635
0.9752186368117854
14.264302271185327
-6.262709302229821
-0.062033820415702046
-10.378857915975942
2.2689767457606194
4.556049954960299
-15.189342634563411
-16.612720347386784
-0.9212844668349691
5.660525937852686
8.49361125613707
-3.096528189277481
7.030776674135563
1.6760162487714583
-8.594821579297113
22.744344902562915
5.358173135842478
7.214989096304823
-3.134059974724501
-7.19677300073033
-12.453546410408276
-10.283262126067376
7.236647863226889
-6.368822404565215
-10.565259794460495
5.479856683008325
-0.8657760271397889
-8.476336410459254
8.29711250285518
-5.544584716706862
9.966721326634115
7.8082194324813425
-5.340828644914738
1.2783262686864658
-7.869722369109235
10.012573774847297
4.538193389647683
5.899330951463067
0.8663249513726665
-3.9115878368018926
2.622472074986406
3.4324695748309964
-20.975272166384542
2.1699937927910744
-1.1179952713260843
-14.76341536036395
-8.300935561239964
0.6203312687811062
-0.07145206460109854
5.150498801557175
3.7210989227256435
1.3860859715577312
-12.666220357523171
-17.224612182521927
-5.02695467265319
-11.586734106471487
7.75352537370054
-16.935981812904476
-1.0317501493368417
3.422673529515508
-3.0387277709715375
-44.183175829530576
0.7019348630656697
-10.991674738227399
-9.181611417889878
-9.489370953150999
5.100465048027596
3.002968031002233
4.898367236549499
14.303287405874979
6.786990808571729
-4.352436059593535
0.9823423273176566
15.011710020844868
10.411425856136713
-19.222842386399606
5.858414652164557
6.034351590599133
17.237030274696675
-1.2902446410902968
0.9500835777876021
10.537035528828088
-6.68627821251999
0.8007109848852694
5.3750315228129155
2.3044844142819096
12.118898705806629
5.973251052871123
-8.281568788841003
5.2598092429596655
-1.7485517928093353
10.503898266753422
-1.405977241292651
4.676861559126683
-4.087540219649435
-5.511487475292925
13.538184251825172
6.385294811976937
6.388066902209259
-0.6559459486899586
0.5690161678265195
15.9054199812321
-5.898225478234046
19.451719629406675
-8.698393891263636
4.208109379360088
4.856257497195301
-16.868413368835608
19.584682692335484
21.010239679867134
3.037607984781203
-1.5011274231024432
-1.233921131567611
-5.0773479364418135
4.887465873150441
51.03376722909754
15.855645682977073
-2.3943972001527554
6.269193997139114
3.966619661992002
9.782688034488157
5.055291514322999
-9.237595422071806
16.779517270618175
22.653010050972853
6.168066635530967
6.85140651534002
-34.59008476496352
5.745534216476466
2.681073477400203
-5.692150643969374
2.5933262761258122
6.41478783106811
-3.2393818594682076
-0.18799837696121258
9.405206566418496
-14.246469570076929
2.094825061276575
6.85110329277952
-13.99018075352005
3.0474228972762103
-21.159134324681336
-2.701726161999174
0.8718005864956542
7.457676655116586
-7.134813751113176
-2.2717333072319503
9.050040465115439
0.7271396151036685
1.5783981010410983
7.754305979295676
16.160441336822224
-7.123114883807877
-3.9932189179645152
9.803321425744265
12.249553179357402
5.825430365594674
-6.6014636640360065
5.141837324646121
6.758221830234389
10.48276549351534
7.066677253272837
-3.1205537746813707
-10.631642185600807
13.237391258867076
2.61131488720072
-51.45053723628155
5.237103422653438
10.591286693888922
9.807713255296221
19.094545750410983
-31.450666664620886
-19.073682568137528
-9.648005571824248
17.930378736609825
-16.19471064380548
-10.242816590975206
-17.713969642255247
-2.7963196719048287
-48.8649105380509
-33.489852187317005
14.974734683771825
9.259033242899294
19.39504065239611
11.053683364308075
18.189527356172633
-2.8496388833808375
23.165175049380252
9.337190099481443
8.918563693354558
8.08823394432219
16.647879715534998
11.434473718660925
50.71740333372706
14.232335022614453
10.240177673641693
14.683891655464643
16.01676457460342
-10.263572751088946
-3.4638902953237065
14.351726791957407
22.132730605070446
10.565962382046235
9.630831282439827
12.100279717635654
9.046059025865146
14.092324655829717
16.01119621924047
38.52681899985436
19.262297257356728
8.62356083318956
11.562773860560231
14.010116718803673
-22.330241555052638
9.841590782486902
-26.05454581621168
-0.7868276739397013
-23.08401230863645
16.49581113284949
-23.21451799134597
22.672286315753635
7.405411341534683
8.116208956552242
8.38685204802154
58.27557067774296
16.866465809881195
20.618616734354106
13.734306487101838
8.067941292991838
9.352097228779959
1.3933971471147473
14.998143609009484
24.141723020885806
15.30638466035372
-6.933453857493595
10.086737112867011
1.1703555573385098
7.324245426011261
6.715069256510282
15.168453653204757
6.9274788165006616
0.18467597743206077
0.36441421361487514
8.294601527448345
15.579406812247228
20.622262705993105
11.061014581280162
8.179480497770193
14.654519615442616
9.136852737473337
9.351712159826064
23.095295265913506
7.6548907857043975
7.300254759699293
13.04200902903362
-14.832393263300915
17.861990294944924
2.796452458646993
7.16818901200586
18.051171528682456
14.229463646139658
26.745325059221056
16.192091586704517
11.604990754681253
11.126154384139644
18.692126834493557
2.4189889542676815
11.469694585808766
15.20444036153271
7.372250221468707
9.537032675986111
14.759348369891384
12.899918018193036
2.740035388602479
16.425635218815167
5.219596767297393
14.250106493290058
2.4249282677506923
3.4374483353078693
13.289064942328308
14.107552718004936
15.246661179108528
17.543697389900302
-8.292346826867968
12.240572117059871
11.391726628335057
6.196758657090104
11.6673014270535
19.526288563855204
2.951012932151286
3.3524400373299406
6.61426329689716
5.824049208532188
14.215242821249882
23.524329372237556
2.6860238719092133
19.250690403357787
0.5022252192828183
21.804999204832388
10.408025534843834
-4.265466076241282
14.396614111675243
7.912078573506209
6.136141996053562
-1.7230701522044547
-0.6426177088364747
6.547916777471769
20.72209310524956
4.607707529540743
-4.282052251581269
-5.568898577321079
-8.671228383256203
2.9151551183294204
10.036213610529275
1.2703494519128937
1.4327412042134828
3.330672657850404
9.165454965267273
6.688075471480806
8.910821690297402
16.945483115225475
10.581591288010237
5.395683190247573
6.208218996263772
-11.765933861762196
2.121271967887222
43.633471328500484
17.536187277353537
6.536115964847872
4.576467925688622
11.35769172165336
31.241627058704434
-18.324620277328314
6.352745024066788
5.172313037954
18.81562720568005
8.436447263355028
29.159444868134575
36.42078193812743
36.99754491642379
21.347266490432002
8.583578297854226
-0.36433724853658156
14.11891564614718
30.899687219250172
-1.4712136132070825
9.624331247151561
0.7447334697850537
6.433725560070906
6.867644871125242
14.914072369362527
-0.2582739185325436
11.156965903750349
25.277958298717092
-4.192508221822297
-7.862399796593424
9.417788628553073
24.745772949571002
6.999557417222896
13.440322354314747
8.660610947064354
8.261836683696563
-12.279410031642742
-20.98833505444816
6.659888223675651
-16.711202727572186
7.770638836682012
17.502808993957107
-4.128407289430252
-1.5271643885458486
-5.804179254847289
7.318916137976945
13.40208358846109
-3.414747545043653
21.080616372174084
-0.9187493763229022
17.254739529327352
-6.546884808852548
7.612218182614917
11.79021583056296
8.56260850504165
4.46728741144774
-0.8127433027431037
22.05222025820029
24.312963168413077
18.37639686928714
9.018050969513125
14.031243678317471
-2.927425613896596
-4.087686584639244
-1.2332510158877372
23.380949310716186
19.93544573519589
-4.318613091192354
14.713039135453242
2.9471613206786946
16.810555926799267
20.753352323337392
11.303136708496954
-0.8378017916579333
15.046832880459268
17.538573676444262
17.44575781858087
21.614681009913134
28.256108565247292
7.64491175834817
-10.410140576803537
43.787524273480024
5.154078903723936
-0.4283580780909243
17.032401939967887
8.806208450528962
-13.943202173262659
19.594242733850052
25.358995766856
15.059806961703652
10.837219423955924
28.429975061573884
-2.9989809304369337
25.107518856966312
-23.752230658971882
1.5188395273383137
11.795002007330549
7.643977064104204
16.823084467926357
12.015560443584882
-2.573551613785379
14.005927000531319
12.398159957579018
6.736794995921709
2.5618266902615328
16.152503110957777
30.845218536097615
0.79478947184916
3.287853769116479
21.126458377883086
34.310527923536775
18.77439174296174
3.3492886548599357
-6.170391834416953
15.546156397383323
41.478646290931515
15.716934393428215
18.546806435407262
9.482233425243756
2.7465201260299543
25.537908131715625
4.404589430723387
-5.075234660605616
0.5614676574833088
-2.9774492223045774
4.137823410537856
-0.6008999702232567
-5.230050588201219
-0.36020367622043215
-0.11393546787891351
7.7994915597837124
6.6228086016226815
-2.211764784885463
6.4193624589002045
6.711008060038407
15.4581735108546
10.579311605726529
5.971581478979074
9.22100159278164
11.48321164174667
4.370978158087578
1.8346036958705711
25.109121186945206
26.034489590607347
-0.061607828382371256
17.001225434784025
7.795561204897221
2.9659145438569756
17.467901251132556
5.355333134780964
24.91560613888868
11.53736010199914
7.155584224073142
14.884314231735619
9.755719870340958
-11.267783537280275
4.206468784724186
2.613790631083063
20.929367061713048
43.809572563484394
0.09183938512397273
25.85211951834767
6.638839082384646
41.359495828412385
2.262253412841142
19.230520197042374
-0.8147636664240487
15.483565440493946
0.5073499597443856
6.442459898334666
12.289234957178202
23.12550030713912
18.51755931403231
9.224021082871818
14.909884923938034
10.877463468758034
15.153430926379677
12.534537902667827
14.3282671950156
14.632052749931322
42.28505935333937
21.933452789644804
9.56519690910453
25.207685975143956
-1.3478900349411553
-5.190578022752764
7.61663007635816
-7.221304851603058
10.729844751819705
-1.2181585478159813
29.150989514112485
8.174548546626298
19.938998662088345
7.1317316250334075
14.293843623603212
9.28500206713467
11.277180420019347
0.6709877591195055
20.995105139310624
3.010309710757785
17.00396132988379
17.560561354519457
15.400478259097694
12.119230361746874
16.798040694837454
20.515060730886653
22.863802593157263
19.16399034245218
23.11811013395229
16.5149461021578
25.859793742377292
4.044875270147393
23.749536187051117
26.212033210457584
19.218355073506604
13.064081518572157
17.434264610942236
23.173441469531394
8.874508658676714
-1.87561405305836
16.522731176056116
26.36909343861145
22.2780877990362
0.7782415769715616
-0.5813609166893376
2.65694551695494
-20.4276252990206
5.098856028685915
-0.11518491919277762
4.690789471875575
-4.995277013613299
4.353297543685995
-1.6204060316230087
4.0241152401492295
-6.378702360246024
5.265026617281226
7.838945269243874
0.7737832340743045
2.248781733036889
12.072906901318998
-4.575644443825628
-9.185176988483425
-1.2851403075128638
4.324099434671822
-5.068273530638345
1.0427423221355183
3.752763283024907
7.1598223125550415
-10.451379010289871
-8.551507144405667
6.020996708289678
-7.3975721003556165
-12.971343753672178
1.5942678526292227
6.034984693111906
-4.560820411739175
2.850714093823861
-14.093153601329957
-6.6168846295311745
4.320235498653324
2.220214011364368
-3.8452087758494047
-1.0756737213979202
3.5158650647714196
-2.407620041557147
-15.83897917325247
-4.161156496570184
1.9345828555806381
2.270328961070688
-3.5871863128362884
10.653362148491974
9.684774789777396
2.363570857813096
13.577947691040505
35.42640724962106
10.551996252202485
2.882203212353583
11.715553649029303
19.834445337809406
6.85987346179074
9.25056571094381
-15.550120578529157
12.506936475252498
-3.8392721186503995
10.699453158233204
-3.9240168393247363
10.106591639302096
13.171836973347073
9.170159614357287
2.468781915124048
8.435248206875606
-4.414719494310836
-14.706549820227835
8.744347587851527
1.1218833243176052
10.502593124468888
10.738846468254657
1.8192196597991166
19.131689467236104
33.186267696292866
14.827978538523618
20.867944316858992
24.834015326580705
9.137050494376556
20.53359290057601
11.077607153281003
11.852514642465373
11.676543889764435
13.104865021183278
6.984651208591899
5.956087297825589
10.669644034634594
0.6110326255676714
8.507569720526497
7.901334012143762
-2.851199053299839
17.643146993258416
1.381553271992868
12.85276186304757
6.701758498122317
16.639092964599183
-1.1159552177241434
7.778365245401892
6.659448856200058
7.031253232776527
7.8433135245385674
-7.865861627555868
14.04197073232583
1.7199006415350981
11.205641437086681
3.1219714437745236
32.57978257960789
18.69919172520399
15.340873206785968
11.690720458118925
10.767826979330312
17.489937780037817
0.12378320943774768
13.868769391958027
24.092567481548016
19.070366640599705
25.62697366563404
21.36337998791787
13.976841214816496
25.819937813735084
21.28898818163732
2.4715047795516414
-8.429334361137128
-4.800838527282673
1.9190142995143087
15.016587993141474
12.533303146810942
8.404503625605736
14.82379758964379
15.369457622902958
0.5753389979544777
13.789574030975025
14.22334171420361
4.675806880070784
-0.21556811536689666
10.654445988790851
20.744536899247333
15.55232056910089
-14.154231575093075
2.9283462508841556
-22.271709062528643
1.5415972246955523
-7.422650109149514
-10.42535262248371
9.796874802938559
11.360772101676758
-1.3384071140042582
-4.177646702216398
-1.4892314891540157
12.182046261165663
-0.18052061971811506
11.153511802456048
14.984172618511765
7.054606026410376
-9.423361284625877
9.334937940662057
6.670228126768633
4.154333362545783
-0.834147336764718
16.35398822048636
28.74622985632212
35.18559921815281
18.143896944518584
61.07932876752231
10.896619423055482
5.680561260192716
96.40650776156613
5.3486947032720735
2.220825567271507
11.075077680596728
-0.15229482665222516
7.906410509477983
2.274979359606531
8.91328499393297
7.9250866191202745
0.031122841500210212
10.29487196703489
5.824625680963098
20.126291246570116
27.10161985585003
-1.4461844242745892
43.41158628116868
-6.842489361833645
16.1356621245312
20.82009170759356
14.592803175999737
14.40442468629348
3.978848126171149
14.844521956614907
13.994909099010126
5.986608663931418
10.426235999924614
14.053677451408053
19.59003371739115
3.1291018275896776
18.92846144421152
14.332579705461487
21.933564573399
9.465944759775105
9.6042579719629
11.611418963934735
22.245047552012757
10.791808846138236
15.114777596863512
21.54744301156816
15.128548307305675
27.388749734932052
20.510601189098832
27.544884861658794
35.95181132826151
11.02678163523524
9.004675852085061
27.22570622450244
21.518697267896442
24.747342530948956
23.828796954271596
33.284083692205215
46.54910145377015
29.034241432779805
29.857079239158246
22.832978399141442
9.25698534709321
18.618892168285566
43.333137469246026
28.64489890517862
14.448918509463743
17.07382189957782
25.31935273769169
46.593202591295906
10.518569674498593
3.53615020490659
2.463157726496869
10.704537136542955
14.692042024587689
-5.092120273556661
10.251955250066484
-14.161213927249367
19.57614768252701
15.910241432080475
21.40343232096304
23.37238371376094
49.27711350186638
7.36009857519371
18.346309837541618
28.3897425086472
43.38675141423335
29.67267085937337
8.812161057776539
49.726491106513066
28.133243347359993
14.199717711977826
39.17099218889963
33.73332941196929
37.44976790300656
11.517957112004446
23.50002651511522
24.06748021620308
21.80379323312745
23.91123528219452
34.67978025828803
0.14665399857736383
-5.479340462385259
-10.420510222190341
10.667469494781493
26.9313868844366
4.789570289956249
7.212159986318941
5.908845629441373
4.5284678976104455
5.477672723836769
-5.837455993959343
8.126074377835769
18.458060109833266
10.424316567416124
5.839251149621519
48.567092445841745
41.12278829286452
16.61454390720111
20.758278286373326
8.497040189598003
14.621962249839033
19.71390818089844
0.25289933278640453
35.275865055208975
13.192774339021936
20.483678490774768
9.315043837174027
28.80729131166754
16.137654729182547
20.61632352909837
20.379145362573933
15.840227750211017
33.519084180391836
19.386329057844822
8.629953240303799
36.72225473882633
4.601905784993969
24.956986223766158
17.925729350791023
13.823519873049833
9.060926644707994
5.389488189081915
-9.49227903091445
14.248184302190113
-13.468236101360942
10.078235016876402
32.655290581437434
52.64927463168952
20.587477540424963
41.188562929175596
19.832053302251435
38.77731347572944
17.68239811341961
21.20030585335701
31.970435691835505
33.70834377172907
10.605434400240703
13.577191628591567
10.838591971057932
14.007164979859727
7.5043674436046555
-0.6604041560364209
13.452820453316916
5.290076804741107
10.922715260956597
18.41642735704795
9.760212541492972
-6.697468867265634
-10.361993248198411
10.13727180503596
9.196034667691677
-2.1545245359292933
11.30841333969371
12.846905316041386
10.979478628877196
2.855046227616624
12.162846020132696
10.34187202793739
17.18963671258255
9.728704631125176
5.234367938391592
14.115679910441196
-3.242748120781547
5.326300925084304
17.152960256367955
8.865042456555178
32.1224792532096
23.17802556084583
10.028353325343689
21.165008622583166
9.690527867097742
13.488487078424857
15.14002316154311
23.828230329266308
27.628675186020764
5.198893829404569
29.927103692815205
3.8227127410143265
17.405374144581476
16.25490617227067
-4.273225044336382
12.340668037899903
1.4562761851862749
5.421526759134817
17.154852507357557
21.45313320321052
16.22413525392143
13.389666524422596
3.1478426985174948
5.522363606917647
10.183047192618519
30.438095975247826
1.7298654743949446
9.397075855190632
7.9927472740942225
10.809969447338915
8.606812997601425
17.131155093872113
10.458540739420274
18.43140255710218
10.266668104030744
8.438490051367861
13.240654471614278
19.456115239985575
3.99677409816214
17.09270946808399
19.984338350800268
20.393035599977786
17.50123706596551
14.158406130714798
21.254943013853367
28.422813284566523
12.12618451567773
8.094089912009458
0.3974601559921078
31.573256898489102
6.866389704461812
13.186194840725072
3.5858308080081285
0.08277931645453926
5.629017870694425
-5.81016626158224
19.0669037924289
14.498844473698123
17.76660832346657
24.465629883722816
8.919593073058591
7.969634721444949
24.061023253892987
20.561913255534716
22.27692937780958
10.874205177579656
18.894220167171696
9.26554075185614
13.637826382080112
1.1598283499254414
5.3172108418224635
14.167446888694869
30.74209007454413
10.685117597320295
5.829139626758813
8.271763234293351
25.029103048086878
15.411242667788397
9.809900792936077
8.947427970635571
13.46656499424694
8.628336092220225
10.12819198012522
26.3467961890778
15.929928213974947
10.768664680253057
21.780848106003635
11.190997355086374
3.0203357579399768
1.210719701663244
10.88282688828167
31.05705647556456
6.019560896738142
28.240302482012364
9.636727789305063
20.804821655357568
9.793288187153134
12.430396971261752
15.055058968090165
0.27543649702048356
15.67447824877801
18.562225666825196
14.647903321044636
22.506564382707882
17.588514245945273
16.420018398879606
8.628983464581303
9.109901867409542
14.453541192752153
26.84147553109418
13.616636693997263
19.478208500777743
22.042377363207983
20.722049693189522
23.006968745128518
17.855980299541834
1.3265372415968422
27.423948181009653
17.61429693913364
30.18127853364811
28.495928529055696
15.791291448756962
14.595474824419119
0.04823839305900002
6.355475149337673
14.592017947366081
44.69197187748547
18.209116085327626
10.200972656600372
2.7402951606603576
12.781474439086589
15.433565944291972
13.983387143451056
11.165827286645671
10.872912995487432
15.159534800884765
28.113738659471355
15.749594031388732
26.833381274819455
12.885427495873273
22.114774489354406
15.627268031142439
13.96344790598793
19.305992471868866
13.08603252671204
36.89296592483459
14.819208561906617
17.6150498416344
16.53292242753797
23.9295891169427
10.025817137741965
1.3033045578502254
9.966430363071165
21.465951090631656
21.313540017069023
32.38299745553513
15.425473923578167
27.49980197946894
19.50870425528726
12.401208048193125
16.392769874367655
30.34689439490829
9.890247403411157
17.62126020095113
46.270984746414456
14.296461825511262
6.973585923704977
16.31748354701106
11.446445392753926
17.021209412517983
19.62442907566911
26.8912763233831
37.27562414134222
30.017899092006303
12.57621273426494
29.679649500741203
15.028792413285096
15.859686059591434
15.012738615758018
27.130187694840995
13.085341566924617
6.942580618925307
27.19081737135486
19.688959636748763
22.752741947361873
31.31197682004819
16.11895844505667
13.865790137424373
28.704485468041316
61.96396202006308
13.226923209579548
12.411010662954675
0.2763380519385601
2.884840049486586
36.45741222378033
13.181022189431856
35.3330868268957
28.185975917582766
21.012962498010978
38.035588891357264
12.46477000408315
-0.8102953635556619
12.819036263740777
28.076140930197415
21.399360993509237
-5.843021330872397
19.943286640991104
21.888148456844444
23.343758452098175
9.218445396032285
2.4741367594888644
11.122837204889793
10.40445876024316
10.8838224298346
5.061583652891942
15.264189193573063
24.716601015379617
24.334268811923383
11.419639995707001
18.824599063522385
17.0529310489551
6.7732066724516775
27.1373184770925
20.36158467651351
-7.815007768372274
3.059815303826747
26.56824263002079
21.518843921901933
33.958229165080894
41.568358658867844
23.345712047260527
23.343207073095975
24.458511789376796
10.0854848024124
33.044930287709406
5.608282697263937
22.890687911025488
23.403605753769455
22.583357325048
8.49197897501902
31.680396616390908
12.510869499448551
17.983974168684288
26.428737306905994
6.485214076848173
18.84780380329593
5.673682002425737
13.25360173104214
16.47028045504651
37.251106976962
32.427298549205936
14.730519965305543
17.18163738415246
19.953566278730133
27.205495496352686
15.654744807509594
28.835636262289
19.15931223610525
11.950898450417908
7.863433177902806
24.685255386883163
20.651227018446495
23.18148622495873
43.42220332979913
23.751901697273958
12.346279358726221
4.669944842861964
-8.341634445880269
11.30534877795507
23.732984513811644
32.49779228099295
10.210478584780088
-0.14336601809744406
11.68733424143303
15.858207090888465
12.5860455405451
7.471788938107601
11.68733424143303
15.858207090888465
10.210478584780088
-0.14336601809744406
36.45637416370605
11.928134137511812
13.344124851867777
29.466996660953118
25.267131622119415
32.56148249866484
35.02846236932322
10.981296794335424
2.8323295088867537
8.130111250386005
15.833033358256909
6.6617960484654635
22.901573444968815
13.111103296487512
5.780194097147293
23.852151197182923
4.903342085870907
1.9979867044290498
26.211314769234058
10.618208961504081
-6.670622517565098
9.606228250116017
15.044435306558412
7.564197212954158
9.641765641595597
19.110882579889765
30.51339483043878
-0.6773906494313177
13.899020973445213
24.065740236634298
1.2837152088867299
29.773686156837904
24.248251800663855
24.099226394703607
10.746964083270733
22.720934737664145
5.566126356197748
14.513611488365019
17.614379098319837
14.192897626184678
1.884266704704176
26.279399038074967
3.89860705676241
-1.1123806506299918
27.81479278723022
22.310449407119624
32.171513750491165
11.58423160301113
27.83816642285695
27.231085743359504
9.68235696659855
35.537330278285665
18.69960261905871
9.68235696659855
31.803244230448566
8.46031173804518
20.325374923158233
21.74362311772975
21.393454293567316
9.68235696659855
24.770038686990475
8.46031173804518
27.259529498393267
7.6123012474268705
10.821808234286177
17.60782091488457
16.64514874105148
1.865628394985474
27.426020252260724
17.60782091488457
16.64514874105148
12.995054196574502
6.636358409942369
15.064660756595961
10.61288639441103
10.596650238143438
18.234043363606844
8.768564300229984
8.186426413114042
8.933729174334905
21.12981213693327
12.30295176918027
44.32920864505219
27.392735001385287
17.008330134215697
34.124515124514
0.9513333629601157
5.934843886223985
11.543955169250284
19.092729549839934
10.00816905392443
12.725362519900035
-13.946145757186404
-31.99764130651406
-21.53058570833045
-4.08968058023218
-10.406389605105929
-21.311287704382263
-16.51953528474868
-10.887387928784182
-5.466863008096045
-16.14716010297286
-30.237096257641838
-30.406302449727214
-24.2118643621458
-3.550279351454736
3.4557950198588463
0.04187325432374811
-14.582490637233462
-11.300527731142958
-3.7334830566151815
-5.916852022810025
-11.699338996388466
10.643979101812956
8.800651267288169
5.790596524227895
11.970864900030627
-2.2194526701723203
8.260642317053623
13.374937837649457
30.777186742326844
-0.994280645682459
10.075091717170247
14.049979184005892
11.671592976027542
23.459572277579273
-14.928123089077538
7.651751582439382
13.351843546888826
11.964983692690726
11.079890240963756
20.346160179979236
12.537863041182286
8.597350357893843
25.70397319492727
-0.09566401785171738
4.403167227422786
-0.9400241340124801
-3.2102118141269673
9.923596755699501
19.001230804645164
3.44850179138951
20.95242045168758
42.314164213425585
41.642695508940186
12.613366023840133
0.43066058803293417
-12.074317729637244
16.678953706753788
0.18682057367157956
14.640114148130815
0.6242033444699926
12.372513139021434
2.911472757382411
20.852839739869577
9.126347758459179
-8.50134124514004
-1.5277688623346242
7.191754592497162
8.820681701636714
27.42584356490211
16.100465833171274
23.904729207903905
35.54345963980767
25.625153347879653
15.04359618059887
18.25532323714646
20.54267463739888
-6.762610680188526
-4.227930569790665
16.069015039907296
7.225063184536919
4.1533513595794345
0.27724116475513916
-2.0166910483908103
3.7557898592459686
19.904590433798244
27.154664354563298
9.938015395019704
12.942360831060839
16.018092754921152
17.817981535499108
18.235177963072434
14.72392984010073
15.490760133864297
7.313698369200025
4.03257801619042
18.57572593400269
11.061553601502478
-11.591183245386851
37.67241346827638
28.14191409253603
8.81895714969123
1.6559731079206952
-23.092589812213305
7.436503518761094
29.761676891968435
18.017093908422382
-4.444796862344338
44.869369728369676
6.799371355991098
5.605008011514169
13.9473333546341
20.505829122728393
6.261086280182664
14.04055889918967
9.336337482904359
12.71539934555572
-4.679842654772852
9.801659314059528
12.920293533618269
14.142163397110451
-10.689534816597853
19.811707175034904
12.537417640253532
9.377386825135563
15.819340160056889
17.744576428543915
12.280046727764283
7.454451828597113
1.8072951460299413
7.64759190268877
13.652624135599158
2.267743271323533
13.732237347904343
12.091807967830121
-0.2900213942246991
0.3625838379864188
12.86857472030165
16.834322403869503
13.278356606220736
13.865050998816503
33.56538999468123
14.253912195963125
0.5944643682170327
10.764503290790659
14.48822482873054
12.430595801230988
7.0909806784044385
15.789979799918266
24.73078513348101
9.241094579305162
12.06739443067157
17.391942887763705
22.528743072123724
9.455940817330141
-10.862008747790096
-2.135371558606174
-4.94806527715209
24.829953521856524
14.133849697371385
12.0121153208941
9.174708922405813
17.30494324706104
19.17141118238473
5.93694157617351
14.331912809659611
4.1449635809878345
19.398597176268893
9.105566488011146
23.52761384974382
15.292573521767324
14.435937560267295
24.482310701159793
16.201243380738365
13.304536094803693
2.000137065089917
16.483463202273423
6.279196493513394
12.41711970846924
9.433767464296716
39.500500045556834
5.3856035564030655
13.795910939264992
20.994915422897964
21.342317753109068
4.259978251122032
32.347363311207744
3.265162366985661
12.91866390343451
9.088016210443556
14.442477864077556
10.648523263243288
33.00631505368999
26.36845623544105
24.864373474826227
1.5027708948836267
9.938962172845878
20.13318505561525
-3.5273872968521003
21.078349467995654
31.539881419404793
-1.855513515614806
4.261067460101057
15.345416579374668
23.700867669090417
-4.692611342619109
39.36946698248351
11.536246753219354
4.560277644606551
23.51664158035627
21.928116404467595
18.04612700343313
27.739403595818008
10.844104826129902
19.839025935718755
18.91690427594015
15.749692498942013
19.53644113485021
19.36692698597368
16.659358883843904
-7.4142634889327335
7.944656641684943
24.963147920282452
11.914846548134507
0.26449803351761425
4.5801018874459585
12.38136161424639
15.302001995475216
-8.091233148977226
-2.6752850419587526
20.80376864899931
11.804191028772284
-1.2132122672910892
8.878444246089215
14.747054833370512
3.429203105128474
-1.4822826579821144
8.990044447811382
14.907965225196016
-8.31302226663975
11.538053853685375
4.514089318224499
11.049136285061303
17.99977474463377
3.099257071342869
16.853560608960485
8.343022710556625
8.990205506508039
8.123161128677756
10.165017691338896
8.35203398626026
13.535916043743498
14.843932966077713
4.567589991230247
24.845352174649605
32.89356930829057
11.369274921194478
17.12429706114539
-2.886208345543118
29.85341167133717
24.45996632297627
22.017610232267256
5.889308382706369
27.611146742173283
30.20096664238332
-1.0033889321470375
11.971472064499403
12.47290264790837
8.412794265077538
56.803839467992745
12.861169744328976
2.0325878608571712
17.156797908637962
22.054716219977678
16.097023006214723
17.68380670182041
1.4887447935663733
9.61542688904666
17.595712045374384
0.12308237618277612
12.483508004349748
11.676941563019751
10.703450822981377
23.8488117916463
10.185857617870797
-0.25596109567629993
3.1575122972145113
18.561242141553887
18.679117348395568
-11.660866511700965
-1.2103556801890922
-8.328275638746742
-3.216087685253254
14.68218637435839
1.0809786507635413
-5.2012170235707496
15.488191547734518
8.126392834683195
32.210636761697906
9.575342661216103
6.1477437006988715
13.67099556422014
19.14211726246858
11.532178076834692
16.39724327206184
6.475721204961315
11.527637401922123
28.749353343125637
27.11199403948777
11.809405442304616
11.075636584044007
13.076934003849088
14.200993230060597
20.044384722756206
34.85059985404767
25.913588313198186
6.199109623274364
20.79021474373673
20.684517353549634
16.44246445215985
4.9228325496114085
15.511632769629571
15.584392944836125
23.164092969151493
13.09609824537955
26.63017520794197
15.48746840370446
9.13442763106342
14.871993879320016
6.674664715094733
12.305266404563103
14.813005364216677
14.363027066979766
23.32202491635169
11.226070072209536
21.069756771601643
15.651287455970614
15.263891510774426
18.961913178652598
8.025130897477862
17.13868133309194
11.58453078993988
4.568635925206525
27.33525133658889
10.965636660107187
28.217681226129514
15.99528210643576
7.947105363202606
18.77786431960088
11.678688984484557
29.991486770860114
8.603841087881628
11.14710499547115
14.965362230535394
8.048422616577856
23.77112632233916
14.741143248703082
17.25569861059938
12.87001928118961
13.727906884087064
10.698326606766521
6.810234588544955
22.700344323059657
40.47058640893753
3.5018968872223706
-1.9378949191263732
-15.992899796270425
27.533024154373255
17.794939958082256
29.567150734574092
14.787561115473084
6.545934618108197
-0.7969964513058689
18.123901105444194
2.4634493092830922
-3.67279278952719
11.754018828319662
-14.808264793997257
17.857610162597968
22.7502346506337
25.883437156427703
11.600998742828196
24.05811466571192
17.61131992371972
-19.655289517026034
-3.795687848347934
-6.250350683649035
-6.558925443647483
21.442589833251716
3.2117533922397117
18.878678550698634
14.00638363263053
37.696556275122916
11.43839804828879
10.64375401758803
27.667381881369735
40.88460138369699
13.592871836193009
-9.422644117897786
1.4127876552877967
13.044078092172956
15.32281173789108
19.10202065815258
15.134332199908336
11.250336659985878
16.328512552891766
15.459348672698665
27.47035088418258
14.230192075109137
15.22283275691209
9.162470317534115
27.339036014043202
23.461335458934997
19.024673538865265
11.926519740770368
20.43700795362343
14.836534103980293
16.301048365767084
26.043919182192866
12.004054943584038
6.807192800985688
39.888683751775424
27.671785956785367
4.862216042815997
-8.157282068008856
20.527903832554507
47.803694867677116
-9.27205805949146
2.3378532306288404
14.433567536102368
10.397193676419004
29.663319714998973
5.5077897743320445
13.369737390939548
9.990524880058217
18.11220861776724
8.649515877971353
11.293626289746019
9.080126980190153
-6.329306625107603
3.5993707986306767
21.145359865082956
22.499138742820456
3.029044457625032
29.021495706506325
33.01704844672403
14.151968973565408
18.33378485923202
35.81127517367727
20.15519008856699
22.74888548966415
10.447849927665416
11.73974763891088
15.784600722654892
-0.12783398129804135
0.6299033913479084
15.673400588725872
12.374667604855095
22.00805682296422
15.433883766731782
12.369458794320332
22.996720324738938
-0.1194820400876106
2.3645556166806925
24.013058595372918
34.08300823206032
4.7059788654969115
12.594754435621711
30.065780316644663
13.22068206015268
27.23016053771566
14.425872489139392
31.239660799203527
48.40456282533483
18.966308983803575
13.520616011247103
11.411991952273473
31.4788962401368
15.709453408749308
12.707716136722535
4.284254456138681
17.999584637679618
9.203090649070269
21.593562532598565
47.904492527026136
3.250838632659818
14.5722506529196
14.65670926369403
8.56320166306374
24.34989668407234
18.251874711511583
26.972468642123708
21.072144541052367
39.40610261488721
22.595150710101976
40.965462078823045
14.889393615352065
15.912847127370142
26.659037958914396
43.56171138579711
31.18208737386492
31.321484478479466
21.966975564222707
20.849932726152275
23.235675937807233
35.70145828758457
30.037557872193013
10.745546089230443
17.488130419254816
-3.022071504641008
33.01728980393349
11.021526358966005
11.948891735968214
-0.07282575075854725
4.547667873921921
20.83827903813715
17.035700951905785
-24.851904983103815
1.2292834480955297
20.947230854050716
15.764002626263384
5.0238852967099215
13.191350119139106
5.129440447908745
-6.405415747884257
-24.205452343290254
-16.167630274531312
-20.687195251030378
-23.99420466837355
-28.84666573999516
-0.5379475853078681
-4.243075588778606
12.6286218859127
3.9616830817275996
19.51488249487285
23.101404755031535
25.393746582375858
14.78371306528771
16.55427593743337
34.659109975977906
4.853268304055722
-8.642621049413089
12.917301104706377
12.14429276769626
9.448432870055738
12.467341000347929
28.30132034214814
26.90165182272467
17.396566335914112
19.44628364690116
23.198496755256617
-1.4535804131895493
-4.538096967450459
-6.159614597986956
11.619320730152072
7.344811348176171
8.6298244792118
19.691789959455143
14.948282398744283
18.166870823148386
20.967573223485584
11.706395779022333
38.11413140931854
15.11976582944426
13.18873897535346
15.45782498595458
31.624490650076744
15.16670140282384
9.36888638039464
6.41138617517104
17.618446894204034
25.978168934584474
16.02050216646088
30.96430182717144
22.19696437417555
2.4737901547635195
-0.7323103753836786
9.545336822991379
30.518292615346873
9.738369903423719
29.218287699091725
39.023833697667
39.822040951890706
10.625430108335564
14.492693957703754
31.69253354539293
21.658436042613104
16.4533708233557
25.3949265507453
6.655490977199846
10.0141810832976
15.659892016080361
30.26575479398768
19.462826675728138
38.082691563155485
33.3593931669853
3.4931427480682857
17.58589479941554
22.00068436031282
8.307085873533108
19.06633303230566
13.46368360430224
30.11239564176939
12.78053633799065
18.217943610182225
16.986522928385675
16.725135848245387
15.040094573765112
27.927268901288258
32.86779235911855
26.409499034376733
16.798369422794657
11.686109967858437
59.06182886575797
19.98188851825964
26.76259241104747
43.47456707114262
28.39273432741551
27.68506651804386
8.512397935765174
23.282448983725455
50.66175958556542
22.12131778502631
29.996758522597744
35.806139563551355
44.103299487973324
37.07143138041257
2.4500021962619436
7.287832291048783
-23.148963210678488
21.772001146052347
19.08641198644175
14.114531939436223
-12.994538240528325
-17.20606945040497
7.529606727353431
-4.34811443860357
-19.93237767086584
-13.319102206138009
-7.2141425647856625
16.995930856298372
55.93271911895207
19.382861424197284
15.228015159253347
6.930670272995578
25.663842556468015
19.23194898509302
4.2326407529339996
6.373871105346909
7.300216888705981
-3.7795436878344484
23.34821395019502
4.299459531009032
0.33154509394202814
12.512776617424436
6.521416868624214
13.596882475069116
24.154869067452168
18.90794917935814
18.56134039358521
10.069599176280144
11.942585688494056
2.692910791661783
5.1089675665933445
15.940919725586657
32.83842166573966
38.07806920355562
21.632817338313632
8.901256796526958
6.910515329603175
11.61657725423898
23.326914710512902
-11.52026662793207
13.082508946310787
15.40414103493833
17.614194381623847
14.572143217552707
17.27494357376345
7.773742212766234
18.748956073428445
12.379432075582692
24.528030192278795
8.114021986279505
8.992949021508736
27.334565422674434
5.458268421475898
8.96367430156429
16.24209483567981
26.082014775991045
8.179469979635781
3.274724847713088
26.208975050885705
23.503535540721124
21.606020082763465
31.362209254314774
12.975543955527302
5.90188144772855
3.3158402389106914
19.7284865843883
24.42825894923238
6.940797256655975
22.71087299091758
40.63786999173169
21.092307969737032
7.80793698963474
16.13877710129246
16.727311249198355
25.2800990889802
-2.0609592410342135
6.456047408888007
22.29957069811377
27.54142442489455
35.5806450247902
14.163016816418812
9.511402883213192
18.371035955027324
14.416566843837346
21.71549227771643
13.372955912636968
23.52500224787793
38.24279104494843
33.421158374851956
11.730784308378333
21.61668281719854
62.63935984218983
45.048017372131504
19.018258720982505
8.700939975853371
42.160611458046326
18.684980215047048
20.774754483630492
24.577580608517106
32.71267131538047
28.354177376114343
3.444773056557749
30.441294679033174
11.832025080810215
18.533710026085576
29.377864842200104
14.194479763134606
5.373561131742824
23.956064444118393
6.534895985030505
30.100703933813605
10.080247764026081
14.096872337140272
21.042783249300015
-9.875287272257752
3.6851689927427755
13.641871001440169
13.886158531741497
13.131123147830841
23.555818115762033
4.040492791684172
18.22974451856337
25.396304010127338
5.612185558814815
14.572307114447112
15.461577337848341
3.3366860074478057
23.590707481074215
21.76571210309489
15.45206736350076
25.03776208296459
19.45892182200698
-5.688245848529459
2.1710364598435934
10.55338524631341
-6.702149658856407
23.090735867578033
16.51241797658459
7.420344319429805
5.316917720961309
9.793475701315066
14.149126833115988
9.590669346631943
7.410848908638679
48.327161075192464
7.392131573324417
12.624492084339948
22.26821779261998
19.98770542696796
6.8137938059841465
33.785354478464505
27.514031316432977
3.9524795095712992
-3.929386443925157
17.169571869822242
7.299733057949967
2.881743054941289
11.276818502387185
9.018447749827178
16.13884071021586
12.545422701663485
25.225461411839817
11.420970604489195
10.106691235888023
22.25922069858654
7.350948057244742
23.169164341850088
19.508565096810887
16.75994520241215
13.731265825110587
25.175210533970734
20.789257960295217
21.49692335200317
15.245226765621865
13.183195197145807
18.53996997167606
30.724911132202035
29.53993306878519
13.072019150693118
4.12040537748847
23.177160328053944
7.028542584649193
17.50439979624161
21.820122920057237
17.450593554429897
16.005884546900706
19.43580180873859
42.643254083794844
7.759125851203332
19.86123970823758
10.92356538404767
44.448221409305724
23.97298393272976
15.243547851914858
25.267439893743717
25.115931098743303
17.095141039678474
25.370768419836285
16.362527925161405
39.35233143876299
22.339752847264513
-3.343856391909204
16.557478056128804
4.12040537748847
23.177160328053944
7.028542584649193
23.14146337224367
14.464511482635148
12.949894967804623
17.585250223178647
7.776978888804917
4.5052855846789175
21.20760822178015
16.754001971615487
8.772378365121778
18.610343555945487
8.184199848642182
7.411946562779083
17.097529679887277
22.997988169370426
23.286479466554887
12.86702468676709
-8.951359768815514
13.989013068975327
9.350947904706915
16.034158018951512
10.755377109569109
35.626811469809674
31.94776389419149
12.710110033815745
10.184484665433441
21.176991032688086
8.560808642240609
21.940554924348053
27.245622942695057
22.689387528831368
8.826955473093715
18.284770891346465
26.669096928555472
10.699939815425187
11.788513037143355
53.09124171433638
29.461807115827423
11.088598573474279
17.382225630051362
20.819438171210937
-4.802992694337397
10.173433657874039
39.43975547319512
16.957706873312627
17.49740459728306
31.977418596389736
-3.3441179631167675
24.376754834565787
17.34379377769093
9.979732119430428
21.1697721660139
25.125225575942174
1.697776769704058
9.900040152095716
48.09347039197491
27.27779977584749
31.90313893967866
28.165634748508495
11.707085364118589
0.36894932563822547
18.524757416539014
33.86269071112561
31.791028667253137
4.646529803422451
22.236126673597973
6.165320911163015
-0.8759068584955213
18.493170251571566
5.381571237652036
10.943182663036241
29.51360891219097
20.895602105701858
12.303799030003434
11.409121545329596
8.352983961380204
9.782918859905513
18.286416547789667
12.272210708537536
21.14065910544587
25.290495041842455
8.904771488096861
18.956269231640903
48.105355834458635
23.62668811949099
11.916075743488388
32.302654570006325
24.006160786383294
24.45567789022373
5.376595108921254
7.57709445026129
25.021459031531794
40.90353368773349
21.23999386018229
10.275963524698136
12.21647782614119
18.813127471130088
-4.300942616133253
13.436654005820845
17.50420655408742
11.407425859831358
33.29305465476693
32.4933226779332
10.37000658305297
1.1986107204887528
-11.604212055249521
9.874977184096425
13.998152792418527
9.600438594072697
6.295700034370802
15.816472200279328
30.455061356441128
23.560847548827624
7.745411879970199
18.7036515840498
7.9799639955665
19.760324781483163
-33.42004532259232
-13.129921739021075
-1.058269744884088
-7.919779649731863
15.535144864166899
16.25569214647839
-7.638713019610067
-10.214542196535275
10.125000343941846
-12.261945694879289
15.157354588156208
15.058449928113273
17.500708319529508
29.374173835583804
54.42204080656658
21.766003523444894
33.285957552689645
-0.46925211341342365
16.287529386736686
3.049364328417382
15.395782333027075
36.507640246654894
-4.736942741783681
11.765302985850173
1.6283597118142297
9.86410759448535
28.128363269899495
15.298613524098569
4.96636313029296
-1.7469195881065014
15.033206509155605
20.615561043136275
13.854081601499145
24.598979126306155
19.943156693939866
14.309052131914806
24.461467285848904
28.151073135202072
14.543464720462545
18.895350420879467
18.747192825719985
5.339246003388803
12.980430610887314
22.76785164988808
14.208572764967618
26.69586472513112
28.41165046468149
32.83821514255328
9.157394195044542
14.221466897091858
44.798566398292145
30.182111426861983
20.797640221679757
15.672512575470238
14.27821603988091
18.541142002509606
10.419078758820884
15.439389461120902
-5.680108362327459
22.475359200519442
3.760792788780282
2.783265180099206
17.326214698122975
24.349626081419363
27.757449405252096
23.653912365662833
26.915745326418076
41.477931150958504
20.658742094046037
18.9783950790272
7.673850622925472
28.047866084785174
7.031022745168328
18.013216423697525
5.1282295724753535
37.37574966468233
19.932507723577917
15.959091648080735
11.830565140872178
30.26203712415291
10.860602196605232
40.34263428671338
9.050908270612334
8.857399335172568
7.940065060480402
47.696551394315215
41.4430884146178
35.560335461068995
30.36966424905914
27.06083185378197
45.548976510599196
15.329092789904376
43.380137048662164
25.266096211977583
35.35925591228002
30.200686831349486
-9.475341293085233
20.585954505021142
29.25652243139699
20.02467773012518
20.7875994451676
21.382997637652647
9.361215364948379
15.858497549117683
15.952094298107513
12.269814946696282
24.720955779851852
15.155541233710785
17.945119236614875
1.1488027854084275
20.420576068288163
23.410543325296572
-8.449405394994297
13.837380014208087
33.79728357868939
10.240556318630306
13.89681030313141
12.380752413629404
2.2410731150431715
14.341034892621268
25.375580849471245
22.810491552164418
1.4650456398461462
16.247748843383704
15.716092796575564
7.597155130363026
30.200655355756158
29.316762613537442
22.931970418011574
15.334126040665792
-4.492639100356604
31.3647895186308
1.1639710556069829
16.89799809424904
8.29296795081325
18.629793600527258
37.429580484939905
25.059437178456573
18.852638635765093
17.22528265450471
10.57364201782694
16.863552713293956
29.855748384919348
17.013872990335173
33.66397664283358
24.518258433048473
16.179838112656164
21.943152584453735
15.770745343687796
5.298063869943517
30.15426166888595
28.177748116910532
12.569396265681979
1.199504675734707
12.232078036090575
-3.079347489262047
54.390163881285716
38.372414923413956
29.111679378047683
14.457900045700077
14.142984409280183
6.198853760381176
18.190937907373254
20.886951270848847
0.36140476174120173
14.980745561191348
16.51900847063047
17.21695102612481
3.3280125983504307
23.038584146880886
18.121644456141752
8.368365833786394
26.413594100978575
16.876357411092243
29.459679045740852
33.04157053863574
20.86062529209961
23.067053982863104
18.089886916463737
25.542988400600795
15.75048642156927
17.941509954596256
10.640503426239237
20.351922316078806
10.078382361819612
13.82348329609291
-5.173590014361443
16.89978590021564
25.290229133215913
24.283457881254957
10.05026781921314
18.913443770676174
19.63997771815974
30.011300507759373
19.068096309162136
10.99206473850974
14.112662828043806
23.11956161097584
13.448389172418251
37.20638529599755
12.759882267013015
27.917483445869454
40.112820144754764
32.25735947096935
19.277303948933024
20.9636890411141
16.922453708057894
15.194721368657191
17.04441808857954
15.807350813762195
-7.597046503700697
22.150015300126103
19.29392052044633
10.245826996792783
37.905972663874735
-5.296122142346314
22.204944111779692
30.41714979139214
20.424749454545346
19.23060279814807
35.577081263973575
52.71782460184976
11.246818226413124
45.42904416384527
8.943950232581395
2.0066995156531964
48.04993148803942
27.205364379293165
24.34478309570751
24.91777292844048
10.917721089671065
27.118498670135416
7.835317347320922
8.530919053429342
20.007633840686523
23.95367260606987
13.276576966210547
22.560673463519045
52.67477248562122
37.8323882613589
36.446686839876556
36.1579395222645
35.4588648991441
34.28467063673925
31.959247902638605
35.7888062141538
34.41884852343089
7.954068480740068
42.45928150775237
16.11828213659676
13.48560104494624
14.461370451541908
35.068512962353694
34.93153810400785
52.11104750130111
30.91467060437735
36.73739622422119
20.00206912770322
28.15589254217319
17.70164402446441
44.986757809677286
23.341533353489798
35.1827289943981
15.947035953711703
27.11102808325013
28.480243404368018
29.990357102204065
21.618941765375435
37.9148332568221
30.746967648857126
23.48814360787079
24.756850467227892
27.349068163564855
30.806601568238786
27.15294375609069
21.072586485071156
13.131569771705522
43.333055228100974
32.63048562710451
34.71255620094254
15.675129954799221
26.553007904612304
38.110613944272046
15.921145090500515
6.376253530171779
18.327707725540606
20.724017780383758
23.450668276753316
15.249336256064746
37.399708503597395
26.62214783224493
12.634130258547284
15.234523491127902
13.984643626435227
8.178102670832242
14.326255111044702
12.779185569328547
39.61084458418606
25.307195035033942
31.032164316662833
20.8100891590122
-6.509312532784116
46.22293830508992
12.3488206033918
15.866511561490547
26.34589782269127
22.20772205086162
13.42095654561774
33.23417591464266
13.73482652034912
23.361203373774774
10.377242266592908
15.465290722573487
17.142762101434087
20.007977447771534
10.807271315965695
13.748330875307559
6.460044775983883
26.43127458793832
48.93628952461844
8.507157828078359
27.33543592439894
19.806833316881725
48.13176150802931
21.745754454940766
37.555557588409926
22.619565575607197
20.58445108538139
1.1908867988906287
20.141836279680312
7.561922786930207
32.78224151422344
18.320674887104136
13.76647588795377
24.771157817260956
17.35759935661862
28.589083153650762
37.6029836405571
59.694788557151945
30.084844804260072
24.883879321917515
37.78486430868136
52.91328094831723
15.646720742428158
7.857012044573711
28.84992027168957
18.5097444784618
34.715354096073135
17.933065800979165
24.579469113230513
20.18296203030782
6.452879647195045
20.87967087332834
15.646720742428158
7.857012044573711
5.726504335812187
20.548366352034428
-6.3593294121902115
20.743310631365045
2.5941737572033308
17.930596487448863
30.88910980068502
15.094506111430762
14.247175367134355
21.607378774321088
43.58664952453595
19.37148028685652
30.694052691004842
15.020494751291782
3.838152661511201
19.72626692416454
20.472470994438844
47.94287200891818
26.021868541357428
30.86170461003083
17.919641135924422
46.72318744073239
35.196352091213555
50.59308623589496
28.363014964251377
17.70247843432024
15.345511864579311
30.045240439355446
22.813242609165897
35.07054254551202
22.669462829877077
26.55232213901275
23.46155895642687
17.70333382119342
22.53280078356248
11.057095689670284
53.94775632136416
18.624434059443203
46.34983021360234
8.372421817224787
5.860483527715168
37.11242851224882
11.147861703936204
18.704554660327823
22.950740433499845
17.64524612592541
44.907792772095355
28.962870017385484
15.948241370006464
14.719182868898965
16.149364673643774
18.365302771718937
20.805498833748878
22.232908893912803
20.210615783390377
31.17642794280737
17.02196492747304
23.998643660324692
14.719182868898965
31.912271870770272
15.166416433925296
18.856274433439186
16.24417199455996
11.784350150573442
20.210615783390377
29.783275952150625
17.361662405599436
36.78008038261467
25.05191151636109
27.39054290225506
15.897942729219569
-11.403487040723803
21.548765801416742
13.248369881261397
10.696532722333785
19.792604456744552
53.215983001326165
26.245669393355914
11.188015574521776
23.905178163775282
24.521828550928646
48.15142813080809
4.7238439752789185
15.212143977815003
28.03566506422168
39.75707476048492
15.525937254282942
7.487244504370625
20.520354504187072
14.010273032579851
10.223979353389725
18.731593184323945
9.879717358779319
8.796840429149453
-1.8213150065003432
5.583425133550691
10.981368771428965
11.91965168508744
15.384150855268242
12.228095740283035
-0.7958416333114481
17.80014916469474
5.128643853665789
8.88401331879257
28.69066706489252
18.55818952211783
7.395215552788666
13.271206001898594
19.439788601172992
23.94653397428332
-1.9150264928106187
7.850807388350656
14.005339909791294
16.644978103001822
20.29230213160271
-0.5251980203042506
18.920469059004873
25.42244422994236
17.87184235349027
11.194243038803636
10.73305378597136
13.09085162554972
6.892570570688829
12.391266333004847
-6.297011787655335
8.363325893323957
21.129937157778798
17.71729831405343
9.965464068886872
25.921054975569582
5.64794989684843
15.09009541636526
1.50422244668266
6.202674826325395
8.987991443487104
-4.909578575761277
9.296549762742167
3.8605737042266455
24.82946618568714
17.225042801860226
15.271818655379695
12.398627490245596
19.286222482307657
21.063908962067554
1.2874890800805359
31.52713622054884
14.142114462084356
11.23219042057808
15.636626557825657
17.449571260212185
24.242582170901784
76.15591258555591
19.749707736708608
15.478376513017052
28.09341291760022
21.90759533642547
3.7517620851552453
24.06668576999614
12.825425180835992
30.186460211383334
16.057954014647972
11.688962902390683
7.802145138597359
16.342181916938838
19.110140540606462
11.79609084810851
16.374452864832495
19.140065047720054
8.747192551710654
35.730202153535295
21.27374865624071
21.247968415855
6.166004041015479
23.19674284031007
16.691078427241635
-2.430315391488612
25.205301122239234
13.729574540119216
27.26675978143784
22.74702093128891
-6.137983478363077
22.71673560935959
18.89202120487481
10.021397906547648
12.920792471860139
14.865497675187585
2.3404025543567513
-5.957633135610139
12.21155001250636
16.193595524028346
-2.611881058950582
-0.8000760847082469
26.861404304683518
8.380215957255981
8.238583692715437
4.118809595148453
7.241125227806809
12.235938900110988
-2.941306271649102
-11.07337567681714
10.285458603239869
26.242566699436036
22.717853239601713
17.02298627949758
1.5215363581084531
33.72200790509825
20.035369057507786
14.510035280383663
4.242909021679365
23.278470777687886
12.295249160589918
18.37380313503178
10.977908003465762
14.259402852132048
0.678931311699525
24.945781042639364
11.805003053146983
