GIS
1
0.0
2
dontMerge
merge
2
5 0
80 0 1
85
curIds=6
curIds=7
subtype=Execute
commonRoles=5
priorIds=16
subtype=Transport
subtype=Extradite
curIds=2
curIds=1
curIds=4
curIds=3
curIds=0
subtype=Transfer-Money
subtype=Merge-Org
commonIds=4
curIds=5
commonIds=2
commonIds=3
commonIds=0
commonIds=1
subtype=Arrest-Jail
hasCommonRole=1
subtype=Appeal
subtype=Injure
subtype=Declare-Bankruptcy
subtype=End-Position
subtype=Elect
priorIds=10
subtype=Charge-Indict
anchorStemMatch
subtype=Phone-Write
commonRoles=3
commonRoles=4
priorIds=15
priorIds=13
subtype=Marry
subtype=Meet
subtype=Sue
commonRoles=1
commonRoles=2
commonRoles=0
priorRoles=0
priorRoles=1
subtype=Transfer-Ownership
priorRoles=6
subtype=Demonstrate
priorRoles=2
priorRoles=3
priorRoles=4
priorRoles=5
subtype=Divorce
subtype=Be-Born
subtype=Release-Parole
subtype=Start-Org
subtype=Start-Position
pos=1
subtype=Convict
priorIds=8
priorIds=7
priorIds=9
hasCommonId=1
priorIds=0
curRoles=0
curRoles=1
subtype=Sentence
priorIds=2
subtype=Die
curRoles=2
priorIds=1
curRoles=3
curRoles=4
pospair=:
priorIds=4
priorIds=3
priorIds=6
priorIds=5
anchorMatch
anchorsim=2
subtype=Attack
anchorsim=1
subtype=Trial-Hearing
anchorsim=0
anchorsim=5
anchorsim=4
anchorsim=3
0.3793011565998867
0.2907330221847106
1.051725929164345
0.7148243064244894
0.6728235134149592
0.09791993829622032
-0.7285214800095428
-0.5107503143298783
0.6868064724084499
0.09584920354448147
-0.7388086483754008
0.09402350317225643
-0.5430024007722698
0.0932394857593997
-1.2139956004910415
0.09749024321170495
-1.478221090611718
-0.05950591935097632
0.2263387705977017
0.08827340933523174
-0.4577330546750148
-0.18091877612195734
0.6369351139120667
-0.2830667970438972
0.36951346757875814
0.09471942446423348
-1.8477244241387414
-0.5846948364340585
0.7807510448227821
-1.3625214505906758
1.2167891125354588
0.09693043575577034
-0.6809344107561457
-0.08765369410306957
0.27024605364187415
0.0066185916781158465
0.04704954282203745
0.05012601727949923
-0.15786426760710762
0.18334755476288947
-0.22308441467537599
-0.029442577354636065
0.18359010012994817
-0.34626362793677684
0.4767930613338439
-0.03606731370856789
0.20667160777124738
0.12498536006227394
-0.5261944139978805
-0.17840554918515472
0.7536956543348812
-0.31540587350571614
0.7948155151503028
-0.11631076947265434
0.3543450425291185
0.05394799824246208
-0.15406962780103806
0.1225363944240709
-0.6237716300409464
0.17152179303061077
-0.7517449138094472
0.3036718839764699
-0.7824827615815526
0.19709519506048345
-0.09467607218232986
-0.036888649372110574
0.21206442706779396
-0.0701026909767722
0.27664486752293527
0.0423937281053423
-0.10718187492261279
0.046685481191131195
-0.13654548215805973
0.03495330724714059
-0.06410039771657937
0.06431731569939594
-0.26996833990160085
0.0796482915150143
-0.35641855294586333
0.05195991329856109
-0.17998464656813143
0.013573109835080073
0.021402442666708765
-0.8740772207724982
0.7583372477039725
0.0016029504224972398
0.3362761156944596
0.04213646152951827
-0.10657225844151477
0.004410157438680982
0.07604279241505055
0.006623182929260162
0.05682634733251675
-0.08620036454799954
0.27014148533050203
-1.1138936500941412
0.6970960856901456
-0.01840323249182094
0.1442271710876371
-0.09139332515052301
0.2516003204111404
-0.003728602370867464
0.09596568976603922
0.09281522214513231
-0.29835987547989373
0.05605470740433459
-0.20188250090355805
0.1358030918537669
-0.5702185644004425
0.04409026711787977
-0.11885277389910563
-0.04839861976575556
0.27550643951399323
-0.17446221336719703
0.5928313419155917
-0.16055973937942897
0.3999590032241543
0.037060272595599235
-0.07488936974792768
0.05742538996217445
-0.1718840195686573
0.05497441333715322
-0.19457441419397312
0.14184799880430488
-0.4857862391480491
0.07331576734236676
-0.36932560057488495
0.03051207389236297
-0.036589643772915625
0.050144081674084254
-0.06011127165632588
0.08840702850742668
-0.49739240070733776
0.07828926018488484
-1.6653560765158868
0.07410956252465453
-0.5724937002742512
0.05605470740433459
-0.20188250090355805
0.07305914469438464
-0.3713978916599751
0.022896619394906188
0.02649779800741039
-0.05763339510236384
0.29256403602561787
0.021230450985035343
0.020748835636636036
-0.3707224538433707
0.7886835590121112
0.05853822724808716
-0.2383051690184096
0.0710495226098369
-0.36419136875704
0.051696727888297926
-0.14344499500495814
-0.1215413886325736
0.28838034233952575
0.028066503423915444
0.07013117461257139
-0.040077989306435934
0.1797155027688212
0.05701972124816213
-0.19357867301258624
0.08076049659583365
-0.7272954177765713
