GIS
1
0.0
2
dontcoref
coref
2
3 0
73 0 1
76
curIds=7
subtype=Execute
commonRoles=5
subtype=Transport
subtype=Extradite
curIds=2
curIds=1
curIds=4
curIds=3
curIds=0
subtype=Transfer-Money
subtype=Merge-Org
commonIds=4
commonIds=2
curIds=5
commonIds=3
curIds=6
commonIds=0
commonIds=1
subtype=Arrest-Jail
hasCommonRole=1
subtype=Appeal
subtype=Injure
subtype=Declare-Bankruptcy
subtype=End-Position
subtype=Elect
subtype=Charge-Indict
anchorStemMatch
sim=0
sim=1
subtype=Phone-Write
commonRoles=3
commonRoles=4
sim=4
sim=5
sim=2
subtype=Marry
sim=3
subtype=Meet
subtype=Sue
commonRoles=1
commonRoles=2
commonRoles=0
priorRoles=0
priorRoles=1
subtype=Transfer-Ownership
subtype=Demonstrate
priorRoles=2
priorRoles=3
priorRoles=4
subtype=Divorce
subtype=Be-Born
subtype=Release-Parole
subtype=Start-Org
subtype=Start-Position
subtype=Convict
priorIds=7
hasCommonId=1
priorIds=0
curRoles=0
curRoles=1
subtype=Sentence
priorIds=2
subtype=Die
curRoles=2
priorIds=1
curRoles=3
curRoles=4
pospair=:
priorIds=4
priorIds=3
priorIds=6
priorIds=5
anchorMatch
subtype=Attack
subtype=Trial-Hearing
0.7103282910543162
1.414341027120811
1.010242775090325
0.12391892178157443
-0.7739918835586328
-0.2725937874070051
0.4723231758670953
0.11220292581696759
-0.5222410579166861
0.09436336391485788
-0.31303949335897435
0.13299527884017787
-1.4562412740030604
0.129551051728431
-0.9712588538350188
-0.09907637311897952
0.17265204158809183
0.15992458575521934
-0.5814174568564818
0.04584519045998693
-0.088812189168354
-0.49992221419681676
0.5600435098032974
-0.47038552505592646
0.5590261724567532
0.1205736140375102
-2.2354718691880717
-1.2703040465884554
0.9762163135408151
0.1101114844048284
-1.312274481520788
0.09018382473714925
-0.2950409897975191
-0.1366684516306266
0.24841689375396592
0.06579406961378614
-0.16572319159251292
0.06257421541351076
-0.1760553414717365
0.14226629787506803
-0.21909448054604194
0.12639351724215458
-0.39925868555654226
-0.016683267894624963
0.03930446813331522
0.0037502560904777295
0.02284914343688296
0.2474370780694998
-0.7923955889470724
-0.46033331548575573
0.7390764941259996
-0.05105571490434734
0.10677067772846328
0.07908401069270754
-0.27313745727939537
0.10147406413987671
-0.6067983033900312
0.07919394205935676
-0.21815667995946614
0.1548432859220935
-0.8703095875319475
0.21291528269367233
-0.8224883451999327
-0.0017719929423563787
0.12194126925080684
-0.04707305333541402
0.10267268571396641
0.04520024943802117
-0.07334654255445074
0.16137004729661994
-0.48132874912485196
0.10199366458401961
-0.5373040053364266
-0.5218445462337163
0.7032798660400834
0.13720455653134145
-0.4159971389321538
0.05085454046266923
-0.12239607435134572
0.06990737005968911
-0.24113640824910657
0.043700194521772304
-0.08896263593363642
0.06284977792248458
-0.14169102605477069
0.03949579699172372
-0.07526229984275927
-0.22277787889217562
0.4890482923723706
0.0808127799058551
-0.33080869181636496
0.04598490922329581
-0.09427881870230058
0.08170048419212154
-0.29160319476294466
0.12115839027592908
-0.6786160457251119
-0.40965336191833457
0.404478673003444
0.21151452281770397
-0.5707114639950209
-0.13441287945264474
0.1970762397319213
0.037285080809256764
-0.06634378666376585
0.20502464202576776
-0.6655214431308974
0.17385107201723154
-0.7783683565886728
-0.015579896614765993
0.38417445759576785
-0.1804713031337899
0.30489782591228787
-0.04973736216681783
0.1055450931022748
0.04224512638157163
-0.0777710433333507
0.07149804593049287
-0.22848694868621175
0.16456364400173845
-0.48301552579221557
0.11627137167282724
-0.5283645460279505
0.050318281345096035
-0.11977414929313966
0.042470958614382714
-0.048894163088505256
0.06274123090563041
-0.16336503821599394
0.07388464493802321
-0.24337971620017712
0.11993157579229678
-2.1297631648181268
0.05354775262347329
-0.1282799300886852
0.11256816412919232
-0.6811433319115388
0.09172874150815405
-0.39639643650653067
-0.18734026570812898
0.5452764299055718
0.11713455043340605
-0.8463599946525032
-0.4783973949136304
0.5844409976406917
0.0558377937158426
-0.1423850391161141
-0.5949703993648502
0.41689683864196475
