GIS
13
0.0
2
noArg
arg
4
775
479 0
2005 0 1
35 1
3294
arg=enemy
evTypeArg=Attack:analysts
evTypeArg=Sue:buyer
prevTokenAndType=Conflict_perhaps
prevTokenAndType=Business_)
evTypeArg=Marry:You
Rebellions
anchor=report
prevToken=government
evTypeArg=Nominate:I
chunkPathAndType=Business_follow_in
chunkPath=precede_be_to_percent_of_its
arg=past
chunkPath=precede_don't
arg=personnel
arg=Yahoo
arg=kuwait
evTypeArg=End-Position:its
evTypeArg=Arrest-Jail:police
arg=section
anchor=parole/n
anchor=surge
prevToken=Peterson
arg=Agartala
anchor=offer
evTypeArg=Start-Position:SEC
prevTokenAndType=Transaction_sell
arg=Sunday_morning
prevTokenAndType=Conflict_all
prevTokenAndType=Movement_so
evTypeArg=Sue:who
anchor=Bankrupcy
prevTokenAndType=Justice_was
chunkPath=follow_guilty_of_murder_and
prevTokenAndType=Movement_has
prevTokenAndType=Movement_had
evTypeArg=Transport:Saddam_Hussein
evTypeArg=Attack:Congressman
prevToken=rally
prevToken=assaulting
prevTokenAndType=Life_had
evTypeArg=Merge-Org:I
synPathEvType=Movement_nameMod
chunkPath=follow_to_the
evTypeArg=Attack:opponents
arg=powell
evTypeArg=Attack:reporter
chunkPath=follow_PERSON_,
prevToken=allowed
synPathTypes=Contact_GPE_nameMod
prevToken=guess
arg=citizens
evTypeArg=Elect:Bush
evTypeArg=Sue:fifty_cent
evTypeArg=Transfer-Ownership:King_Pharmaceuticals
arg=Asia
arg=Tony_Blair
chunkPath=follow_in_GPE_with
evTypeArg=Sue:their
arg=firm
chunkPath=precede_hack_to
evTypeArg=Die:more
chunkPath=precede_say_have
evTypeArg=Die:submarine
arg=enron
chunkPath=follow_in_a
prevToken=towards
prevTokenAndType=Personnel_put
evTypeArg=End-Position:party
evTypeArg=Attack:convoy
prevToken=Did
chunkPathAndType=Contact_precede_,
prevTokenAndType=Life_where
prevTokenAndType=Conflict_whether
prevTokenAndType=Life_opened
chunkPathAndType=Business_precede_Profit_distribution_and
prevTokenAndType=Personnel_would
evTypeArg=Transfer-Ownership:competitors
arg=louisiana
arg=Andrews_Air_Force_Base
prevToken=took
prevToken=thronged
arg=immigrants
prevTokenAndType=Conflict_some
evTypeArg=Attack:sources
synPathEvType=Life_nameMod
arg=those_attacks_that_killed_five_people_and_sickened_13_others
anchor=arrival/n
prevTokenAndType=Conflict_defeat
evTypeArg=Transport:Seoul
prevToken=aboard
prevToken=From
chunkPathAndType=Contact_follow_by
arg=regions
prevTokenAndType=Conflict_provoke
prevToken=within
evTypeArg=Meet:France
arg=Journal
anchor=insurgency
evTypeArg=Transport:rovers
evTypeArg=Elect:governor
evTypeArg=Attack:German
chunkPathAndType=Movement_follow_GPE
chunkPathAndType=Movement_precede_could
evTypeArg=Attack:force
evTypeArg=Attack:ammunition
prevTokenAndType=Conflict_mean
prevTokenAndType=Movement_get
anchor=sit
arg=al-Qaida
prevTokenAndType=Conflict_ones
prevTokenAndType=Movement_their
anchor=hit/n
evTypeArg=Die:group
chunkPathAndType=Movement_follow_over
evTypeArg=Transfer-Ownership:forces
arg=Bryan
arg=witnesses
anchor=pass
evTypeArg=Meet:You
prevTokenAndType=Life_against
evTypeArg=Sue:winners
prevTokenAndType=Conflict_his
prevToken=stuff
chunkPathAndType=Contact_follow_of
arg=Indochina
prevTokenAndType=Transaction_unless
arg=Passover
chunkPathAndType=Contact_follow_,
synPathTypes=Movement_GPE_nameMod
arg=Center_for_Strategic_and_International_Studies
evTypeArg=End-Position:her
prevTokenAndType=Conflict_US
anchor=lawsuit
evTypeArg=Attack:1990
chunkPathAndType=Justice_follow_guilty_of_murder
prevToken=doing
chunkPath=follow_guilty_of_murder
prevTokenAndType=Life_Famed
arg=S_Corp
arg=s
arg=star
chunkPathAndType=Justice_precede_,_mean_PERSON_cannot_be
arg=Virginia
evTypeArg=Start-Position:cabinet
prevToken=inviting
prevTokenAndType=Transaction_nominating
chunkPath=precede_GPE
prevTokenAndType=Conflict_inspire
evTypeArg=Attack:tank
prevToken=putting
evTypeArg=Attack:vehicles
arg=rocket
prevTokenAndType=Conflict_mainly
prevToken=hijacking
chunkPath=precede_want_to
evTypeArg=Attack:NBC
evTypeArg=Attack:division
arg=Stig_Toefting
evTypeArg=Demonstrate:streets
arg=Kido_Butai
prevToken=expect
arg=silver_cross
chunkPath=follow_if
chunkPathAndType=Movement_precede_and
prevToken=first
chunkPath=follow_and_kill
arg=passengers
prevToken=companies
arg=leadership
arg=Islamic_Jihad
evTypeArg=Convict:his
prevTokenAndType=Conflict_do
evTypeArg=Die:mother
anchor=force
arg=a_four-month_jail_sentence
prevTokenAndType=Personnel_believe
prevTokenAndType=Justice_lawyers.
dist=103
evTypeArg=Transport:streets
prevTokenAndType=Conflict_toward
anchor=grave/n
prevTokenAndType=Conflict_doing
arg=Najaf
evTypeArg=Transport:Republican_Guard
evTypeArg=Elect:them
anchor=purchase/n
arg=syria
dist=109
prevTokenAndType=Business_create
arg=tomorrow_morning
prevToken=battered
synPath=subject:force:nameMod
arg=americans
arg=correspondent
anchor=body/n
prevTokenAndType=Movement_left
arg=portions
prevTokenAndType=Personnel_new
evTypeArg=Meet:nuclear
evTypeArg=Attack:16-year-old
prevTokenAndType=Life_faces
chunkPath=follow_to_GPE_year_after_hearing_on
chunkPath=precede_,_mean_PERSON_cannot_be
prevToken=came
dist=85
dist=84
evTypeArg=Be-Born:she
anchor=bomb/n
anchor=threat/n
arg=COPENHAGEN
anchor=e-mails
prevTokenAndType=Business_gave
evTypeArg=Charge-Indict:america
prevToken=approaching
evTypeArg=Transport:baghdad
arg=Reuters
evTypeArg=Meet:council
evTypeArg=Sue:once
evTypeArg=Attack:Netanya
dist=77
dist=76
arg=South_West_Parkway
evTypeArg=Transport:Turkish
evTypeArg=Transport:us
arg=Australia
evTypeArg=Die:Peterson
chunkPathAndType=Life_precede_PERSON_have
anchor=lie
evTypeArg=Injure:her
prevTokenAndType=Conflict_A
dist=55
evTypeArg=Merge-Org:their
prevTokenAndType=Movement_then
evTypeArg=Transport:Pittsburgh
evTypeArg=Attack:son
arg=sides
prevTokenAndType=Life_wife
evTypeArg=Be-Born:pool
prevTokenAndType=Justice_serve
arg=Park_Hotel
chunkPathAndType=Life_precede_,_be
arg=a_great_day_for_democracy
prevTokenAndType=Life_wounding
evTypeArg=Injure:him
prevTokenAndType=Life_hitting
arg=Naxakis
prevTokenAndType=Movement_brief
prevTokenAndType=Life_over
chunkPath=precede_,_who
evTypeArg=Attack:tonight
prevToken=dismantling
evTypeArg=Attack:palace
evTypeArg=Arrest-Jail:who
chunkPath=precede_,_have
anchor=hand/n
prevTokenAndType=Justice_like
anchor=hijack
prevToken=even
prevTokenAndType=Justice_perspective
prevTokenAndType=Justice_court
prevToken=Americans
evTypeArg=Meet:spokesman
chunkPath=follow_competitor_to_create_larger_and_conglomerate_as_be_visionary_cut-off
anchor=harm/n
evTypeArg=Meet:Palestinian
prevToken=court
arg=moments_ago
prevTokenAndType=Conflict_attacks
chunkPathAndType=Transaction_follow_:
evTypeArg=Meet:Russian
arg=attendant
arg=egypt
evTypeArg=Injure:police
prevTokenAndType=Transaction_starting
prevTokenAndType=Transaction_And
evTypeArg=Attack:protesters
prevTokenAndType=Movement_than
evTypeArg=Attack:Pentagon
arg=Supreme_Court_of_Appeal
evTypeArg=End-Position:company
arg=Consulate
evTypeArg=Transfer-Ownership:China
arg=germany
evTypeArg=Attack:security_council
prevTokenAndType=Conflict_reason
chunkPath=precede_,_mean_try_and_his
prevToken=visited
arg=expert
prevToken=stunning
prevTokenAndType=Conflict_now
evTypeArg=Transfer-Ownership:Japan
chunkPath=precede_on
evTypeArg=Elect:population
arg=Shah
evTypeArg=Die:police
evTypeArg=Attack:al_Qaeda
prevToken=everything
evTypeArg=Transfer-Money:us
synPathTypes=Movement_GPE_subject:force:nameMod
evTypeArg=Meet:its
arg=folks
prevToken=operation
arg=three
prevTokenAndType=Justice_did
evTypeArg=Attack:Secretary
evTypeArg=Transport:Belfast
prevToken='re
prevTokenAndType=Life_wounded
prevToken=earlier
evTypeArg=Meet:Friday
arg=18_months_later
arg=ammunition
arg=seven_years
prevToken=Tulkarem
prevTokenAndType=Transaction_into
evTypeArg=Attack:Consulate
arg=parents
prevToken=provoke
evTypeArg=Attack:whose
arg=investigators
arg=King_Pharmaceuticals
evTypeArg=Attack:CIA
chunkPath=precede_he
evTypeArg=Transport:officers
prevTokenAndType=Conflict_support
evTypeArg=Transfer-Money:now
prevTokenAndType=Conflict_down
evTypeArg=Meet:group
prevToken=battle
arg=Los_Angeles
prevToken=sickened
prevToken=confront
chunkPathAndType=Conflict_follow_from
chunkPathAndType=Conflict_follow_that_strip_her_of
synPath=object-1:think:subject
prevToken=mainly
chunkPathAndType=Movement_follow_back_to
arg=side
evTypeArg=Transport:Turkey
synPathTypes=Movement_PERSON_object-1:make:subject
evTypeArg=End-Position:Rep
prevTokenAndType=Conflict_gathered
arg=earth
evTypeArg=Transport:house
evTypeArg=Trial-Hearing:he
anchor=subsidy/n
prevToken=troops
anchor=bust/n
prevToken=reached
prevToken=why
evTypeArg=Die:himself
prevTokenAndType=Conflict_interview
arg=translator
evTypeArg=Be-Born:they
prevToken=resembling
anchor=march
prevTokenAndType=Conflict_carrying
evTypeArg=Transport:Air_Force
chunkPathAndType=Justice_follow_guilty_of_murder_and
arg=March_23
arg=March_20
evTypeArg=Trial-Hearing:I
prevTokenAndType=Conflict_Although
synPathEvType=Business_subject
evTypeArg=Sue:themselves
evTypeArg=Transfer-Money:Red_Cross
chunkPathAndType=Movement_follow_through
arg=secretary
prevTokenAndType=Justice_after
evTypeArg=Injure:Kurdish
prevToken=won
prevTokenAndType=Justice_where
evTypeArg=Transport:Army
evTypeArg=Attack:bus
evTypeArg=Transport:lawmakers
chunkPathAndType=Movement_follow_along
prevTokenAndType=Contact_about
arg=15-year
evTypeArg=Transfer-Money:it
prevToken=actually
chunkPath=precede_could_be
prevToken=using
arg=bullet
prevTokenAndType=Conflict_accused
evTypeArg=Attack:Hussein
arg=islamic
evTypeArg=Elect:party
anchor=confront
prevTokenAndType=Justice_about
evTypeArg=Attack:Putin
chunkPathAndType=Life_precede_could
prevToken=long
prevToken=defeating
prevTokenAndType=Life_Controversial
arg=Indonesian
evTypeArg=Attack:allies
arg=overnight
chunkPath=follow_her_to
prevToken=After
arg=school
chunkPath=precede_and_PERSON
evTypeArg=Sue:customers
prevTokenAndType=Movement_between
prevToken=dropping
evTypeArg=Attack:Wednesday
arg=california
synPathTypes=Personnel_PERSON_poss
chunkPath=follow_along
prevTokenAndType=Transaction_(
evTypeArg=Transfer-Money:you
arg=East_Timor
chunkPath=precede_,_and
evTypeArg=Attack:12-year-old
evTypeArg=Elect:clerics
evTypeArg=Attack:Center_for_Strategic_and_International_Studies
anchor=O-V-E-R
evTypeArg=Attack:Hmong
evTypeArg=Elect:Sunni
evTypeArg=Attack:Karbala
arg=two-day
evTypeArg=Transport:Karbala
prevTokenAndType=Movement_aboard
prevTokenAndType=Conflict_confront
prevTokenAndType=Justice_releases
chunkPathAndType=Personnel_follow_by
prevToken=jerusalem
prevToken=died
prevTokenAndType=Life_whether
chunkPathAndType=Conflict_follow_in_GPE_with
arg=liberal
arg=source
arg=Tvrdik
prevToken=sending
prevTokenAndType=Justice_rate...
arg=owner
arg=World_Bank
arg=IAEA
arg=workers
evTypeArg=Die:palestinian
prevToken=regulate
evTypeArg=Attack:arms
evTypeArg=Transport:iraqi
evTypeArg=Start-Org:we
chunkPath=follow_back_to
arg=four-month
prevTokenAndType=Transaction_him
evTypeArg=Elect:i
prevToken=large
prevTokenAndType=Conflict_Famed
anchor=election
evTypeArg=Injure:He
prevTokenAndType=Business_on
anchor=employ
arg=bridge
prevTokenAndType=Movement_tell
evTypeArg=Attack:bomb
prevTokenAndType=Conflict_fight
evTypeArg=Attack:gov't
evTypeArg=Attack:Central_Command
evTypeArg=Declare-Bankruptcy:S_Corp
prevTokenAndType=Movement_firing
chunkPathAndType=Justice_follow_,
prevTokenAndType=Business_between
chunkPath=precede_say_have_be
prevToken=sure
prevTokenAndType=Conflict_stunning
prevToken=Do
evTypeArg=Die:there
evTypeArg=Transport:units
prevTokenAndType=Life_like
prevTokenAndType=Business_up
chunkPathAndType=Life_precede_hack_to
arg=less_than_two-day
prevToken=forget
evTypeArg=Sue:court
evTypeArg=Die:i
arg=rounds
chunkPath=follow_its
evTypeArg=Transfer-Money:World_Bank
arg=1990
evTypeArg=Attack:Nablus
prevToken=~
prevTokenAndType=Conflict_knew
prevTokenAndType=Conflict_though
evTypeArg=Meet:us
evTypeArg=Attack:someone
prevToken=[
arg=community
prevToken=inspire
arg=Mylan
arg=NEW_YORK
prevToken=many
anchor=sicken
evTypeArg=Injure:we
evTypeArg=Transport:Northern_Ireland
prevToken=company
arg=candidate
arg=Sunni
arg=crossing
arg=Criminal
prevToken=here
evTypeArg=Transport:Bryan
evTypeArg=Attack:iraqis
prevTokenAndType=Transaction_including
evTypeArg=Attack:new
anchor=crumble
arg=7-year-old
prevTokenAndType=Personnel_Did
prevToken=defeat
prevToken=transporting
evTypeArg=Meet:me
chunkPath=precede_'m
anchor=build
evTypeArg=Attack:mortars
evTypeArg=Transfer-Ownership:Mylan
evTypeArg=Injure:one
arg=Congressman
evTypeArg=Demonstrate:he
chunkPathAndType=Conflict_precede_troop
prevToken=sentenced
evTypeArg=Attack:my
arg=almost_exactly_a_year_ago,_March_27
chunkPathAndType=Movement_precede_,
arg=parliament
prevToken=us
evTypeArg=Attack:Sharon
chunkPath=precede_--
arg=atlanta
arg=chairman
synPathTypes=Life_GPE_nameMod
evTypeArg=Transfer-Ownership:that
arg=mosque
evTypeArg=Attack:leader
arg=4,000
prevTokenAndType=Personnel_say
evTypeArg=Attack:bombs
evTypeArg=Die:insurgent
evTypeArg=Die:Kurdish
prevToken=following
arg=throwers
evTypeArg=Injure:he
arg=committee
chunkPathAndType=Justice_precede_have
prevTokenAndType=Justice_Trial
arg=May_12
prevToken=secure
arg=network
chunkPathAndType=Justice_follow_against
chunkPathAndType=Movement_follow_at
arg=execs
evTypeArg=Attack:heart
chunkPathAndType=Movement_follow_to_the
arg=lawmaker
prevTokenAndType=Transaction_told
prevToken=lying.
chunkPathAndType=Conflict_precede_be_to_percent_of_its
evTypeArg=Attack:warplanes
anchor=rehired
prevToken=supporting
chunkPathAndType=Conflict_follow_and_kill
evTypeArg=Phone-Write:them
prevToken=it
arg=pond
arg=Associated_Press
chunkPathAndType=Movement_precede_to
anchor=mount
evTypeArg=Acquit:I
evTypeArg=Die:coalition
arg=pope
arg=Khomeini
prevToken=Because
chunkPathAndType=Life_follow_when
evTypeArg=Meet:We
evTypeArg=Die:former
anchor=bankrupcy
chunkPath=precede_soldier
synPath=object:boy:nameMod
evTypeArg=Attack:9-year-old
synPathEvType=Justice_of
arg=Gerhard_Schroeder
prevToken=fight
prevTokenAndType=Movement_24
prevToken=things
arg=fan
arg=north
prevTokenAndType=Justice_suits.
prevToken=While
arg=fbi
prevToken=directing
prevTokenAndType=Business_until
evTypeArg=Die:boy
evTypeArg=Transfer-Ownership:executive
chunkPath=precede_ORGANIZATION
evTypeArg=Convict:you
arg=Stewart
anchor=firefight/n
chunkPathAndType=Transaction_precede_get
arg=asia
evTypeArg=Transfer-Ownership:who
arg=white_house
evTypeArg=Attack:America
prevTokenAndType=Business_starting
anchor=skirmish/n
prevTokenAndType=Conflict_between
prevToken=ones
evTypeArg=Attack:themselves
prevTokenAndType=Movement_deployed
prevToken=inside
arg=al_qaeda
prevToken=Since
anchor=siege/n
prevTokenAndType=Justice_got
evTypeArg=Attack:sons
evTypeArg=Start-Position:there
evTypeArg=Meet:U.N
prevTokenAndType=Contact_if
chunkPath=follow_after
prevToken=accusing
evTypeArg=Injure:troops
anchor=friendly
chunkPathAndType=Conflict_precede_have_to
evTypeArg=Meet:Saint_Petersburg
prevToken=Syrian
evTypeArg=Attack:lebanon
chunkPathAndType=Transaction_follow_of
evTypeArg=Start-Position:President
arg=explosives
prevTokenAndType=Conflict_run
evTypeArg=End-Position:their
prevTokenAndType=Life_its
anchor=journey/n
evTypeArg=Sentence:prison
arg=Estrada
prevTokenAndType=Conflict_At
evTypeArg=Attack:spokesman
evTypeArg=Injure:baby
prevToken=perhaps
evTypeArg=Die:Americans
prevToken=driven
evTypeArg=Attack:His
evTypeArg=Die:regime
arg=Most
chunkPath=precede_Profit_distribution_and
evTypeArg=End-Position:Gov
arg=anybody
arg=cleric
chunkPathAndType=Justice_precede_,_mean_try_and_his
prevTokenAndType=Justice_remember
arg=Senator
prevToken=ago
arg=international
phone
prevTokenAndType=Conflict_using
prevToken=Are
evTypeArg=Meet:State
prevToken=Controversial
prevTokenAndType=Life_On
evTypeArg=Die:weapons
chunkPathAndType=Contact_precede_have
prevTokenAndType=Life_died
chunkPath=precede_go_to_be
prevTokenAndType=Conflict_If
anchor=blitz/n
prevTokenAndType=Personnel_lost
evTypeArg=Demonstrate:they
evTypeArg=Attack:Minister
arg=Oslo
arg=Kelly
chunkPath=follow_in_GPE
arg=Saudi_Arabia
evTypeArg=Merge-Org:competitors
evTypeArg=Phone-Write:we
evTypeArg=Elect:Iraqi
evTypeArg=Meet:middle_east
anchor=Combat
prevToken=point
prevToken=local
evTypeArg=Attack:iraqi
arg=rovers
arg=Syrian
prevTokenAndType=Conflict_Israel
prevToken=whom
evTypeArg=Declare-Bankruptcy:him
arg=Apache
chunkPath=follow_--
anchor=destruction/n
synPathEvType=Movement_subject:force:nameMod
prevTokenAndType=Movement_near
prevTokenAndType=Transaction_its
prevToken=key
prevToken=saw
arg=nuclear
arg=Chancellor
synPathTypes=Conflict_GPE_of
prevToken=another
prevTokenAndType=Life_be
arg=firearms
evTypeArg=Die:children
evTypeArg=Die:the_death_penalty
prevTokenAndType=Life_stop
evTypeArg=Attack:pentagon
evTypeArg=End-Org:he
arg=settlements
chunkPathAndType=Movement_precede_try_to
arg=clerics
arg=Camp_Lejeune
chunkPathAndType=Movement_precede_did
evTypeArg=Transport:North_Korea
evTypeArg=Transfer-Money:SEC
anchor=bleed
prevToken=course
evTypeArg=Transport:airport
arg=a_week
chunkPath=follow_through
arg=November
evTypeArg=Marry:he
evTypeArg=End-Org:now
prevTokenAndType=Life_Palestinian
evTypeArg=Attack:commander
evTypeArg=Die:Tuesday
prevTokenAndType=Justice_during
prevTokenAndType=Life_is
prevToken=quick
evTypeArg=Die:military
evTypeArg=Attack:future
arg=Edwards
evTypeArg=Die:hamas
anchor=butcher
evTypeArg=Attack:Denmark
evTypeArg=Transport:pool
arg=submarine
chunkPath=precede_try_to
arg=press
evTypeArg=Attack:god
evTypeArg=Attack:India
evTypeArg=Attack:Kuwait
prevToken=bus
chunkPath=precede_plan_to
arg=Earth
arg=Chamchamal
evTypeArg=Transport:u.s
evTypeArg=Meet:Security_Council
prevToken=24
prevTokenAndType=Life_he
chunkPathAndType=Life_follow_in_a
chunkPathAndType=Movement_follow_to_GPE_year_after_hearing_on
prevToken=launched
prevTokenAndType=Conflict_What
prevTokenAndType=Conflict_allow
evTypeArg=Attack:BAGHDAD
evTypeArg=Marry:you
prevToken=charged
prevTokenAndType=Movement_met
chunkPathAndType=Conflict_precede_have_(_negated_)
arg=Tulkarem
arg=assault
evTypeArg=Transport:helicopter
prevToken=getting
prevTokenAndType=Life_injured
prevTokenAndType=Conflict_key
evTypeArg=Meet:palestinian
prevTokenAndType=Personnel_BEGALA
arg=Hmong
prevTokenAndType=Personnel_so
evTypeArg=Elect:person
prevTokenAndType=Contact_(
chunkPath=follow_that_strip_her_of
evTypeArg=Transport:South_West_Parkway
prevToken=brief
evTypeArg=Meet:people
prevToken=stormed
prevTokenAndType=Personnel_fire
arg=myself
prevTokenAndType=Contact_:
prevToken=Palestinian
evTypeArg=Transport:his
arg=FARC
arg=authorities
arg=His
arg=12-year-old
evTypeArg=Attack:family
prevTokenAndType=Conflict_any
evTypeArg=Transport:Red_Banks
prevTokenAndType=Justice_(
evTypeArg=Transport:military
evTypeArg=Attack:United_Nations
arg=AFP
prevToken=being
prevTokenAndType=Conflict_so
evTypeArg=Transport:Tuesday,_July_5th
arg=Kurdish
arg=WERKHEISER
evTypeArg=Injure:Israeli
evTypeArg=Transport:Friday,_July_8th
arg=Basra
evTypeArg=Transport:Wednesday,_July_6th
arg=$13,801.33
arg=analysts
prevToken=his
arg=Sunnis
arg=current
evTypeArg=Start-Position:new
prevTokenAndType=Conflict_being
arg=16-year-old
prevToken=moving
anchor=hostility/n
evTypeArg=Attack:hospital
evTypeArg=Declare-Bankruptcy:your
evTypeArg=Die:that
arg=united_states
evTypeArg=Attack:France
arg=writer
evTypeArg=Transfer-Money:$17,796.52
evTypeArg=Transport:NYC
arg=Nablus
prevTokenAndType=Personnel_if
evTypeArg=Convict:now
arg=refugee
anchor=terrorism/n
evTypeArg=End-Org:they
prevTokenAndType=Conflict_put
arg=opponent
evTypeArg=Transport:Thursday,_July_7th
prevTokenAndType=Conflict_Palestinian
arg=Military
evTypeArg=Die:PLO
arg=Saturday,_July_9th
arg=Gen
evTypeArg=Transport:which
evTypeArg=Transport:President
arg=customers
prevToken=ages
arg=new_york
arg=3
arg=cnn
evTypeArg=Transfer-Money:9%
arg=winners
arg=9
arg=7
prevTokenAndType=Business_off
evTypeArg=Convict:the_death_penalty
evTypeArg=Transfer-Money:$50,017.57
anchor=suits
evTypeArg=Attack:where
evTypeArg=Transport:its
War
prevToken=giving
evTypeArg=Attack:centers
evTypeArg=Start-Position:who
arg=Hussein
prevTokenAndType=Movement_friends
prevToken=would
prevTokenAndType=Life_And
arg=Hitler
evTypeArg=End-Position:his
arg=ALBO
prevTokenAndType=Justice_but
prevTokenAndType=Conflict_wounding
prevToken=developing
arg=carrier
arg=canal
prevToken=Iraqi
evTypeArg=Elect:we
prevTokenAndType=Life_old
evTypeArg=Transfer-Money:$0
prevToken=show
evTypeArg=Attack:FDR
arg=$23,767.77
evTypeArg=Attack:Hitler
arg=Kremlin
prevTokenAndType=Movement_Stay
arg=Canada
prevToken=industries
prevTokenAndType=Personnel_If
arg=once
prevTokenAndType=Conflict_an
chunkPathAndType=Movement_precede_PERSON
evTypeArg=Transport:British
anchor=World
evTypeArg=Elect:my
synPathEvType=Conflict_of-1
arg=ones
evTypeArg=Be-Born:you
prevTokenAndType=Business_for
evTypeArg=Transfer-Ownership:which
prevToken=interview
arg=Monday,_July_4th
arg=Jay_and_Silent_Bob's_Silent_Stash
evTypeArg=Die:Palestinian
evTypeArg=Elect:they
synPath=subject:troop:nameMod
arg=Saturday,_July_2nd
prevTokenAndType=Personnel_unless
arg=sources
anchor=prosecute
prevTokenAndType=Contact_over
arg=Laci
arg=CNN
prevTokenAndType=Conflict_old
chunkPath=follow_,_"
evTypeArg=Demonstrate:police
prevTokenAndType=Movement_moving
dist=91
arg=possessions
arg=themselves
evTypeArg=Attack:united_states
prevToken=Famed
dist=60
dist=62
dist=64
dist=63
dist=66
dist=65
arg=Thursday,_July_7th
arg=criminal
dist=79
dist=72
dist=71
arg=human
dist=46
dist=45
dist=48
dist=47
arg=media
dist=42
dist=41
dist=44
dist=43
dist=40
arg=$50,017.57
dist=59
dist=58
prevTokenAndType=Conflict_?
dist=56
dist=54
dist=53
dist=52
dist=51
dist=50
evTypeArg=Transport:one
prevTokenAndType=Conflict_(
chunkPathAndType=Conflict_follow_,_but
evTypeArg=Die:now
evTypeArg=Meet:his
II
arg=visionaries
arg=d.c
evTypeArg=End-Position:you
evTypeArg=Die:family
evTypeArg=Injure:I
evTypeArg=Attack:israelis
chunkPathAndType=Conflict_follow_,_"
arg=German
chunkPath=precede_say
menType=Contact-Info
prevTokenAndType=Movement_its
evTypeArg=Attack:possessions
evTypeArg=Be-Born:I
prevToken=still
arg=Central_Command
prevToken=remember
prevToken=old
prevToken=fow
prevTokenAndType=Conflict_not
arg=Red_Banks
evTypeArg=Die:it
evTypeArg=Transport:Iraqi
arg=ari_fleischer
arg=TV2
evTypeArg=Transport:Tx
arg=Muslim
evTypeArg=Transfer-Money:campaign
arg=South_Korean
prevTokenAndType=Contact_''
arg=Wednesday,_July_6th
anchor=probe
prevTokenAndType=Transaction_50,017.57
prevTokenAndType=Movement_told
prevTokenAndType=Conflict_told
arg=all
anchor=sept./n
evTypeArg=Attack:Security_Council
evTypeArg=Attack:theorists
arg=gov't
arg=Tuesday,_July_5th
evTypeArg=Attack:government
arg=Rumsfeld
arg=$34,267.77
evTypeArg=Transport:the_night
prevTokenAndType=Movement_named
prevTokenAndType=Personnel_because
evTypeArg=Injure:Palestinian
prevToken=chief
arg=driver
prevToken=Stay
prevTokenAndType=Conflict_fow
arg=Secretary
anchor=postwar
chunkPath=precede_the
prevTokenAndType=Conflict_out
prevTokenAndType=Justice_murdering
dist=38
dist=39
evTypeArg=Transport:me
dist=34
dist=35
dist=36
dist=37
dist=30
dist=31
dist=32
dist=33
evTypeArg=Transfer-Money:ALBO
evTypeArg=Transport:Palestinian
dist=29
evTypeArg=Meet:weapons
dist=27
dist=28
dist=25
dist=26
dist=23
dist=22
prevToken=strip
evTypeArg=Injure:they
prevTokenAndType=Personnel_but
evTypeArg=Transport:my
arg=Cabinet
prevToken=suits.
arg=member
arg=$400.00
evTypeArg=Transfer-Ownership:its
prevToken=did
prevTokenAndType=Conflict_And
synPathTypes=Conflict_PERSON_of-1
arg=9-year-old
arg=Barghouti
arg=washington_post
prevTokenAndType=Personnel_like
arg=columnist
evTypeArg=Injure:hospital
arg=$0
prevTokenAndType=Conflict_their
evTypeArg=Attack:capital
evTypeArg=Transport:Sunday,_July_3rd
arg=road
prevToken=50,017.57
evTypeArg=Elect:I
prevToken=those
evTypeArg=Attack:prisoners
prevToken=releases
anchor=childbirth/n
arg=church
prevToken=perspective
evTypeArg=Elect:Sunnis
anchor=funeral/n
prevTokenAndType=Movement_The
arg=editor
prevToken=friends
evTypeArg=End-Position:who
arg=lawyer
evTypeArg=Transport:minister
anchor=violence/n
evTypeArg=Transport:On
evTypeArg=Transport:Palestinians
evTypeArg=Declare-Bankruptcy:they
evTypeArg=Transport:NJ
evTypeArg=Transport:NY
evTypeArg=Die:my
arg=own
prevToken=remind
evTypeArg=Transfer-Money:$400.00
prevTokenAndType=Movement_Austin
evTypeArg=Die:his
prevToken=What
prevTokenAndType=Movement_Stash
arg=conglomerates
evTypeArg=Elect:their
prevToken=people
evTypeArg=Attack:AFP
evTypeArg=Transport:AP
arg=$17,796.52
evTypeArg=Transport:coalition
evTypeArg=Transfer-Money:opponent
arg=State
prevToken=I
evTypeArg=Trial-Hearing:media
prevToken=A
evTypeArg=Transfer-Money:his
evTypeArg=Die:I
prevToken=/
evTypeArg=Start-Position:we
evTypeArg=Attack:President
anchor=filings/n
evTypeArg=Meet:Secretary
arg=Judy
evTypeArg=Die:their
arg=South_Africa
evTypeArg=Die:our
arg=Sunday,_July_3rd
prevToken=man
arg=JERUSALEM
arg=Saudi
arg=Humvee
anchor=vote/n
arg=herself
prevToken=Stash
chunkPathAndType=Movement_precede_-
arg=Washington_Post
prevTokenAndType=Justice_wife
evTypeArg=Transfer-Money:WERKHEISER
prevToken=two
evTypeArg=Attack:world
arg=itself
prevToken=2,000
arg=6_month
arg=jail
anchor=wed
evTypeArg=Die:officials
arg=www.werkheiserfordelegate.com
evTypeArg=Start-Position:his
prevTokenAndType=Justice_do
arg=theorists
chunkPathAndType=Life_follow_and
evTypeArg=Transport:Saturday,_July_9th
prevTokenAndType=Personnel_-
prevTokenAndType=Personnel_(
prevTokenAndType=Personnel_"
prevTokenAndType=Personnel_?
arg=god
evTypeArg=Die:Israeli
evTypeArg=Die:you
prevTokenAndType=Justice_is
evTypeArg=Attack:U.N
arg=prisoners
anchor=Trials
prevToken=Austin
arg=rest
arg=eyewitnesses
arg=Security_Council
evTypeArg=Transport:commanders
arg=pool
arg=club
arg=Fedayeen
arg=BAGHDAD
evTypeArg=Declare-Bankruptcy:you
evTypeArg=Die:leader
arg=Mideast
evTypeArg=Transport:weapons
prevTokenAndType=Life_into
anchor=something/pro
evTypeArg=Transport:Jay_and_Silent_Bob's_Silent_Stash
evTypeArg=Transfer-Money:www.werkheiserfordelegate.com
evTypeArg=Elect:group
arg=President
evTypeArg=Injure:their
arg=new
arg=million
arg=whose
arg=stone
evTypeArg=Die:American
evTypeArg=End-Position:we
evTypeArg=Trial-Hearing:court
arg=Denmark
arg=North
arg=Xinhua
evTypeArg=Transfer-Money:$23,767.77
prevToken=any
arg=Israelis
prevTokenAndType=Life_Although
evTypeArg=Transport:Saturday,_July_2nd
evTypeArg=Transfer-Ownership:his
arg=Tx
arg=Former
evTypeArg=Meet:region
evTypeArg=Sue:you
arg=1937
arg=NYC
arg=Friday,_July_8th
evTypeArg=Transfer-Money:company
evTypeArg=Transport:Pentagon
evTypeArg=Attack:i
anchor=wartime/n
evTypeArg=Transfer-Money:$34,267.77
prevToken=five
evTypeArg=Trial-Hearing:you
evTypeArg=Attack:former
prevTokenAndType=Conflict_n't
prevToken=wife
chunkPath=precede_troop
arg=NY
arg=NJ
arg=Mr
evTypeArg=End-Position:it
evTypeArg=Attack:Rumsfeld
arg=On
arg=population
prevTokenAndType=Conflict_But
arg=AP
arg=security_council
prevToken=gathered
evTypeArg=Die:world
evTypeArg=Die:Paris
prevTokenAndType=Movement_(
prevTokenAndType=Movement_-
evTypeArg=Start-Position:you
chunkPathAndType=Life_follow_a
prevTokenAndType=Conflict_than
evTypeArg=Transport:Monday,_July_4th
prevTokenAndType=Life_as
evTypeArg=Attack:palestinian
evTypeArg=Transport:American
evTypeArg=Attack:ones
arg=Danish
prevTokenAndType=Conflict_two
prevToken=senior
chunkPath=follow_,_but
evTypeArg=Meet:President
arg=FDR
prevToken=shaking
evTypeArg=Phone-Write:my
arg=Middle_East
evTypeArg=Attack:Kurdish
prevTokenAndType=Justice_killing
arg=allies
arg=PLO
evTypeArg=Transfer-Money:their
arg=Paris
prevTokenAndType=Business_from
arg=campaign
evTypeArg=Attack:your
evTypeArg=Transport:July_4th_week
prevTokenAndType=Conflict_what
prevToken=rate...
evTypeArg=Attack:that
arg=Pacific
arg=France
evTypeArg=Die:its
arg=July_4th_week
arg=the_night
arg=9%
arg=Minister
arg=United_Nations
prevToken=But
evTypeArg=Elect:his
prevTokenAndType=Movement_where
evTypeArg=Attack:Russia
evTypeArg=Transfer-Money:$13,801.33
evTypeArg=Transport:police
evTypeArg=Injure:officials
evTypeArg=Attack:AP
evTypeArg=Attack:Russian
prevTokenAndType=Personnel_people
evTypeArg=Attack:Moscow
evTypeArg=Transfer-Money:organizations
prevTokenAndType=Personnel_Cabinet
anchor=hearing/n
anchor=targeted
chunkPathAndType=Conflict_follow_and
prevTokenAndType=Business_(
synPathEvType=Contact_poss
prevTokenAndType=Business_,
evTypeArg=Elect:people
prevTokenAndType=Conflict_are
prevTokenAndType=Business_"
chunkPathAndType=Movement_precede_
evTypeArg=Transport:him
prevTokenAndType=Life_leader
arg=candidates
prevTokenAndType=Business_.
arg=last_week
arg=complex
anchor=transfer
chunkPathAndType=Life_precede_,
anchor=beat
evTypeArg=Start-Position:company
evTypeArg=Meet:Bush
arg=Erdogan
evTypeArg=Injure:others
anchor=airlifting
arg=commander
arg=Pittsburgh
prevTokenAndType=Conflict_and
prevToken=wounded
anchor=approach
evTypeArg=Attack:Monday
chunkPath=precede_,_to
anchor=this
prevTokenAndType=Justice_,
prevTokenAndType=Justice_.
arg=White_House
arg=israeli
arg=companies
noSynPath
prevTokenAndType=Justice_)
synPath=object-1:make:subject
arg=anyone
arg=terrorists
evTypeArg=Attack:their
synPath=object
anchor=execution/n
anchor=retired
anchor=one/pro
evTypeArg=Transport:their
evTypeArg=Transfer-Ownership:I
anchor=attack/n
anchor=capture
anchor=alive
prevToken=serve
evTypeArg=Elect:he
anchor=emerge
evTypeArg=Transport:They
arg=group
synPathEvType=Life_subject
arg=photographer
prevTokenAndType=Conflict_to
arg=france
chunkPath=follow_,_include
prevToken=had
prevTokenAndType=Justice_said
chunkPath=follow_into
arg=al_Qaeda
synPath=object-1:have:subject
prevTokenAndType=Conflict_up
evTypeArg=Meet:leaders
arg=daughter
arg=corporation
prevTokenAndType=Movement_up
arg=7th_Cavalry
arg=division
synPathTypes=Transaction_GPE_subject
anchor=kill/n
prevToken=hitting
menType=VEH
prevTokenAndType=Movement_to
anchor=conflict/n
prevToken=dumped
evTypeArg=Attack:stones
arg=official
prevToken=has
anchor=dismantle
arg=hamas
anchor=purge
prevTokenAndType=Justice_think
prevToken=along
noChunkPath
evTypeArg=Attack:iraq
synPathTypes=Movement_LOCATION_object
evTypeArg=Declare-Bankruptcy:uncle
evTypeArg=Attack:iran
arg=nation
synPathTypes=Life_PERSON_of
prevTokenAndType=Life_from
evTypeArg=Injure:boy
prevTokenAndType=Conflict_throwing
anchor=marry
arg=there
prevToken=accused
prevToken=said
menType=Time
prevTokenAndType=Conflict_because
anchor=mission/n
anchor=rush
evTypeArg=Attack:Now
anchor=start
evTypeArg=Transport:there
prevToken=ordered
evTypeArg=Transfer-Money:Greg_Werkheiser
evTypeArg=Elect:Sistani
arg=Israel
arg=America
prevTokenAndType=Conflict_during
donatio
anchor=ambush/n
chunkPathAndType=Movement_precede_will
prevToken=wounding
prevToken=killing
prevTokenAndType=Movement_is
arg=washington
anchor=release
evTypeArg=Die:today
prevTokenAndType=Movement_in
arg=lawmakers
prevToken=nominating
prevToken=mean
prevTokenAndType=Life_hospital
arg=family
arg=George_W._Bush
prevToken=over
prevToken=hit
anchor=throw
evTypeArg=Injure:Tuesday
prevToken=him
prevTokenAndType=Personnel_by
evTypeArg=Transfer-Money:Albo
evTypeArg=Attack:here
prevToken=having
evTypeArg=Elect:US
chunkPathAndType=Life_precede_to
evTypeArg=Injure:people
synPathEvType=Movement_object
prevTokenAndType=Personnel_as
prevTokenAndType=Justice_are
prevTokenAndType=Personnel_at
prevTokenAndType=Conflict_including
anchor=abandon
anchor=merge
prevToken=spending
prevToken=retired
anchor=visit/n
synPath=poss
arg=their
anchor=rally/n
synPathEvType=Justice_subject
evTypeArg=Arrest-Jail:they
arg=soldier
anchor=appoint
arg=recently
arg=where
evTypeArg=Attack:soldiers
anchor=protest/n
prevTokenAndType=Movement_of
arg=wife
prevTokenAndType=Movement_on
evTypeArg=Phone-Write:who
evTypeArg=Attack:members
arg=civilians
anchor=appeal/n
anchor=replace
prevTokenAndType=Personnel_from
chunkPathAndType=Conflict_precede_,
evTypeArg=Transport:soldiers
prevTokenAndType=Justice_and
arg=fighters
prevToken=appoint
arg=bishops
evTypeArg=Meet:she
arg=general
anchor=raise
evTypeArg=Attack:sniper
chunkPathAndType=Contact_follow_in
chunkPath=follow_against
arg=buyer
prevTokenAndType=Justice_that
anchor=injure
arg=$10.3_billion
evTypeArg=Transport:territory
evTypeArg=Die:woman
arg=region
chunkPath=follow_GPE
prevTokenAndType=Movement_at
arg=man
prevTokenAndType=Movement_as
prevTokenAndType=Movement_an
anchor=hire
prevTokenAndType=Personnel_and
prevTokenAndType=Movement_by
chunkPath=precede_have_(_negated_)
chunkPathAndType=Contact_follow_with
chunkPath=follow_to_GPE_,
chunkPathAndType=Business_precede_be
prevTokenAndType=Movement_be
arg=regime
arg=convoy
arg=Sistani
evTypeArg=Meet:who
anchor=incident/n
chunkPath=follow_for
prevTokenAndType=Conflict_says
arg=here
evType=Personnel
anchor=hack
prevToken=Israel
prevTokenAndType=Personnel_in
arg=stones
prevTokenAndType=Personnel_is
prevToken=right
evTypeArg=Attack:Israel
anchor=convention/n
anchor=gather
prevToken=injured
arg=friend
arg=officials
evTypeArg=End-Position:she
evTypeArg=Transport:her
evTypeArg=Die:them
anchor=strike/n
arg=Kurds
anchor=that
evTypeArg=Die:they
synPathEvType=Contact_nameMod
evTypeArg=Transfer-Money:himself
arg=men
prevTokenAndType=Personnel_after
prevTokenAndType=Personnel_or
prevTokenAndType=Personnel_on
prevToken=says
evTypeArg=Die:state
anchor=suicide/n
prevTokenAndType=Conflict_its
prevTokenAndType=Personnel_of
anchor=invite
prevToken=told
prevTokenAndType=Conflict_opened
arg=militants
evTypeArg=Attack:there
chunkPath=precede_can
chunkPathAndType=Justice_precede_be
evTypeArg=Transport:Israel
evType=Movement
prevTokenAndType=Movement_if
chunkPathAndType=Movement_follow_into
prevTokenAndType=Movement_along
arg=experts
arg=building
prevToken=how
anchor=correspondence/n
arg=ceo
anchor=ambush
arg=Pearl_Harbor
prevToken=started
arg=Democrats
evTypeArg=Die:leaders
prevToken=going
chunkPath=precede_PERSON_have
arg=Basson
anchor=fail
chunkPathAndType=Contact_follow_to
prevTokenAndType=Conflict_how
dist=1
dist=2
evTypeArg=Transport:you
evTypeArg=Meet:Putin
dist=0
dist=5
dist=6
chunkPathAndType=Contact_follow_from
dist=3
dist=4
anchor=forum/n
dist=8
dist=7
dist=9
evTypeArg=Attack:others
evTypeArg=Attack:aircraft
arg=Peterson
evTypeArg=Die:members
prevToken=after
prevToken=put
arg=families
anchor=catch
prevTokenAndType=Justice_promises
prevTokenAndType=Life_and
arg=You
arg=Dell
arg=Air_Force
arg=minor
anchor=terror/n
prevToken=protect
prevToken=fired
anchor=visit
prevToken=attack
prevTokenAndType=Life_have
arg=helicopter
evTypeArg=Die:israelis
synPathTypes=Conflict_GPE_poss
anchor=set
prevTokenAndType=Conflict_``
chunkPath=follow_PERSON_and
anchor=see
anchor=admit
anchor=fall
chunkPathAndType=Justice_precede_
arg=weapons
prevToken=dropped
anchor=meeting/n
prevTokenAndType=Contact_when
prevTokenAndType=Conflict_hit
anchor=fine
arg=protesters
prevToken=saying
prevToken=recent
anchor=offer/n
anchor=find
menType=Job-Title
prevTokenAndType=Life_are
prevTokenAndType=Conflict_through
anchor=disband
synPathTypes=Movement_PERSON_subject
anchor=stab
evTypeArg=Transport:Toronto
evTypeArg=End-Position:him
arg=head
arg=people
evTypeArg=Meet:officials
arg=$55,119.75
evTypeArg=Meet:Iraq
evTypeArg=Attack:today
prevTokenAndType=Conflict_said
arg=Army
arg=saddam_hussein
anchor=unleash
prevToken=hospital
anchor=wound/n
anchor=move
prevTokenAndType=Conflict_engage
prevTokenAndType=Conflict_have
chunkPath=follow_from
synPathTypes=Conflict_WEA_object
anchor=guilty
evTypeArg=Die:reporter
prevTokenAndType=Transaction_to
prevTokenAndType=Contact_what
evTypeArg=Attack:woman
arg=Ocalan
anchor=step
evTypeArg=Meet:president
arg=centers
arg=British
prevToken=kill
arg=apartment
evTypeArg=Attack:anthrax
chunkPath=precede_and
arg=youths
prevToken=deployed
chunkPathAndType=Life_precede_who
anchor=thrust/n
evTypeArg=Meet:British
anchor=bring
arg=i
anchor=clash/n
anchor=born/n
chunkPath=follow_by
evTypeArg=Phone-Write:he
chunkPath=follow_be
anchor=march/n
evTypeArg=Attack:terrorist
anchor=movement/n
arg=diplomats
chunkPath=follow_at
prevTokenAndType=Conflict_had
chunkPath=follow_as
arg=I
prevTokenAndType=Life_when
anchor=face
prevTokenAndType=Conflict_has
arg=countries
prevToken=CARLSON
anchor=thrust
prevToken=electing
arg=franchise
arg=bus
synPathTypes=Personnel_PERSON_object
anchor=shoot
arg=Spain
prevTokenAndType=Transaction_in
arg=artillery
evTypeArg=Attack:officials
evTypeArg=Attack:Marines
prevTokenAndType=Conflict_in
prevTokenAndType=Transaction_if
prevTokenAndType=Conflict_is
evTypeArg=Charge-Indict:executives
arg=iraqis
anchor=landing/n
evTypeArg=Die:son
anchor=remove
arg=bomb
evTypeArg=Attack:forces
chunkPathAndType=Conflict_follow_the
anchor=condemn
chunkPathAndType=Personnel_precede_who
anchor=call
arg=organization
synPathTypes=Justice_PERSON_subject
prevToken=think
arg=my
prevTokenAndType=Movement_out
prevTokenAndType=Conflict_of
arg=Iraqi
arg=iran
prevToken=unless
prevTokenAndType=Conflict_on
arg=sniper
prevTokenAndType=Conflict_or
evTypeArg=Attack:Laos
prevToken=erupted
arg=Baghdad
arg=soldiers
evTypeArg=Die:hospital
arg=me
prevToken=have
arg=warships
anchor=retreat/n
chunkPathAndType=Conflict_follow_of
chunkPathAndType=Conflict_follow_on
arg=israel
prevTokenAndType=Transaction_buy
anchor=run
arg=state
chunkPath=follow_in
prevTokenAndType=Contact_and
arg=recent
anchor=Desert
prevTokenAndType=Personnel_former
anchor=choose
anchor=consultation/n
arg=husband
arg=two
prevTokenAndType=Life_because
prevTokenAndType=Transaction_of
evTypeArg=Transport:United_States
arg=it
arg=Britain
prevTokenAndType=Transaction_on
arg=iraq
anchor=fight/n
chunkPathAndType=Conflict_follow_to
anchor=press
prevToken=its
prevTokenAndType=Justice_a
prevToken=tell
prevTokenAndType=Conflict_by
chunkPath=precede_
chunkPath=follow_on
arg=Sharon
prevTokenAndType=Transaction_as
evTypeArg=Attack:civilians
prevTokenAndType=Conflict_at
prevTokenAndType=Conflict_as
prevTokenAndType=Conflict_be
anchor=order
arg=Saddam
arg=body
arg=whom
arg=we
evTypeArg=Attack:its
arg=others
chunkPath=follow_with
arg=middle_east
prevTokenAndType=Conflict_right
anchor=abuse
chunkPath=follow_of
prevToken=hire
anchor=e-mail
prevTokenAndType=Movement_As
anchor=launch
evTypeArg=Die:troops
prevTokenAndType=Life_for
prevTokenAndType=Transaction_by
prevToken=want
arg=us
prevTokenAndType=Conflict_across
anchor=fire
anchor=sail
evTypeArg=End-Position:former
chunkPath=follow_to
evTypeArg=Attack:airport
evTypeArg=Sue:Dell
prevToken=left
anchor=contribution/n
prevToken=means
chunkPathAndType=Life_precede_be
prevTokenAndType=Movement_for
prevTokenAndType=Life_out
evTypeArg=Meet:North_Korea
prevToken=persuade
arg=car
anchor=conference/n
synPathEvType=Movement_subject
anchor=vest/n
evTypeArg=Die:civilian
arg=West_Bank
prevTokenAndType=Conflict_if
arg=tonight
prevTokenAndType=Transaction_with
evTypeArg=Sue:he
arg=Gov
anchor=sell
chunkPath=precede_could
evTypeArg=Meet:I
anchor=arrest
arg=anthrax
prevTokenAndType=Transaction_from
anchor=deport
evTypeArg=Attack:carriers
prevTokenAndType=Conflict_about
prevToken=end
arg=the_death_penalty
evTypeArg=Transfer-Ownership:business
chunkPathAndType=Conflict_follow_at
chunkPathAndType=Conflict_follow_as
anchor=massacre/n
evTypeArg=Attack:divisions
evTypeArg=Die:who
anchor=tie
arg=Palestinian
anchor=sentence/n
anchor=blasted
prevTokenAndType=Justice_let
arg=Mars
evTypeArg=Attack:u.s
anchor=loan/n
prevTokenAndType=Contact_met
anchor=invasion/n
evTypeArg=Sue:lawyers
anchor=meet
anchor=the
arg=child
arg=palace
prevToken=call
arg=prince
evTypeArg=Die:person
anchor=receive
arg=Thursday
anchor=intifada/n
evTypeArg=Transport:that
synPathTypes=Transaction_ORGANIZATION_object
prevTokenAndType=Movement_that
menType=Numeric
prevTokenAndType=Personnel_was
anchor=smash
chunkPathAndType=Personnel_follow_
anchor=response/n
chunkPathAndType=Personnel_precede_would
evTypeArg=Transport:area
arg=startups
arg=Chiluba
anchor=removal/n
anchor=Drive
arg=Austin
anchor=talk/n
prevToken=opened
anchor=die
evTypeArg=Transport:that_evening
prevTokenAndType=Life_with
anchor=did
prevToken=destroyed
anchor=send
evTypeArg=Attack:street
evTypeArg=Attack:missiles
anchor=engage
arg=city
arg=Washington
prevTokenAndType=Conflict_a
prevTokenAndType=Conflict_destroyed
evTypeArg=Transport:carriers
prevTokenAndType=Conflict_where
anchor=trial/n
prevToken=build
prevToken=were
arg=leader
prevToken=our
arg=heart
anchor=extradition/n
arg=police
evTypeArg=Transport:we
prevToken=out
prevTokenAndType=Conflict_attack
prevTokenAndType=Conflict_)
anchor=drop
prevTokenAndType=Conflict_"
chunkPathAndType=Life_precede_
arg=2003
arg=border
prevTokenAndType=Conflict_:
synPathEvType=Justice_poss
arg=French
chunkPath=precede_be_be
evTypeArg=Transport:they
prevToken=into
anchor=decease
prevTokenAndType=Conflict_-
evTypeArg=Attack:United_States
prevTokenAndType=Conflict_.
prevTokenAndType=Conflict_,
arg=Boston
prevToken=during
arg=women
chunkPathAndType=Conflict_follow_in
arg=boy
chunkPathAndType=Personnel_precede_
synPathTypes=Life_PERSON_poss
evTypeArg=Transfer-Ownership:she
evTypeArg=Transport:them
evTypeArg=Attack:bush
prevToken=keep
prevToken=enter
anchor=name
prevTokenAndType=Conflict_was
prevToken=near
arg=Belfast
prevToken=faces
chunkPath=precede_say_the
arg=CIA
prevTokenAndType=Transaction_for
anchor=write
arg=last_year
anchor=fine/n
evTypeArg=Transport:city
arg=Red_Cross
arg=woman
evType=Life
evTypeArg=Transfer-Money:lawyers
chunkPathAndType=Transaction_precede_have
arg=Rep
arg=friends
arg=house
evTypeArg=Transport:our
anchor=punch/n
evTypeArg=Attack:she
evTypeArg=Attack:police
chunkPathAndType=Conflict_follow_by
synPathEvType=Conflict_poss
evTypeArg=Attack:gaza
anchor=lawsuits/n
prevTokenAndType=Life_but
arg=Britons
arg=SEC
evTypeArg=Attack:car
arg=lebanon
arg=town
prevToken=seizing
anchor=strike
anchor=accuse
prevToken=toward
arg=Welsh
anchor=sue
evTypeArg=Transport:Boston
prevToken=starting
arg=Israeli
anchor=helicopter/n
anchor=born
prevToken=off
anchor=gathering/n
anchor=divorce/n
prevTokenAndType=Movement_say
prevTokenAndType=Justice_because
prevToken=against
prevToken=then
prevToken=entering
arg=terrorist
arg=compound
arg=leaders
arg=groups
arg=Colin_Powell
prevToken=Falls
anchor=close
chunkPath=precede_be_on
evTypeArg=Attack:Saddam_Hussein
arg=Laos
synPathEvType=Justice_object
anchor=withdrawal/n
synPathTypes=Movement_VEH_subject
arg=Russian
prevToken=elected
evTypeArg=End-Position:ceo
evTypeArg=Phone-Write:I
prevToken=allow
anchor=turn
evTypeArg=Attack:Palestinians
prevTokenAndType=Transaction_when
arg=$67,814.09
anchor=smack
prevTokenAndType=Movement_make
anchor=merger/n
prevToken=threw
prevToken=alongside
anchor=cut
prevToken=some
arg=president
arg=creditors
evTypeArg=Transport:border
evTypeArg=Transport:Spain
prevToken=this
prevToken=sold
arg=Saturday
anchor=strip
prevTokenAndType=Transaction_support
arg=Moscow
prevTokenAndType=Personnel_recent
arg=station
synPath=of
evTypeArg=Attack:Tuesday
arg=israelis
arg=Pearl
anchor=shootings/n
arg=Red_Sea
arg=Baath_Party
prevToken=become
anchor=open
synPathTypes=Movement_FACILITY_object
arg=70_years
anchor=battery/n
evTypeArg=Transport:building
prevToken=one
prevTokenAndType=Conflict_make
evTypeArg=Elect:Washington_State
prevTokenAndType=Contact_the
arg=business
arg=insurgent
arg=$10,500
prevTokenAndType=Personnel_--
arg=organizations
evTypeArg=Attack:China
anchor=push
evTypeArg=Declare-Bankruptcy:he
prevTokenAndType=Conflict_believe
anchor=bomb
arg=vehicle
chunkPath=follow_the
chunkPathAndType=Contact_precede_
anchor=clash
arg=camp
anchor=putt
anchor=shell
arg=reporter
evTypeArg=Attack:Britain
anchor=swallow
prevToken=killed
arg=district
synPath=of-1
synPathEvType=Transaction_poss
chunkPath=precede_to
prevTokenAndType=Conflict_after
prevToken=for
prevTokenAndType=Personnel_over
evTypeArg=Attack:Kurds
anchor=drive
arg=carriers
anchor=killing/n
arg=executives
prevTokenAndType=Personnel_'s
arg=American
anchor=combat/n
evTypeArg=Die:Iraq
arg=capital
evTypeArg=Transport:who
prevToken=attacks
anchor=bankrupt
chunkPath=precede_or
anchor=telephone/n
evTypeArg=Transfer-Money:Werkheiser
evTypeArg=Attack:israeli
arg=judge
prevToken=promises
prevToken=found
arg=Bolton
arg=Pentagon
arg=baghdad
anchor=protest
arg=bush
evTypeArg=Die:he
anchor=speak
evTypeArg=Transfer-Money:we
anchor=deliver
arg=aircraft
prevTokenAndType=Business_by
evTypeArg=Die:men
prevToken=felt
evTypeArg=Transport:SW_Parkway
anchor=detain
anchor=sailing/n
prevToken=Cabinet
arg=Yasser_Arafat
anchor=abuse/n
anchor=sluice
prevTokenAndType=Conflict_over
chunkPath=precede_of
prevTokenAndType=Contact_'s
anchor=elect
anchor=destroy
anchor=interview/n
evTypeArg=Transport:US
arg=that_evening
anchor=loans/n
evTypeArg=Attack:president
evTypeArg=Transfer-Money:$55,119.75
anchor=resign
prevTokenAndType=Movement_and
prevToken=With
prevToken=where
arg=Jordan
arg=officer
anchor=striking
prevToken=away
arg=Republican_Guard
evTypeArg=Elect:government
arg=other
prevTokenAndType=Personnel_serving
arg=she
arg=nations
arg=board
evTypeArg=Transport:We
anchor=fight
anchor=buys
arg=saddam
anchor=walk
arg=streets
prevToken=firing
chunkPathAndType=Movement_follow_to_GPE_,
prevTokenAndType=Conflict_around
arg=Karbala
evTypeArg=Transport:Iraqis
evTypeArg=Transport:tanks
arg=She
chunkPath=precede_have_to
anchor=unborn
prevTokenAndType=Movement_take
anchor=pled
arg=iraqi
anchor=retry
evTypeArg=Injure:West_Bank
evTypeArg=Transport:now
anchor=control/n
anchor=select
evTypeArg=Convict:he
arg=u.s
evTypeArg=Attack:tanks
synPathEvType=Movement_object-1:make:subject
evTypeArg=Transport:Baghdad
chunkPath=follow_when
evTypeArg=Transport:apartment
arg=civilian
arg=team
arg=U.N
synPathEvType=Life_of
chunkPath=follow_them_,
prevTokenAndType=Transaction_Werkheiser
arg=U.S
arg=company
arg=son
evTypeArg=Meet:minister
chunkPathAndType=Business_precede_to
prevTokenAndType=Justice_told
evTypeArg=Attack:village
arg=home
prevToken=that
arg=gaza
prevToken=than
arg=Bush
prevTokenAndType=Personnel_appoint
arg=himself
arg=government
evTypeArg=Be-Born:he
anchor=discussion/n
prevToken=across
prevTokenAndType=Contact_but
prevToken=reports
in
chunkPath=precede_be
prevTokenAndType=Movement_from
arg=ambassador
arg=space
arg=hotel
prevTokenAndType=Life_near
arg=crew
arg=guns
arg=future
prevTokenAndType=Business_the
anchor=defeat
prevTokenAndType=Transaction_--
prevToken=new
evTypeArg=Meet:them
chunkPath=precede_from
anchor=re/n
prevToken=get
synPathTypes=Transaction_PERSON_subject
evTypeArg=Attack:you
arg=its
prevToken=Hire
prevTokenAndType=Conflict_been
arg=today
evTypeArg=Meet:they
evTypeArg=Attack:coalition
prevToken=who
evTypeArg=Attack:British
evTypeArg=Transport:Israeli
evTypeArg=Die:US
anchor=action/n
arg=everyone
evTypeArg=End-Position:I
anchor=explosion/n
prevTokenAndType=Life_a
prevTokenAndType=Justice_against
prevToken=was
anchor=demonstrate
prevToken=way
evTypeArg=Transport:Monday
prevTokenAndType=Transaction_'s
evTypeArg=Attack:place
anchor=desert
anchor=convict
evTypeArg=Die:crew
evTypeArg=Transport:he
anchor=it/pro
arg=Chinese
arg=jerusalem
prevTokenAndType=Life_(
prevTokenAndType=Life_"
evTypeArg=Attack:artillery
prevTokenAndType=Life_.
anchor=september/n
evTypeArg=Transport:forces
prevTokenAndType=Life_)
anchor=buy
prevTokenAndType=Life_,
prevTokenAndType=Life_:
anchor=walk/n
arg=Werkheiser
anchor=former
chunkPathAndType=Justice_follow_
evTypeArg=Start-Position:I
anchor=spend
prevTokenAndType=Movement_toward
evTypeArg=Die:Iraqi
arg=Oracle
dist=12
dist=13
dist=14
dist=15
dist=16
anchor=retaliate
dist=17
prevToken=now
prevToken=not
dist=18
dist=19
evTypeArg=Attack:fighters
prevTokenAndType=Conflict_for
dist=10
dist=11
anchor=assassinate
chunkPath=precede_have
arg=lawyers
arg=ship
evTypeArg=Appeal:court
evTypeArg=Transport:it
evTypeArg=Injure:knife
arg=chief
prevTokenAndType=Transaction_out
evTypeArg=Attack:military
anchor=cost/n
arg=troop
evTypeArg=Transport:New_England
arg=victims
anchor=purchase
prevToken=Just
anchor=deadly
dist=24
dist=21
dist=20
prevToken=Boston
anchor=Trial
anchor=injured
prevTokenAndType=Conflict_hitting
chunkPathAndType=Personnel_precede_,
evTypeArg=Attack:boy
anchor=flight/n
anchor=blast/n
evTypeArg=Transfer-Money:he
prevTokenAndType=Contact_00
chunkPathAndType=Personnel_precede_be
chunkPathAndType=Conflict_follow_against
prevTokenAndType=Movement_going
anchor=try
prevTokenAndType=Contact_with
anchor=lift
evTypeArg=End-Position:general
evTypeArg=Attack:You
arg=force
evTypeArg=Meet:Washington
anchor=chop
evTypeArg=Transfer-Money:who
prevToken=meeting
prevToken=got
prevTokenAndType=Conflict_like
prevTokenAndType=Movement_after
anchor=acquittal/n
anchor=infiltrate
arg=Soviet
arg=suspect
arg=guys
prevToken=month
arg=Turkish
chunkPath=follow_in_GPE_,
prevTokenAndType=Contact_for
prevTokenAndType=Life_the
prevToken=be
prevToken=an
prevToken=as
prevToken=at
arg=Florida
chunkPathAndType=Movement_follow_of
prevToken=sell
chunkPathAndType=Conflict_precede_of
chunkPathAndType=Movement_follow_on
prevTokenAndType=Transaction_said
prevToken=``
prevTokenAndType=Movement_the
prevTokenAndType=Contact_between
arg=her
arg=military
arg=which
prevToken=arrested
anchor=bombings/n
arg=person
prevTokenAndType=Transaction_off
synPathEvType=Conflict_object-1:say:subject
chunkPathAndType=Transaction_follow_from
prevToken=led
prevToken=until
arg=governor
anchor=use
prevToken=n't
prevToken=let
evTypeArg=Attack:troops
Storm
evTypeArg=Attack:children
anchor=fundraising/n
arg=him
anchor=pittance/n
anchor=shot/n
anchor=rape
prevTokenAndType=Conflict_with
evTypeArg=Phone-Write:she
arg=father
chunkPathAndType=Movement_follow_to
arg=his
arg=Red_Bank
evTypeArg=Die:her
chunkPathAndType=Contact_follow_
prevToken=sent
prevToken=know
evTypeArg=Attack:man
evTypeArg=Transfer-Ownership:it
evTypeArg=Sentence:the_death_penalty
chunkPathAndType=Movement_precede_be
prevTokenAndType=Transaction_"
evTypeArg=Attack:nation
anchor=occupy
anchor=quit
chunkPathAndType=Business_follow_
prevToken=lost
prevTokenAndType=Transaction_,
prevTokenAndType=Transaction_.
evType=Business
prevTokenAndType=Transaction_:
prevTokenAndType=Personnel_quit
menType=PERSON
chunkPathAndType=Transaction_precede_be
prevToken=just
prevTokenAndType=Transaction_;
prevTokenAndType=Life_including
synPathEvType=Conflict_of
anchor=death/n
evTypeArg=Die:guns
arg=missiles
synPathEvType=Transaction_nameMod
prevTokenAndType=Movement_enter
anchor=offensive/n
chunkPath=follow_and
arg=employees
evTypeArg=Die:Arafat
arg=thousands
arg=Arafat
arg=those
evTypeArg=Meet:bush
anchor=nab
arg=They
anchor=travel
anchor=fighting/n
chunkPathAndType=Personnel_follow_as
evTypeArg=Die:last_week
arg=america
chunkPathAndType=Transaction_follow_
chunkPathAndType=Movement_follow_in
synPathEvType=Transaction_subject
arg=Scott_Peterson
prevToken=prevent
chunkPathAndType=Conflict_precede_be
evTypeArg=Sue:i
prevToken=US
evTypeArg=Attack:North_Korea
prevTokenAndType=Justice_when
arg=units
prevTokenAndType=Life_killing
arg=$81,615.42
prevToken=So
arg=your
arg=Sunday
evTypeArg=Attack:Republican_Guard
prevToken=because
evTypeArg=Sue:them
synPathEvType=Personnel_poss
evTypeArg=Arrest-Jail:he
arg=Wednesday
evTypeArg=Meet:Seoul
evTypeArg=Sue:they
arg=five_life_sentences
arg=journalists
prevTokenAndType=Conflict_into
arg=Tugle
anchor=retire
anchor=elections./n
arg=billions
evTypeArg=Start-Position:he
chunkPathAndType=Life_precede_and
prevTokenAndType=Movement_down
evTypeArg=Attack:country
evTypeArg=Meet:United_States
anchor=murder/n
chunkPathAndType=Conflict_follow_with
evTypeArg=Attack:Japan
prevTokenAndType=Business_in
evTypeArg=Attack:Army
anchor=appeal
evTypeArg=Transport:here
prevToken=BEGALA
arg=administration
evType=Justice
prevToken=On
prevTokenAndType=Life_while
evTypeArg=Die:president
evTypeArg=Meet:members
chunkPathAndType=Conflict_follow_,
anchor=be
arg=divisions
chunkPathAndType=Life_precede_have
anchor=conviction/n
evTypeArg=Attack:army
arg=our
synPathTypes=Conflict_PERSON_object
evTypeArg=Attack:state
evTypeArg=Attack:American
prevTokenAndType=Movement_but
prevTokenAndType=Conflict_saying
prevTokenAndType=Movement_Boston
anchor=slaughter
anchor=do
evTypeArg=Attack:men
evTypeArg=Attack:boys
prevTokenAndType=Personnel_the
prevToken=When
evTypeArg=Start-Position:they
arg=this_morning
evTypeArg=Attack:israel
anchor=birth/n
anchor=kick
prevTokenAndType=Transaction_a
arg=insurgents
evTypeArg=Transport:7th_Cavalry
anchor=give
prevToken=make
arg=Niagara_Falls
prevTokenAndType=Business_of
evType=Contact
arg=Northern_Ireland
anchor=out-raised
anchor=go
anchor=kill
chunkPath=precede_get
evTypeArg=Die:Yasser_Arafat
anchor=hear
anchor=head
anchor=mutilate
prevToken=If
prevTokenAndType=Justice_'s
evTypeArg=Sue:companies
prevToken=In
evTypeArg=Die:him
evTypeArg=Die:we
arg=officers
anchor=lawsuit/n
anchor=fly
chunkPathAndType=Conflict_precede_to
arg=tank
anchor=join
arg=former
synPathTypes=Contact_PERSON_object
chunkPathAndType=Personnel_follow_to
evTypeArg=Die:civilians
arg=Ellison
arg=youth
evTypeArg=Arrest-Jail:we
prevToken=more
evTypeArg=Die:soldier
evTypeArg=Attack:area
prevTokenAndType=Conflict_alongside
arg=one
arg=Iraqis
evTypeArg=Meet:Pyongyang
prevToken=use
prevToken=create
prevTokenAndType=Business_to
prevTokenAndType=Justice_--
anchor=reach
anchor=custody/n
arg=Greg_Werkheiser
prevToken=As
prevToken=At
menType=Age
evTypeArg=Elect:you
arg=airport
anchor=punch
prevTokenAndType=Transaction_paying
anchor=retreat
prevToken=believe
arg=reporters
synPath=object-1:say:subject
evTypeArg=Attack:weapons
prevToken=engage
prevToken=:
anchor=s
evTypeArg=Transfer-Money:him
chunkPathAndType=Life_follow_
prevToken=;
synPathTypes=Life_PERSON_subject
prevToken=?
evTypeArg=Transport:people
evTypeArg=Transfer-Money:$10,500
prevToken=(
arg=world
prevToken=)
prevToken=,
prevToken=.
prevToken=-
evTypeArg=Transport:Kuwait
evTypeArg=Attack:he
synPathTypes=Contact_PERSON_poss
synPathTypes=Movement_GPE_object
evTypeArg=Transfer-Ownership:company
arg=1991
arg=1994
prevToken="
anchor=eliminate
arg=1999
anchor=atrocity/n
chunkPathAndType=Conflict_precede_have
anchor=cross
prevToken=person
prevToken=evading
evTypeArg=Attack:They
anchor=e
receiv
prevTokenAndType=Movement_see
prevTokenAndType=Contact_told
arg=spokesman
anchor=create
anchor=wound
evTypeArg=Attack:Israeli
evTypeArg=Attack:it
prevToken=a
arg=Netanya
evTypeArg=Transport:unit
anchor=War
prevToken=leading
anchor=call/n
prevToken=selling
prevToken=through
anchor=take
arg=more
synPathTypes=Personnel_ORGANIZATION_subject
evTypeArg=Sentence:his
prevToken=since
anchor=due
anchor=talks/n
evTypeArg=Charge-Indict:they
evTypeArg=Sentence:him
anchor=seize
evTypeArg=Meet:we
prevToken=met
prevTokenAndType=Personnel_which
synPathEvType=Personnel_object
anchor=talk
evTypeArg=Meet:today
arg=forces
chunkPathAndType=Movement_precede_have
anchor=casualty/n
prevToken=their
evTypeArg=Elect:country
prevToken=time
arg=employee
anchor=airstrikes/n
prevTokenAndType=Conflict_fired
arg=bombs
menType=Crime
evTypeArg=Attack:guns
chunkPathAndType=Justice_precede_,_be
chunkPathAndType=Personnel_follow_from
anchor=break
anchor=appointment/n
synPath=subject
arg=NBC
anchor=sale/n
chunkPath=follow_between
arg=Texas_Ave
chunkPathAndType=Personnel_follow_GPE
evTypeArg=Attack:Iraq
evType=Transaction
arg=warplanes
evTypeArg=Attack:Iran
anchor=suit/n
anchor=grab
prevTokenAndType=Transaction_acquire
chunkPath=precede_'s
arg=another
prevTokenAndType=Justice_keep
anchor=force/n
arg=shareholders
anchor=arrest/n
evTypeArg=Attack:person
prevTokenAndType=Movement_Leave
anchor=war
arg=children
prevTokenAndType=Justice_for
prevToken=murdering
prevTokenAndType=Life_after
evTypeArg=Transport:Bush
anchor=negotiation/n
arg=competitors
arg=village
prevToken=to
evTypeArg=Transfer-Ownership:they
anchor=case/n
anchor=election/n
anchor=hurt
anchor=when
prevTokenAndType=Movement_until
anchor=bite
prevToken=so
prevToken=spend
arg=area
prevTokenAndType=Conflict_outside
arg=base
arg=cabinet
anchor=found
evTypeArg=Attack:me
prevToken=take
arg=missile
arg=jordan
anchor=Hire
prevTokenAndType=Life_say
prevToken=uh
chunkPath=precede_for
arg=North_Korea
prevToken=there
prevToken=up
evTypeArg=Die:wife
prevTokenAndType=Movement_when
found
prevToken=or
prevToken=throwing
anchor=come
prevTokenAndType=Conflict_from
anchor=roll/n
arg=gun
prevTokenAndType=Personnel_with
anchor=gunfire/n
prevToken=on
prevToken=of
prevTokenAndType=Justice_by
prevTokenAndType=Justice_from
chunkPathAndType=Movement_follow_from
anchor=fund
anchor=win
prevTokenAndType=Justice_as
prevTokenAndType=Justice_at
prevToken=place
evTypeArg=Attack:we
prevTokenAndType=Business_that
evTypeArg=Attack:Saturday
prevTokenAndType=Justice_an
arg=Monday
anchor=overthrow
prevToken=among
anchor=storm
prevTokenAndType=Conflict_near
arg=Toefting
arg=guy
anchor=donation/n
arg=Weldon
arg=army
evTypeArg=Transport:I
prevToken=leaving
arg=island
evTypeArg=Attack:city
prevTokenAndType=Life_think
prevTokenAndType=Life_'s
anchor=flee
evTypeArg=Transport:i
evTypeArg=Transport:complex
anchor=aid/n
menType=ORGANIZATION
arg=headquarters
prevTokenAndType=Transaction_get
prevToken=knew
prevTokenAndType=Justice_find
synPathEvType=Transaction_object
evTypeArg=Arrest-Jail:you
prevTokenAndType=Conflict_world
chunkPathAndType=Movement_follow_by
anchor=cost
evTypeArg=Convict:they
prevToken=like
evTypeArg=Transfer-Ownership:their
anchor=become
evTypeArg=Attack:us
evTypeArg=Meet:he
prevToken=drop
arg=Marines
arg=arms
chunkPathAndType=Movement_follow_
arg=yesterday
prevToken=quit
prevTokenAndType=Contact_call
anchor=bloodshed/n
anchor=emailed
prevTokenAndType=Life_--
prevTokenAndType=Personnel_.
prevTokenAndType=Personnel_)
prevTokenAndType=Personnel_,
arg=pentagon
arg=opponents
prevTokenAndType=Personnel_:
prevToken=Leave
chunkPathAndType=Justice_follow_to
prevTokenAndType=Justice_with
prevToken=he
anchor=contact
arg=SW_Parkway
synPathTypes=Conflict_VEH_object
prevTokenAndType=Justice_if
prevToken=in
prevTokenAndType=Justice_in
evTypeArg=Transport:Texas_Ave
evTypeArg=Phone-Write:they
prevTokenAndType=Personnel_a
prevToken=if
anchor=not
anchor=rumble
prevToken=reason
prevToken=between
prevToken=though
prevTokenAndType=Justice_he
prevToken=is
evTypeArg=Attack:U.S
evTypeArg=Transport:home
prevTokenAndType=Justice_of
menType=LOCATION
arg=Tuesday
arg=sons
prevToken=by
anchor=serve
prevTokenAndType=Justice_on
prevTokenAndType=Justice_or
menType=FACILITY
evTypeArg=Elect:president
prevToken=asked
arg=Palestinians
prevTokenAndType=Contact_who
evTypeArg=Attack:Indonesia
prevToken=support
evTypeArg=Demonstrate:protesters
prevToken=do
one
prevTokenAndType=Movement_Falls
prevTokenAndType=Contact_that
arg=cars
arg=some
anchor=back
anchor=demonstration/n
prevTokenAndType=Transaction_about
arg=buildings
evTypeArg=End-Position:they
anchor=end
evTypeArg=Attack:now
arg=baby
anchor=deployment/n
prevToken=around
arg=you
evTypeArg=Attack:baghdad
evTypeArg=Transport:where
chunkPathAndType=Conflict_follow_
prevTokenAndType=Movement_into
prevTokenAndType=Justice_to
prevToken=acquire
prevToken=with
arg=marines
prevToken=the
anchor=out
chunkPathAndType=Justice_follow_of
prevToken=from
synPathTypes=Conflict_GPE_nameMod
evTypeArg=Convict:I
chunkPathAndType=Conflict_precede_'s
arg=United_States
arg=Michael_Kelly
prevTokenAndType=Personnel_when
evTypeArg=Die:she
prevToken=down
evTypeArg=Demonstrate:people
prevToken=Werkheiser
chunkPath=precede_say_be
evTypeArg=Attack:He
anchor=pardon
anchor=roll
prevTokenAndType=Conflict_forces
anchor=gun
prevTokenAndType=Conflict_against
anchor=withdraw
prevTokenAndType=Business_get
anchor=injury/n
evTypeArg=Meet:US
evTypeArg=Attack:administration
anchor=marriage/n
anchor=war/n
arg=them
evTypeArg=Attack:who
arg=he
arg=they
arg=commanders
arg=Seoul
arg=what
arg=Putin
anchor=trip/n
prevToken=only
prevTokenAndType=Personnel_what
prevTokenAndType=Life_just
anchor=sink
anchor=waste/n
arg=Pyongyang
synPathEvType=Conflict_nameMod
evTypeArg=Transport:friends
arg=Coca-Cola
arg=mortars
prevTokenAndType=Movement_through
prevToken=once
prevToken=either
anchor=summit/n
prevTokenAndType=Contact_to
evTypeArg=Attack:Palestinian
chunkPath=precede_who
prevToken=Although
arg=that
evTypeArg=Attack:buildings
prevToken=The
anchor=enter
arg=coalition
evTypeArg=Attack:George_W._Bush
anchor=poison
chunkPathAndType=Justice_follow_in
synPathEvType=Movement_poss
arg=India
prevTokenAndType=Conflict_left
anchor=pay
prevTokenAndType=Justice_faces
arg=members
chunkPathAndType=Justice_follow_by
evTypeArg=Transport:officials
arg=stronghold
arg=store
anchor=funnel/n
arg=troops
arg=Police
chunkPath=follow_off
synPathTypes=Justice_PERSON_object
prevTokenAndType=Transaction_and
evTypeArg=Arrest-Jail:people
anchor=resignation/n
prevTokenAndType=Life_murdering
anchor=transport
evTypeArg=Meet:their
prevToken=before
prevToken=including
arg=location
prevTokenAndType=Contact_of
anchor=campaign/n
chunkPathAndType=Conflict_precede_
evTypeArg=Transport:Red_Bank
prevTokenAndType=Contact_on
arg=demonstrators
synPathTypes=Conflict_PERSON_subject
evTypeArg=Meet:U.S
evTypeArg=Transfer-Money:I
prevTokenAndType=Contact_in
menType=WEA
prevTokenAndType=Movement_''
synPathTypes=Conflict_PERSON_poss
prevTokenAndType=Contact_said
prevTokenAndType=Business_and
synPathTypes=Contact_PERSON_subject
arg=Washington_State
prevToken=named
prevToken=are
prevToken=And
arg=vehicles
arg=palestinian
evTypeArg=Attack:US
evTypeArg=Attack:diplomats
arg=council
anchor=invade
synPathTypes=Movement_PERSON_poss
prevTokenAndType=Conflict_but
prevToken=and
anchor=jail
synPathTypes=Movement_PERSON_object
anchor=fold
anchor=bankruptcy/n
arg=tomorrow
prevTokenAndType=Life_In
synPathTypes=Justice_ORGANIZATION_object
anchor=convene
evTypeArg=Transfer-Ownership:him
arg=US
evTypeArg=Transfer-Money:$81,615.42
prevToken=lawyers.
evTypeArg=Sentence:you
evTypeArg=Die:U.S
evTypeArg=Sentence:he
prevToken=gave
evTypeArg=Attack:one
arg=New_York
evTypeArg=Sentence:they
anchor=leave
evTypeArg=Phone-Write:you
evTypeArg=Attack:Washington
evTypeArg=Transport:New_York
anchor=torture
anchor=capture/n
arg=both
anchor=kidnap
prevToken=whether
evTypeArg=Attack:We
arg=attorney
anchor=Q&amp;A
prevTokenAndType=Conflict_give
arg=We
prevTokenAndType=Justice_him
prevTokenAndType=Business_out
prevToken=paying
evTypeArg=Transfer-Ownership:coalition
chunkPath=follow_
anchor=dismiss
arg=Indonesia
anchor=hit
evTypeArg=Elect:who
prevToken=give
evTypeArg=Attack:I
prevTokenAndType=Justice_the
prevTokenAndType=Conflict_On
synPathEvType=Contact_object
arg=He
anchor=choke
prevToken=which
arg=someone
prevTokenAndType=Personnel_said
prevToken=about
arg=murdering_his_wife_Laci_and_their_unborn_son
anchor=acquire
prevTokenAndType=Contact_as
prevTokenAndType=Contact_at
arg=It
anchor=letter/n
evTypeArg=Attack:group
prevTokenAndType=Contact_be
arg=boys
prevTokenAndType=Conflict_see
prevToken=leader
prevTokenAndType=Contact_by
evTypeArg=Meet:you
arg=many
evTypeArg=Die:journalists
menType=Sentence
arg=Saint_Petersburg
synPathEvType=Life_poss
synPathEvType=Contact_subject
anchor=attack
anchor=uprising/n
evTypeArg=Die:people
menType=GPE
prevToken=all
chunkPath=precede_would
prevToken=Former
synPathTypes=Personnel_PERSON_subject
prevToken=former
chunkPathAndType=Transaction_follow_to
evTypeArg=Attack:our
anchor=smuggle
arg=mob
arg=industries
evTypeArg=End-Position:he
synPath=nameMod
prevToken=carrying
anchor=prosecution/n
prevToken=Seoul
arg=tanks
prevTokenAndType=Movement_--
prevToken=million
evTypeArg=Transport:troops
evTypeArg=Transfer-Money:they
anchor=launch/n
prevTokenAndType=Conflict_say
anchor=precede
prevTokenAndType=Conflict_In
prevToken=been
prevToken=fire
evTypeArg=Transfer-Money:i
evTypeArg=Attack:which
arg=mother
evTypeArg=Attack:Bush
prevToken=paid
prevTokenAndType=Movement_around
prevToken=find
chunkPathAndType=Transaction_precede_
prevTokenAndType=Contact_have
prevTokenAndType=Conflict_killed
evTypeArg=Attack:Pearl_Harbor
chunkPathAndType=Life_follow_of
chunkPath=follow_,
evTypeArg=Transport:Mars
anchor=battle/n
prevTokenAndType=Personnel_for
arg=Friday
anchor=donate
anchor=have
arg=grandmother
arg=Gaza
arg=Turkey
evTypeArg=Phone-Write:us
prevTokenAndType=Transaction_selling
prevToken=destroying
evTypeArg=Transfer-Ownership:US
prevToken=while
prevToken=see
arg=inspectors
evTypeArg=Declare-Bankruptcy:his
chunkPathAndType=Conflict_precede_have_be
prevToken=stop
prevTokenAndType=Movement_)
prevTokenAndType=Movement_,
evTypeArg=Attack:Baghdad
anchor=pummeled
prevTokenAndType=Conflict_that
arg=place
prevTokenAndType=Movement_"
anchor=revolution/n
arg=court
evTypeArg=Transfer-Ownership:weapons
anchor=assault/n
chunkPath=follow_deplete_division
evTypeArg=Attack:youths
prevTokenAndType=Movement_.
anchor=slice/n
synPathTypes=Movement_GPE_subject
arg=Toronto
anchor=deploy
chunkPathAndType=Life_follow_,
arg=minister
anchor=ex/n
anchor=advance/n
anchor=charge/n
arg=knife
arg=life
arg=unit
evTypeArg=Transport:Iraq
prevToken=say
chunkPath=follow_a
evTypeArg=Attack:Sunday
prevTokenAndType=Movement_a
arg=who
arg=Russia
prevToken=bring
arg=Pakistan
arg=territory
prevTokenAndType=Life_at
anchor=raid/n
chunkPath=precede_PERSON
synPathTypes=Conflict_GPE_object
prevToken=outside
anchor=insurrection/n
anchor=phone/n
prevTokenAndType=Life_an
chunkPath=precede_have_be
arg=3rd_Infantry_Division
prevTokenAndType=Life_killed
arg=Who
prevTokenAndType=Conflict_then
prevTokenAndType=Life_said
synPathEvType=Conflict_subject
prevTokenAndType=Life_do
prevTokenAndType=Contact_from
prevTokenAndType=Life_by
prevTokenAndType=Personnel_that
prevToken=reported
evTypeArg=Attack:people
evTypeArg=Attack:her
synPathEvType=Conflict_object
evTypeArg=Attack:regime
chunkPathAndType=Transaction_follow_by
arg=Iran
arg=party
prevTokenAndType=Conflict_when
prevTokenAndType=Transaction_that
synPathTypes=Justice_PERSON_poss
arg=Iraq
prevTokenAndType=Transaction_than
anchor=Leave
chunkPathAndType=Business_precede_
evTypeArg=Transport:today
anchor=voyage/n
evTypeArg=Transport:some
arg=New_England
evTypeArg=Attack:West_Bank
synPathTypes=Transaction_PERSON_object
arg=brother
evTypeArg=Transport:base
evTypeArg=Attack:him
evTypeArg=Attack:his
anchor=crossfire/n
prevTokenAndType=Life_in
prevTokenAndType=Movement_said
anchor=nominate
prevTokenAndType=Life_if
evTypeArg=Transport:country
evTypeArg=Attack:Germany
prevTokenAndType=Life_that
arg=Now
synPathEvType=Life_object
prevTokenAndType=Conflict_''
arg=street
anchor=murder
anchor=goto
prevToken=forces
evTypeArg=Transfer-Ownership:he
arg=center
arg=18
evTypeArg=Attack:leaders
prevToken=--
evTypeArg=Elect:Iraq
evTypeArg=Transport:she
prevTokenAndType=Life_dumped
evTypeArg=Attack:countries
prevToken=run
evTypeArg=Attack:Iraqis
chunkPath=precede_will
prevToken=what
anchor=support
anchor=advance
chunkPathAndType=Life_follow_PERSON_and
prevTokenAndType=Movement_over
arg=executive
arg=Germany
anchor=represent
evType=Conflict
arg=fifty_cent
anchor=charge
prevTokenAndType=Conflict_The
anchor=lose
arg=Albo
arg=Saddam_Hussein
synPathEvType=Personnel_subject
anchor=acquisition/n
anchor=arrive
evTypeArg=Attack:civilian
chunkPathAndType=Life_follow_by
anchor=lumber
anchor=Fall
prevToken=but
prevToken=buy
prevToken=00
arg=outskirts
evTypeArg=Transport:president
anchor=push/n
chunkPathAndType=Conflict_follow_for
prevToken=serving
arg=girl
evTypeArg=Elect:recent
evTypeArg=Attack:they
anchor=pour
evTypeArg=Attack:them
anchor=sentence
arg=Umm_Qasr
prevTokenAndType=Conflict_which
evTypeArg=Transport:Austin
anchor=get
prevToken=president
arg=Kuwait
anchor=dead
prevTokenAndType=Personnel_Hire
evTypeArg=Transport:hospital
prevTokenAndType=Transaction_the
anchor=support/n
arg=hospital
arg=prison
evTypeArg=Attack:Iraqi
anchor=fire/n
prevTokenAndType=Conflict_the
evTypeArg=Elect:him
synPathTypes=Life_PERSON_object
evTypeArg=Phone-Write:her
arg=uncle
chunkPath=precede_,_be
evTypeArg=Transport:Welsh
anchor=traveling/n
evTypeArg=Attack:Americans
arg=Ernie_Pyle
anchor=resistance/n
arg=ministry
arg=China
evTypeArg=Die:Marines
prevTokenAndType=Life_to
evTypeArg=Transport:capital
arg=american
evTypeArg=Transfer-Money:$67,814.09
prevTokenAndType=Transaction_sold
prevTokenAndType=Personnel_up
evTypeArg=Transport:Niagara_Falls
anchor=put
evTypeArg=Attack:gun
prevTokenAndType=Contact_a
anchor=return
prevToken=''
prevTokenAndType=Conflict_'s
chunkPath=precede_,_PERSON
chunkPathAndType=Personnel_precede_have
prevTokenAndType=Personnel_to
arg=Japan
anchor=picket
chunkPathAndType=Conflict_follow_deplete_division
evTypeArg=Transport:U.S
evTypeArg=Die:sniper
anchor=clear
prevToken=world
anchor=shooting/n
arg=Americans
prevTokenAndType=Contact_"
prevTokenAndType=Life_of
arg=country
prevTokenAndType=Contact_,
chunkPath=precede_,
chunkPath=precede_-
prevTokenAndType=Contact_.
prevTokenAndType=Contact_-
prevToken=forcing
prevTokenAndType=Life_on
arg=now
prevTokenAndType=Life_or
evTypeArg=Attack:hamas
anchor=assault
anchor=shed
chunkPathAndType=Life_follow_in
prevToken=when
anchor=loss/n
prevTokenAndType=Conflict_while
anchor=blow
prevTokenAndType=Conflict_--
prevTokenAndType=Movement_with
prevToken='s
prevTokenAndType=Justice_:
synPathTypes=Transaction_WEA_object
anchor=acquit
evTypeArg=Transport:mars
synPathTypes=Conflict_WEA_subject
prevTokenAndType=Life_kill
chunkPath=precede_go_to
chunkPathAndType=Life_precede_'s
synPathEvType=Business_object
chunkPathAndType=Justice_precede_have_be
synPathTypes=Movement_VEH_object
synPathTypes=Conflict_GPE_subject
evTypeArg=Meet:tomorrow
chunkPath=precede_did
chunkPathAndType=Life_precede_have_be
chunkPath=follow_over
chunkPathAndType=Personnel_follow_in
prevTokenAndType=Contact_meeting
synPathTypes=Business_ORGANIZATION_object
synPathTypes=Conflict_FACILITY_object
prevTokenAndType=Justice_arrested
prevToken=leave
prevTokenAndType=Justice_get
synPathTypes=Transaction_ORGANIZATION_subject
synPathTypes=Justice_ORGANIZATION_subject
prevToken=Trial
chunkPathAndType=Conflict_precede_go_to
arg=mars
anchor=carry
chunkPath=follow_:
synPathTypes=Transaction_FACILITY_object
chunkPathAndType=Justice_follow_for
prevTokenAndType=Movement_leave
arg=plane
arg=bomber
5.089971077203847
6.071683218007592
20.494336050130315
14.182165372561164
7.513057012579171
9.463870054645877
12.44247958434186
6.832697559445365
7.879788343385037
4.200467981969689
3.6151149587858957
6.728304952662745
5.574866882970088
12.153398512215624
6.930072952425051
6.900133371355139
13.555380390275218
12.348632442869793
6.481163616651107
7.031921403120717
8.197070505487442
3.3198739367315158
3.7461458926990616
12.295064789072152
19.584005956576117
6.712521253053852
14.227301456313423
16.077719258617847
13.196640932013635
11.159594559651723
20.190536151001997
6.872421948107453
4.211492944985254
5.301826392278027
2.830267925310981
22.828112295157197
5.769233349722212
5.72888507398002
3.64833654867984
9.353600669619638
6.486558309549667
7.213578253609352
4.500325026673833
11.051719989155515
11.318156018455554
6.727264954736639
8.50772091949917
19.407782540986027
3.0769312491402365
4.072418501175188
10.049712161864145
9.763118086705195
6.450316449094932
11.876842734556815
3.006887250673471
4.979345857284785
11.936723538372286
10.741691787562289
14.402830589042047
6.360899280355279
21.882394911195995
15.584050145947646
8.77693050428972
13.583186823848758
10.741691787562289
6.26923861566024
10.137265077332644
3.966686773950046
8.83933658100769
7.440851768706203
5.183467668081162
6.860587820226699
26.208042168702185
5.913233535400908
20.16371306747757
8.593999997584632
6.670418402845558
13.119102366114394
5.936832379886942
11.988407951817065
7.012517442729793
5.791590554928035
3.300659633859105
4.420426083502779
11.193951527896166
10.963887313873636
14.093527141148389
11.585958634926916
6.783292467727714
3.8479834056800195
3.594627455536553
6.46390990247405
8.861680511760127
3.6287109485568845
11.988407951817065
9.202412862237539
7.0735225726344435
11.427473929843332
23.331872895744432
3.578751472748292
17.669209561862083
8.278742407680339
5.267199221114163
4.375202380507066
6.860587820226699
3.6698897289724766
8.392129870996675
6.252032317323417
6.731437628789315
10.64402012017609
7.242312959195203
4.658205266863591
6.441264639802705
5.189629126748262
2.7973680050549956
6.153206921415387
11.53778101926245
12.565885165709744
5.349105117158527
10.813026892470596
12.60025432656559
13.001491956517608
18.20018224452045
11.834144531709402
2.0009982229013303
9.656858965003726
7.3863521686969325
24.265574503832294
6.385694561864532
12.218750529541733
9.134533229558748
9.391438396201012
8.824699896358476
4.629433028087469
13.136721792261696
5.93587732273926
7.683311814652411
5.169176900924388
9.342800309216173
3.0769312491402365
26.16039503719069
5.09299127932719
9.987637612823162
8.820482812727526
8.635236318085198
7.372955872010861
8.092099274646628
10.070098482206445
10.984255597407515
12.468276859973908
8.372151247427812
9.487201950773873
8.93010238020506
7.423325492308298
6.735733552984049
3.966686773950046
7.248441409299891
10.899460595461166
2.238206159810152
9.645611161832631
10.388939521257107
6.8551387858515
14.457285218248753
7.116777962294417
4.514573893999211
12.776531742523142
3.5742351291134185
7.329206978845394
9.329433367146782
7.104989144178035
6.860587820226699
6.615988681924696
19.86631513989682
6.466517634420408
5.762325108978885
6.741568201452793
5.657702533205384
9.656858965003726
10.693023798194664
18.755982545864576
11.430967708907158
9.821582871906271
5.396165946600321
4.570575633677148
16.768522956590225
11.271348043481963
13.447904059326893
3.3918947803717194
6.484943594452875
8.842156842056022
7.879788343385037
14.027708272887567
5.9477997033770915
8.385605654122699
10.881866749073751
8.149307179212377
15.01807155691256
2.7598083814641616
23.055118480925486
4.74931586475567
3.3198739367315158
17.917752652942553
5.791590554928035
5.546904256482867
3.788849363007593
10.936825603838269
10.50786679319199
5.560377480213145
5.172317126135808
5.580118473745591
6.900133371355139
12.865722697318002
9.076047485292225
7.812455518000043
8.123320396759457
11.610274052224828
9.403907020510799
3.4786216179088685
5.195517726363779
8.776348853034646
7.0735225726344435
5.37039374938479
12.015477755465874
8.430295339083123
24.394215393341376
10.512518135548984
5.982343704763473
8.264060068878216
7.047563341893049
16.37483736639729
7.776997733605516
11.16059751466727
9.724646125977038
8.96857925675661
11.198550159074465
10.314221436652248
9.543944079120857
10.406919223865625
5.791590554928035
3.266871640088439
10.862868918383246
12.47559877631518
9.423519108549105
13.467216809711424
9.010312726672911
11.960991516997197
13.503775545326398
11.379996336502915
14.174395236217443
9.505980680891671
10.660774605641784
3.0521497034681366
14.894691735304551
2.954352536171213
19.254984571764904
4.2290997145253435
5.306895684519311
7.821248039457771
3.855572729396785
7.159201628398951
8.015687362480795
11.216198612493757
10.710363814436088
12.714490410752
6.803854502159606
7.382396445326581
3.594627455536553
2.7754774681329772
7.881461903574301
5.328324958816867
17.49274431029155
5.791590554928035
4.192067330728792
14.919721277431485
5.567454512283328
6.063993415180688
8.046338540653881
10.72352205143093
8.77693050428972
6.712521253053852
24.30195489743026
10.592590509606389
4.974836310296652
6.670418402845558
11.693599976298511
8.298215774711501
4.793444372513868
13.301600246089336
6.8573913341403845
11.017512387680044
5.829929874207176
8.365013924792036
6.997774729989807
6.925878386690217
18.459294568112494
2.6050786851112298
4.2290997145253435
7.182888443686366
9.747001491493634
7.85988971633687
7.031921403120717
8.981813953947922
7.704280059048527
10.836114413740216
3.3155462495047954
4.207740668443771
3.64833654867984
11.754216033158885
19.407782540986027
7.129062601227139
6.332732213766921
4.784102177863538
13.973702908697227
7.985111702778303
7.934500159803251
8.432820722145376
7.628126143844204
5.502211060907653
11.231447774370022
12.123322934136084
13.854272274981561
8.3807355977535
13.225593680704012
3.209499459227625
5.328324958816867
3.889129417490108
12.867920639061984
8.41400858900575
16.875226109004263
11.222498856627762
12.221832378882503
7.031921403120717
7.561106970983319
4.990939042920495
4.821357924953333
12.348632442869793
14.309107376837904
4.349286992410379
15.457928753051874
10.79453586118592
10.999701211268563
20.704700410693835
6.588907671907079
9.451956131848135
3.065358014496546
3.7388029736350727
3.3839713301368857
5.590845909674523
10.633760843561731
6.450316449094932
2.948905757072172
3.5684087152259147
5.098290471316002
3.8267350850918196
16.98053874673689
6.054058289194616
5.504899755117528
16.984143539260625
3.0346874741206684
6.37092244007355
21.693063401569077
7.182888443686366
6.513855032464777
14.036074738206553
13.245378666442102
9.241525651570267
14.627492411535627
11.610778857509407
16.866347206902827
9.087836243406699
6.987357363114232
8.462538185353562
13.493165523609141
8.767309077703965
11.995282351115113
12.676068741130667
5.189629126748262
3.065358014496546
10.782698814635873
9.843499474620794
5.794187453907258
13.924082023629376
6.345299865426009
14.616063534260842
24.96644707997599
4.334483326209455
8.831931738315433
27.09115729630109
14.631053757736497
11.686786560534934
6.549973688419447
3.6287109485568845
6.208560364774854
10.007480583887485
2.8614398312699176
12.565885165709744
6.271201366183883
8.149307179212377
17.49515756959339
8.309007285927901
5.4052307664162935
14.67876276821915
9.353600669619638
7.031921403120717
10.163731019925981
7.82369800678644
7.008059458858629
5.792733571704222
7.812455518000043
18.990987965788637
7.353955488630563
3.6769008315263543
10.369387210324001
19.40296558458085
15.708005865761685
6.997774729989807
8.365013924792036
8.491476211228367
7.2102429846010025
4.734684480251159
6.8573913341403845
9.061764864789318
5.967385184022086
5.7880974107525045
3.505477005421225
9.690690157287989
3.2205652959563036
8.428284442775189
4.055787340573087
6.7662911197868585
7.585844277863833
6.8383259806063865
5.34539337647933
6.441264639802705
7.034410653463524
4.213649641183274
5.99975437310009
5.865534462615094
16.529587913158814
9.527577118299428
8.304569765093312
6.493723922502886
22.98914964204528
8.953072680879067
6.1074742717320625
6.989842058663341
13.943452539135977
13.993346690568258
11.071290369731827
11.848149307071154
9.680291814550468
15.428084146857026
11.587417168076128
15.036693041836541
2.7598083814641616
5.947188442650002
6.6715638423209445
5.613559987891933
4.75599857049855
2.4293125024808213
21.334599002169796
9.122356324448704
3.274057340258488
6.6715638423209445
8.123320396759457
15.584050145947646
11.823790616859363
6.871014822262647
10.888787298965088
1.9999446811166326
17.14840895897473
8.293075399795637
3.7461458926990616
5.708373425016697
11.386841508875573
4.444475244852672
7.465130073449366
2.066906191512586
4.556977590290659
-0.5527709885003493
1.0051228674133181
0.2150246519901251
0.961501403188494
-4.6820057887610655
5.174861473567246
6.770600541279597
-22.273768473863264
3.5939298422587527
-14.671511827703986
-13.363382023874546
27.170389023275604
1.1455829310531056
-1.3250010017022853
1.8648550119774248
-12.816363028305666
0.6958117068084233
-0.47698151279211287
2.501599062177924
-11.379305700715102
0.32484884152437377
0.3918165111614515
-11.683867925797886
3.033877342616039
4.010554096877363
-4.780512045275604
1.2956383301063785
-2.849618515475266
-0.3751874074986221
3.037743200881997
-0.13524469826714514
1.0909482461524826
-3.1717223337744302
3.1475232268465962
-1.0277604680286492
5.699354102842331
-3.7360112612795335
3.5836162900947826
-24.1608711631002
16.321936237723587
3.0284454113044097
-11.325890412227942
-3.4064328809622673
17.114548708374578
-10.75288279527673
8.76862892992154
-2.1450643689540536
3.2661392481117755
-5.305162300533783
1.6256201152595664
-12.131441365471588
9.729165933328492
1.453312757826395
-2.643305904480584
-7.83479971302798
14.699247305601595
-0.03234365991822852
1.3005894925177777
-0.1814951676380856
0.3311422341045295
5.43360795264685
-16.527796941824658
-12.45418651150575
7.800434824987913
-5.271887744858302
4.632221579824526
2.6195539036169047
-14.819836401720934
1.201722236489697
-3.033748459459686
-5.860556314843713
4.919148713999482
-4.0233962805343335
4.451725613866736
-2.4064533501037624
7.30489939757061
-8.789709536388958
12.605092049284298
1.0930662701219358
-2.778652869329976
-1.4334939867438927
4.794529041736913
-14.62883601042007
8.8598441139338
4.58873563987421
-17.82289022062831
-29.082145882565403
7.968224926426928
-0.5536512155806506
9.815069129771494
-8.110975551437699
1.820763987530432
-8.422644718381559
9.44094971568563
0.690587352654946
-1.0147343411604242
4.183496580446803
-14.038444475940317
5.391294221993627
-23.857857588529104
-1.7106193524805433
4.916222960718225
0.39925502761355247
-0.6286807235487695
4.16036031957775
-8.763898546999167
0.8499652924291807
-1.9413682249127384
1.4523547768478073
-2.519379168288528
3.290687085159693
-10.623709253740502
3.889781248766017
-8.580480203752305
-3.5571994737023385
3.362679657565571
-4.118609862209106
6.4966760314096526
6.424096469040966
-2.1211226203687783
-1.403632974792955
10.222248386824317
1.5441924620625573
-6.25090669354952
-12.773084951139873
10.796893883048243
7.6207934832868975
-4.143847220040615
2.2318867807924523
-7.438003999984121
0.6303450325392803
-0.6290678790472979
-12.997944661137318
2.7869464594393634
1.2758468298250534
-3.255122729101323
-9.71329245494395
9.266892601033838
-2.940355325844206
10.3658823950386
-14.994370387633777
5.589594023675523
13.311547228231174
-7.582573899577197
0.1523874512239587
1.4552001801012424
0.7295050778387786
0.85975653204238
-17.58180133814414
12.667197946578186
-10.136614138740695
6.224819681718159
-4.2748914614919435
1.8498374331675618
-5.488473930559556
6.324471263580374
5.381295146652851
-21.171211194809473
1.7957575828684664
-2.9070487092073956
-3.004576470947164
4.006773757738615
2.7533254896996975
-16.89679668042689
2.3952714260289376
-13.159970498601998
-1.6680143527777567
3.655778085309648
4.670897241608754
-21.546149661657278
3.0614681793317757
-12.009429351915195
3.341328539729307
-15.931122397483175
5.833375609314851
-7.49712202556822
3.465987113897306
-18.889820215470046
1.6757374774392189
-3.6599348921108996
4.684334341748645
-11.457296878221527
2.5443988647854603
-12.349590100290492
-0.9357456269016016
7.4309041819338
21.737633849277962
-12.391140813538453
0.14930812757342826
1.2070815445682412
-2.193878876084092
7.800467029992123
-10.146082686317909
8.449873193994726
-3.2642626724512214
1.3789965934374826
1.0375097339637138
-2.004283783329817
-5.029342187771431
11.453220531061588
-1.6680143527777567
3.655778085309648
-6.1756966745798385
7.0988833977379215
-5.719804632345312
6.9874800347154284
-3.7969047379965257
8.715552533912945
0.33454590429344977
-0.37227794223372346
-1.9226511832858915
3.567556535555762
0.335264605006226
1.7458209703013932
-14.157962391609802
9.022127593565958
2.6606031636996548
-9.887692715122531
-1.899618490994495
9.48242132073549
-0.1833839747869348
1.044898952384321
2.8497387145426143
-2.9280670293936155
-0.6050053822214965
0.9819681958667409
-7.029838015115467
22.27050265250385
-3.796068620254913
6.1797965438258196
2.6409343052766
-5.742802338090042
3.303539053233785
-4.684810697321142
-7.678471097041788
7.188295976536726
-4.086008128379097
12.955497841250196
-5.946940522562665
10.363255081442762
0.30658211402297897
0.5445269065434117
2.804413974705278
-10.845177654382969
1.3397359422650084
-1.6152676567827151
-4.632293304130129
10.856529277994849
-5.1808301577773195
12.110369679525279
2.1702500762114774
-6.346784473197834
6.12476593570159
-2.469259844100648
-0.7191050081146226
2.2081843819021008
3.6415013188452763
-9.403267233792342
4.627383889417911
-17.782416666821067
-1.8604586440213398
4.057013636359178
-0.9601500766553686
1.1270611444109127
1.3330251729776714
-5.043094051661779
-3.4679347486520373
6.592840944175434
-3.237679963948559
4.871393274219669
-2.948341058454135
2.5574592856042213
1.9275270309950638
-4.172310036434149
-19.771732948503203
7.437526366188838
4.763286830223834
-13.925136499904893
2.703327599278151
-12.259404186029132
-5.053217422320237
8.326884385371184
0.6911044707478164
-1.223665523330431
-7.7418942997679885
15.247839396464592
0.5068346315759977
-0.7993907357341268
1.5693670170545386
0.7889168139444553
1.4250485471269805
-2.8293211005555516
-10.714230088316253
1.8252209229613277
0.8950483214050395
-2.0861671409046374
-0.8806676870487145
3.250158786397707
-37.65835900665491
10.113783132509433
-9.931206000917939
7.962500919128133
2.805953993112897
-3.685714360330839
-5.868041713255161
13.503890042770946
-6.643809944626942
15.658105382958672
10.66035615291846
-6.25356666515128
-0.41456835714084006
0.8956332585541014
-2.2519833741283475
1.4732036925399719
3.9221408127882933
-26.547354128338466
-1.3237970733879223
2.995583054137887
-17.34596754090631
2.57276348127412
1.3449634415670504
-2.463086970762165
4.788115764323299
-5.611919265627573
2.659704862761606
-8.64415950920535
9.242468807018385
-38.15758786950766
2.460419030768468
-13.445728723890461
3.9637404011761648
-4.943749745518552
0.25224007897810186
-0.10447508511727921
2.1736643035121603
-7.557270271183016
-2.8083230700113457
3.5808711740515915
-2.560991521204229
4.969647728910122
-12.311441016980085
15.097096828649144
1.7352758165926423
-4.8982408344433725
2.6241997925718596
-3.3474642125750935
3.654062004448522
-9.8999326301947
-5.772590605757537
5.199419686296616
3.439616668734684
-7.967230912873033
1.1972002149902568
-2.6386906289302074
-21.592960801806754
7.479625546127848
-2.1547568933840227
4.113204192610764
2.129887523647533
-5.08826739534356
1.5314011340922256
-2.9506570594511263
0.9295804415361821
-2.621560057208294
4.053888956325867
-13.002299584945227
20.235809828805838
-12.502673430079914
3.2140552221409426
-25.690037333704637
-0.2951528135153825
0.4022343883642894
6.5407481328071295
0.41201087073699516
-4.672991591543037
6.126313805335567
1.7393561636198354
-5.445245224949047
0.01741568657719439
1.0732806366393923
-3.3266789507667855
5.461292993063932
0.045666975618353645
1.4978033462135165
-5.690925129710238
2.3330229924431753
10.854506028574011
-5.9221293497960765
2.954250479771006
-14.65997499301008
0.13507277768008796
0.20950129350884805
-5.3306453662680475
6.529895888398642
0.0738789613265669
0.5788294191295345
-4.761154226732052
3.8551337591391626
-10.081488141064291
17.609295527055856
6.452374115813452
-22.720451601530502
0.43551756051103085
-0.3627493117536913
1.7696989520709923
-3.8716115068136903
-20.481950911323192
8.698332500317726
1.689587558170207
-0.19292645050151158
2.1702076196820936
-8.72705053897601
3.517463227914891
0.030360750991374363
-0.6471814691881499
5.624948555457801
-3.405169734805925
7.576403005358299
-10.461200838239204
6.4007440280091625
0.33054230163370923
-0.4245676172210684
-2.189923188920681
14.771505357916805
0.6580837444996628
-0.7890388396407734
-16.930189457338596
11.43099225144123
4.0969926073081355
-2.2774687607114448
-2.244678455489963
4.6961223197407715
1.2964312836575482
-3.146060269144697
3.266371224076779
-8.597516721835103
1.9571147842569607
-3.634887000685785
-1.4454495446112876
2.465156953956943
2.093966720837286
-5.404996614422463
2.1290458752996644
-13.331707296326126
-0.7529910953806718
4.447242310744698
3.048666754028177
-7.134801298460238
4.020472459381821
-22.389683333364207
-29.72480336612786
8.013351963068356
4.508251145057168
-2.175872098275741
2.633137071774584
-7.746980971817894
1.7729053833393218
-8.923392089522725
1.95533440166504
-4.020434574835605
4.118879220677624
-15.553936745170763
5.080225222118347
-32.06211782418232
-1.5688045362766445
3.515774732890865
0.3330606242028764
-0.07627091974584954
1.714183255608203
-8.698420218000704
-0.09849501168003316
3.3821238361527106
7.861912734823689
-11.35760529306029
-7.963908802974222
45.93876773895803
-11.498563991466979
5.744621192331108
2.027708494401942
-6.015789488291628
-2.1375497389331874
10.959480431395637
-2.599359895409687
5.691806829105031
-4.957990144466819
3.5205096306599835
3.357931086039219
-11.516537397672401
2.299064288423243
-7.53148211849463
-3.772761557214082
13.319294766555752
0.08247870735593477
1.9150391358350478
1.8987904203794719
-5.521317252059132
2.32419578626247
-13.628797391759097
8.601368935608747
-21.66414720431228
-15.157779423360314
13.024584599834233
2.8307126919665593
-12.373911269215828
2.2503521361579155
-0.48947656756935065
-0.7687313086006631
0.6430095771277231
-10.195031990043859
11.849174554405357
0.9430296430754446
-1.9160482569840385
0.19983130827288198
1.0121726734515963
8.60169127258192
0.08601778259539605
-7.21858392606746
14.343669774016487
-0.6636524510793911
4.245852475018996
-9.464612437398257
13.586659015238196
1.5071898517528917
-3.9849495417384686
4.728242035312289
-19.093742123882127
1.8406886771244209
-3.863504408491902
-0.3889330278596663
4.302284858087734
0.8087474805487962
-2.1831766635560417
-2.092023776042897
1.8647867622557126
-3.958250503340433
6.444797283062774
4.230839087070905
-7.485043423781246
-0.7825924798012536
3.9022383734310155
1.8105471842094423
-5.867928006792672
-7.882413026234213
4.588289194639192
1.6271358685689001
-5.711185164076353
-25.172563094118985
5.494177258218192
-0.249169277993742
3.920783549624919
-6.678105668886149
5.033613948483477
-4.084293566519919
6.184249189572201
-1.4922404665470888
4.001024978323414
-4.6116150108684355
4.132288308482849
-7.669878976305053
2.9260965957826324
1.4922913019494102
-4.883764296454639
2.1332009388224114
-10.217547359928682
-20.20265170725433
7.527000011731208
-0.7680732358036844
2.107429812728565
1.2161594641768438
-3.468408608460658
3.411181978721603
-15.2768017335385
2.3197843507538716
-11.743755760360077
2.3606994710746703
-10.862897398838776
2.5020221541364513
-14.558446648883518
0.3416201497253897
-0.41282514846931195
14.029342294282994
-17.65387952983352
2.5740892292347377
-6.86051231090163
-2.782203073910832
2.4334925821708517
2.3474267455899565
-7.1444050385808495
8.147895678614395
-17.461324499825505
-35.594918810413354
11.317516626462425
6.600092198627328
-13.427822529580162
-1.1355308618821136
8.162945051187451
2.0002707308800387
-3.928704422019107
3.040042890491158
-20.28325800505222
-12.87002182365916
2.756442140219681
-13.351635999549028
16.13378427107886
-14.144721326713464
5.20345521050259
0.7499349775280524
-1.628913494105708
-1.0191646314311857
5.72475387013447
0.2873339798273249
-0.3354097693891078
1.8324537379551775
-2.7710394371523637
-4.003743155498292
5.328718132210572
2.517633028962597
-12.806491775876083
-0.5397019980921858
1.5789684461249
-6.680700758625297
11.344854117659173
-12.763839857906902
10.867229414111819
-0.32701814254167294
0.780363018963999
1.5100395083324005
-6.4153127934827525
-2.676385923267217
3.0731069153652433
6.627345250503614
-15.68179237599754
9.56602925250707
-23.175233247680815
1.6348461053534504
-3.31810708161115
-5.879234288180863
2.4313716488799275
1.2629243004914308
-2.912065881552817
-4.413972319076454
7.2160155410149915
-0.19857213357635306
0.633150941037047
-6.258711187150455
8.73442254317016
-1.2243573523048243
0.9165075712922499
0.6800750341696558
-1.0162179734789425
4.904579312109414
-7.336511566009701
3.1625085374254622
-8.461454108861627
-14.091662825748013
5.3962554857097995
2.216532449217841
-6.633892892840274
2.696558529652256
-7.644351360788949
-16.103580184560208
11.338137787082431
3.5628869403155283
-16.48529498504484
-0.5671634971760304
0.9984718221886589
2.7211734742358
-10.047970855125694
-16.109887173351954
2.5403803132686686
-2.666997846624803
1.869530230769661
-0.5687271907672145
2.446864381274491
6.7320399546594025
-20.70217159529694
-9.677002619618897
11.12583884195576
-0.8861563864075155
1.2662100088581107
-5.0900617993448805
8.850084543944112
-0.6141783646255978
4.089150608188877
1.4739772302058394
-5.056129862947113
-1.2628106015919274
1.4047822322406947
2.0839802962403797
-6.218490590297828
0.8311944917829237
-2.090842023292193
-8.689592259044161
11.107549094979666
-0.6639172105794571
2.7129898279764166
0.2014449738531665
-0.18964067388889627
-3.0410438880554502
5.3548121793117565
0.11530137129120677
-0.012925554708414833
-0.034916251666713305
0.4642197427404462
-1.9225623674452357
10.68899557117253
-4.788957396067605
2.8671987086441777
-10.625378154018863
1.9940486690157968
3.478356392457017
-12.774705508581802
-1.444201823491708
11.654892674892867
-3.2337515356421096
3.7999207086246
-7.65426614200126
18.181105940867504
6.267557295625852
-7.986235139259895
-7.665183376047924
5.746194244866773
-1.0224457709198238
4.560853759033127
-2.444703445150597
9.780154300908618
1.072957483424408
-3.026545813914735
2.5670183331923244
-22.980361015872933
-23.868566088800762
5.369367695688123
-0.2830611152281366
2.5615970279570055
10.515921239742893
-3.0524135624558526
5.7512754804716595
-19.885760530186044
3.815733339304872
-8.395550612415034
-6.410966363540336
14.942574726515506
4.490350797511085
-13.86288935686317
-1.7907817615707868
2.0035225414340303
-1.6392295152431555
8.745065875764087
1.0055957793986132
-1.485277891877283
1.2923145678163035
-5.008699157776525
-15.120344272558846
16.844848628417385
0.4354314689601537
1.7559209163122969
-5.767776455257361
3.598727448132544
4.749738715711632
-13.953171733156067
1.107526505058387
-3.4235417304104656
3.843995458038273
-19.155693444089433
0.4795736996040294
-0.29026191003007606
-4.725068336944598
13.83915655710275
-6.313084421474454
6.185809312298398
-17.519486890933102
6.520389748386284
-0.08809129353985812
4.003556956231426
4.18203077063989
-7.700385140757257
2.266636095846059
-12.89086192843419
-1.3625640721277112
2.0657687892063894
-0.40026539600582156
0.5078737520912355
-1.8020508469953702
12.335006990479751
0.5038106593946208
-0.8959933448119919
0.17903012448874867
0.8826935724671243
5.422917836522562
-15.6211269657229
5.867572725366715
-10.419391410284524
-0.9761049092620815
5.553987024244373
2.103683433564452
-4.7323863681931355
-3.1652356466179414
1.2514607652156924
0.9283255101654859
-1.8718178966544197
5.362122284069218
-8.267041637194993
0.9633040380359965
-2.269224121782927
4.865005633975675
-10.744888335950808
1.1759864853630901
-6.415373789565643
-6.5838690035519125
8.843926445693501
-1.5015088466472735
2.5079440705282305
-12.692948907184155
12.09276848405733
-3.294343828695617
14.312802693246232
-7.01975578539381
5.101690595826717
1.3885003050195068
-1.3127724409691655
3.372950433703482
-3.9954394406298133
-28.47011942621683
9.592548370398774
-0.5899073466804221
3.260964828737718
-0.8730817917515157
0.9586730490707185
-1.0469996959341046
1.593009939633677
0.5011565864375178
-0.71247379225346
6.544479462606333
-14.04233997182464
6.116365878402879
-18.173775590229038
2.9168495597829507
-6.49212253332983
-1.1303541445735312
6.203765969230695
8.005910903080386
-0.34413868055299845
-3.857777191558252
4.884522348884309
2.6137141768468863
-39.69870069853855
-3.1738003244065087
21.432502402085053
1.123816890882856
-3.6716444651948748
2.439441461045072
-34.775559959027106
-0.006183250891075076
0.848284565101258
1.8867798116420493
-9.492902298284747
-0.42471286713226597
0.6420255394499192
-1.0965986208053762
1.2146469228258063
-1.2875406719504623
4.868793761633844
0.5860077320050046
-0.8001191560132274
-14.797221771162818
5.804892305017228
-2.418030023364854
3.1296112524713893
-8.957318217901964
7.653550958007173
0.0901634598204275
0.05303081543704269
4.2567552393367825
-40.55688354044576
1.189702084026941
-3.8957179376556335
0.21517949404529046
-0.2489214209743541
-0.38019333542201417
2.478845955103525
8.899767794488703
-8.000676532898014
0.07312252971948796
0.4581827498622064
-2.5380256630537925
6.743007076379737
3.283634601881321
-1.9386234131200215
4.460436089082247
-9.860319150259842
-7.025210608265021
10.430362482287688
-17.025493460047176
4.270320123273469
-4.361152745035236
8.146227898949602
-23.555708196079596
7.454437481142674
1.4749616251862856
-5.925513182297223
1.0681565784318725
-2.12502851705443
3.761051831050181
-11.135350082852572
3.3751949056479145
-13.604071161548369
-7.654773418847033
5.602726050442577
-12.74057823210727
5.641963798096652
-2.4591527199989587
7.088643051574114
-1.1664147033072672
2.9711163419005193
-6.54719887875005
7.209511567211439
1.0854554133812822
-2.704479611650425
2.077650860595944
-5.119457082589879
-0.9411120639958068
1.7002692092529783
3.5689353636718444
-21.653080424301553
1.15792591517667
-4.3030198109342965
-4.952793997616311
3.5242322761121896
-1.1112704683135848
1.5222900334153378
4.444022033199646
-23.91667506448627
2.9449996718468334
-11.456582616690728
1.0851063201998556
-2.7960832400055184
0.93983594978774
-1.9607827873739763
-10.105587262469236
3.4255436251037956
-4.6696346100635955
2.9159506319512065
2.4317915397743297
-10.206283189367161
-5.52291016366625
17.580986870674565
-4.033880468228173
10.589668418685019
-0.10079057853055096
0.2806620710314083
1.7715414984668523
-9.192423266923905
-0.2250292681613686
2.1744641373971216
0.95786006850066
-2.1828307587002707
1.0684072832296216
-2.3551903241195475
1.872086339744219
-4.853299925836216
-1.2913074008463266
5.853896571400502
-0.05964027306522013
0.6817475500439163
0.05089175737915674
15.464698460307947
0.9878844480189963
-1.3059732259375507
-9.693138595027971
5.210689327971304
1.5756990949666052
-3.386167649409556
-0.7529910953806718
4.447242310744698
6.209459929406981
-8.5854892309189
-22.624052468785923
6.719373734418603
-13.608854702625312
10.286624664723162
-15.373522132719016
6.632036244948134
-5.027725146616535
8.288471407002081
-4.75973683393137
6.309450619341995
-7.029703423666053
5.9301342102237
2.8619826566409787
-13.960732629972032
-7.146968213958545
8.927299212006181
5.794063828492566
-19.167236293358215
0.009839811543255639
0.6862242297826349
-6.734706265287171
15.673843265407431
-0.06486825885574188
0.32256423444578086
0.24238499380857248
-0.2764617805822631
-16.029142012407597
26.57644284179377
-13.15636384579104
4.130257492011806
0.36821029845820186
-0.41510855627211674
-12.87002182365916
2.756442140219681
-0.1406254164576357
0.7681745487609026
2.0034919440876346
-8.919368377065299
5.634589801650691
-22.70841854357047
-16.179342275716987
2.7700950226077437
0.2209486045633695
0.7248141174383427
-5.961403623432217
6.496993301771315
-3.4039701703324092
6.039851236478809
-8.87228575399598
10.860172409512558
-1.0592016973792109
1.4017301850247212
-3.8662522882988197
12.225634322684087
1.32863776757813
0.4493594784838164
3.287957721950999
-8.497187020426681
-13.8991465363572
8.60971913335041
-2.1918007003028603
7.277371835050564
0.5289076086148814
-0.7302059518155386
-9.44655992122442
10.969151690196572
1.252534322179978
-3.252289566655451
-3.4437978189004266
7.774147945632888
4.947244660885023
-19.24561862509428
0.9311714204463719
-1.9475457042244853
-11.387284087749839
6.614251164224496
0.8083243299489242
-1.9520797153401876
0.4989377972401581
-0.6516586379269578
-24.613727430406026
8.329313060359405
-6.882370623996866
9.74149154092983
-11.538952605753757
11.826107713736741
0.8316771761249124
-2.0002070556441915
1.2377417225569116
-3.7133481044017667
-4.240759190036513
4.900795449388568
4.054274750271166
-8.008346186429256
1.304737978961989
-1.6799508808102892
-5.54877751799694
3.02863168928437
0.4340700827691928
-0.5700400034217267
2.1442410249418957
-7.580475444928001
-8.039401885861714
8.852937587573443
0.9320974673593141
-2.1068115500715536
-19.083232728842958
18.15200498089393
2.0723685413720747
-41.47201968267541
0.4238381461152403
-0.6358882602334708
3.2496830805329044
-8.690716916449793
2.102370507481294
-6.890250055818543
-1.3724693426450274
1.4738146203100213
-8.713443346492161
27.574627551910925
-3.3751358944890013
5.03173272172015
-6.3088258054871735
3.448383148197563
5.005459245023337
-9.08467495239139
1.5009036885415958
-5.432852616032622
0.2866351516375367
-0.38185388616173865
-1.1321236710145153
3.59392439238487
4.113214759059873
-23.792629899559245
-6.072143896626939
6.550377394986009
11.886462435433863
-5.1435036882698
-0.08495401387135648
1.775840462441479
-6.410745954909577
4.685932308786479
1.9329267033026953
-11.253396472314401
-5.241731652357835
6.14716514106027
0.37871134540245155
-0.5047503372092417
-1.114674243951227
20.777635404376433
4.460390524485148
0.4654363351775592
-1.8987812984901171
3.4629873214582374
0.848408416075304
-2.1374519195233095
-0.7231080575867388
3.8046902550958697
4.320842263448008
-14.174725945159233
-11.477912787331306
4.956461394521012
-1.0007203310475874
5.525432186054498
-1.8529994759220667
1.3590549574634991
-4.564972852024902
2.207293527313924
-7.654541064549456
13.270981531806289
