GIS
7
0.0
2
event
noEvent
4
17
10 0
103 0 1
7 1
137
Buyer+1
custody/n
Org+1
rally/n
Sentence+1
fight/n
injury/n
Crime+1
assassination/n
torture
Origin+0
Adjudicator+3
chop
ambush
murder/n
Defendant+2
suit/n
protest/n
bankruptcy/n
sentence/n
conviction/n
Crime+4
trial/n
parole/n
bombings/n
divorce/n
die
Victim+0
Victim+2
Victim+1
fight
terrorism/n
drive
Victim+3
fighting/n
Victim+4
arrival/n
advance/n
Entity+4
Entity+0
meet
Entity+1
Entity+2
Entity+3
appeal/n
extradition/n
meeting/n
raid/n
election/n
deploy
wound
strike
Crime+3
conflict/n
Place+4
strike/n
jail
fire
combat/n
Time-Within+0
Time-Within+1
Agent+1
Time-Within+2
Agent+0
Time-Within+3
Time-Within+4
Agent+3
Agent+2
Agent+4
Place+2
Place+3
Place+0
Place+1
travel/n
talk/n
battle/n
kill
shot/n
Destination+4
hit
Destination+3
Destination+2
Destination+1
Person+1
Person+0
dead
Person+4
Person+3
marry
Person+2
death/n
successRate=2
successRate=3
successRate=4
birth/n
successRate=5
Adjudicator+4
war/n
letter/n
casualty/n
Adjudicator+0
bomb
attack/n
Time-Starting+1
Artifact+2
Artifact+4
Artifact+0
Defendant+1
Defendant+0
Defendant+3
Instrument+3
Instrument+2
fire/n
Instrument+1
Defendant+4
explosion/n
Instrument+0
charge
Target+3
Target+2
Instrument+4
Target+4
Target+1
Attacker+1
Attacker+0
Target+0
Attacker+3
Attacker+2
step
Attacker+4
Time-Ending+1
call/n
Seller+1
prosecute
detain
Artifact+1
shed
21.634651599642417
12.856988501684597
11.36384568129816
17.33497981272202
10.713917598317062
12.676817488559948
13.166755127149573
16.449360067621516
11.853453790104059
20.58574820714153
-6.62555546539479
2.869432558547928
1.6809788845151794
-3.289440946938994
-0.2140988681423408
1.3037093799664676
-1.4637526206547293
1.2218312297022613
4.375312544391731
-7.79333547195978
-5.960817242222893
3.275577086865171
-5.573517659438001
4.856524179889911
1.2981204089339333
-3.8368221302548933
3.951763526469188
-7.153971611666869
2.0858513536037195
-2.663146084861628
-4.8411481444416635
1.659556906812444
-0.10645467488530369
0.1562216504205025
-6.496702948376051
2.1288671328198197
-11.173847454965474
2.685493709934909
-5.553676229804621
2.993863425690198
0.5364661406182041
-0.46385110623849934
2.3446659481520022
-11.761746947339184
4.790064507607395
-10.439815063815907
-15.575258898966554
5.953897753415045
1.5510313140321272
-6.835696470186477
3.308469509933931
-12.743428788462877
-0.37422238184764955
0.8115102245131893
-0.008351857857413547
0.09874871658179762
-2.574033466739838
1.6190863927899477
-1.0029462837987755
1.0870071231153582
-0.7897762274092102
1.121737006765413
3.991449245544743
-7.878869706165197
1.288472987216846
-2.7837747526880605
2.14591455578453
-11.606658225907644
-8.746264461045193
7.054495588715419
3.554891705701499
-13.610793030925738
2.933705250270892
-10.766101220696033
1.618432446263236
-2.8986800166584383
1.3949920292895763
-2.8565487734288846
-2.3896324204435873
1.613586171131384
0.6438088140018117
-1.077976283397582
-4.807781978338054
3.588062167352346
1.6347290809362662
-3.0811805806740966
2.2788589801586134
-5.072601105842178
-9.926705638571546
6.149077937453892
1.3499505366018447
-2.040770911429732
-19.519472183850944
5.507349278187822
0.511124653522121
-0.8312340026746372
1.4387009372472446
-2.3096275192006095
0.03265777345306908
0.0820346015737603
1.2010854169912744
-1.9601132783092767
-2.27506653511056
1.9024866824622155
-2.651317820662541
1.5708645154977172
0.665842794023789
-1.1187038829647757
1.671215889604853
-4.141171377121145
5.070917794797924
-12.450795461711994
7.7478957893889575
-15.49740593020515
2.354010450240694
-0.3647291196352558
6.768468338904645
-9.663083924619345
1.6137123202891968
-0.5956481465555055
5.225818475044369
-6.452186921111331
2.71986616990677
-7.563009325831041
2.2699097182557098
-4.402322242536886
1.316662246171015
-0.6248552768734499
2.5802406312604713
-3.519590280331257
2.4484897966473906
-4.9070867914977985
0.8541682787471576
-1.1164399909103129
2.740558149464468
-9.478271371519103
5.007944272694401
-12.37823497550834
-4.43818113375848
2.8320450122826726
-0.9183578930139644
1.1727587445117909
1.4527958215564887
-4.691821756066373
-0.06073404816797279
0.7220007719190222
0.09908059171252326
-0.018009687567710486
-7.235987082939957
8.168571058197386
1.5467916521928582
-5.633233469585834
1.629581119921427
-1.5605606498093272
-6.28111713763678
1.8228010387509146
-3.15101193508482
5.064192285264322
1.6382762409587586
-3.2029657966938547
1.633446006522933
-8.954210574422163
2.9110906063395277
-9.045772127018948
-6.241271885254772
4.620953781291741
-0.8944599111256837
0.6660778861443422
-4.041701743381917
2.4153231755079787
0.7135920012852095
-1.2505731055872091
-0.6305670645415424
3.6273560614347704
-1.8737076066909164
1.3506716269970276
-0.9950256505925066
3.8384332094488927
-13.33790323061658
4.368709641387074
4.385645709235025
-11.242348967276293
2.0762926472360794
-10.431608897577751
1.4839410842467273
-3.2912683024855403
0.7417951797724633
-1.5554392641642147
-9.224090088562468
6.867578406662296
2.739207845123759
-2.6484962652422754
-0.8381520690027884
1.768424613825811
-5.037470548208336
6.921940792376711
3.4072177210446757
-6.254471506692248
0.9360260018494619
-1.6457934104862728
-0.3638529648557083
1.2083455047391194
0.5116137338724549
-0.5811247629466703
-0.3764879838128006
1.6909164483914862
-1.2540562889488118
3.1491297928859905
-2.75643276888619
4.712663547863933
-1.5802947196591424
2.6336323043479752
-2.465761294699192
2.114819467536422
0.5825351260716851
-0.9914738139697392
9.698099447153586
14.930317441848077
8.759868119013895
16.746746895815708
18.755636461536252
23.281264057951436
10.736413518501825
