GIS
13
0.0
35
Attacker
Place
Time-Within
Entity
Victim
Agent
Target
Instrument
Artifact
Destination
Origin
Time-Holds
Time-After
Time-Before
Org
Person
Vehicle
Position
Time-Starting
Seller
Buyer
Prosecutor
Crime
Time-Ending
Plaintiff
Defendant
Beneficiary
Recipient
Money
Giver
Price
Time-At-End
Sentence
Adjudicator
Time-At-Beginning
794
417
15 0
15 0 1
1 0 1 2
3 0 1 2 3 4 5 6 7 8 9 10 11 12 13 14 15 16 17 18 19 20 21 22 23 24 25 26 27 28 29 30 31 32 33 34
2 0 1 2 3 4 5 6 7 8 9 10 11 12 13 14 15 16 17 18 19 20 21 22 23 24 25 26 27 28 29 30 32 33 34
1 0 1 2 3 4 5 6 7 8 9 10 11 12 13 14 15 16 17 18 19 20 21 22 23 25 26 27 28 29 30 31 32 33 34
1 0 1 2 3 4 5 6 7 8 9 10 11 12 13 14 15 16 17 18 19 20 22 23 24 25 26 27 28 29 31 32 33 34
1 0 1 2 3 4 5 6 7 8 9 10 11 12 13 14 15 16 17 19 20 21 22 23 24 25 27 28 29 30 32 33
1 0 1 2 3 4 5 6 7 8 9 10 11 12 13 14 15 16 18 19 20 21 22 23 24 25 27 29 32 33 34
1 0 1 2 3 4 5 6 7 8 9 10 11 12 14 15 16 18 19 20 21 22 24 25 27 28 29 31 33
1 0 1 2 3 4 5 6 7 8 9 10 11 12 15 17 18 22 25 26 27 29 30 31 33
1 0 1 2 3 4 5 6 7 8 9 10 11 12 15 20 22 25 28 29 33
1 0 1 2 3 4 5 6 7 8 9 10 11 14 15 16 17 18 19 20 21 22 24 25 26 27 29 32 33 34
1 0 1 2 3 4 5 6 7 8 9 10 11 14 15 16 17 18 19 20 22 23 25 26 27 28 29 30 32 33 34
1 0 1 2 3 4 5 6 7 8 9 10 11 14 15 16 17 20 21 22 23 24 25 27 28 29 32 33
1 0 1 2 3 4 5 6 7 8 9 10 12 14 15 16 19 20 21 22 24 25 26 27 28 29 30 31 33
1 0 1 2 3 4 5 6 7 8 9 10 13 15 16 17 20 27 29
1 0 1 2 3 4 5 6 7 8 9 10 13 15 18 19 20 21 24 25 27 28 29 33
1 0 1 2 3 4 5 6 7 8 9 10 14 15 16 17 18 25 26 27 28 29 30 32
1 0 1 2 3 4 5 6 7 8 9 10 14 15 16 17 19 20 22 24 25 27 28 29 32 33
1 0 1 2 3 4 5 6 7 8 9 10 15 16 17 19 20 26 29 33
1 0 1 2 3 4 5 6 7 8 9 11 13 14 15 16 17 18 19 20 21 24 25 26 27 29 31 33
1 0 1 2 3 4 5 6 7 8 9 11 14 15 16 20 29 30 33
1 0 1 2 3 4 5 6 7 8 9 11 14 15 18 19 20 22 23 24 25 26 27 28 29 33
1 0 1 2 3 4 5 6 7 8 9 12 14 15 16 22 23 24 25 26 29 33
1 0 1 2 3 4 5 6 7 8 9 14 15 16 19 20 25 26 27 29 33
1 0 1 2 3 4 5 6 7 8 10 14 15 16 20 24 25 26 27 29
1 0 1 2 3 4 5 6 7 8 11 14 15 17 19 20 21 22 25 28 30 31
1 0 1 2 3 4 5 7 8 9 10 11 14 15 16 31
1 0 1 2 3 4 5 8 10 14 15 25 33
1 0 1 2 3 4 5 8 11 16 22 23 25 33
1 0 1 2 3 4 6 7 8 15 20 25 27 28
1 0 1 2 3 4 6 7 11 12 13 18 23 31 34
1 0 1 2 3 4 6 7 11 13 18 23
1 0 1 2 3 4 6 8 9 10 11 12 13 15 16 17 18 22 23 25 27 33
1 0 1 2 3 4 6 8 11 22 25 27 28
1 0 1 2 3 4 6 8 15 16 18 25
1 0 1 2 3 4 7 8 14 15 17 20 24 25 27 29
1 0 1 2 3 5 6 7 8 9 10 14 15 16 17 22 24 25 27 33
1 0 1 2 3 5 6 7 8 9 10 20 22 25 27 29 32 33
1 0 1 2 3 5 7 9 10 11 17 22 27 28 30 32 33 34
1 0 1 2 3 5 8 10 20 22 24 27 29
1 0 1 2 3 5 9 10 11 12 15 17 21 22 25 26 27 29 31 32 34
1 0 1 2 3 5 9 10 11 25 27 29
1 0 1 2 3 6
2 0 1 2 3 6 7
1 0 1 2 3 6 7 8 9 10 11 12 13 14 15 16 17 18 22 23 29 31 33 34
1 0 1 2 3 6 7 8 9 10 12 15 17 19 22 27 29
1 0 1 2 3 6 7 8 9 14 18 20 21 22 24 27 29 33
1 0 1 2 3 6 7 8 15 16 24 32
2 0 1 2 3 6 7 11
1 0 1 2 3 6 7 11 12
1 0 1 2 3 6 7 11 13 18
1 0 1 2 3 6 7 15 17 18
1 0 1 2 3 6 18
1 0 1 2 4 5 6
1 0 1 2 4 5 6 7
1 0 1 2 4 5 6 7 13 34
1 0 1 2 4 5 6 7 14
1 0 1 2 4 5 6 8 15
1 0 1 2 4 5 6 11
1 0 1 2 4 6
1 0 1 2 4 6 7
1 0 1 2 4 7
1 0 1 2 4 7 8 11 15 22
1 0 1 2 5
1 0 1 2 5 6 7 8 9 10 14 18 23
1 0 1 2 5 6 7 8 9 15
1 0 1 2 5 7
1 0 1 2 5 7 8 9 10 16
7 0 1 2 6
8 0 1 2 6 7
3 0 1 2 6 7 11
1 0 1 2 6 7 11 13 18
1 0 1 2 6 7 12 13
1 0 1 2 6 7 13 34
1 0 1 2 6 7 18
1 0 1 2 6 7 18 23
1 0 1 2 6 7 23
3 0 1 2 6 11
1 0 1 2 6 11 18
1 0 1 2 6 15
1 0 1 2 6 18
1 0 1 2 6 24 25
1 0 1 2 6 31
3 0 1 2 7
2 0 1 2 7 11
1 0 1 2 10 15
2 0 1 2 11
1 0 1 2 23
2 0 1 3
1 0 1 3 4 5 6 7 8 10 14 15 16 19 20 21 22 24 25 26 27 29 33
1 0 1 3 4 5 6 7 8 10 15 16 19 20 25 33
1 0 1 3 4 5 6 7 8 14 15 16 20 22 27 33
1 0 1 3 4 5 6 7 8 15 24 25
1 0 1 3 4 5 6 8 9 10 13 14 15 16 20 21 22 25 26 27 32 33
1 0 1 3 4 5 6 8 9 14 15 16 19 20 21 24 25 27 29 33
1 0 1 3 4 5 6 8 10 15 25 27
1 0 1 3 4 5 6 8 12 13 15 19 20 25
1 0 1 3 4 5 7 8 14 15 16 17 19 20 26 29
1 0 1 3 4 5 8 14
1 0 1 3 4 6 8 15 20 25
1 0 1 3 4 7 8 9 15
1 0 1 3 4 8 15 17 22
1 0 1 3 5 6 8 15 21 29 33
1 0 1 3 5 7 8
1 0 1 3 5 8 22
1 0 1 3 5 9
1 0 1 3 5 9 10 19 20 21 24 25 26 27 29 33
1 0 1 3 5 9 10 29
1 0 1 3 5 9 15 17 21 25 29
2 0 1 3 5 9 19
1 0 1 3 5 9 19 27
1 0 1 3 5 14 21 27 29
1 0 1 3 5 20
5 0 1 3 6 7
1 0 1 3 6 7 8 15 22 33
1 0 1 3 6 7 12
1 0 1 3 6 18
1 0 1 3 7
1 0 1 3 7 10 15 17 19 29
1 0 1 3 9 10 20
1 0 1 3 9 10 25 26
1 0 1 3 10
1 0 1 3 20
3 0 1 4 5 6
1 0 1 4 5 8 15 27
1 0 1 4 6 7 8 9 10 14 16 19 25 26 27 33
1 0 1 4 8 9 11 15 24 33
1 0 1 4 18
2 0 1 5
1 0 1 5 6 7 14
1 0 1 5 7
1 0 1 5 8 9 10
1 0 1 5 9 10 20 24 27
1 0 1 5 15 25 29
9 0 1 6
9 0 1 6 7
1 0 1 6 7 8 9 11
1 0 1 6 7 18
1 0 1 6 7 34
1 0 1 6 8 9 10 14 23 27 28
1 0 1 6 13
1 0 1 6 23
2 0 1 6 25
1 0 1 7
1 0 1 9 10
1 0 1 11 18
1 0 1 12 25 33
1 0 1 19 20 27
2 0 2
1 0 2 3 4 5 6 7 15
1 0 2 3 4 5 6 15 25 33
1 0 2 3 4 5 7 8 9 15 16 19 20 29 32 33
1 0 2 3 4 5 7 8 11 12 15 16 24 25 27 32
1 0 2 3 4 6 7
1 0 2 3 4 8 14 15 17 20 24 27
1 0 2 3 4 8 15 27
1 0 2 3 5
1 0 2 3 5 8 11 15 25 29 33
1 0 2 3 7 11
1 0 2 4 5 6 8 10 15 25
1 0 2 4 9 10
5 0 2 6
1 0 2 6 11
2 0 2 11
1 0 2 15
2 0 3
2 0 3 4
1 0 3 4 5 6 7 8 15 16 20 25 27 29 33
1 0 3 4 5 6 7 8 15 27
1 0 3 4 5 6 8 14 15 19 20 21 24 25 26 27 29 33
1 0 3 4 5 6 8 14 15 20 24 25 26 27 29 33
1 0 3 4 5 6 8 14 15 24 25
1 0 3 4 5 6 8 14 15 24 25 26 27 29
1 0 3 4 5 6 8 15 20 24 25
1 0 3 4 5 6 8 15 24 25
1 0 3 4 5 6 8 15 24 25 29
1 0 3 4 5 6 8 15 25 27 29
1 0 3 4 5 6 8 20
1 0 3 4 5 6 8 20 25 29 33
1 0 3 4 5 6 8 22 25
1 0 3 4 5 6 15 19 20 25 27
1 0 3 4 5 7 8 10 15 16 21 25
1 0 3 4 5 14 15 19 24
1 0 3 4 5 14 19 29
1 0 3 4 6 7 8 14 15
1 0 3 4 6 8 10 15 25
1 0 3 4 6 8 14 15 25 27 33
1 0 3 4 6 8 15 25 27
1 0 3 4 6 8 29
1 0 3 4 6 15
1 0 3 4 6 19 25 29
1 0 3 4 6 25
1 0 3 4 8 17
1 0 3 5
1 0 3 5 6
1 0 3 5 6 8
1 0 3 5 6 8 14 19 20 21 24 25 26 27 29 33
1 0 3 5 6 8 15
1 0 3 5 6 8 15 20 21 25 29
1 0 3 5 6 14
1 0 3 5 7 8 10 15 18 20 21 24 29
1 0 3 5 7 8 13 15
1 0 3 5 7 8 15 16 25 33
1 0 3 5 8 15
1 0 3 5 9 10 14 18
1 0 3 5 14
1 0 3 5 15
4 0 3 6
1 0 3 6 8 9 19
2 0 3 6 8 15
1 0 3 6 15
1 0 3 7
1 0 3 7 8 15 19
1 0 3 7 8 15 33
1 0 3 8
1 0 3 8 11
1 0 3 8 15
1 0 3 8 15 19
1 0 3 8 29
1 0 3 9 10
1 0 3 15 25 27
1 0 3 19 27
1 0 3 27
1 0 4
2 0 4 5
3 0 4 5 6
1 0 4 5 6 7 8 14 15 19 20 22 25 29
2 0 4 5 6 8
2 0 4 5 6 8 15 25
1 0 4 5 6 8 20
1 0 4 5 7 8
1 0 4 5 7 15 20 29
1 0 4 5 8
2 0 4 5 8 15
1 0 4 5 8 15 25 33
1 0 4 6
1 0 4 6 7 9 11 13 15 29 33
1 0 4 6 7 11 15
1 0 4 6 8 15 19 25
1 0 4 6 8 19
1 0 4 6 20
1 0 4 8
1 0 4 19
2 0 5
1 0 5 6
1 0 5 6 8
1 0 5 6 8 14
1 0 5 6 8 20 26
1 0 5 6 14
1 0 5 6 25
1 0 5 8
1 0 5 15 19 21
1 0 5 15 25
1 0 5 20
1 0 5 20 26
27 0 6
5 0 6 7
2 0 6 7 11
2 0 6 8
1 0 6 8 9 10 18
1 0 6 8 15
1 0 6 24 25 26 27
6 0 7
1 0 7 8 9
1 0 7 15
1 0 7 18
1 0 8 15
1 0 8 20 27 29
1 0 9 21
1 0 15
2 0 15 25
1 0 28
27 1
10 1 2
12 1 2 3
1 1 2 3 4 6 7 8 9 10 14 15 22 24 25 28 29 32
1 1 2 3 4 6 9 10 11 16 19 23 25 33
1 1 2 3 4 8 9 10 11 22
1 1 2 3 4 8 12 20 26 27 28 29 33
1 1 2 3 5 8 9 10 11 15 16 31 34
1 1 2 3 5 8 9 10 14 15 17
1 1 2 3 5 9 10 11 12 13 15 18 21 22 23 24 25 28 31 32 33 34
1 1 2 3 5 11 12 13 15 17 18 23 31 34
1 1 2 3 5 15
2 1 2 3 5 15 17
1 1 2 3 5 15 18 21 24 25 31 33
1 1 2 3 5 15 21 22 24 25 32 33
1 1 2 3 6 7 8 17
1 1 2 3 6 9
1 1 2 3 6 15
1 1 2 3 6 15 21 29
2 1 2 3 8 9
1 1 2 3 8 9 10 11 15 17 22 25 30 33
1 1 2 3 8 9 13
1 1 2 3 8 11 12 14 15 18 29
1 1 2 3 8 15 17 19 20 30
5 1 2 3 11
1 1 2 3 11 12
1 1 2 3 11 12 13 18 23 34
1 1 2 3 11 15 17
1 1 2 3 11 18
2 1 2 3 11 23
1 1 2 3 12 13 15 17
1 1 2 3 12 15 17 18 34
1 1 2 3 12 15 26 28 29
1 1 2 3 12 18 34
3 1 2 3 15
6 1 2 3 15 17
2 1 2 3 15 17 18
1 1 2 3 15 17 31
1 1 2 3 15 20
1 1 2 3 15 29
2 1 2 3 18
1 1 2 3 31
1 1 2 3 34
5 1 2 4
2 1 2 4 5
6 1 2 4 5 7
1 1 2 4 5 7 11 13
1 1 2 4 5 7 11 13 15 18 34
3 1 2 4 5 7 15
1 1 2 4 5 7 15 17
1 1 2 4 5 7 15 25 32
1 1 2 4 5 7 34
1 1 2 4 5 8 9 10 11 12 13 16 18 23 31 34
1 1 2 4 5 15
1 1 2 4 6
1 1 2 4 6 16
1 1 2 5 8 9 10 14 15 16 20 22 23 25 27 28 29 32 33
1 1 2 5 10 16 33
1 1 2 5 11 15 21 22 24 25 32 33
1 1 2 5 12 13 14 23 34
1 1 2 5 13 14
1 1 2 5 14
1 1 2 5 15 17
1 1 2 5 15 22
1 1 2 5 15 22 23 34
1 1 2 5 15 22 24 25 28 32 33
5 1 2 6
1 1 2 6 9 22
1 1 2 6 11
1 1 2 8 9
1 1 2 8 9 13 16 18 23 34
1 1 2 8 11 12 13 18 19 20 23 26 27 28 29 30 34
1 1 2 8 11 12 23 29
1 1 2 8 13 15 19 20 26
1 1 2 8 15 19 20
1 1 2 8 19 20 26 30
1 1 2 8 19 20 30
3 1 2 11
1 1 2 11 15
1 1 2 11 16
1 1 2 11 18 21 22 25 33
1 1 2 11 22 24 33
1 1 2 12 14 34
2 1 2 13
1 1 2 13 15 21 22 25 32 33
2 1 2 14
1 1 2 14 15 23
4 1 2 15
1 1 2 15 17 23
1 1 2 15 22 24 25 28 32
1 1 2 15 22 25 28 32 33
1 1 2 15 34
1 1 2 18
1 1 2 18 22 25 32 33
1 1 2 18 23
1 1 2 18 34
1 1 2 21 22 23 25 33
1 1 2 22 25
1 1 2 22 25 31 32 33
2 1 2 22 25 33
1 1 2 22 33
1 1 2 24 33
1 1 2 25
10 1 3
1 1 3 4 6 7 8 14 15 20 22 24 28 29
1 1 3 5 6 8
1 1 3 5 8
1 1 3 5 8 9 15 17 22
1 1 3 5 9 10 26 27
1 1 3 5 14
1 1 3 6 9 10 15 20 22 27 32 33
2 1 3 9
3 1 3 9 10
1 1 3 9 20
1 1 3 10
1 1 3 11
1 1 3 11 15 17 18
3 1 3 15
2 1 3 15 17
1 1 3 15 27
2 1 3 18
1 1 3 21 22 25
1 1 4
3 1 4 5
2 1 4 5 7 15
1 1 4 5 8 9 14
1 1 4 5 8 15 29
1 1 4 5 15
1 1 4 6 10 15 25
1 1 4 8 9
2 1 4 15
1 1 5 7
1 1 5 7 8 9 10 16
1 1 5 9 10 15 21 22 25 32 33
1 1 5 10 15 16
2 1 5 14
1 1 5 15 21 22 24 25 32 33
1 1 5 15 21 22 24 25 33
1 1 5 15 25 33
1 1 5 33
10 1 6
4 1 6 7
1 1 6 8 9 10
1 1 6 8 9 10 27
3 1 6 9
4 1 6 9 10
1 1 6 9 27
1 1 6 10 14
2 1 7
1 1 7 15
1 1 8 9
3 1 8 9 10
1 1 8 9 11 15 27 29
1 1 8 9 22 32
1 1 8 12 15 16
1 1 8 16
1 1 8 19 20 26 27 29
1 1 8 19 20 27 28 29
1 1 8 20
12 1 9
16 1 9 10
1 1 9 10 23
1 1 9 22 32 33
3 1 10
1 1 10 25 33
1 1 11 12 18
1 1 11 18
1 1 11 20 29 30
2 1 15
1 1 15 21 24 25 33
1 1 15 22 25 32
1 1 21 22 25
1 1 21 22 25 33
2 1 22 25
1 1 22 25 32
1 1 22 28 32 33
1 1 24 25 33
1 1 25 27 28 32
2 1 26 27 29
1 1 33
20 2
6 2 3
1 2 3 4 5 7 13 17
1 2 3 4 8
1 2 3 4 8 9 10
1 2 3 4 8 15 17 19 20 25 26 27 28 29 32 33
1 2 3 4 11 15
1 2 3 5 8 9 10 11
1 2 3 5 8 9 10 11 12 15 34
1 2 3 5 8 9 10 11 13 16 18
1 2 3 5 8 9 10 12 15 16
1 2 3 5 8 9 10 12 16
1 2 3 5 8 9 10 13 15 17
1 2 3 5 8 9 15 17
1 2 3 5 8 10 14 15 17
1 2 3 5 8 15 24
1 2 3 5 14 15
1 2 3 5 15
1 2 3 8 9 10 12 13 15 18 31
1 2 3 8 9 10 15
1 2 3 8 9 10 15 25
1 2 3 8 9 15
2 2 3 11
1 2 3 11 18
1 2 3 12 15 17
1 2 3 13 15 18 22 25 33
1 2 3 14
1 2 3 15
3 2 3 15 17
1 2 3 15 22
2 2 3 18
1 2 3 23
1 2 3 28 33
1 2 3 33
2 2 4
1 2 4 5 7 11 15
1 2 4 5 7 15
1 2 4 5 8 9 10 11 16 18
1 2 4 5 15
1 2 4 6
1 2 4 6 31
1 2 4 7 8 16 18
1 2 4 15
1 2 4 17
1 2 5
1 2 5 8 9
2 2 5 8 9 10
1 2 5 8 9 10 11 12 16
1 2 5 8 9 10 11 16 18
1 2 5 8 9 10 11 16 18 23
1 2 5 8 9 10 16
1 2 5 8 9 10 16 18
1 2 5 8 9 12 13 16 23 31
3 2 5 8 9 16
2 2 5 8 10
1 2 5 8 10 15 16
1 2 5 8 10 16
1 2 5 8 10 31
1 2 5 9 16
1 2 5 10 16
3 2 5 14
3 2 6
1 2 6 8 14 26
3 2 8 9
2 2 8 9 10
1 2 8 9 10 12 13 16
1 2 8 9 10 16
1 2 8 9 10 16 18 23 31
3 2 8 9 16
1 2 8 9 31
1 2 8 13 19 20 27 28 29 30
1 2 8 14 25
1 2 8 16
1 2 8 19 20 26 27 28
1 2 8 19 20 26 27 29
2 2 8 19 20 30
1 2 8 26 27 29 30
1 2 8 31
1 2 9
1 2 9 10
1 2 9 10 16 23
1 2 9 12 13
3 2 11
1 2 11 12
1 2 11 12 13
1 2 11 12 13 18 23 31 34
1 2 11 13 31 34
1 2 11 18
1 2 11 18 22 25 31 33
1 2 11 22 24 25 33
1 2 11 22 25 33
1 2 11 25
2 2 12 13 18 23
3 2 13
1 2 13 15
1 2 13 18
1 2 13 34
4 2 15
1 2 15 17
1 2 15 24 25
8 2 18
1 2 18 21 22 25 33
4 2 18 23
1 2 18 23 34
1 2 18 26 27 28 29
2 2 18 34
1 2 22 24 25
1 2 22 25
2 2 23
2 2 24 25
2 2 25
1 2 27 28
1 2 27 28 29
1 2 27 28 30
44 3
1 3 4
1 3 4 5 6 8 15 24 25
1 3 4 5 6 15 25 27
1 3 4 5 6 25
2 3 4 6
1 3 4 6 8
2 3 4 6 8 15
1 3 4 6 8 15 27
1 3 4 6 10 16
1 3 4 8
1 3 4 8 15
1 3 4 8 15 19 24 27
1 3 4 8 20
2 3 4 15
1 3 4 15 17
1 3 4 15 26
1 3 4 15 27 28 29
1 3 5 6
1 3 5 6 8 15
1 3 5 6 8 15 19 20 25 29
1 3 5 6 8 15 29
1 3 5 6 9 14 17
1 3 5 6 15 25
1 3 5 6 17
1 3 5 6 24
1 3 5 8 14 15
1 3 5 8 25
1 3 5 9 14 15 25 27
2 3 5 15
1 3 5 15 25
1 3 5 15 25 29
1 3 5 15 25 32
1 3 5 15 25 33
1 3 5 33
1 3 6 8
2 3 6 8 15
1 3 6 8 26
1 3 6 9
1 3 6 14 25 29
1 3 6 15 25
4 3 8
1 3 8 9 11 15 17 23
1 3 8 9 23
1 3 8 10
1 3 8 14 19 20 25 27
1 3 8 15
1 3 8 15 24 25
1 3 8 19 33
1 3 8 28
1 3 10 16
1 3 11
1 3 11 15
1 3 12
1 3 14
4 3 15
6 3 15 17
1 3 15 17 18
1 3 15 27 28
5 3 17
1 3 19
1 3 19 29
1 3 24
1 3 24 27
1 3 25 33
1 3 27 33
1 3 28 29
2 3 29
23 4
19 4 5
1 4 5 6 8
3 4 5 7
1 4 5 7 11 15
1 4 5 7 15
1 4 5 8
2 4 5 8 15
1 4 5 8 15 25 33
1 4 5 14 30
9 4 5 15
1 4 5 15 22
6 4 6
1 4 6 7
2 4 6 8
3 4 6 8 15
1 4 6 8 24
1 4 6 8 27
1 4 6 15
1 4 6 15 17
1 4 6 15 24 25
1 4 6 16
1 4 6 27
1 4 7
1 4 7 8 16
2 4 7 15
1 4 8
1 4 8 9 16 25
6 4 15
1 4 27
5 5
1 5 6 8 9 10 14 15
1 5 6 15
1 5 7
1 5 7 8 9 16 18
15 5 8
1 5 8 9
2 5 8 9 10
1 5 8 9 10 11 12
1 5 8 9 10 12 16 25 33
4 5 8 9 10 16
1 5 8 9 10 16 23
1 5 8 9 11 23
1 5 8 9 16
3 5 8 10
2 5 8 10 16
1 5 8 10 25 33
1 5 8 13
1 5 8 14 28
1 5 8 15
1 5 8 15 20
4 5 8 16
1 5 8 24 27
1 5 9
1 5 9 10
1 5 9 10 15
1 5 13
2 5 14
2 5 15
1 5 15 18 22
1 5 15 21 24 25 33
1 5 21 24
1 5 21 24 25 33
2 5 25
5 6
3 6 7
1 6 7 8
6 6 7 8 16
1 6 7 8 26
1 6 8 11 17
1 6 8 24
2 6 16
29 7
4 7 8
1 7 8 24
1 7 15
3 7 16
1 7 24
14 8
4 8 9
2 8 9 10
1 8 9 10 11
1 8 9 10 12
3 8 9 10 16
1 8 9 11 16 18
1 8 9 14 25 28 32
3 8 9 16
1 8 10
1 8 14
1 8 15 17
1 8 15 17 25
1 8 15 29
9 8 16
2 8 19 20
1 8 19 20 26 27 28 29 30 34
1 8 19 20 27 29
1 8 19 20 28 30
1 8 19 20 29
1 8 20 26 27 29
1 8 20 27 28 29
1 8 20 29
1 8 20 34
1 8 25
1 8 26 27 28 29 30
1 8 27
1 8 28 29
9 9
22 9 10
1 9 10 11 34
2 10
1 10 16
1 11 27 28 29
1 13 19 20 27 28 29
4 14
17 15
3 15 17
1 15 22
1 15 22 24 28
1 15 22 25
1 15 22 33
3 15 24 25
2 15 25
1 15 25 33
1 16
1 17
1 17 25 32
3 19 20 26 27 29
2 19 20 26 29
1 19 20 27 29
3 19 20 29
1 19 27 29
1 19 29
1 20 26
1 20 26 27
1 20 27
1 20 27 28
1 20 29
1 21
1 21 22 25
11 22
2 22 25 33
1 22 33
2 24 25
1 24 25 33
11 25
2 25 32
3 25 33
2 26 27 28 29
1 26 27 29
6 27
1 27 28
2 27 28 29
1 27 29
1 28 30
1 29
3 32
2 33
1899
prevToken=send
prevTokenAndType=Personnel_Cabinet
arg=member
prevTokenAndType=Conflict_perhaps
prevTokenAndType=Business_)
evTypeArg=Elect:January
chunkPathAndType=Conflict_precede_of
evTypeArg=Transfer-Ownership:airport
prevToken=year
prevToken=provides
prevTokenAndType=Movement_send
chunkPath=follow_her_to
prevToken=After
anchor=this
prevTokenAndType=Movement_between
evTypeArg=Transport:their
evTypeArg=Die:her
synPath=object-1:receive:subject
synPathTypes=Personnel_PERSON_poss
evTypeArg=Elect:he
prevToken=sent
prevTokenAndType=Life_been
chunkPath=follow_,_include
arg=sister
chunkPathAndType=Movement_precede_want_to
synPathTypes=Movement_ORGANIZATION_subject
synPathEvType=Transaction_nameMod
arg=division
prevToken=attacked
prevToken=has
prevTokenAndType=Justice_think
prevToken=along
arg=two-day
evTypeArg=Attack:Karbala
prevTokenAndType=Life_about
chunkPathAndType=Life_follow_,_include
prevTokenAndType=Movement_aboard
evTypeArg=Start-Position:figures
evTypeArg=Phone-Write:He
arg=desert
evTypeArg=Meet:two-day
chunkPathAndType=Conflict_precede_at
evTypeArg=Attack:North_Korea
arg=citizens
evTypeArg=Elect:Bush
evTypeArg=Elect:Sistani
prevToken=sued
prevTokenAndType=Conflict_during
prevToken=So
evTypeArg=Attack:Republican_Guard
evTypeArg=Meet:Seoul
chunkPath=precede_would_you
chunkPath=follow_president
prevTokenAndType=Movement_is
arg=washington
prevTokenAndType=Personnel_elected
evTypeArg=Start-Position:he
arg=Tvrdik
prevTokenAndType=Justice_are
evTypeArg=Start-Position:Who
arg=enron
evTypeArg=Charge-Indict:court
prevTokenAndType=Personnel_put
arg=divisions
evTypeArg=Attack:arms
prevTokenAndType=Conflict_before
prevTokenAndType=Movement_before
evTypeArg=Transport:He
arg=obstruction_of_justice
arg=office
arg=jurisdiction
chunkPath=precede_should_be
evTypeArg=Transport:territory
synPathTypes=Personnel_PERSON_of
chunkPath=precede_would_like_to_see
prevToken=make
arg=Niagara_Falls
arg=Northern_Ireland
arg=region
anchor=out-raised
anchor=hire
arg=united_states
chunkPath=precede_have_(_negated_)
evTypeArg=Transport:Wednesday
arg=Sistani
evTypeArg=Meet:who
arg=officers
prevTokenAndType=Conflict_says
arg=former
anchor=ceremony/n
prevToken=aboard
prevToken=sure
arg=Kurds
prevToken=ending
synPath=object:lot:of
evTypeArg=Attack:america
prevTokenAndType=Personnel_appointed
synPathTypes=Personnel_Job-Title_object
anchor=conquer
prevToken=within
evTypeArg=Attack:town
evTypeArg=Attack:Fallujah
prevTokenAndType=Movement_along
prevToken=believe
chunkPath=precede_she_have
anchor=correspondence/n
arg=ceo
prevToken=engage
prevTokenAndType=Personnel_The
arg=1985
anchor=execute
arg=Basson
chunkPathAndType=Personnel_precede_'m
arg=1997
prevToken=clear
evTypeArg=Meet:us
prevTokenAndType=Movement_see
prevTokenAndType=Contact_told
evTypeArg=Die:group
anchor=use/n
chunkPathAndType=Justice_precede_'s
evTypeArg=Transport:unit
prevTokenAndType=Conflict_targeting
arg=sympathizers
arg=minor
evTypeArg=Attack:1994
synPathTypes=Personnel_ORGANIZATION_subject
evTypeArg=Sentence:his
anchor=direct
anchor=due
anchor=talks/n
evTypeArg=Charge-Indict:they
arg=helicopter
prevToken=acquiring
arg=africa
chunkPath=follow_PERSON_and
prevTokenAndType=Personnel_which
anchor=riot
evTypeArg=Attack:planes
prevToken=recent
evTypeArg=Attack:guns
evTypeArg=End-Position:him
chunkPathAndType=Personnel_follow_from
arg=head
chunkPath=follow_ORGANIZATION
arg=Army
arg=saddam_hussein
evTypeArg=Transfer-Ownership:Vivendi
evTypeArg=Die:baby
anchor=arrest/n
prevTokenAndType=Contact_what
chunkPath=precede_schedule_to
prevTokenAndType=Life_after
arg=attacker
evTypeArg=End-Position:Colin_Powell
anchor=case/n
prevTokenAndType=Movement_until
chunkPathAndType=Transaction_follow_for
evTypeArg=Appeal:his
anchor=strangle
evTypeArg=Phone-Write:he
prevToken=sentenced
prevTokenAndType=Justice_sentenced
arg=countries
arg=Jews
prevTokenAndType=Personnel_with
evTypeArg=Die:Jews
prevTokenAndType=Justice_from
chunkPath=precede_GPE
anchor=landing/n
evTypeArg=Attack:vehicles
arg=Sharif
chunkPathAndType=Personnel_precede_would_like_to_see
arg=Jerusalem
chunkPath=precede_didn't
anchor=air/n
evTypeArg=Sentence:He
prevToken=ship
arg=Greece
arg=Iraqi
arg=iran
prevToken=erupted
chunkPathAndType=Conflict_follow_into
prevTokenAndType=Transaction_buy
arg=silver_cross
prevToken=targeting
chunkPath=follow_and_kill
prevTokenAndType=Personnel_see
evTypeArg=Attack:us
prevTokenAndType=Transaction_on
arg=Britain
prevTokenAndType=Personnel_fired
anchor=bloodshed/n
evTypeArg=Die:journalist
prevTokenAndType=Personnel_In
prevTokenAndType=Personnel_-
arg=opponents
chunkPathAndType=Conflict_follow_and_kill
anchor=contact
evTypeArg=Attack:its
anchor=rumble
prevTokenAndType=Conflict_across
chunkPathAndType=Contact_precede_can
evTypeArg=End-Position:former
evTypeArg=Attack:camp
arg=sons
prevTokenAndType=Conflict_think
evTypeArg=Elect:president
chunkPathAndType=Personnel_follow_president
chunkPath=precede_,_the
prevTokenAndType=Justice_give
evTypeArg=Convict:murdering_his_wife_Laci_and_their_unborn_son
arg=buildings
anchor=indict
arg=houses
chunkPathAndType=Life_follow_when
evTypeArg=End-Position:minister
evTypeArg=Transport:Washington
prevToken=slaughtered
evTypeArg=Meet:We
arg=Malaysia
arg=lobby
prevToken=end
evTypeArg=Attack:divisions
evTypeArg=Attack:u.s
prevToken=compensating
evTypeArg=Die:He
chunkPathAndType=Conflict_follow_between
arg=malvo
evTypeArg=Transport:that
chunkPath=follow_him_to
arg=Muslims
chunkPath=precede_might
anchor=pardon
anchor=withdraw
prevToken=opened
anchor=did
evTypeArg=Transport:us
anchor=travel/n
prevTokenAndType=Life_just
arg=2001
arg=sides
chunkPath=precede_be_be
arg=Boston
arg=mortars
synPathTypes=Justice_GPE_subject
anchor=firefight/n
evTypeArg=Attack:Palestinian
chunkPathAndType=Transaction_precede_get
evTypeArg=Attack:buildings
evTypeArg=Transfer-Ownership:she
arg=saudi_arabia
prevToken=keep
prevTokenAndType=Conflict_was
arg=Afghanistan
prevTokenAndType=Movement_reached
prevTokenAndType=Conflict_slaughtered
evTypeArg=Meet:board
arg=Lebanon
chunkPathAndType=Movement_precede_have_to
prevTokenAndType=Life_over
arg=areas
prevTokenAndType=Transaction_acquiring
evTypeArg=Transport:our
anchor=punch/n
anchor=follow
prevTokenAndType=Life_but
evTypeArg=Attack:car
evTypeArg=Start-Position:there
anchor=message/n
prevToken=MALE
evTypeArg=Transport:Boston
arg=operations
anchor=gathering/n
evTypeArg=Release-Parole:your
arg=Israelis
prevTokenAndType=Justice_because
chunkPathAndType=Personnel_precede_would_you
evTypeArg=Attack:ship
prevToken=entering
arg=compound
evTypeArg=Transfer-Ownership:him
anchor=close
evTypeArg=Start-Org:they
anchor=targeting
anchor=form
prevToken=elected
prevTokenAndType=Conflict_shot
anchor=journey/n
prevToken=appointed
chunkPathAndType=Transaction_follow_:
arg=Indonesia
evTypeArg=Transport:border
prevTokenAndType=Conflict_Iraq
prevTokenAndType=Personnel_recent
prevTokenAndType=Conflict_On
arg=israelis
arg=Pearl
arg=Most
evTypeArg=Transport:building
anchor=electoral
arg=boys
prevTokenAndType=Contact_by
evTypeArg=Attack:Gaza
evTypeArg=Meet:George_W._Bush
arg=organizations
prevTokenAndType=Movement_because
arg=mob
arg=figures
anchor=extradite
evTypeArg=Attack:Britain
chunkPath=precede_go_to_be
evTypeArg=Transfer-Money:they
arg=district
synPath=of-1
chunkPath=precede_be_to
prevTokenAndType=Contact_``
evTypeArg=Attack:Bush
chunkPath=precede_on
evTypeArg=Attack:israeli
evTypeArg=Divorce:his
arg=jury
arg=grandmother
prevTokenAndType=Justice_year
prevToken=Cabinet
evTypeArg=Transfer-Ownership:Iran
evTypeArg=Sentence:your
anchor=blind
prevTokenAndType=Movement_-
arg=Republican_Guard
anchor=haul
evTypeArg=Meet:Friday
arg=sam_waksal
anchor=destruction/n
chunkPath=precede_in
evTypeArg=Die:man
arg=knife
anchor=buys
prevToken=bring
arg=Pakistan
anchor=evacuate
anchor=pled
prevToken=another
evTypeArg=Transport:now
anchor=control/n
synPath=object-1:face:subject
prevTokenAndType=Movement_took
synPathEvType=Movement_object-1:make:subject
chunkPathAndType=Transaction_follow_in
prevTokenAndType=Life_said
anchor=tell
prevTokenAndType=Life_blew
chunkPathAndType=Movement_precede_try_to
chunkPathAndType=Movement_precede_did
chunkPath=follow_to_GPE
prevTokenAndType=Conflict_dropped
chunkPath=precede_do
chunkPath=precede_at
arg=New_England
prevToken=across
chunkPath=precede_may_have
prevTokenAndType=Movement_towards
evTypeArg=Attack:him
evTypeArg=Attack:his
arg=side
chunkPath=precede_from
arg=its
synPathEvType=Justice_nameMod
arg=Bali
prevToken=who
evTypeArg=Phone-Write:mother
prevToken=reached
chunkPathAndType=Life_follow_PERSON_and
evTypeArg=Die:himself
evTypeArg=Transport:Afghanistan
chunkPath=precede_try_to
evTypeArg=Attack:place
evTypeArg=Transfer-Money:reporter
prevToken=buy
evTypeArg=Die:crew
evTypeArg=Elect:recent
arg=March_20
synPathEvType=Business_subject
evTypeArg=Start-Position:I
evTypeArg=Appeal:Anwar
synPathTypes=Transaction_ORGANIZATION_of
prevToken=But
arg=Kuwait
prevToken=not
synPathTypes=Conflict_ORGANIZATION_subject
arg=April_30
anchor=support/n
anchor=assassinate
chunkPathAndType=Movement_follow_through
arg=chief
prevTokenAndType=Justice_where
evTypeArg=Transport:New_England
evTypeArg=Meet:Blair
prevTokenAndType=Movement_since
anchor=deadly
prevToken=home
evTypeArg=Transport:Niagara_Falls
prevTokenAndType=Conflict_drop
evTypeArg=Transport:vehicles
prevTokenAndType=Life_injured
evTypeArg=Die:terrorists
prevTokenAndType=Life_Trial
evTypeArg=Phone-Write:people
evTypeArg=Transport:car
anchor=incursion/n
evTypeArg=Meet:people
evTypeArg=Charge-Indict:he
anchor=loss/n
arg=suspect
arg=guys
arg=bullet
chunkPathAndType=Movement_follow_to_GPE
evTypeArg=Attack:militants
chunkPathAndType=Conflict_precede_-_lead
evTypeArg=Attack:Japan
evTypeArg=Attack:groups
evTypeArg=Attack:terrorist
evTypeArg=Attack:bomber
evTypeArg=Attack:U.S
prevTokenAndType=Conflict_between
evTypeArg=Attack:US
evTypeArg=Attack:Washington
chunkPath=precede_-_lead
evTypeArg=Attack:group
evTypeArg=Attack:coalition
evTypeArg=Attack:Iraqis
evTypeArg=Attack:military
evTypeArg=Attack:nation
arg=america
evTypeArg=Attack:country
evTypeArg=Attack:Israel
evTypeArg=Attack:Israeli
synPathTypes=Conflict_GPE_poss
evTypeArg=Attack:Iraq
evTypeArg=Attack:Iran
synPathTypes=Conflict_GPE_nameMod
synPathEvType=Conflict_nameMod
evTypeArg=Attack:United_States
evTypeArg=Attack:China
synPathTypes=Conflict_GPE_subject
synPathTypes=Conflict_GPE_object
anchor=resistance/n
anchor=battle
noSynPath
dist=2
dist=3
dist=1
dist=0
dist=4
dist=5
chunkPath=precede_
dist=6
dist=7
prevToken=for
dist=11
prevToken=,
chunkPath=follow_
prevToken=and
dist=8
anchor=take
prevToken=by
synPath=object
prevToken=of
prevToken=as
prevToken=.
chunkPath=precede_to
dist=9
dist=12
prevToken=that
chunkPath=precede_be
prevToken=the
anchor=go
prevToken=but
dist=14
prevToken=:
evType=Conflict
anchor=war/n
prevToken=on
prevToken="
chunkPath=precede_,
synPath=poss
dist=10
dist=13
prevToken=a
dist=15
noChunkPath
prevToken=is
prevTokenAndType=Conflict_"
prevTokenAndType=Conflict_and
chunkPathAndType=Conflict_precede_be
prevToken=in
prevToken=from
dist=17
prevToken=or
prevTokenAndType=Conflict_,
chunkPathAndType=Conflict_precede_
anchor=fight
prevTokenAndType=Conflict_.
anchor=fire
chunkPathAndType=Conflict_precede_,
anchor=blow
anchor=shoot
anchor=kill
anchor=destroy
prevToken=including
anchor=slaughter
prevToken=killed
anchor=hit
anchor=genocide/n
prevToken='s
anchor=it/pro
anchor=launch
anchor=throw
anchor=assault/n
anchor=drop
anchor=airstrikes/n
anchor=storm
anchor=invasion/n
anchor=attack
anchor=combat/n
anchor=front/n
anchor=assault
anchor=detonate
chunkPathAndType=Conflict_precede_to
anchor=hit/n
prevTokenAndType=Conflict_from
prevTokenAndType=Conflict_or
prevTokenAndType=Conflict_:
anchor=battle/n
anchor=raid/n
anchor=explosion/n
anchor=fire/n
prevTokenAndType=Conflict_the
anchor=bomb
anchor=attack/n
anchor=strike/n
anchor=strike
prevTokenAndType=Conflict_in
chunkPathAndType=Conflict_follow_
anchor=bombings/n
anchor=clash
prevTokenAndType=Conflict_for
anchor=fighting/n
anchor=shot/n
prevTokenAndType=Conflict_on
anchor=action/n
anchor=gunfire/n
anchor=drop/n
anchor=terror/n
anchor=fight/n
prevTokenAndType=Conflict_a
prevTokenAndType=Conflict_'s
dist=18
prevTokenAndType=Conflict_is
anchor=uprising/n
anchor=War
arg=israeli
arg=China
synPath=subject
prevToken=when
prevToken=with
prevToken=where
prevToken=to
prevToken=)
arg=people
prevToken=said
chunkPath=precede_have
chunkPath=precede_have_to
arg=their
prevToken=-
prevToken=be
arg=we
prevToken=time
prevToken=an
arg=Israel
menType=GPE
arg=U.S
synPath=nameMod
arg=United_States
arg=US
arg=Washington
arg=government
arg=nation
prevTokenAndType=Conflict_with
prevTokenAndType=Conflict_of
prevTokenAndType=Conflict_as
synPathEvType=Conflict_subject
synPathEvType=Conflict_object
chunkPath=follow_with
anchor=use
anchor=campaign/n
synPathEvType=Conflict_poss
chunkPath=follow_from
arg=country
arg=Iraq
prevToken=persuade
arg=Japan
anchor=eliminate
anchor=gun
anchor=torture
prevToken=how
arg=it
dist=16
anchor=killing/n
arg=israel
arg=Israeli
anchor=open
chunkPath=follow_when
anchor=invade
arg=state
prevToken=like
anchor=targeted
evTypeArg=Attack:their
evTypeArg=Attack:we
anchor=overthrow
prevTokenAndType=Conflict_against
anchor=engage
anchor=aggression/n
evTypeArg=Attack:people
chunkPathAndType=Conflict_follow_against
anchor=violence/n
chunkPathAndType=Conflict_follow_with
evTypeArg=Attack:it
anchor=clash/n
anchor=obliterate
anchor=striking
anchor=explode
prevTokenAndType=Conflict_when
anchor=defeat
anchor=punch
prevTokenAndType=Conflict_by
anchor=ambush
prevToken=into
prevTokenAndType=Conflict_to
prevTokenAndType=Conflict_into
chunkPath=follow_against
prevToken=against
prevTokenAndType=Conflict_-
arg=White_House
anchor=conflict/n
prevToken=this
arg=Iran
prevToken=Iraq
chunkPathAndType=Conflict_precede_'s
chunkPath=follow_,
prevToken=think
prevToken=--
prevToken=after
prevTokenAndType=Conflict_that
chunkPath=precede_'s
chunkPath=precede_get
prevToken=then
prevToken=before
prevTokenAndType=Conflict_after
chunkPath=precede_have_be
prevToken=left
prevTokenAndType=Conflict_including
prevToken=attack
prevTokenAndType=Conflict_killed
anchor=abuse/n
chunkPathAndType=Conflict_precede_have_be
anchor=shootings/n
chunkPathAndType=Conflict_precede_engage_in_major
chunkPath=precede_engage_in_major
prevToken=arrested
arg=George_W._Bush
chunkPathAndType=Conflict_precede_go_to
arg=Arafat
arg=demonstrators
arg=they
arg=one
menType=PERSON
arg=he
arg=his
arg=him
arg=she
arg=woman
arg=He
arg=who
arg=troops
arg=They
prevToken=say
arg=someone
prevToken=because
arg=group
prevToken=while
prevToken=out
arg=her
arg=them
arg=members
arg=Americans
arg=leaders
arg=others
arg=two
arg=president
arg=Palestinian
arg=police
arg=We
menType=ORGANIZATION
arg=Bush
arg=you
arg=regime
chunkPath=follow_by
prevToken=have
chunkPath=precede_will
chunkPath=precede_go_to
prevToken=between
arg=army
prevToken=know
synPathTypes=Conflict_PERSON_object
prevTokenAndType=Conflict_said
prevTokenAndType=Conflict_)
synPathTypes=Conflict_PERSON_subject
arg=unit
arg=our
prevToken=saying
anchor=cut
chunkPath=precede_don't
chunkPath=precede_can
prevToken=says
arg=team
prevToken=what
arg=bush
chunkPath=precede_plan_to
chunkPath=precede_'ll
chunkPath=follow_between
arg=You
arg=North_Korea
arg=groups
arg=Palestinians
arg=insurgents
arg=bomber
anchor=beat
arg=those
anchor=poison
prevToken=if
arg=fighters
arg=soldiers
arg=man
arg=men
arg=terrorists
arg=bombers
prevToken=had
arg=soldier
arg=father
arg=Iraqis
prevToken=are
arg=civilians
prevToken=about
prevToken=which
prevToken=whether
arg=enemy
arg=Marines
prevToken=reports
arg=iraqis
arg=military
arg=sniper
arg=militia
arg=marines
arg=force
arg=forces
arg=hamas
prevToken=allow
arg=troop
prevToken=If
arg=Tugle
arg=extremists
arg=coalition
evTypeArg=Attack:troops
anchor=rape
evTypeArg=Attack:man
evTypeArg=Attack:soldiers
evTypeArg=Attack:men
prevTokenAndType=Conflict_whether
evTypeArg=Attack:members
evTypeArg=Attack:he
evTypeArg=Attack:They
evTypeArg=Attack:woman
evTypeArg=Attack:forces
evTypeArg=Attack:terrorists
evTypeArg=Attack:civilians
evTypeArg=Attack:who
prevTokenAndType=Conflict_attack
evTypeArg=Attack:she
evTypeArg=Attack:We
prevTokenAndType=Conflict_say
evTypeArg=Attack:marines
evTypeArg=Attack:militia
evTypeArg=Attack:her
evTypeArg=Attack:regime
evTypeArg=Attack:you
evTypeArg=Attack:them
evTypeArg=Attack:those
evTypeArg=Attack:Americans
evTypeArg=Attack:hamas
chunkPathAndType=Conflict_follow_,
prevTokenAndType=Conflict_if
prevTokenAndType=Conflict_where
evTypeArg=Attack:one
evTypeArg=Attack:they
prevTokenAndType=Conflict_about
prevTokenAndType=Conflict_which
arg=7th_Cavalry
arg=units
anchor=push
arg=personnel
prevToken=give
chunkPathAndType=Conflict_precede_have
prevTokenAndType=Conflict_have
prevTokenAndType=Conflict_had
prevTokenAndType=Conflict_why
prevToken=firing
prevTokenAndType=Conflict_--
arg=which
prevToken=why
chunkPathAndType=Conflict_follow_by
arg=militants
chunkPath=precede_that
arg=u.s
arg=terrorist
arg=Toefting
arg=Ba'asyir
chunkPath=follow_:
evTypeArg=Attack:iraq
evTypeArg=Attack:Rwanda
evTypeArg=Attack:here
evTypeArg=Elect:US
evTypeArg=Attack:area
evTypeArg=Die:there
evTypeArg=Attack:there
arg=Tel_Aviv
arg=Vietnam
arg=Rwanda
evTypeArg=Demonstrate:streets
evTypeArg=Attack:city
evTypeArg=Die:hospital
arg=Haifa
evTypeArg=Attack:baghdad
evTypeArg=Attack:Vietnam
evTypeArg=Attack:gaza
evTypeArg=Attack:bridge
arg=mall
evTypeArg=Die:Iraq
evTypeArg=Attack:Baghdad
arg=place
prevTokenAndType=Conflict_around
evTypeArg=Die:checkpoint
evTypeArg=Attack:village
arg=gaza
arg=prison
chunkPathAndType=Business_follow_in
prevToken=died
chunkPathAndType=Contact_follow_at
chunkPathAndType=Contact_follow_on
chunkPathAndType=Justice_follow_in
prevTokenAndType=Life_In
prevTokenAndType=Contact_at
prevTokenAndType=Life_died
prevTokenAndType=Conflict_over
chunkPathAndType=Life_follow_in
prevToken=meet
prevTokenAndType=Personnel_at
anchor=protest/n
anchor=talk
prevTokenAndType=Contact_meet
prevTokenAndType=Contact_call
anchor=conference/n
prevToken=call
anchor=letter/n
anchor=protest
anchor=speak
anchor=demonstrate
chunkPath=follow_of
prevToken=at
prevToken=over
anchor=pay
anchor=come
anchor=be
evType=Justice
evType=Personnel
chunkPath=precede_for
chunkPathAndType=Personnel_precede_
anchor=name
prevTokenAndType=Justice_.
prevTokenAndType=Justice_,
prevToken=was
chunkPath=follow_at
prevToken=The
dist=21
anchor=march/n
anchor=march
chunkPath=follow_for
anchor=visit
prevToken=since
anchor=win
chunkPath=follow_be
anchor=call
prevTokenAndType=Contact_on
prevTokenAndType=Contact_the
prevTokenAndType=Contact_a
anchor=talk/n
evType=Contact
prevTokenAndType=Personnel_the
anchor=meeting/n
anchor=summit/n
chunkPathAndType=Contact_precede_
anchor=appoint
prevTokenAndType=Personnel_in
anchor=release
anchor=meet
anchor=step
prevTokenAndType=Personnel_:
anchor=dismiss
anchor=replace
prevTokenAndType=Personnel_.
prevTokenAndType=Personnel_,
prevTokenAndType=Personnel_for
anchor=elect
anchor=former
anchor=election/n
chunkPathAndType=Personnel_follow_
anchor=resign
dist=19
prevToken=00
chunkPathAndType=Contact_follow_
anchor=call/n
anchor=rally/n
prevTokenAndType=Contact_,
chunkPathAndType=Life_precede_,
prevTokenAndType=Life_'s
prevTokenAndType=Life_at
prevTokenAndType=Life_killed
prevTokenAndType=Life_on
chunkPathAndType=Life_precede_to
anchor=assassination/n
prevTokenAndType=Life_the
anchor=injure
anchor=wound
anchor=casualty/n
anchor=injury/n
anchor=die
anchor=dead
evType=Life
chunkPathAndType=Life_follow_
chunkPathAndType=Life_precede_
prevTokenAndType=Life_.
anchor=lose
anchor=death/n
anchor=suicide/n
evType=Movement
anchor=execution/n
anchor=slaughter/n
prevToken=hit
anchor=get
chunkPath=precede_and
chunkPathAndType=Justice_precede_
evType=Business
anchor=set
anchor=found
prevTokenAndType=Personnel_and
anchor=jail
anchor=arrest
prevTokenAndType=Justice_of
anchor=ambush/n
prevTokenAndType=Conflict_hit
chunkPathAndType=Conflict_follow_on
prevTokenAndType=Conflict_The
anchor=blast/n
chunkPath=follow_on
prevTokenAndType=Conflict_at
chunkPath=follow_over
chunkPath=follow_in
evType=Transaction
prevTokenAndType=Transaction_in
anchor=capture
anchor=seize
anchor=buy
anchor=sell
prevTokenAndType=Conflict_In
anchor=nine
eleven
anchor=marry
prevToken=In
anchor=trial/n
anchor=appeal/n
anchor=bankruptcy/n
chunkPathAndType=Contact_follow_in
prevTokenAndType=Contact_in
anchor=charge/n
chunkPathAndType=Business_follow_
prevTokenAndType=Business_in
anchor=tie
anchor=birth/n
anchor=wed
anchor=born
anchor=divorce/n
prevTokenAndType=Personnel_on
chunkPathAndType=Justice_follow_of
chunkPathAndType=Justice_follow_
prevTokenAndType=Life_in
prevToken=At
anchor=sentence/n
chunkPathAndType=Conflict_follow_in
chunkPathAndType=Personnel_follow_in
anchor=charge
dist=20
anchor=sentence
anchor=conviction/n
anchor=convict
prevTokenAndType=Justice_in
anchor=appeal
chunkPath=follow_in_the
anchor=reunite
anchor=gather
synPathEvType=Contact_nameMod
chunkPathAndType=Contact_follow_to
chunkPathAndType=Contact_follow_from
prevTokenAndType=Contact_to
anchor=telephone/n
evTypeArg=Elect:government
prevTokenAndType=Contact_from
evTypeArg=Elect:Iraq
synPath=of
arg=us
chunkPath=precede_did
anchor=put
arg=Turkey
anchor=turn
chunkPath=follow_to
arg=where
arg=Seoul
arg=there
arg=city
arg=Jordan
arg=Pyongyang
prevToken=leave
prevTokenAndType=Contact_and
anchor=become
prevTokenAndType=Personnel_said
arg=board
prevTokenAndType=Personnel_to
synPathEvType=Personnel_poss
prevTokenAndType=Personnel_of
arg=jordan
anchor=negotiation/n
synPathEvType=Contact_object
prevTokenAndType=Justice_the
chunkPathAndType=Life_precede_,_be
anchor=murder/n
chunkPathAndType=Life_precede_who
anchor=murder
prevTokenAndType=Life_when
prevTokenAndType=Life_of
anchor=back
chunkPath=precede_who
prevTokenAndType=Life_to
chunkPath=precede_,_be
arg=another
anchor=fall
synPathEvType=Life_poss
prevTokenAndType=Life_a
anchor=land
prevTokenAndType=Justice_to
anchor=remove
anchor=create
chunkPathAndType=Business_precede_to
prevTokenAndType=Justice_and
synPathEvType=Justice_subject
prevTokenAndType=Justice_that
arg=court
synPathTypes=Conflict_LOCATION_object
evTypeArg=Attack:building
synPathTypes=Conflict_FACILITY_object
prevTokenAndType=Conflict_outside
prevTokenAndType=Conflict_near
chunkPathAndType=Conflict_follow_to
chunkPathAndType=Conflict_follow_at
arg=store
arg=cafe
prevToken=outside
synPathEvType=Conflict_of
chunkPathAndType=Conflict_follow_of
anchor=threat/n
prevToken=were
menType=FACILITY
prevToken=through
prevToken=towards
arg=checkpoint
arg=site
arg=building
menType=LOCATION
prevToken=near
arg=home
arg=center
prevToken=down
prevTokenAndType=Conflict_use
prevToken=use
prevTokenAndType=Life_from
arg=bridge
chunkPath=follow_into
arg=airport
arg=hotel
anchor=have
prevToken=got
prevToken=took
prevToken=take
prevTokenAndType=Transaction_,
prevTokenAndType=Transaction_of
anchor=deliver
arg=Gaza_Strip
arg=village
arg=iraq
arg=border
prevToken=enter
prevToken=inside
arg=mars
arg=camp
arg=streets
arg=territory
arg=Middle_East
arg=Paris
arg=here
chunkPathAndType=Movement_follow_into
arg=area
arg=Baghdad
prevToken=around
arg=town
arg=New_York
arg=capital
arg=baghdad
arg=FL
evTypeArg=Transport:Iraq
arg=Karbala
chunkPath=follow_through
arg=London
arg=outskirts
arg=hospital
prevTokenAndType=Movement_into
chunkPathAndType=Justice_follow_to
arg=Fallujah
arg=West_Bank
arg=Gaza
prevTokenAndType=Justice_at
prevTokenAndType=Conflict_since
anchor=intifada/n
chunkPathAndType=Transaction_precede_to
chunkPathAndType=Personnel_follow_of
synPathEvType=Personnel_of
prevTokenAndType=Justice_)
anchor=serve
anchor=prosecute
anchor=indictment/n
anchor=accuse
anchor=try
anchor=face
prevTokenAndType=Justice_a
anchor=lawsuit/n
anchor=receive
anchor=raise
anchor=e
evTypeArg=Appeal:court
evTypeArg=Attack:Monday
arg=Sunday_morning
evTypeArg=Die:last_week
evTypeArg=Die:today
prevTokenAndType=Life_hospital
evTypeArg=Injure:Tuesday
prevToken=On
arg=recently
chunkPathAndType=Life_follow_in_hospital
arg=1991
evTypeArg=Meet:today
prevToken=hospital
evTypeArg=Die:Monday
arg=recent
arg=yesterday
evTypeArg=Meet:Tuesday
evTypeArg=Attack:Sunday
evTypeArg=Die:Tuesday
chunkPath=follow_in_hospital
arg=this_weekend
prevTokenAndType=Contact_meeting
anchor=e-mail
prevTokenAndType=Contact_as
anchor=interview/n
anchor=discuss
prevToken=meeting
prevToken=been
prevToken=all
anchor=that
anchor=give
prevToken=only
anchor=visit/n
anchor=drive
anchor=trip/n
anchor=head
anchor=send
anchor=leave
anchor=run
anchor=out
prevToken=so
anchor=start
prevTokenAndType=Personnel_--
anchor=return
anchor=transfer
anchor=walk
anchor=join
anchor=phone/n
prevTokenAndType=Contact_.
prevTokenAndType=Contact_for
anchor=appointment/n
prevTokenAndType=Justice_on
prevToken=started
chunkPathAndType=Personnel_precede_be
anchor=quit
anchor=retire
anchor=removal/n
anchor=release/n
prevToken=met
prevTokenAndType=Contact_met
anchor=discussion/n
anchor=fine/n
anchor=hear
prevTokenAndType=Life_wounded
anchor=injured
prevTokenAndType=Life_,
prevTokenAndType=Life_and
prevTokenAndType=Movement_,
synPathEvType=Life_object
prevToken=injured
prevToken=wounded
prevToken=off
chunkPathAndType=Life_precede_'s
chunkPath=follow_GPE
prevToken=just
anchor=advance/n
prevTokenAndType=Movement_by
anchor=smuggle
chunkPathAndType=Movement_precede_
chunkPathAndType=Movement_follow_
anchor=fly
anchor=move
anchor=carry
anchor=arrive
chunkPathAndType=Movement_precede_to
prevTokenAndType=Movement_that
prevTokenAndType=Movement_.
prevTokenAndType=Movement_but
anchor=withdrawal/n
anchor=lift
chunkPathAndType=Movement_precede_be
anchor=abandon
anchor=mission/n
chunkPathAndType=Movement_precede_and
prevTokenAndType=Business_that
prevTokenAndType=Business_and
chunkPathAndType=Business_precede_
prevToken=bombing
prevTokenAndType=Conflict_bombing
anchor=crossfire/n
prevToken=gave
anchor=travel
anchor=cross
chunkPathAndType=Movement_follow_over
prevTokenAndType=Movement_over
anchor=push/n
prevTokenAndType=Movement_on
anchor=advance
prevTokenAndType=Movement_in
chunkPathAndType=Movement_follow_in
anchor=arrival/n
anchor=jump
anchor=enter
chunkPathAndType=Transaction_precede_
prevToken=until
prevTokenAndType=Movement_after
anchor=acquire
prevTokenAndType=Transaction_.
anchor=export
anchor=sale/n
prevTokenAndType=Transaction_for
prevTokenAndType=Movement_the
chunkPathAndType=Movement_follow_on
prevTokenAndType=Movement_left
prevTokenAndType=Movement_at
prevToken=came
chunkPath=precede_of
evTypeArg=Meet:Wednesday
evTypeArg=Attack:nine_eleven
arg=nine_eleven
arg=now
menType=Time
menType=Age
arg=Wednesday
prevTokenAndType=Justice_for
anchor=sue
chunkPathAndType=Justice_follow_for
prevToken=during
arg=Friday
arg=today
arg=Sunday
evTypeArg=Attack:Saturday
arg=Saturday
anchor=marriage/n
arg=Monday
chunkPath=follow_in_GPE
anchor=divorce
prevTokenAndType=Justice_arrested
anchor=resignation/n
prevToken=fire
anchor=re/n
synPathEvType=Justice_poss
evTypeArg=Transport:Thursday
arg=1998
arg=1999
arg=Tuesday
arg=last_year
evTypeArg=Attack:Tuesday
evTypeArg=Transport:today
evTypeArg=Meet:tomorrow
anchor=hearing/n
arg=this_morning
arg=1994
arg=January
arg=tomorrow
arg=Thursday
anchor=loan/n
arg=last_week
prevToken=began
anchor=suit/n
anchor=acquit
evTypeArg=Attack:today
arg=tonight
prevTokenAndType=Justice_sentence
prevToken=sentence
prevTokenAndType=Justice_:
prevToken=here
anchor=steal
anchor=gift/n
prevTokenAndType=Transaction_a
synPathEvType=Contact_poss
arg=Annan
prevTokenAndType=Contact_between
evTypeArg=Meet:Bush
evTypeArg=Meet:leaders
evTypeArg=Meet:bush
synPathTypes=Contact_GPE_nameMod
evTypeArg=Meet:members
chunkPathAndType=Contact_follow_with
chunkPathAndType=Personnel_follow_to
synPathTypes=Contact_PERSON_object
synPathTypes=Contact_PERSON_poss
evTypeArg=Meet:Putin
anchor=sit
evTypeArg=Meet:we
prevTokenAndType=Contact_when
evTypeArg=Meet:officials
chunkPathAndType=Contact_follow_of
evTypeArg=Meet:president
evTypeArg=Meet:he
evTypeArg=Meet:North_Korea
evTypeArg=Demonstrate:protesters
prevTokenAndType=Contact_that
evTypeArg=Demonstrate:people
evTypeArg=Meet:Annan
anchor=write
evTypeArg=Meet:their
prevTokenAndType=Contact_of
evTypeArg=Meet:He
synPathTypes=Contact_PERSON_subject
evTypeArg=Phone-Write:I
evTypeArg=Phone-Write:you
synPathEvType=Contact_subject
chunkPathAndType=Contact_precede_have
evTypeArg=Phone-Write:we
evTypeArg=Phone-Write:us
prevTokenAndType=Contact_''
evTypeArg=Meet:minister
evTypeArg=Meet:they
prevTokenAndType=Contact_where
evTypeArg=Meet:Al-Douri
chunkPathAndType=Contact_follow_between
prevTokenAndType=Contact_with
prevTokenAndType=Contact_-
arg=Yasser_Arafat
arg=person
arg=She
arg=mother
arg=me
arg=american
arg=many
arg=leader
arg=son
arg=wife
prevToken=leaving
prevToken=When
arg=daughter
arg=i
arg=women
arg=husband
arg=parents
arg=minister
synPath=object-1:have:subject
anchor=cost/n
prevToken=``
arg=Saddam
arg=I
arg=officials
prevToken=up
arg=killer
chunkPath=follow_as
arg=families
arg=that
chunkPath=precede_will_be
prevToken=?
arg=somebody
synPathEvType=Personnel_subject
synPathTypes=Justice_PERSON_object
arg=your
synPathEvType=Justice_object
prevTokenAndType=Justice_when
prevToken=asked
arg=protesters
prevToken=once
prevToken=''
arg=friends
prevToken=visited
arg=companies
arg=guy
arg=Tony_Blair
arg=family
arg=Vivendi_Universal_Entertainment
arg=Blair
anchor=end
anchor=reach
synPath=object-1:make:subject
arg=company
arg=Putin
arg=Anwar
chunkPath=precede_want_to
arg=thousands
chunkPath=follow_out-of
prevTokenAndType=Contact_"
prevTokenAndType=Personnel_since
prevTokenAndType=Contact_said
arg=party
prevTokenAndType=Personnel_when
arg=Colin_Powell
prevTokenAndType=Personnel_that
arg=Al-Douri
anchor=retired
prevTokenAndType=Personnel_as
prevTokenAndType=Personnel_from
chunkPathAndType=Personnel_precede_'s
synPathEvType=Personnel_object
chunkPathAndType=Personnel_precede_have
anchor=introduce
prevToken=pay
chunkPathAndType=Personnel_follow_as
prevToken=retired
prevTokenAndType=Personnel_former
prevTokenAndType=Personnel_retired
prevToken=former
arg=Vivendi
arg=Vivendi_Universal
arg=shareholders
arg=lawyers
prevToken=told
arg=SEC
anchor=spend
arg=USCF
arg=EU
prevTokenAndType=Life_leader
evTypeArg=Injure:others
evTypeArg=Die:Arafat
prevTokenAndType=Life_killing
evTypeArg=Injure:people
evTypeArg=Die:Yasser_Arafat
evTypeArg=Die:civilians
evTypeArg=Die:members
prevToken=murdering
prevToken=kill
evTypeArg=Die:wife
evTypeArg=Die:son
evTypeArg=Injure:he
prevTokenAndType=Life_surrounding
prevTokenAndType=Life_kill
evTypeArg=Die:civilian
prevTokenAndType=Life_murdering
prevToken=surrounding
evTypeArg=Die:Americans
prevToken=leader
evTypeArg=Die:children
chunkPath=precede_illness_and
chunkPathAndType=Life_precede_illness_and
prevTokenAndType=Life_including
chunkPathAndType=Life_precede_have
evTypeArg=Die:woman
evTypeArg=Die:his
evTypeArg=Die:soldier
evTypeArg=Die:they
evTypeArg=Die:soldiers
prevTokenAndType=Life_say
evTypeArg=Die:bomber
evTypeArg=Die:mother
evTypeArg=Die:troops
evTypeArg=Die:who
evTypeArg=Die:bombers
evTypeArg=Die:person
evTypeArg=Die:journalists
evTypeArg=Die:people
evTypeArg=Die:he
evTypeArg=Die:men
prevTokenAndType=Life_as
arg=journalists
anchor=stab
anchor=hurt
prevTokenAndType=Life_by
prevTokenAndType=Life_for
synPathEvType=Life_subject
evTypeArg=Transport:who
chunkPath=precede_could
arg=pilots
prevToken=And
prevToken=(
synPathTypes=Life_PERSON_subject
prevTokenAndType=Life_think
prevTokenAndType=Life_because
chunkPathAndType=Life_precede_be
chunkPathAndType=Life_follow_,
prevTokenAndType=Life_if
prevTokenAndType=Life_that
prevTokenAndType=Life_)
synPathTypes=Life_PERSON_object
anchor=do
prevToken=killing
arg=journalist
prevToken=blew
prevToken=injuring
prevToken=perhaps
arg=civilian
prevToken=shot
arg=more
arg=diplomats
arg=children
arg=baby
arg=boy
arg=victims
prevToken=among
arg=child
arg=governor
arg=brother
arg=convoy
arg=himself
anchor=wound/n
prevToken=As
prevTokenAndType=Life_out
prevTokenAndType=Life_with
arg=crew
arg=some
synPathTypes=Life_PERSON_of
synPathTypes=Life_PERSON_poss
chunkPathAndType=Life_follow_of
arg=Who
synPathEvType=Life_of
chunkPathAndType=Life_precede_have_be
arg=reporter
chunkPathAndType=Life_precede_find_guilty_of
evTypeArg=Arrest-Jail:we
evTypeArg=Die:Scott_Peterson
synPathTypes=Movement_GPE_subject
chunkPath=precede_find_guilty_of
prevToken=see
arg=Saddam_Hussein
chunkPathAndType=Life_follow_by
anchor=launch/n
evTypeArg=Transport:They
evTypeArg=Transport:soldiers
chunkPathAndType=Movement_precede_expect_to
chunkPathAndType=Movement_precede_could
evTypeArg=Transport:you
synPathTypes=Movement_PERSON_subject
evTypeArg=Transport:I
evTypeArg=Transport:we
prevTokenAndType=Movement_say
evTypeArg=Transport:troops
evTypeArg=Transport:We
evTypeArg=Transport:she
evTypeArg=Transport:he
evTypeArg=Transport:forces
prevTokenAndType=Movement_where
anchor=tour/n
anchor=transport
anchor=deploy
prevTokenAndType=Movement_for
anchor=bring
prevTokenAndType=Movement_to
prevTokenAndType=Movement_of
prevTokenAndType=Movement_as
anchor=ship
prevTokenAndType=Movement_and
anchor=deport
prevTokenAndType=Movement_)
evTypeArg=Transport:people
chunkPathAndType=Movement_follow_by
chunkPathAndType=Movement_precede_have_be
prevTokenAndType=Movement_when
synPathEvType=Movement_subject
anchor=clear
prevTokenAndType=Movement_said
prevToken=than
chunkPath=precede_'m
chunkPath=precede_would
chunkPathAndType=Movement_precede_will
chunkPathAndType=Movement_precede_have
evTypeArg=Transport:they
prevTokenAndType=Movement_with
chunkPath=precede_expect_to
evTypeArg=Transport:United_States
evTypeArg=Transport:Turkey
anchor=extradition/n
prevTokenAndType=Business_by
prevTokenAndType=Business_,
prevTokenAndType=Business_.
evTypeArg=Arrest-Jail:you
synPathTypes=Personnel_PERSON_subject
anchor=custody/n
synPathTypes=Justice_PERSON_subject
chunkPathAndType=Justice_follow_by
prevTokenAndType=Justice_by
arg=Scott_Peterson
prevToken=Trial
evTypeArg=Attack:children
evTypeArg=Attack:convoy
prevTokenAndType=Conflict_killing
evTypeArg=Attack:bus
evTypeArg=Attack:boy
synPathTypes=Conflict_VEH_object
evTypeArg=Attack:tanks
arg=guns
menType=WEA
menType=VEH
arg=car
arg=vehicles
arg=tanks
arg=aircraft
arg=ship
prevToken=prevent
chunkPath=follow_the
arg=house
arg=bus
arg=plane
evTypeArg=Die:explosives
synPathTypes=Conflict_VEH_subject
evTypeArg=Attack:bomb
evTypeArg=Attack:weapons
evTypeArg=Die:bomb
evTypeArg=Attack:explosives
prevTokenAndType=Conflict_fired
arg=bombs
arg=warplanes
synPathTypes=Conflict_WEA_object
evTypeArg=Attack:anthrax
arg=missile
arg=artillery
arg=bomb
evTypeArg=Attack:bombs
synPathTypes=Conflict_WEA_subject
evTypeArg=Attack:warplanes
arg=anthrax
prevTokenAndType=Conflict_detonated
evTypeArg=Attack:missiles
arg=explosives
prevToken=suicide
prevTokenAndType=Conflict_using
prevTokenAndType=Life_detonated
evTypeArg=Attack:rocket
prevToken=detonated
evTypeArg=Attack:artillery
evTypeArg=Attack:missile
evTypeArg=Attack:gun
arg=missiles
arg=weapons
arg=gun
arg=arms
prevToken=dropped
prevToken=fired
arg=planes
arg=rocket
prevToken=using
prevToken=drop
evTypeArg=Transport:him
synPathTypes=Transaction_WEA_object
prevTokenAndType=Transaction_acquire
evTypeArg=Transport:Bush
prevToken=acquire
evTypeArg=Transport:them
synPathEvType=Movement_poss
synPathTypes=Movement_PERSON_poss
synPathTypes=Movement_PERSON_object
synPathTypes=Transaction_FACILITY_object
evTypeArg=Transfer-Ownership:weapons
evTypeArg=Transport:Iraqis
evTypeArg=Transport:journalists
evTypeArg=Transport:president
anchor=approach
prevTokenAndType=Movement_get
arg=base
anchor=thrust
chunkPathAndType=Movement_follow_of
prevTokenAndType=Movement_through
anchor=pour
prevTokenAndType=Movement_from
synPathEvType=Movement_object
anchor=flee
evTypeArg=Transport:it
anchor=voyage/n
prevToken=get
anchor=roll
prevTokenAndType=Movement_--
evTypeArg=Transport:some
evTypeArg=Transport:her
arg=business
prevToken=put
arg=premier
arg=Giuliani
prevToken=sending
evTypeArg=Transport:rovers
prevTokenAndType=Movement_As
prevTokenAndType=Movement_sending
synPathTypes=Movement_VEH_subject
synPathTypes=Movement_VEH_object
arg=rovers
evTypeArg=Transport:tanks
prevTokenAndType=Movement_take
anchor=bid/n
evTypeArg=Transfer-Ownership:company
chunkPathAndType=Transaction_follow_
anchor=provide
prevTokenAndType=Transaction_the
prevTokenAndType=Transaction_--
chunkPathAndType=Transaction_precede_be
prevTokenAndType=Transaction_and
synPathEvType=Transaction_of
anchor=purchase
arg=Ocalan
synPathEvType=Transaction_object
synPathTypes=Transaction_ORGANIZATION_object
chunkPathAndType=Transaction_follow_of
arg=planet
prevTokenAndType=Movement_enter
chunkPath=follow_back_to
evTypeArg=Transport:mars
chunkPathAndType=Movement_follow_at
evTypeArg=Transport:planet
chunkPathAndType=Movement_follow_back_to
prevTokenAndType=Movement_come
prevToken=come
chunkPathAndType=Movement_follow_to
synPathTypes=Movement_LOCATION_object
evTypeArg=Transport:there
evTypeArg=Transport:here
synPathTypes=Movement_GPE_object
evTypeArg=Transport:state
evTypeArg=Transport:home
evTypeArg=Transport:baghdad
evTypeArg=Transport:area
evTypeArg=Transport:city
prevToken=toward
synPathTypes=Movement_FACILITY_object
chunkPathAndType=Movement_follow_toward
evTypeArg=Transport:Baghdad
evTypeArg=Transport:airport
evTypeArg=Transport:country
prevTokenAndType=Movement_toward
evTypeArg=Transport:hospital
chunkPath=follow_toward
evTypeArg=Transport:London
evTypeArg=Transport:capital
evTypeArg=Transport:town
prevTokenAndType=Movement_a
chunkPathAndType=Movement_follow_from
prevTokenAndType=Movement_leave
chunkPathAndType=Movement_follow_out-of
anchor=fund
prevTokenAndType=Transaction_by
chunkPathAndType=Business_precede_be
synPathTypes=Business_ORGANIZATION_object
synPathEvType=Business_object
anchor=merger/n
prevTokenAndType=Personnel_think
evTypeArg=End-Position:members
evTypeArg=Arrest-Jail:he
evTypeArg=Start-Position:they
prevToken=appoint
evTypeArg=End-Position:she
evTypeArg=Arrest-Jail:him
evTypeArg=End-Position:people
synPathTypes=Personnel_PERSON_object
prevTokenAndType=Personnel_)
evTypeArg=Arrest-Jail:people
evTypeArg=End-Position:he
chunkPathAndType=Life_follow_to
evTypeArg=Start-Position:people
prevTokenAndType=Personnel_appoint
chunkPathAndType=Personnel_precede_,
prevTokenAndType=Personnel_fire
arg=general
anchor=return/n
evTypeArg=End-Position:general
anchor=parole/n
synPathEvType=Justice_of
prevTokenAndType=Justice_if
prevTokenAndType=Justice_with
chunkPathAndType=Justice_precede_be
arg=Chiluba
synPathTypes=Justice_PERSON_poss
chunkPathAndType=Justice_precede_,_be
chunkPathAndType=Justice_precede_have_be
prevTokenAndType=Justice_before
evTypeArg=Transport:plane
menType=Job-Title
prevToken=serving
synPathEvType=Transaction_subject
prevTokenAndType=Transaction_that
synPathTypes=Transaction_PERSON_subject
prevTokenAndType=Transaction_as
chunkPathAndType=Transaction_precede_have
prevTokenAndType=Transaction_)
synPathTypes=Transaction_GPE_subject
prevTokenAndType=Transaction_if
synPathTypes=Transaction_ORGANIZATION_subject
prevTokenAndType=Transaction_from
chunkPathAndType=Transaction_follow_from
evTypeArg=Transfer-Ownership:forces
prevTokenAndType=Transaction_to
chunkPathAndType=Transaction_follow_to
prevTokenAndType=Transaction_:
chunkPathAndType=Transaction_follow_by
arg=prosecutors
anchor=prosecution/n
prevToken=his
menType=Crime
arg=corruption
chunkPathAndType=Justice_follow_on
evTypeArg=Appeal:sodomy
evTypeArg=Sentence:sodomy
evTypeArg=Sentence:corruption
evTypeArg=Convict:sodomy
prevTokenAndType=Justice_his
arg=sodomy
arg=murdering_his_wife_Laci_and_their_unborn_son
anchor=find
anchor=guilty
chunkPathAndType=Justice_follow_with
anchor=lawsuits/n
arg=Anwar_Ibrahim
synPathTypes=Justice_ORGANIZATION_subject
evTypeArg=Charge-Indict:her
evTypeArg=Sue:companies
arg=Dell
evTypeArg=Sentence:him
prevTokenAndType=Justice_Trial
chunkPathAndType=Justice_follow_against
evTypeArg=Sue:Dell
synPathTypes=Justice_ORGANIZATION_object
evTypeArg=Convict:Scott_Peterson
evTypeArg=Convict:he
prevTokenAndType=Justice_against
prevTokenAndType=Justice_serving
prevTokenAndType=Justice_get
evTypeArg=Convict:they
evTypeArg=Sentence:he
evTypeArg=Sentence:they
anchor=donation/n
anchor=aid/n
synPathTypes=Transaction_PERSON_object
arg=Member
prevTokenAndType=Transaction_paying
evTypeArg=Transfer-Money:Member
prevToken=paying
anchor=Compensation
evTypeArg=Transfer-Money:members
prevTokenAndType=Transaction_pay
anchor=contribution/n
anchor=pay/n
anchor=donate
menType=Numeric
anchor=park
evTypeArg=Sentence:the_death_penalty
arg=the_death_penalty
menType=Sentence
evTypeArg=Trial-Hearing:judge
arg=judge
19.679908130741037
10.67675708334448
24.440165935513427
23.99053296455746
22.114651139671683
22.479100366515382
19.11104217459679
24.73040224709278
21.193590348539395
26.85698895642625
10.67675708334448
21.877708053630556
24.923295414792364
21.862137898669655
20.474519726632295
11.572992175154033
19.25473852182685
32.101256427852576
-4.113726286303672
7.622540177482195
18.319693515612066
22.128643373973706
11.791790435136642
15.369168828356278
13.475350864167623
10.428354826314576
32.659697553805195
-10.59894727239179
15.15731205461411
20.593201678260307
-7.616562258316773
13.320943532154491
4.358585034490233
12.393368477680557
11.244550618452493
21.114791858212246
-2.8815638573375653
21.72998922678724
0.633982939559221
12.869573125541322
12.360070089084616
6.598144680779454
24.53247086569347
28.274315111346862
6.326841015079787
22.719494237501962
27.14905792577158
19.73590115762007
1.7443765009429644
6.350100032419877
7.21394237758989
3.6376091330035596
2.014165996486259
-0.09963696340177108
1.6146516169062082
-0.9048433975963395
0.5203602352869616
2.9278315128184538
-4.690640790914956
-3.445124440104534
-11.234460048170419
-11.217136778869257
-5.7759391132692475
0.35859394726220906
-6.360449815675507
-5.600788515971674
-8.074998753663534
-14.396033729073611
-5.47381067797578
-19.531787575830997
-1.030212099846401
-14.627141548996958
-14.075082583256293
-3.08582957378193
-19.258970248165785
-6.491091154453764
-8.0871383822948
-6.1936837941176215
-25.49525469664985
-23.952538468519155
-7.94309763519733
-6.922020526355753
-10.8421924169153
1.1638176235080158
6.604945387855894
5.996285330115328
4.030713847626062
4.401093007224855
-5.512249728063985
1.9031297284643527
-7.539678912520787
4.377752203689419
3.201994360346132
-14.742063188561954
-14.803556843296061
-17.739606386663635
0.4193354067059898
0.6776641365316682
1.5662334078530988
-15.825002024398191
-3.4097656784881822
-3.697247756868775
-11.144695095004673
-10.625362101587992
-6.733558371970362
-6.344470920506829
-6.118188569157105
-18.216225319276006
-0.796141535750722
-11.003746623440293
-4.382138002072646
-15.450676842817108
-6.426797944670783
-15.992288156354846
-8.631962093167518
-19.316006386420497
-4.564644623606541
3.4408454788995044
2.3645386133445943
6.495933652609108
3.152790654676995
5.195350191480564
5.839233321021801
-4.532671553649163
3.4577636025286327
2.742280924256643
0.4597226614718628
-0.04670596978118935
-1.8376262353133996
-5.416289873157708
-21.341951094504346
-10.968983710632628
-7.213245162843957
-2.2161353344603847
-4.180637035087696
-1.3634759304604012
-2.304421221325808
-9.817321385431782
-12.074463466943534
-5.500096821104821
-2.2557030991981555
-2.7970419841439247
0.8083526753525949
-4.492857994746052
-14.651728640941958
-7.168671568535459
-7.001932069970259
-15.263640765432307
-11.78365781044739
7.03285012487584
-18.23037457340819
-13.196989237556132
-3.3309735436618437
-0.7637431076862637
5.691911387615665
6.447217497605696
5.443967797392521
3.028040539595724
-1.702182641324049
-0.1743398487905803
-4.87937256179063
1.2104883384766931
3.2281650762381537
-4.065100467643376
-8.05653405976646
-22.60454952324325
-9.046998519199077
-1.4401606876797968
4.762239745042266
-8.891122968236365
-3.324297780962709
-8.309629084132869
-20.85318671060599
-8.635967676533932
-25.22429289884042
-6.593706338523663
-39.606297004291285
-2.551455628806485
-0.5683945824334313
-15.961863133277255
-6.239752604343396
-6.73463605517
-7.911219952163139
-22.075908851972308
-5.6067522150919995
-18.85011651936064
-34.04644715311333
0.7298324984060183
1.9939897582409025
4.080852802783669
2.371545617594467
5.224439881786729
-0.9903241893927617
0.1352956375883161
1.009879482268906
3.4531738638458216
0.39531203818161
-5.4229943866416495
0.9984619888582267
-34.118244940094236
-28.365628880259692
-0.8619874388490216
2.7558337061839304
-2.9192336207172875
1.1547271109255028
-23.2383836518753
-12.652751782808156
-3.6184890511754633
-21.96293412799245
-4.18508903419868
-14.343837627258873
-13.774518614465348
-2.1066328632807223
-17.737554601858946
-2.9549002111316343
-3.3969109914999485
-3.298882010337503
-9.061030436497328
-3.315000082774763
-7.31243928270314
-25.17587402786237
3.6390707522223695
7.259315502018299
4.915418985597119
4.4262006031677394
0.7099179568681602
0.530996306446291
5.691282254958785
-5.71289343480187
1.572164488483081
1.042851260495735
-9.985208136459933
-12.0191286217505
-25.305520733295545
10.206774353508997
-12.781410208025697
1.5768169855695011
-8.977686388717148
-10.039403959375012
-5.49462965226532
-7.11657305414112
4.112879406285525
0.39723239019033185
-6.27283343109762
-10.242779615700533
-4.089975061086163
-14.59227217776167
-1.347141402858571
-19.572247918568983
-9.014399238602463
-13.141967312499327
16.654599174240598
-17.981514609227794
-6.030096107929779
-1.2048259643271528
3.424214928042721
5.937660008589467
6.050715148835614
4.968308819820333
2.367867396870078
4.227883732815695
-2.3937442486481912
-1.6288595398334742
-1.8308074752707313
3.467182990904957
-0.44504839223890524
1.890991679300447
-7.505444907914326
-3.7234379952514227
-4.765422758762708
1.868325397828099
-16.17397158696153
-9.034188526054402
-15.806766244745164
-5.146270454440321
-4.217937173456402
-2.0357434487993746
-16.657884409308302
0.5415438262349901
1.0532804800714377
-20.232788075203263
-2.231074473891546
-14.317435002591438
-10.236812185789656
15.033504563621559
-9.60341709266515
-2.411223538623763
6.694088056483943
2.5872783856906203
2.8061022871162784
1.4319788798550683
4.16041385640024
4.4819681511269
1.9814941199421736
-19.070258288434463
4.020774947108387
3.1345817139854963
-16.413805111277924
-21.073156690818355
4.781831223167265
3.4604760945956183
0.16073774880413144
-9.472985279926286
0.497759463438352
0.6472853314335727
-27.217931832917888
-11.664226886657923
-0.4779597679121439
0.6461563738735255
-3.078777572563996
-9.587442550749847
1.178802245155309
-2.613897850866432
-1.1854369692482951
-9.88769120532757
-0.69002813980631
-6.294178585853599
-10.000787358835211
-3.3337453709964224
0.6732036416312477
8.508287079452801
2.3634310962947556
8.55777828831237
1.9505489476967421
3.5087636002706826
8.47687016093658
-5.966412700848065
-7.702818636212103
-1.587228146638976
9.958346365384951
-8.997530142203164
9.863463619335585
1.2876963405262642
-5.563012877787026
-6.299596667860037
-3.841487189444009
7.618140815944681
-5.115810385822362
-8.819553470706706
-8.25613422711577
-4.147610552652857
4.5897642104700145
-18.309953079888214
4.064610440682227
-25.31462267794046
6.902672049853704
-14.74988510454443
-2.4920828223968705
2.012589392621705
8.013865658071023
5.798892411113314
9.416322055666967
5.321667425106993
-5.40487858072764
7.631884234178275
-1.2782594588081357
-4.224859240154638
4.123298154715712
0.05775423243530131
-1.3218677009757889
1.1234209322740152
2.6715021358144813
-6.395847546409309
4.553606883799622
-14.35749996534472
4.072493111956428
-3.812729857019441
7.1003833151637386
-7.829873818518022
4.321764756643524
-10.746587785896613
4.623273212924762
0.26645688906173437
3.9594943975194914
2.5969606325082504
-0.9848108806793496
2.0753153284448795
-5.477810947855917
-11.578516139386409
2.9661142161265244
-7.799091767962657
-4.389152398520181
-5.902981093882654
-15.955006957453092
-11.079778004158936
7.202847249755632
-2.4066298168702955
-9.764949075680331
18.49008116263931
4.228500549450331
-0.4712006881849504
-11.08164025524649
-0.8531434409642384
13.975945047426746
-21.56369322445358
13.087386321261386
-4.065776828772082
-12.118257083636351
17.14463335585848
5.018129004374361
1.1164817747222326
5.777809508612816
15.749696047608248
10.342953038423568
10.395591127470054
-3.8680595278618783
4.700251407053426
-2.996291417207438
0.35312101615128877
10.874877136764091
14.942382192636959
16.034248087361924
22.775576418870163
17.501716468297573
6.70113279087375
1.0021233383481363
3.438967506695705
5.7172811297134745
12.871719720389294
5.882933905195191
-2.0614246527565223
3.5078548868210246
-4.222772053409091
-3.7441015950451115
4.705748943289034
6.3551451717489424
5.66499247199059
-4.359227256073005
0.29922373972446925
5.744642459000754
-27.992214474802232
-11.508123680024115
1.5241132776309372
-0.5753276648995058
2.696157148374658
-2.148995279109845
-4.547671288738598
-17.258010589954058
-2.6527054771813026
7.485142863273174
-14.246413919473508
-6.351971650526764
-8.878017962014598
-5.460289411421705
0.8527945200886528
-6.429819093952159
2.0163627365570775
-16.902037377564085
5.325000302539427
-4.0536365940274015
-8.635543606355789
0.9489665953907829
5.5527568176958075
-0.6545945939515803
5.8032531284442195
-20.012426402452046
3.1707245068663323
-3.8261618317646926
3.876750053848309
2.4081416195381795
-2.7732662622298414
-20.643508550085404
1.4692936777542922
4.809220926135804
-13.61371464106287
3.7239620260236044
0.2364309442296002
-13.140310349025736
-21.227467810060492
-5.867095188973478
-18.871073457404474
-1.510675280717995
-2.4932816846316594
-4.880654326621647
0.2988661544579707
-14.659251107242461
-14.001304792018768
-0.13159780019435985
-25.384904150898624
-0.2530801943606128
0.7709145146898844
-0.8188200566117061
-8.746237289363494
4.279393345959292
7.468012559348599
5.233785987379988
1.0277956271637967
4.537583189491269
3.983345995287343
-3.964673203392909
-0.5740113264116238
-12.603356546774037
-6.378870997712228
0.6892124654915053
-15.055384818553257
-1.6752492751301487
-4.576532937441023
2.8963549929322423
6.407752233797962
-1.9301164309643692
10.19553941808914
-4.423956709051993
-9.40072302640724
-9.194136212419068
4.078293198519236
4.2286960219641365
-14.991440876568252
5.8307638120039655
7.690228652472046
5.453506568910953
8.396365355722285
-10.806695430768663
5.551487449632179
8.00848430788705
2.5720351877581438
3.3815371372927974
4.368268903789737
1.1026884738474805
-10.082724684738682
-3.5518777819631024
-4.492122317188194
-9.603175568046005
10.472353598386883
-0.30605562508415085
2.128569557140779
-3.737415062438532
1.6370284822292738
4.710651863895852
-12.871208289705956
-15.227158456072251
-0.8100951634887321
2.471930387454565
12.678237863606187
18.454943096945478
-1.6824196805630094
-8.354083149273979
1.817327603420298
11.106865228835066
3.403544762062458
-13.923722059405677
22.455442618473988
13.468196730448476
-0.1060814048819323
-0.45400239983226065
7.507491449842279
4.297382270283234
11.48251728944047
2.0520220597147154
17.123638906091493
7.434767674340229
1.551400105356624
12.323556226792004
-4.1829647834186385
7.509085367048568
-27.12182813031629
-28.037221466941475
3.195084738434601
-18.973839576768192
9.74527203286091
-13.632837367411447
5.725505686480574
-9.849730353307933
-16.699685929846755
-15.980233168736437
15.672832637277155
-19.535989971454526
-6.964559837488888
-1.000720483829821
10.070194760734202
18.73349988657117
8.293063494191848
-8.516524487965057
-9.979259671711858
-4.433763140394598
8.474172582913107
14.279206811651603
-11.934354710843735
-7.606352215863925
-29.03348898719252
4.838001746088363
5.101706761042916
-7.754858136053445
3.4481225289498822
0.5752613796459434
5.1984740887752405
2.64237194167
3.119865102564501
2.8149935226589573
4.42428051778026
-7.428856333255792
-11.268329760936162
-4.007638363332672
3.991071026753372
-2.3634770998359214
1.0283897751172337
-12.579583846412671
-10.943288127920274
-9.958542537446027
-17.542024005142032
-0.21187391119297416
6.575584160788297
-27.423284436019436
4.389336459048173
6.846490193391315
-5.0223880676471016
-1.9225075988292346
1.9585347931717925
1.8358958035454656
-5.383522903400639
6.555013450380914
-1.539369261651332
2.6459593365170204
-6.58725767571888
-15.058441023037002
0.7478641282310818
-9.343761815807314
9.367659906171768
-4.033275954696439
-1.9451461035912097
-3.423929177294312
6.861944582200698
-11.62744440060115
-15.906826873050957
-10.603964499092815
4.717316476782379
-11.703320560595888
-14.98695640694266
6.014268227812694
-7.61061905326529
3.9713281829383407
-2.118001247027423
10.775356550982266
6.033095589244647
-9.118914752969463
4.143644642002229
-1.3628724934267875
-3.4162446391631223
11.404532450381357
3.1195426623677958
-4.135824804874379
15.326629795545069
7.930009613484612
16.35868656479242
2.8800308214041936
-6.471699270752307
2.647100050775897
7.12010586849024
6.509261329587739
3.941077774028714
-5.087527672315165
-4.897179477576888
4.725021071022175
-28.00366196102645
-7.353301483431833
-12.982132771729885
2.477831865650019
6.199740025172635
-0.17120084513028555
-20.183678248173244
-7.249344976813182
2.619188848058029
-1.5998438320090955
-4.120306680784993
5.649187310416567
4.81625971867659
2.6536286966830285
-2.0369662624439537
0.7605328997863539
-14.141794593663851
-6.799659414354912
5.752982282322154
4.564991785669475
7.945506920653041
4.729981716642735
8.302182136980123
8.509655413861925
-7.9649635530260205
-2.72918127834137
5.914990395561674
-11.650528729771326
2.317276647714887
12.920352109206707
-3.2316435301676085
3.700065258813736
2.292682497466391
13.347355320658753
22.12636562836934
31.54561218939
6.136391813266883
12.714691720966869
11.196931018961951
8.109079661087524
-2.569094839572704
2.307611332732625
8.049887018844018
3.685616853358624
2.5460569137016904
3.3146126627216117
-1.4689419358638582
6.9540763869357045
-18.073664019732135
11.830146296700562
2.505977510739277
-17.545028028939686
-3.3422109287544077
0.15728330249347988
4.1402911027007265
3.232270396085707
17.23252735221345
5.303583558551913
-1.3498846859327773
-9.692858762274135
0.8952788827781012
10.520656845191724
16.046212749314343
0.7110400290781189
-1.3366205747176156
7.479160201784747
4.920440145687927
7.309172916435697
3.6500162416845647
8.301257607690868
22.463728477313996
7.357238339324524
29.90634002027394
-4.662023689452207
16.588858801512682
-3.8822933396426036
36.263762488632516
8.01953974960147
-5.205724842142928
44.11409835521011
2.042124197851844
14.736236928777528
8.032021919865247
-27.293937030115973
-6.231460671841816
4.160325194230128
9.658371169579404
5.192747425852251
2.7561160166251493
-0.6209271313488018
2.3534261209277925
-15.585070134380095
7.2107414382897375
6.881331404991891
-5.497836036374537
4.372329629419374
6.851882440252252
2.885623514894265
-14.858286718882887
5.012862025859677
-6.5784184787188105
-6.374522872286012
-5.0478415704510855
-14.861463914771415
-8.952044996144563
-11.21993750094728
9.08284698246209
-6.2087412582849755
4.876364357387997
-3.035237923464063
3.2506493854671192
-12.010836615646014
1.2748838093217412
7.8623215908812965
3.201715026346943
-8.227554535739243
-15.787384827098942
6.0303534812434965
8.168743952992227
-3.992576452517358
-4.956128821352193
1.9023804276611598
9.308022324789103
11.559089244050881
3.456683100018252
-14.493261096133486
-21.6116418212923
1.493121115242381
2.111833394222716
-0.7128749105305507
15.25926858485206
10.239770224720887
-5.505154769479326
-3.4049251247887606
11.434936433052448
1.4572561817624425
1.6363802609098634
-4.386949051472757
1.264779029421342
3.5829869248474018
5.62411272117664
4.176720768194718
-1.876351460499565
4.807232257973282
10.360237377526392
-7.243525364340913
11.396569641032478
-19.310463048915558
8.607159882664774
11.057502377964386
12.789917650940776
7.03287974717057
11.213101766387961
-2.749922780960919
2.4467728351443263
7.96458718782266
19.103802722831254
4.93832090547744
8.416957613280978
-5.8274962474897425
5.866694607821648
0.20581193674116538
16.66191693260484
4.9439957180993055
16.612167767481505
3.3443799747287613
13.396492042508438
6.7881270278307335
37.492898545407776
13.798231927232285
20.639386557447935
9.474105070155343
15.408634046086988
21.962858416634415
11.963648668326272
14.213476662199504
7.805193661243249
7.054632326325407
13.230545607915417
21.289068393403987
-0.09818583462329257
-2.610117679297506
-2.443462896860414
4.754608868266064
12.888298780887627
8.87248947477658
0.5919125180384192
-3.336753422075954
8.088296311605202
8.398860304104069
11.10264009319601
9.803579705666754
6.449157083345698
9.102325966901578
15.664183864669358
16.749078618094934
8.229506751456404
5.326613171654715
-11.608861841680907
-51.43602413662433
17.82675802400587
9.782398362366457
-2.6477110667959165
-5.41766088300585
-26.044837435985187
-8.084247776910955
-9.596648309442777
-20.142963491887457
-27.912137203018336
21.162603335008484
2.5993013105800253
-11.20642874257994
-6.8697470591556025
3.331406452283488
3.3746327383044763
6.2554384453533345
12.328688722612828
28.43081033572317
27.983387386073904
24.38236639502084
-0.8609585672957731
8.637416609933505
11.598792588485775
-8.277896432621496
-6.057596038798455
3.297401116050718
-4.921235201824954
1.7986129054374511
1.3721482050343206
-9.710210084212
-0.8393316967284113
0.7390815206011747
-5.385246905817811
-12.541387231408137
-8.248087569595036
-4.035971913705497
7.537934557303288
-5.228051383307178
-0.2018715433852949
12.921329386866441
-9.668032796971698
11.959884519132002
-3.3238858834817684
-9.707015131585813
15.052188615006433
14.794014817790055
6.27088480599102
25.31303209539321
6.782726887740912
22.13949766894993
5.325484546902947
5.088949012693456
21.784523361861712
1.8204438017139148
12.766608889433334
-1.2424139500869045
5.655802016702718
12.540005643361834
3.6520583702222575
1.4339060044517367
8.194162079961846
20.25066752098278
23.319468602029403
16.878451887073453
5.569065567997129
5.741482823806193
-10.007736243600485
5.275149070343106
7.521936437570574
-3.9496241980312607
9.134570670014886
3.2617086435267444
8.645390913749264
0.28551212678018123
2.370869891467053
9.156069558609865
9.652840092615842
6.313671182159323
-4.530527294386409
9.874506090211607
9.140382612128588
7.981785501270297
10.887768823215847
8.013201145746379
12.027731244158499
4.961531538238597
1.2631312837539386
0.5791080034396751
17.383271515261576
16.056626975827857
-8.888195728575779
9.529417294717955
9.834454810029028
6.012417023728087
-5.6104049501087685
2.9175466863964745
25.17498169897158
-1.2414616268906586
1.8253450516090137
7.801254758136475
13.165821261093564
11.396559239844409
17.731144434186096
21.49107435097783
13.993196961508975
0.26067982490296404
8.255718445980422
16.140301308950605
9.44197764322615
10.566620110605102
10.797627332416507
14.995122432680672
14.318913996001765
-0.6191042972738003
4.678306833784319
-1.3606359560751462
14.980022301919764
6.081703691105335
-1.3739960446218853
3.201085219096771
9.092699636632643
-6.590293381490334
14.20074757081218
14.373331701740321
10.029341648063205
5.640827234853034
3.8547617143031547
17.969772565957005
11.24215444210312
14.477788890472972
10.871905517668011
23.681470749949913
16.432192378313797
27.317964341271924
1.2228257993718739
-5.675852755622887
20.118422791100045
3.2909731033172918
23.080309973584633
7.401067108623497
3.785802293300583
20.441518275816147
15.9994240043324
14.285209048965926
11.718947221200864
6.433060144041358
19.326765840156668
-6.3300966192809724
10.75630381864025
7.078048476383369
0.6093449154477868
-0.7051970838281141
10.02805036130134
1.767021167545125
9.804603676254931
3.789396252659994
0.3236560945578406
-2.515554196417059
10.753863375675184
10.259691862564422
9.191141536181007
28.384985451048983
15.523136179063892
21.187396974613748
6.058011191689259
11.139008404934803
5.861215200718972
13.1412177858025
6.488820928333682
16.09689394649277
2.439009353941404
14.100368466034016
13.949613046479426
24.56683129952066
36.34882003984616
18.717407272873185
2.38912860875347
21.435770543490115
7.616008035747724
21.154563190900962
15.188763017522453
6.201816526208078
4.911596147554466
6.512775308155023
16.548941222874774
18.52791331265896
8.02308412202865
18.577112592921072
2.1700011041714564
17.3481405584856
16.97341606402432
12.965201182181538
-16.545954008754315
12.781966464600181
9.396514409335083
-21.96169506613544
-29.98456751080493
-19.42967719352176
-13.523286703216137
-2.0997676813269566
1.448892896422961
-24.027980218842703
-10.12209512942456
-25.169594530447874
-25.623168012621036
-24.149298133779105
-6.095417051999262
-21.654873669148287
-6.7742090184295725
-21.25352199317692
2.203953508057661
-24.23815668763039
-10.536392906738797
-3.024981518892929
-0.02543500288178846
-7.096783289274502
7.40683806134944
-28.127450382849158
8.039526296306736
-17.89485605199003
-6.51181824936443
-23.72785143419354
-2.643649509321322
18.499374279734624
5.432626182254006
3.2415864121931386
-1.2041758542624572
12.816458087569574
4.805464231211595
-12.495823785579288
19.194677786716188
14.753173309178987
3.3648174999030607
0.9590330565569053
6.8155958492735005
16.384588432034434
2.0737796542993183
5.630712489708575
17.430611375530624
21.008784224404273
36.38825879201191
7.364686589131076
17.50666976163795
9.635532409855852
33.06771465438518
32.953929121292916
13.196426767896838
23.111845036174405
9.101482229388841
7.668445218535636
8.71940047610131
14.588330642396294
5.894086056137727
11.875229978111003
31.13028490612342
2.076739352772507
-2.458015965622701
21.33650663405491
35.601185260546444
16.09060730068334
9.432533473932
2.4075302373016463
6.406193478634856
12.437605141432346
11.542608400101384
19.516475213894342
11.043643489698425
7.140436961717365
2.263345310181339
13.9249318986759
0.6581424282373656
12.195200997719237
-10.582982731686064
18.09661769051184
8.852453020123999
7.268473827157784
12.213668477621829
-0.28154708964992037
9.183266260734921
1.3036860076983474
38.745644641402514
17.506567681868532
-4.514178587981561
1.52160802913599
12.046488725589032
13.802792220210893
12.151008728711389
23.075604239071943
47.158788796453834
14.31212061325491
10.516376604912924
-6.427846017190129
4.409687636425759
6.363331665549193
19.71063111433377
17.652184490024943
6.559383589327129
12.136996299827056
17.048243413209715
14.531246382725513
2.975122372433482
10.541108059127993
28.117095302254864
16.628213167732962
33.50606155342424
9.240847185349843
8.319246736329266
16.53470932997983
12.743779078581966
19.828713494256306
15.099751408295623
14.262639964884487
14.325826276731398
1.1638291241106458
16.332430278229346
26.901978399914373
13.390084606840157
9.575879686736041
-9.05557134197757
9.755947721827624
10.15520557627965
12.7205448848825
20.18171403529147
-9.75515504971828
11.189937454003976
21.036873302026304
12.069909819140427
4.352696903934117
5.06763727880383
15.380841681115871
13.943217948312435
12.223818412195815
25.484343154816504
6.37025672292801
-4.79580680151423
-5.056449757131899
3.349216053016137
-14.154541642073152
19.63183747936954
8.685350459354249
13.095641300241866
27.684865168359426
14.429554649028821
-2.1380310123087916
7.041615614896277
10.889668770392705
32.55741770697397
10.363289203059542
25.371571901677882
25.550987780298342
13.124877866290598
-1.8518641067804475
5.282775803302499
11.229176606023817
10.388093957838267
7.3560317226540946
10.933476911055136
7.224715488622381
15.87163533863845
16.61653668495822
9.922677556222464
22.23428270751805
-1.4129220186924583
4.411977365852618
26.024020603095167
29.37164645853816
7.1458588124490925
14.485790797275442
18.380325984652206
2.1457674502542012
1.9314204263319825
10.31072346826528
24.546253403469496
10.967434176287302
32.819770072553055
17.259508041997915
13.897306353485199
15.56012740867951
34.32740439023509
3.1096123723474323
-2.4099816889489203
-4.021941737955175
22.4144297152549
5.353530269574468
9.217146973333477
19.81769133192098
7.365253001985787
13.116439316822724
10.436385231701763
46.46817281781433
28.115295508311014
23.065373898804054
6.83275369299892
-3.410738169440295
32.363753724026154
-1.0255288175782185
14.268676136994445
-5.424555023002636
25.913505904450286
12.849121482956239
26.870220606631452
12.803483921881206
-4.255026717686725
29.487940726613463
19.372294267826234
15.064784082907815
0.31017022481979795
11.112711098503883
29.57317835471997
12.536697813472545
-1.749667083059676
17.605479403874885
3.6695784666090856
16.44264409876703
14.80432160948071
12.111109843506634
23.35520048704895
25.84647912800466
5.143597939111741
-6.242420086924735
8.870933821685878
25.416016992382712
19.642065461039778
-2.1768613616610306
25.271704179459956
-9.257062589748196
14.409531864836621
4.037412155767855
4.150049594514986
21.151845494344663
24.191689748307603
5.548150769950295
0.7042918475760175
17.400855524574823
18.184209031460014
3.949548900885041
22.557306931005684
12.825941083861522
15.237357127282522
-2.528808549968824
8.096223988335819
20.71792280614206
12.763423551061987
2.056075762876106
15.894727960173435
7.864650028321666
14.225513219601561
20.97051529886118
-8.718796389433141
0.20908153615597397
13.243055533556221
14.53916857930236
3.299871995033165
3.4320231989379524
22.475831088046775
10.945329646682879
12.591295541473892
16.975141749030097
15.916760808612615
19.82246148368561
22.156317610583034
3.5580482634166284
17.36232107688303
27.239758795553087
2.8719937137530778
17.34199701610905
6.90794562619219
14.98466249418971
16.838568410558626
16.044616005498778
14.468031250678766
30.678266867206876
17.555375663611983
5.187589146820417
13.03054854445745
1.7358149128836202
29.051150533924922
9.996166131938887
3.3034239614308487
11.43445819276979
26.537807660229564
15.17134144713319
2.9425653815417303
11.634301212959198
13.7394267194366
12.326681243915178
11.815881695484563
21.032357449754038
8.115967076534695
5.602157733965245
7.406865438603812
21.065651615493998
16.0702488892184
28.62568824760945
6.699367112927315
12.45187542585309
11.90022321210051
15.52559606920315
1.1984988694760625
24.829314594780666
6.440840589938574
13.309426622884768
9.256388658130223
15.952460901233895
-1.7805920202509067
15.470925650351239
20.63580884967173
25.960128076281624
12.003130329970677
6.600937013693882
8.964506288139404
20.75110654905853
10.692331263125403
26.667207172581076
10.773503128100915
13.549206094702
13.032420265342445
12.224069157362077
9.995077424995245
11.1473131159204
41.867591935034966
43.09846916610252
-4.964481896926382
-0.49593054421825045
5.403049674489128
26.787075922793825
13.743271014016724
28.645950967866558
3.5744577219168336
11.266234461224844
7.589229990301204
-4.371965638086172
19.222075937709427
4.946235546006172
3.2053003288038497
14.15221473839462
7.579762630813015
2.074171561870359
16.221369362961735
6.29571784335545
37.03383810628719
17.11238103865927
6.292916954948949
22.181275235006947
3.6249449601493238
21.638925781964716
6.74989516329363
9.882490357884267
-3.1409548866105985
31.730566127065934
49.82739212549006
12.85467974399497
10.744800933618452
16.165535395029128
24.66525001340623
12.522737063077923
21.308133828926085
9.983911651992369
-4.21980271324454
-11.583358194678775
11.501412150332026
46.96191048094355
11.20647194780382
8.222598985305078
7.6794994143038755
27.186948934486345
22.41802645879017
13.872385845159254
9.20741492531293
12.149468737893176
10.136810506129578
21.985963523669064
15.26078759208708
2.164543337885493
8.517619557312814
21.29274420594857
56.46354204611906
23.759303223142027
19.16144283436631
-2.2735530750318578
4.0851633114405645
17.939489310520248
60.01163223642978
1.6978366643998954
15.56412106181783
12.847482281764389
23.581508695699664
21.43099162944128
19.306359215037563
21.636163754952918
20.399861530576256
22.4751912269231
3.929793657068846
17.92908485970426
26.204464493345185
13.383533547188474
12.319927712505162
4.9191362140368895
10.460450384383497
29.532785908168652
14.89546082978984
17.895698437855835
1.0416769550574663
13.972775012822174
19.67288250498743
38.594702051594105
12.642892013107053
1.3945932316590155
19.792228186948922
13.52156629850729
14.58792884887563
5.228443059183697
24.06412373459577
4.186203765550444
-1.624005242090635
17.522860996686514
12.52925659261163
50.12161748505616
15.675942836829837
7.802743609540048
5.155531144165549
64.30890515052131
32.39460326523563
4.696079459350693
25.141332676765934
19.963449409080972
-3.055478144057698
29.176023897996235
2.723292961594384
-6.172079239044731
5.6510104665266105
2.7928935909214854
6.236968858451037
-9.915581349519936
1.7682183466257113
4.036368316092229
-8.328664976556125
14.17385142724727
4.346903598050867
-4.017402386686051
1.9480134431699665
5.941240994232385
-8.774351963081285
-9.660886415941308
-2.4416119355867876
-2.328466499489965
-11.401263780992545
-7.644013417420707
1.5070556966120163
-0.02882951166063963
9.647293796964046
-3.3267587293904444
7.91900803336655
2.7171014696289277
12.456463010015703
-3.1033507207770636
4.524416684020723
7.117213374897913
8.81260927597825
4.572809159149359
8.031092301816711
26.907762246781253
21.52851184477507
-2.1523340349292206
-5.323523261508551
5.025083584621044
-12.511785096670152
11.081858472300029
7.096705896336727
-15.815604688653803
-0.6869583279837805
8.68224859200483
-5.883514603112774
25.328326368049076
11.211722547542232
1.6173117205256755
7.896226838004749
9.353018377237417
17.230966848657516
-5.976766312361823
12.399555327381686
8.60363432166484
11.68773992864518
9.081970412254488
20.298510137159035
-4.446527391247007
-1.726061220305242
1.608097018393698
8.515772223605913
23.377736355556493
12.714951816811762
-2.5099557059191793
6.031961526652551
1.480791168959804
-20.731116254635644
-1.542861718327913
-7.910506165361198
-26.83952379768251
13.178580105870193
4.799830266937163
3.32391960320761
-13.317835554373078
-0.8568300388383716
-0.4417425307950098
12.714784239415676
1.9346733412599062
-4.942274728425085
-16.253245904845947
8.85982599701923
8.119982566027055
6.911659077407943
1.014018795949937
1.1786513912403536
0.4397611036283189
4.308465005378148
9.406716290461947
6.99317075977168
-0.04310596365084762
4.3524234458030895
-3.2716724400875847
25.643200155913625
8.250746135386814
7.913920181540829
8.482569189630992
0.9362789733533439
13.104052264986526
10.514234869474484
3.650640800255207
-1.6134016756425278
11.19539569280832
15.395000350037636
-7.65427927497523
-22.14920137000172
14.090378467373696
11.229072910102598
1.3048399565858881
8.803879233842082
1.2096651329582062
-4.192358591244698
6.414048734522986
4.12351506186781
13.121317572573853
8.066499027676164
-15.589014656186608
13.249991996451747
22.92783953148435
6.532404747287021
1.0208103592905229
-3.7366300964977848
27.540183301860967
26.79332850185063
7.412300229778103
24.5895842472748
17.02252214168805
8.636247526599568
6.654521926748653
-9.266338939262702
7.893198672782997
7.938953983974031
16.187298476931257
-3.175338454620982
8.88857581422424
11.496535048452152
-11.998746487662228
0.7476037162709017
3.9294060727711413
9.537189423828325
-1.068471252725589
23.449565216521542
9.494418695720665
23.881864050688744
27.029071819714577
18.142654696149535
18.862996936390665
17.219762288897822
-7.0981833116780555
26.10040153911742
4.448369226244461
-4.9203716771781565
14.814553774754735
9.666859906351593
4.667843405548275
8.286571869171272
8.733179391006578
33.46488416506694
17.814463517551854
2.453997805608533
2.0713835323731695
11.1547669196289
-5.137015002728837
7.98182731726947
9.8463556380966
25.501080346589955
30.813045481002767
27.087749551949212
7.074187400409434
21.121336180156003
9.526856410322681
20.86179841138675
15.50019395257429
8.50307398864345
20.43164105931168
12.968333487347149
-12.638623994523297
7.508712391710068
16.366567243934917
-1.034078991292171
13.592797571069536
6.1044107414845135
48.9652266042081
27.316191693046658
22.8244683625831
15.571668446011195
14.416708272630485
1.5659463432052112
6.397764035595279
19.872664464139532
8.969617563090472
7.439838560830238
9.154246530499341
26.54970636698325
12.493841606387607
15.273206120048899
33.45211025097499
16.476416585165524
15.456990324810269
21.771885483761277
18.577052108010044
18.357878100197265
11.361415533289163
24.371804415034624
5.06396720500336
6.748590724960486
13.71342796553247
15.039493121406604
0.789026752408243
2.9569413978194037
-4.830515567238256
-38.624174133062084
-22.525719554328436
-1.0829739040361244
-7.925541995160749
-11.214285654902287
-39.68590875347105
16.2166240124711
-14.055235416594652
7.096121257987969
27.157776658956315
17.335894864377853
24.62285051752685
31.794035466814023
9.595767328107598
14.086466361550753
3.1657926784155674
6.63808504679264
24.65709595170675
7.8499931539425845
29.17937006481649
9.717519058780717
17.17087484184177
36.28082043015099
16.3487344894176
8.215655246283415
19.512485060033775
15.120606367222411
2.8079238184756163
30.174448717721233
18.787972795653832
-9.344278986093776
12.891975820345221
28.025413798661678
10.321268145594031
36.652190759373376
17.461553115439745
4.370171155634098
12.168849260305466
33.23068390883246
13.36235293004362
38.98280180974686
24.67447753222538
16.4080909110986
0.26362279706974057
22.874985005976477
22.005099503071307
32.87137848965287
44.55178863553318
18.762932652025746
28.268178752826902
5.736877755115407
18.712476860659923
17.20871056174975
31.444697038456535
20.50238114586921
14.739925844176861
5.922622980129709
5.597115611442796
15.337699721858938
18.11767390502359
15.967227177268022
9.266265595182944
-4.589321265440273
14.026715004979508
17.082092302017184
15.498337591248704
34.02745425322552
-12.418803246796779
14.89379555896404
22.155981415678635
10.231488359936533
7.927198742796862
6.307327071328129
5.768920279465559
9.526601807669229
0.8621555577722289
6.897320788340345
3.663271271029678
12.691675761993544
9.864076300130414
3.5104691731559834
8.388094161296054
10.51099139094069
-6.730186658456252
3.4624515180936557
18.821530766650007
-9.262282586768405
7.399995137893184
14.945742208360777
13.914185701965993
5.757660785479578
18.10935332358262
12.215150486955109
11.724670946218186
40.92109702928129
5.094089185687756
15.742421860906934
30.23804355050824
11.85953192033547
45.13592953945489
17.23324099706174
-0.9790914449588158
19.146977776802864
14.943011800229964
19.026037221679182
1.5481192308528429
8.528112200807948
17.184539418697945
14.893668336509553
-6.792205658857126
7.248870428257825
22.56701047648835
4.3329423183234175
-5.779536310478914
19.51280176649605
18.6276766854654
6.542038243668048
14.00110330308222
43.644142548258586
-18.002914113216296
15.191522856806603
9.49875845183593
6.601580140277738
8.791393163517302
10.860406786385862
38.09754575807146
16.634757746659915
16.273522252319847
34.48873814277355
49.751736007590814
19.934415134124624
-0.8390677368572461
13.349385457482928
18.670356073160516
27.087972056968983
20.70296181939063
1.5514725661148951
33.07206554291664
11.27849347124265
21.240622489221025
4.099483359458725
16.221127609568335
14.733107483918063
23.986857141928184
19.52942300023225
20.456505271542646
14.843186834610194
27.522618897297544
19.2033479176452
11.732195523014571
14.05375816671974
8.828533148209385
5.339443995377967
5.964573728308944
17.353902907414646
32.92600625588568
8.49745845602894
12.75430985249256
1.3285468367749336
-4.24331634886448
7.819131478402766
14.080561705553649
6.283755043813547
6.728029985130124
-3.5219651996301318
10.999237263553534
25.165713786100902
27.242954142941734
16.966319322935124
4.046417280163774
6.248376671266816
4.024005341870252
6.781673103577584
30.673004111106497
30.69541336951095
19.877455831759203
25.351546503564897
32.22187914956118
26.917386558746287
6.213955294085493
26.0738715259514
21.40801621360792
8.26708160572272
43.877859145417425
12.303100142513754
23.05442459914411
32.84830880286041
11.641253726032087
11.657574548621596
26.536321085791148
11.897088003861265
17.619168442099543
27.189642862148357
15.742148867068522
20.334302954327235
1.4905916827011236
23.15734647751328
39.03211709474298
20.233910615837573
4.576306903062545
21.54502995052883
9.637063282668493
8.736884321014262
10.488336879340748
11.991616254387948
11.325690805427229
19.04732039641072
18.459836689522945
25.68522919939731
4.428421912591688
31.282490564306148
9.404848176817792
32.58460474738939
30.11304808804423
20.849499010179713
5.069655519068741
21.622444935299743
12.878855103823074
44.82057931899219
17.652751383687146
10.970699215141591
0.42813348554707237
27.96986060688311
21.693802998378203
18.253344345541052
14.663542360642573
20.344041366233355
19.364180016134647
13.26295443482192
12.30390957255835
13.302789734668886
22.92317908668834
7.024834471164045
10.743540251757485
13.613424722587627
9.89234986995333
14.100126579894134
16.004777611829883
17.795193212370805
0.9076731687625609
28.027446258473844
15.007728146506661
13.878721351883868
21.7348413020314
-5.754184412824372
7.646096815323261
14.139595896742795
22.449196819250858
19.86762763568534
-5.095036855621143
6.405840644126672
9.56301545984121
19.262803607410344
9.410002325803863
13.095621637694824
24.805957944669917
14.915776831577139
8.08692177854506
24.701785655795348
21.546604127037675
16.54214284334948
16.52363609767048
12.202395812386568
-5.018556785652891
18.51438343701653
21.244203592604315
18.59838902664771
0.014724212828442131
20.978949506984943
20.003353415657298
33.14664512963087
3.766731031885945
-0.5804511194240655
28.385122523958984
7.184802957828444
19.617923489337638
6.012522836853807
7.873802494055006
-2.082163961062519
-2.8282932535630008
27.819845901505484
28.332429743860086
9.721686779989524
20.790067224470828
-6.076507282954835
14.176982131716073
16.097271542629766
14.460345082808585
25.623859433618634
47.99216947945814
16.250869077169174
19.81540179848138
8.398203065342988
9.944944043513111
15.930277406950102
-7.923436226874078
12.529233592972503
23.88694969579125
11.783008168559315
73.08382381866222
1.2476792050015928
16.162119269087285
-8.415894989451745
-14.0350144254789
14.440880945259938
-7.17156560244821
6.305163558915618
28.05526332380026
18.968388085401045
16.531027019468546
23.454984252887154
12.309465700562605
21.80047941923743
57.6260773720546
20.481691855666295
15.8646867427646
19.360728342841995
35.27852046529247
-7.85144958109433
4.568189373443968
12.894856029764874
12.707097026127895
5.136903215591853
9.847173447752505
12.319037107840344
14.334993234629664
16.084333529374018
22.874848750242343
13.043619193517253
23.94547792732699
6.784114239784618
7.9450881915823715
12.970902064884413
26.354154353430786
10.706135312420328
18.153054957619013
55.683769213329896
-0.9520052177383538
6.120218944038163
67.96436313476191
24.71467528241553
18.837554034901085
16.763881182941606
18.05551697074164
31.973084573433567
-0.6334211595969119
30.606033808378545
14.154554230344457
24.993118185110156
24.686603180551955
15.646435706482666
8.877788727995375
16.252118465275583
15.306022760611507
10.394767628845685
-1.902175546308963
0.8100108400786157
-0.7087842245449798
5.269311139550298
17.2649080643467
2.0045756497643437
6.720692273994254
0.5784576755937338
19.156792147175363
6.148439492551704
14.352670387776978
4.436253826630059
17.37736628213449
6.765114966592539
-5.141095252461906
7.779878162388598
4.36548970170764
5.248714871533135
14.381613759261654
7.523492800511131
5.816136227517195
0.9266171684386284
3.680252675833675
28.50082836640593
9.13475527687092
9.591819427524646
23.97309318191986
16.439676646480937
10.703306133360394
3.6412679315024477
15.4641435049417
0.19864578011230963
2.0404163274315716
-4.4593080557978375
1.7787529355026925
16.827792951693386
29.341615285404156
3.9329287657427905
6.550135449269256
16.585066643402946
2.166548901681775
12.820119746912896
29.231917539962215
16.345518330716125
5.080175942342343
2.9871575021541723
48.349972033252065
12.454178180740524
10.300562036762507
11.03741530652221
12.961938659382875
8.60398879188424
10.781054909393827
1.041042981248097
15.741751823308755
15.346577864398519
5.178722033630668
44.25651408096728
1.2500747826610918
12.67436229302699
8.266906761438822
9.172971468895998
24.73188656837175
34.24600119558438
32.294809219677994
22.000445977656533
30.215847648606704
33.18296686178617
17.997458850667208
13.4551894423763
37.82320762871556
22.688827717651897
-3.8163751808742092
11.283798216323401
0.668336798453308
10.493524006485632
12.736794127589594
17.819933127764244
9.46783656378324
8.008852659682006
7.026964327801284
17.626300733358494
13.858465530225383
32.33692241541362
3.047322120239756
30.402133777529542
7.958044613969202
2.2261575433587257
11.186343525527452
-18.001711239655258
8.977249323794291
3.513477239683878
10.794988893238028
11.62128179243727
7.289631366182652
27.322983006995077
10.710855578764209
18.498526760996135
5.32183433335768
19.805174087057367
12.250226702831757
7.516098315240622
25.15638236858005
13.396586016040239
12.422165869220107
8.721562296772827
20.745367704194127
10.250386157413722
15.440924619565504
8.568508811079685
37.72600290481915
14.65846901618746
18.77467300177157
26.822240923486685
17.87669296335915
23.330987751625653
29.471944076538623
20.323002707392366
27.86731119374988
5.34253858498526
15.278036339716422
25.158065101420522
5.34253858498526
15.278036339716422
25.158065101420522
21.259454201946212
17.550535765032603
14.954207882768355
21.163798644127535
20.69525521149801
14.564848173021723
29.105664697057744
27.101016141707195
9.237412051489514
10.796692932938333
22.68299970565121
38.79583793161706
28.47906957799014
5.78776038164891
1.9559950415381333
-3.900106545610778
18.944007373028033
-15.032465682919486
-10.963594058783315
7.473315738094275
5.622123681461877
-5.427419936895362
14.132390163314124
9.754532361146763
-17.457245868198022
16.087993136250553
24.614538525827047
8.124769539047485
3.1101312261822325
15.288592689556758
7.3649423929385005
19.991347231452842
1.9235571802861027
22.71174388577707
22.315419758582824
35.23042656833437
9.981517949906388
8.69180452440381
11.485014122982523
6.310727037125569
11.154414481072443
12.50096656020268
-25.56024664883488
16.84335831119042
-7.227633973234935
-2.4126693427515167
-6.1496503173519725
5.698178553800165
10.851722092983055
-4.808848760551443
10.203915572076792
5.685720788612383
3.688871951112118
7.253386690682834
-4.685040398106299
-2.9968297015043226
13.131345521955208
-3.868124616356242
5.910847977197654
27.89397537622361
11.020759047729722
35.67598733635824
5.693515522546795
15.670159970241105
28.14008811556731
4.939355654283837
-5.975301776485456
16.50046224168213
23.362127873817563
1.547492391055029
-4.699824306079131
17.716284936003554
13.27788800490187
-2.066838501058505
60.126801064617524
18.83635264885165
17.253200081089116
15.08030572384022
13.468931785628262
-5.40503666391869
15.423628097967772
4.842364392773574
-3.5487194841415417
-2.4379805621099133
23.932536104673975
14.104423115396546
3.3643434225827527
18.45642492829008
30.305095730673646
1.3844553465188894
6.9688386041684485
9.727482301374609
9.3012415822866
8.777110513378359
4.655161394637272
3.5936220304068187
4.448161623769372
14.714399533713706
23.702784514058532
21.853412757995905
16.355998547377432
9.48235466622394
15.805793706034143
12.80000468443805
7.301187215308319
3.809765989635241
9.732030050409499
7.634482497323599
26.89556065936532
30.51197028810981
8.322857616653758
6.9106208901993575
11.310687756274994
16.31411769859236
5.8874166891829605
10.191905450581837
7.613284380884815
24.002897179289526
12.440018293431589
26.668675061054927
10.677586956417262
15.624070381903818
10.816100863345037
7.18076309525042
3.550413730488734
7.6142398333238885
15.354674188215942
20.850692002353153
20.362217263667564
19.508838364803044
15.28013059382215
2.063421922881161
-18.86683676913215
21.613927400929608
3.3650209600384122
14.11482076285732
28.769650358092914
13.558393131605293
16.22298580187676
-6.896794017248616
19.859429158648137
4.7033779373601625
3.819203875411679
22.503438337695226
4.6096797796769335
36.574292369793426
27.149830195150212
9.109047814924311
5.678985657424039
8.792014255814436
15.558000775750434
5.669432697417182
8.282651390165181
24.53467897145716
25.966777029170498
-0.3630155109744053
-0.48833590171642033
26.209292145491982
25.791592345417122
15.92602977013275
-5.857920391658381
58.51040572288001
17.16385888233833
14.341316281387934
-10.886996348240418
25.650291420694057
21.272385271186423
3.4138079672845825
5.690833569713219
21.870486302945565
5.097553181884018
39.1838168572665
0.04279678254222677
4.994060543344015
40.23978966043468
20.15450184211422
16.28260594847304
12.661530660155526
19.63127632359901
20.12467533169462
3.735509548223678
5.151065439408639
40.285225456484596
27.555020671728556
8.317966119576733
25.15204856128252
0.06706785299876754
30.622349234683693
33.78560860339925
27.827297324474163
37.90563139776849
23.600267414154978
11.504267974986238
11.78714177149053
12.960165085717904
11.939209513541291
23.67007413637058
25.18142528067714
11.082204903771334
-4.848166061412573
-7.045131787505433
22.19743825690908
12.300870519862693
13.445152605517585
10.855836963210034
13.385560302281483
20.806940892082753
8.31996761854387
19.540195311235596
10.642061962785732
15.503593465329342
11.108041012008847
21.03799686225614
6.806894409728999
6.401899101852699
-1.9872539767401751
32.324127217733974
5.928090493643329
6.832095874524194
10.258454141711605
8.605141922351981
5.504576555039454
12.577235794625494
21.43442555106777
21.393607095909964
9.762349178119925
24.059971726977054
21.414428520106235
4.786649447643784
5.560586284319481
28.37376322771035
13.703657629678833
13.118166697935072
16.976162257786143
17.109739565967775
14.964682788368462
-5.1768791232199485
7.39756653610731
16.70599730773882
24.947708556012493
27.886273652304276
19.456296720117358
4.392173004051287
35.48018611687597
2.0100503578649134
24.970437665969122
6.140601375799796
33.077847291178024
14.985261947629335
6.040534214841977
17.70200372515143
12.627802424648408
19.49865779839886
26.63936898676785
29.766125428962994
37.73481175552435
23.158356665560785
6.077229129758109
39.583843618139824
5.529035842752216
8.498400118638774
18.41666306754334
15.402377852526385
11.010194683982288
13.199749261691716
17.673382794930944
25.256298589360973
22.854222735842903
2.683621555906142
8.096350057977492
22.11701574477314
6.568256656737649
14.148745995613808
15.898194467076216
-5.196818400792444
8.465639005914491
-0.2027475636794478
7.770032373708567
10.995748093962938
20.644209241599377
11.707497556082071
8.043961117660142
