GIS
13
0.0
35
Attacker
Place
Time-Within
Entity
Victim
Agent
Target
Instrument
Artifact
Destination
Vehicle
Origin
Person
Position
Time-Starting
Time-Holds
Time-Ending
Org
Buyer
Beneficiary
Recipient
Money
Crime
Seller
Giver
Price
Plaintiff
Defendant
Prosecutor
Time-Before
Sentence
Adjudicator
Time-At-End
Time-At-Beginning
Time-After
508
263
7 0
9 0 1
5 0 1 2
1 0 1 2 3 4 5 6 7 8 9 10 11 12 13 14 15 16 17 18 19 20 21 22 23 24 25 26 27 28 29 30 31 32 33
1 0 1 2 3 4 5 6 7 8 9 10 11 12 13 14 15 16 17 18 19 20 21 22 23 24 25 26 27 28 29 30 31 32 33 34
1 0 1 2 3 4 5 6 7 8 9 10 11 12 13 14 15 16 17 18 19 20 21 22 23 24 25 26 27 29 30 31 33
1 0 1 2 3 4 5 6 7 8 9 10 11 12 13 14 15 16 17 18 19 20 21 22 23 24 26 27 28 29 30 31 33 34
1 0 1 2 3 4 5 6 7 8 9 10 11 12 13 14 15 16 17 18 19 20 21 22 23 24 27 29 30 31 32
1 0 1 2 3 4 5 6 7 8 9 10 11 12 13 14 15 16 17 18 19 20 21 22 23 24 27 30 33
1 0 1 2 3 4 5 6 7 8 9 10 11 12 13 14 15 16 17 18 20 22 23 24 25 27 28 29 31 32 33
1 0 1 2 3 4 5 6 7 8 9 10 11 12 13 17 19 20 21 24 27 30
1 0 1 2 3 4 5 6 7 8 9 10 11 12 14 15 16 17 18 22 24 27 31 34
1 0 1 2 3 4 5 6 7 8 9 10 12 13 18 20 24 29
1 0 1 2 3 4 5 6 7 8 9 11 12 13 14 15 16 17 18 19 20 21 22 23 24 25 27 28 29 30 31 33
1 0 1 2 3 4 5 6 7 8 9 11 12 14 17 18 20 21 22 23 26 27 31 32 34
1 0 1 2 3 4 5 6 7 8 9 11 12 17 18 19 22 24 25 26 27 28 31
1 0 1 2 3 4 5 6 7 8 9 12 17 18 20 23 24 27
1 0 1 2 3 4 5 6 7 8 9 14 16 19 21 23 26 27
1 0 1 2 3 4 5 6 7 8 10 11 12 13 15 17 18 19 20 22 23 24 26 27 30 31
1 0 1 2 3 4 5 6 7 8 10 11 12 13 16 17 22 24 26 27 30
1 0 1 2 3 4 5 6 7 8 10 12 13 17 18 19 20 23 24 26 27 28 31
1 0 1 2 3 4 5 6 8 9 12 15 21 27 34
1 0 1 2 3 4 5 7 8 9 10 11 12 13 15 17 18 20 21 22 23 24 26 27 28 29 30 31 34
1 0 1 2 3 4 5 15 16 27
1 0 1 2 3 4 6 7 8 9 10 12 17 27
1 0 1 2 3 4 6 7 14 15 16 29 32 34
1 0 1 2 3 4 6 8 9 11 12 16 22 27 29 31
1 0 1 2 3 4 6 8 12 18 21 27
1 0 1 2 3 4 6 14 15 16 29
1 0 1 2 3 4 8 12 14 15 22 25 27 32 34
1 0 1 2 3 5 6 7 8 9 12 17 20 22 26 31
1 0 1 2 3 5 6 7 8 12 13 15 17 18 27 28 32
1 0 1 2 3 5 7 11 15 20 21 30 33
1 0 1 2 3 5 8 20 22 27 30 31
1 0 1 2 3 5 9 11 15 19 20 22 24 30 34
2 0 1 2 3 6 7
1 0 1 2 3 6 7 9 11 12 13 20 22 23 24
1 0 1 2 3 6 7 12 13 14
1 0 1 2 3 6 7 34
1 0 1 2 3 7 8 9 10 11 14 16 17 22 24 31 32 33 34
1 0 1 2 3 7 15
1 0 1 2 4 5 6 7 17
1 0 1 2 4 5 6 7 29
1 0 1 2 4 7 8 12 15 22
1 0 1 2 5
1 0 1 2 5 6 7 8 9 11 14 16 17
1 0 1 2 5 7
1 0 1 2 5 7 8 9
1 0 1 2 5 8 22 26
1 0 1 2 5 9 20
6 0 1 2 6
5 0 1 2 6 7
1 0 1 2 6 7 14 29
1 0 1 2 6 7 15
1 0 1 2 6 7 16
1 0 1 2 6 7 29
1 0 1 2 6 12
1 0 1 2 6 15
2 0 1 2 7
1 0 1 2 7 14 16
1 0 1 2 7 15
2 0 1 2 15
1 0 1 2 16
3 0 1 3
1 0 1 3 4 5 6 7 8 9 11 12 13 17 18 20 21 22 23 24 26 27 30
1 0 1 3 4 5 6 7 8 9 11 12 14 18 20 21 24 26 28 29 31
1 0 1 3 4 5 6 7 8 10 11 12 17 18 20 22 23 24 26 27 31
1 0 1 3 4 5 6 7 8 10 12 17 18 19 20 24 26 27
1 0 1 3 4 5 6 7 8 10 12 17 20 22
1 0 1 3 4 5 6 7 8 10 17 18 24 25
1 0 1 3 4 5 6 7 8 11 12 18 23 27
1 0 1 3 4 5 6 8 11 12 27
1 0 1 3 4 5 6 8 12 18 23 27 29
1 0 1 3 4 5 6 9 10 11 12 17 18 19 20 22 27 29 30 31
1 0 1 3 4 5 8 12 13 18 23
1 0 1 3 4 6 8 15 21 22
1 0 1 3 4 8 12 13 18 20 24 26 27
1 0 1 3 4 8 22
1 0 1 3 5 9 11 18 19 20 23 24 26 27 28
1 0 1 3 5 9 23
1 0 1 3 5 13 24 27
1 0 1 3 5 17
1 0 1 3 5 23
1 0 1 3 6
4 0 1 3 6 7
1 0 1 3 6 7 8 12 22
1 0 1 3 7 11 12 13 23 24
1 0 1 3 9 11
1 0 1 3 9 11 18
1 0 1 3 9 14 17 20
1 0 1 3 14
1 0 1 4 5 6 7
1 0 1 4 5 6 8
1 0 1 4 5 20
1 0 1 5 6 7 17
1 0 1 5 8
1 0 1 5 9
1 0 1 5 18
6 0 1 6
7 0 1 6 7
1 0 1 6 7 8 9 15
1 0 1 6 7 14
2 0 1 6 27
1 0 1 6 29
1 0 1 8 9 11 20 23 27 31
1 0 1 8 9 16 20
1 0 1 14
1 0 1 20
1 0 2
1 0 2 3 4 5 6 12
1 0 2 3 4 5 7 8 9 18 23 24 30 31
1 0 2 3 4 5 17
1 0 2 3 4 8 12 13 18 20 26
1 0 2 3 5 6 7 8 9 10 11 12 13 19 23 24 31
1 0 2 4 5 6
1 0 2 4 6 8 12 27
3 0 2 6
2 0 3
1 0 3 4 5 6 7 8 12 18 24 27 31
1 0 3 4 5 6 8 12 17 18 19 20 23 24 26 27 28 31
1 0 3 4 5 6 8 12 17 18 19 20 26 27
1 0 3 4 5 6 8 12 18 26 27
1 0 3 4 5 6 8 12 20 24
1 0 3 4 5 6 8 12 24 26 27
1 0 3 4 5 6 8 27
1 0 3 4 6
1 0 3 4 6 7
1 0 3 4 6 8 12 17 27
1 0 3 4 6 8 12 27
1 0 3 4 6 12
1 0 3 4 6 23
1 0 3 4 6 27
1 0 3 4 8 13
1 0 3 5
1 0 3 5 6
1 0 3 5 6 8 12
1 0 3 5 6 8 17 18 19 20 23 24 26 27 31
1 0 3 5 6 8 18
1 0 3 5 6 8 18 24 27
1 0 3 5 6 8 24 28 31
1 0 3 5 6 8 27
1 0 3 5 7 8 11 12 14 18 24 26
1 0 3 5 8
1 0 3 5 8 10 12 20
1 0 3 5 11 24
1 0 3 5 12 23 26
1 0 3 5 20 23
2 0 3 6
1 0 3 6 7
1 0 3 6 7 12 26
1 0 3 6 8 18
1 0 3 6 12
1 0 3 7
1 0 3 7 29
1 0 3 8
1 0 3 8 12
1 0 3 9 14 17
1 0 3 12 31
1 0 3 18
1 0 4
1 0 4 5
4 0 4 5 6
1 0 4 5 6 8 9 10 12 17 20 23 27 31
1 0 4 5 6 8 12
1 0 4 5 6 8 12 17 18 23 24 27
1 0 4 5 6 8 12 17 19 20 24 27
1 0 4 5 6 8 12 20
1 0 4 5 7 27 28
1 0 4 5 8
1 0 4 5 8 27 31
1 0 4 6
1 0 4 6 18
1 0 4 6 24
1 0 4 7 12
1 0 4 8
1 0 4 8 12 27
1 0 5
1 0 5 6 8 18 19
1 0 5 6 12 17 26 27
2 0 5 12 27
1 0 5 17
1 0 5 18
11 0 6
3 0 6 7
1 0 6 8
1 0 6 17
1 0 7 14
1 0 12
1 0 12 27
1 0 21
9 1
8 1 2
9 1 2 3
1 1 2 3 4 6 9 11 16 23 31
1 1 2 3 5 7 8 9 10 11 12 15 17 32
1 1 2 3 5 9 11 12 14 15 21 22 26 27 28 29 30 31 32 33
1 1 2 3 5 12 13
1 1 2 3 5 12 13 14 15 16 33 34
1 1 2 3 5 12 22 26 27 30 31
1 1 2 3 5 12 26 27 28 31
1 1 2 3 8 9 11 15 22
1 1 2 3 8 9 29
1 1 2 3 8 17 24
8 1 2 3 12 13
1 1 2 3 12 13 15
1 1 2 3 14
1 1 2 3 14 15
1 1 2 3 14 15 16 34
1 1 2 3 15
1 1 2 3 15 34
1 1 2 3 32
1 1 2 3 33 34
2 1 2 4
1 1 2 4 5
2 1 2 4 5 7
2 1 2 4 5 7 12
1 1 2 4 5 7 12 15 29
1 1 2 4 5 7 15
1 1 2 4 5 8 9 10 11 14 15 16 29 32 33 34
1 1 2 4 5 12
1 1 2 5 8 9 11 12 16 17 18 22 27 30 31
1 1 2 5 12
1 1 2 5 12 13
1 1 2 5 12 22 33
1 1 2 5 16 17 34
1 1 2 6
1 1 2 6 9 22
1 1 2 8 9
1 1 2 8 12 18 23
1 1 2 8 14 15 18 19 20 21 23 24 25 29 33
1 1 2 8 18 23 25
1 1 2 9 10 16 33
2 1 2 12
1 1 2 12 16
1 1 2 12 22
1 1 2 14
2 1 2 15
1 1 2 16
2 1 2 17
2 1 2 22 27
1 1 2 22 27 28
2 1 2 22 27 30 31
1 1 2 22 31
1 1 2 33
8 1 3
1 1 3 4 6 7 8 9 11 12 17 22 24 26 30
1 1 3 4 6 7 8 12 17 22 24 26
1 1 3 5 17 20 24 28
1 1 3 5 22
1 1 3 6 7 13
1 1 3 6 9
1 1 3 6 9 12 18 20 22 30
1 1 3 9 11
1 1 3 9 18
1 1 3 9 19 20
3 1 3 12 13
1 1 3 14
1 1 3 15
2 1 4 5
3 1 4 5 7
1 1 4 5 7 12 27 30
1 1 4 5 8 9 17
1 1 4 6 12 27
1 1 4 8
1 1 5 9 11 18 20 26
1 1 5 9 12 22 27 30 31
1 1 5 12 22 26 27 31
1 1 5 12 27
1 1 5 17
2 1 6
1 1 6 7
1 1 6 8 9 11
2 1 6 9 11
2 1 8 9
1 1 8 12 15 22 25 27
1 1 8 12 18 19 29
1 1 8 15 26 31
1 1 8 18
1 1 8 18 19 20 23 24
1 1 8 18 20 21 23 24
10 1 9
9 1 9 11
1 1 9 16
1 1 9 22 30
3 1 11
1 1 12 15 20 24
1 1 12 22 26 27 30
1 1 12 22 26 30
1 1 12 22 27 30
1 1 14 15
1 1 15 22 27 31
1 1 19 20 24
1 1 20 21 27 30
1 1 22 26 31
2 1 22 27
1 1 22 27 30
1 1 31
6 2
6 2 3
1 2 3 4 8 12
1 2 3 4 12 15
1 2 3 5 8 9 10 11 12 15 33
1 2 3 5 8 9 10 11 34
1 2 3 5 8 9 11 12 13 29
1 2 3 5 8 9 11 12 15 33
1 2 3 5 12 17
1 2 3 6 7 26 30
1 2 3 8 9 11 12 14 29
1 2 3 8 9 11 15
1 2 3 8 12 13 19 20 21 23 24 27 30 31
3 2 3 12
2 2 3 12 13
1 2 3 12 13 17
1 2 3 12 22 27 31
1 2 3 13 34
1 2 3 19 20 21 24 31
1 2 3 21 31
1 2 4
1 2 4 5 7 12
1 2 4 5 7 12 13
1 2 4 5 7 12 15
1 2 4 5 8 10 11 15
1 2 4 5 12
2 2 4 6
1 2 4 7 8 14
1 2 4 13
1 2 5 7 8 9 10 11
1 2 5 8 9
1 2 5 8 9 10 11
1 2 5 8 9 10 11 14 15 16
1 2 5 8 9 10 11 15 34
1 2 5 8 9 10 16 29
1 2 5 8 10
1 2 5 8 10 11 12
1 2 5 8 11
1 2 5 9 10
3 2 6
1 2 6 10
4 2 8 9
1 2 8 9 10 11 14 15
1 2 8 9 11
1 2 8 9 11 29
1 2 8 17
1 2 8 18 19 20 21
1 2 8 18 19 23 25
1 2 8 18 23 25
1 2 8 24
1 2 8 25
1 2 9 10 11 14 16 32
1 2 9 11 16
4 2 12
1 2 12 13
1 2 12 21 22 27 30
5 2 14
1 2 14 15 16 29 32 33 34
1 2 14 15 22 27 32
1 2 14 16 29
1 2 14 19 20 21 24
1 2 14 33
1 2 15 27
1 2 15 32 33
1 2 17 34
1 2 20 21
1 2 22 26 27
1 2 22 26 27 31
1 2 22 27
1 2 22 27 28 31
1 2 27
4 2 29
1 2 29 34
21 3
1 3 4 5 6 8 12 26 27
1 3 4 5 6 8 26 27
1 3 4 5 27
1 3 4 6 11
1 3 4 6 12
1 3 4 8 12 17
1 3 4 12
1 3 5 6
1 3 5 6 8 12 23 24 27
1 3 5 6 12
1 3 5 6 26
1 3 5 8 12 26
1 3 5 12
1 3 5 17
1 3 6 8
1 3 8 9 10 11 12
1 3 8 11 12 27
2 3 8 12
1 3 8 12 20 23 26
1 3 8 17 18 23 27
3 3 12
5 3 12 13
1 3 12 20
1 3 12 27
1 3 12 27 30
1 3 15
1 3 17 24 27
1 3 20 31
12 4
7 4 5
1 4 5 6 12 27 31
3 4 5 7
1 4 5 8 12
6 4 5 12
1 4 5 12 22
5 4 6
1 4 6 10
1 4 6 11 12 27
2 4 7
1 4 8
1 4 8 10 27
1 4 8 12
4 4 12
1 5
1 5 6 9 13 17
1 5 6 12 18 23
1 5 7
10 5 8
1 5 8 9 10 11
4 5 8 9 11
1 5 8 9 15 16
1 5 8 9 34
2 5 8 10
1 5 8 10 11
1 5 8 10 11 16
1 5 8 29
1 5 12
1 5 12 15 22 26 27 28 30 31
1 5 12 22 26 27 30
1 5 12 26 27 31
1 5 26
1 5 26 28 31
2 5 27
1 6
2 6 7
1 6 7 8
3 6 7 8 10
1 6 8 11 17
1 6 8 13 15
1 6 9 24 29 31
1 6 10
1 6 12 27
1 6 19 20 27
7 7
3 7 8
10 8
1 8 9
1 8 9 10 11
1 8 9 10 11 14
1 8 9 10 14 15
4 8 9 11
1 8 9 11 12 13 17
1 8 9 11 14
1 8 9 15 29
1 8 9 16
1 8 9 17 27 30
3 8 10
1 8 10 12 27 31
1 8 11
1 8 11 32
1 8 15 34
1 8 17
1 8 18 19 20 21 23 24 33
1 8 18 19 20 23 24
1 8 18 19 20 24
1 8 18 20 21 23 24 29
1 8 18 23
1 8 18 23 24
1 8 18 33
1 8 19 20 21 24
1 8 20
1 8 27
4 9
1 9 10
1 9 10 11
11 9 11
1 10
2 11
2 12
1 12 15
4 12 26 27
2 12 27
1 13
1 15 22 27
4 17
1 18 19 20
1 18 20
1 18 20 21 24 29
3 18 20 23 24
1 18 21
2 18 23 24
1 18 24
2 19 20 21 24
1 19 20 24
1 20 21 24
1 20 23 24
1 20 24
1 21 25
2 22
2 22 27 31
1 26 27
5 27
1 27 30
1 27 31
3 30
1 31
1071
prevTokenAndType=Life_the
anchor=hearing/n
arg=marines
evTypeArg=Transport:him
prevToken=end
chunkPathAndType=Conflict_follow_at
chunkPathAndType=Life_precede_,
evTypeArg=Attack:divisions
prevTokenAndType=Movement_the
prevTokenAndType=Contact_between
prevTokenAndType=Contact_met
prevToken=down
chunkPathAndType=Business_follow_in
chunkPath=precede_don't
anchor=pardon
synPathEvType=Justice_of
anchor=approach
anchor=withdraw
prevToken=opened
anchor=marriage/n
arg=White_House
prevTokenAndType=Life_with
anchor=did
prevTokenAndType=Justice_)
evTypeArg=Attack:who
synPath=object-1:make:subject
evTypeArg=Transport:their
arg=Sunday_morning
prevToken=had
arg=Boston
arg=mortars
arg=women
synPath=object-1:have:subject
arg=missiles
synPathEvType=Transaction_nameMod
prevTokenAndType=Movement_enter
chunkPath=precede_who
arg=division
chunkPathAndType=Life_precede_,_be
evTypeArg=Attack:buildings
evTypeArg=Transfer-Ownership:she
arg=thousands
evTypeArg=Meet:bush
prevToken=along
evTypeArg=Attack:Karbala
synPathTypes=Movement_LOCATION_object
prevTokenAndType=Life_from
prevTokenAndType=Movement_aboard
anchor=write
arg=store
anchor=resignation/n
arg=citizens
anchor=punch/n
evTypeArg=Meet:their
prevToken=died
evTypeArg=Elect:Sistani
arg=your
evTypeArg=Attack:Republican_Guard
evTypeArg=Attack:gaza
anchor=lawsuits/n
anchor=ambush/n
arg=demonstrators
evTypeArg=Start-Position:there
arg=journalists
evTypeArg=Die:today
prevToken=toward
evTypeArg=Transport:Boston
prevTokenAndType=Business_and
evTypeArg=Injure:Tuesday
arg=Tvrdik
arg=Israeli
evTypeArg=Attack:here
chunkPathAndType=Life_precede_to
prevTokenAndType=Justice_are
anchor=gathering/n
prevTokenAndType=Justice_because
chunkPathAndType=Transaction_follow_of
evTypeArg=Meet:members
arg=compound
synPathTypes=Justice_ORGANIZATION_object
prevTokenAndType=Personnel_put
evTypeArg=Transfer-Ownership:him
arg=divisions
anchor=close
chunkPathAndType=Life_precede_have
arg=soldier
anchor=turn
chunkPath=follow_back_to
evTypeArg=Attack:We
evTypeArg=Transport:soldiers
chunkPathAndType=Transaction_follow_:
arg=general
anchor=dismiss
arg=Indonesia
evTypeArg=Transport:border
evTypeArg=Transport:territory
prevToken=make
arg=Niagara_Falls
arg=man
prevTokenAndType=Personnel_recent
anchor=out-raised
arg=Pearl
anchor=shootings/n
prevTokenAndType=Personnel_said
prevTokenAndType=Contact_as
anchor=hear
evTypeArg=Sue:companies
chunkPath=precede_have_(_negated_)
chunkPathAndType=Business_precede_be
arg=Sistani
arg=former
evTypeArg=End-Position:she
arg=organizations
prevToken=aboard
evTypeArg=Arrest-Jail:we
evTypeArg=Die:soldier
chunkPath=precede_would
arg=mob
arg=camp
chunkPathAndType=Contact_precede_have
prevToken=told
anchor=prosecution/n
prevTokenAndType=Movement_--
prevTokenAndType=Life_died
evTypeArg=Attack:Britain
prevTokenAndType=Movement_along
arg=building
evTypeArg=Attack:Bush
evTypeArg=Transport:who
prevToken=engage
prevToken=started
chunkPathAndType=Movement_precede_could
anchor=telephone/n
evTypeArg=Phone-Write:we
evTypeArg=Transport:people
prevToken=(
arg=Basson
arg=1991
arg=grandmother
arg=aircraft
evTypeArg=Die:men
evTypeArg=Die:members
evTypeArg=Phone-Write:us
prevToken=put
chunkPathAndType=Movement_follow_over
evTypeArg=Transfer-Ownership:forces
evTypeArg=Attack:it
arg=minor
arg=more
synPathTypes=Personnel_ORGANIZATION_subject
prevTokenAndType=Movement_)
prevToken=fired
anchor=due
anchor=talks/n
arg=Republican_Guard
evTypeArg=Elect:government
prevToken=attack
synPathTypes=Movement_GPE_subject
synPathTypes=Conflict_GPE_poss
anchor=set
arg=minister
prevToken=met
anchor=buys
anchor=fall
arg=unit
evTypeArg=Meet:today
evTypeArg=Attack:Sunday
prevTokenAndType=Contact_when
prevToken=recent
arg=bombs
anchor=pled
evTypeArg=Attack:guns
chunkPathAndType=Justice_precede_,_be
chunkPathAndType=Personnel_follow_from
arg=head
evTypeArg=Meet:officials
prevToken=outside
chunkPath=follow_between
chunkPathAndType=Contact_follow_of
anchor=arrest/n
evTypeArg=Attack:her
chunkPath=precede_'m
evTypeArg=Transport:Bush
evTypeArg=Meet:minister
chunkPathAndType=Business_precede_to
chunkPathAndType=Transaction_follow_by
evTypeArg=Attack:village
chunkPathAndType=Movement_precede_did
chunkPathAndType=Business_precede_
arg=New_England
anchor=discussion/n
prevTokenAndType=Conflict_outside
chunkPath=follow_as
chunkPathAndType=Movement_follow_back_to
prevTokenAndType=Conflict_is
evTypeArg=Attack:Saturday
anchor=landing/n
evTypeArg=Meet:they
evTypeArg=Attack:bombs
arg=rocket
evTypeArg=Attack:coalition
prevToken=who
anchor=action/n
arg=iran
prevTokenAndType=Life_a
prevToken=erupted
prevTokenAndType=Life_'s
evTypeArg=Attack:place
arg=Saddam_Hussein
prevTokenAndType=Justice_Trial
prevToken=00
evTypeArg=Die:crew
arg=silver_cross
arg=outskirts
evTypeArg=Arrest-Jail:you
prevToken=serving
chunkPathAndType=Movement_follow_by
chunkPath=follow_and_kill
evTypeArg=Elect:recent
evTypeArg=Convict:they
anchor=become
evTypeArg=Meet:he
chunkPathAndType=Movement_follow_at
arg=Britain
evTypeArg=Start-Position:I
prevTokenAndType=Movement_toward
anchor=bloodshed/n
chunkPathAndType=Conflict_follow_to
prevTokenAndType=Justice_a
arg=prison
arg=lawyers
arg=opponents
evTypeArg=Appeal:court
prevTokenAndType=Personnel_:
chunkPathAndType=Conflict_follow_and_kill
arg=troop
evTypeArg=Transport:New_England
anchor=rumble
anchor=deadly
prevTokenAndType=Life_to
evTypeArg=Die:troops
arg=american
prevTokenAndType=Life_for
evTypeArg=Transport:Niagara_Falls
evTypeArg=End-Position:former
prevToken=left
arg=sons
anchor=injured
chunkPathAndType=Personnel_precede_have
evTypeArg=Elect:president
chunkPathAndType=Movement_precede_to
arg=Palestinians
arg=car
evTypeArg=End-Position:general
prevTokenAndType=Contact_-
evTypeArg=Attack:hamas
prevTokenAndType=Conflict_if
arg=buildings
arg=tonight
anchor=end
anchor=loss/n
prevTokenAndType=Conflict_--
evTypeArg=Attack:baghdad
evTypeArg=Attack:US
evTypeArg=Attack:Japan
evTypeArg=Attack:group
synPathTypes=Conflict_GPE_subject
evTypeArg=Attack:terrorist
evTypeArg=Attack:Iraqis
evTypeArg=Attack:U.S
synPathTypes=Conflict_GPE_nameMod
synPathEvType=Conflict_nameMod
evTypeArg=Attack:nation
evTypeArg=Attack:United_States
prevTokenAndType=Conflict_into
anchor=invade
evTypeArg=Attack:China
evTypeArg=Attack:Iraq
evTypeArg=Attack:Iran
anchor=invasion/n
anchor=bombings/n
anchor=fighting/n
anchor=airstrikes/n
anchor=gunfire/n
dist=3
noSynPath
dist=1
dist=0
dist=5
chunkPath=follow_
dist=4
synPath=object
dist=6
anchor=take
dist=2
dist=7
dist=8
prevToken=that
dist=9
prevToken=,
prevToken=and
prevToken=.
dist=11
chunkPath=precede_
dist=14
dist=12
evType=Conflict
prevToken=on
prevToken=:
anchor=war/n
prevToken=for
dist=10
prevToken=the
prevToken=a
dist=13
noChunkPath
prevTokenAndType=Conflict_.
prevTokenAndType=Conflict_,
prevToken=from
anchor=fire
anchor=fight
prevToken=in
chunkPathAndType=Conflict_precede_
anchor=destroy
anchor=kill
prevToken='s
anchor=it/pro
anchor=launch
anchor=assault/n
anchor=throw
dist=15
prevToken=is
prevTokenAndType=Conflict_:
anchor=attack
anchor=raid/n
prevTokenAndType=Conflict_from
anchor=storm
prevTokenAndType=Conflict_on
anchor=strike
anchor=hit
anchor=strike/n
anchor=battle/n
anchor=fire/n
anchor=bomb
prevTokenAndType=Conflict_the
chunkPathAndType=Conflict_follow_
anchor=attack/n
anchor=shot/n
anchor=clash
prevTokenAndType=Conflict_a
anchor=fight/n
prevTokenAndType=Conflict_in
prevTokenAndType=Conflict_'s
anchor=uprising/n
prevTokenAndType=Conflict_for
anchor=War
synPathEvType=Conflict_poss
prevToken=-
arg=China
prevToken=of
prevToken=by
synPath=subject
chunkPath=precede_be
prevToken=with
chunkPath=precede_to
prevToken=when
arg=people
prevToken=said
prevToken=to
chunkPath=precede_have
prevToken="
synPath=poss
prevToken=be
menType=GPE
arg=US
synPath=nameMod
chunkPath=precede_have_to
arg=United_States
prevTokenAndType=Conflict_"
prevTokenAndType=Conflict_with
chunkPathAndType=Conflict_precede_be
synPathEvType=Conflict_subject
prevTokenAndType=Conflict_of
chunkPath=follow_with
chunkPath=follow_from
arg=Iraq
arg=country
dist=17
anchor=campaign/n
anchor=shoot
prevToken=including
prevToken=how
anchor=open
prevToken=time
arg=Israel
arg=nation
prevTokenAndType=Conflict_against
anchor=engage
anchor=combat/n
evTypeArg=Attack:people
anchor=overthrow
chunkPathAndType=Conflict_follow_against
prevTokenAndType=Conflict_and
chunkPathAndType=Conflict_follow_with
anchor=striking
synPathEvType=Conflict_object
prevTokenAndType=Conflict_when
anchor=clash/n
anchor=defeat
anchor=punch
prevTokenAndType=Conflict_by
prevToken=against
chunkPath=follow_against
prevTokenAndType=Conflict_to
arg=it
prevToken=into
anchor=conflict/n
arg=Iran
chunkPathAndType=Conflict_precede_'s
chunkPath=follow_,
prevToken=--
prevToken=but
chunkPath=precede_'s
prevToken=as
anchor=blow
chunkPath=precede_have_be
anchor=abuse/n
chunkPathAndType=Conflict_precede_have_be
anchor=assault
chunkPathAndType=Conflict_precede_go_to
arg=North_Korea
arg=they
menType=PERSON
arg=he
arg=she
arg=who
arg=He
prevToken=say
arg=leaders
prevTokenAndType=Conflict_that
arg=them
arg=her
arg=members
arg=others
arg=two
arg=president
chunkPath=precede_go_to
arg=police
arg=Bush
menType=ORGANIZATION
arg=troops
arg=They
arg=we
arg=you
chunkPath=follow_by
arg=We
prevToken=after
arg=U.S
arg=group
arg=Washington
synPathTypes=Conflict_PERSON_subject
prevTokenAndType=Conflict_said
prevTokenAndType=Conflict_as
prevToken=where
arg=their
prevToken=saying
anchor=use
prevToken=have
chunkPath=precede_can
arg=bush
prevToken=between
prevToken=says
arg=Japan
arg=Arafat
arg=bomber
anchor=beat
arg=terrorists
anchor=poison
anchor=torture
prevToken=)
arg=men
prevToken=if
arg=him
arg=one
prevToken=because
arg=soldiers
prevToken=are
arg=civilians
arg=Marines
arg=Americans
prevToken=which
arg=Iraqis
prevToken=whether
arg=sniper
arg=forces
arg=his
arg=Tugle
prevToken=like
arg=regime
arg=coalition
evTypeArg=Attack:troops
anchor=rape
evTypeArg=Attack:their
prevTokenAndType=Conflict_)
evTypeArg=Attack:she
synPathTypes=Conflict_PERSON_object
evTypeArg=Attack:men
evTypeArg=Attack:he
evTypeArg=Attack:we
evTypeArg=Attack:forces
evTypeArg=Attack:them
prevTokenAndType=Conflict_where
chunkPathAndType=Conflict_precede_to
evTypeArg=Attack:they
arg=7th_Cavalry
arg=hamas
chunkPathAndType=Conflict_follow_by
arg=terrorist
arg=Toefting
chunkPath=follow_:
evTypeArg=Elect:US
prevTokenAndType=Contact_at
evTypeArg=Die:Iraq
evTypeArg=Attack:Baghdad
arg=place
prevTokenAndType=Conflict_around
arg=village
arg=gaza
evTypeArg=Attack:city
chunkPathAndType=Justice_follow_in
prevTokenAndType=Contact_on
prevTokenAndType=Contact_in
prevTokenAndType=Life_In
chunkPathAndType=Contact_follow_in
prevTokenAndType=Life_in
anchor=explosion/n
chunkPathAndType=Life_follow_in
anchor=meet
prevToken=call
chunkPathAndType=Contact_follow_
anchor=summit/n
anchor=talk
anchor=call
anchor=demonstrate
prevTokenAndType=Contact_call
prevTokenAndType=Contact_,
prevToken=at
anchor=go
evType=Justice
anchor=name
evType=Personnel
prevTokenAndType=Justice_,
prevTokenAndType=Justice_.
prevToken=over
anchor=visit
prevToken=since
chunkPathAndType=Personnel_follow_
chunkPathAndType=Personnel_precede_
anchor=elect
anchor=election/n
anchor=win
anchor=former
prevTokenAndType=Personnel_.
prevTokenAndType=Personnel_,
prevTokenAndType=Personnel_the
anchor=call/n
anchor=meeting/n
evType=Contact
chunkPathAndType=Contact_precede_
anchor=talk/n
anchor=rally/n
prevTokenAndType=Personnel_in
anchor=suicide/n
prevTokenAndType=Life_on
anchor=wound
anchor=die
anchor=injure
chunkPathAndType=Life_precede_
chunkPathAndType=Life_follow_
evType=Life
anchor=dead
evType=Movement
prevTokenAndType=Life_.
anchor=get
anchor=execution/n
prevTokenAndType=Personnel_and
anchor=arrest
evType=Business
prevTokenAndType=Conflict_at
chunkPath=follow_on
chunkPath=follow_over
anchor=seize
evType=Transaction
anchor=sell
chunkPath=follow_in
anchor=born
anchor=divorce/n
prevTokenAndType=Personnel_on
anchor=jail
prevToken=At
prevToken=In
prevTokenAndType=Conflict_In
chunkPathAndType=Conflict_follow_in
chunkPathAndType=Business_follow_
prevTokenAndType=Business_in
anchor=conviction/n
anchor=convict
anchor=charge
anchor=sentence/n
anchor=sentence
prevTokenAndType=Justice_in
chunkPathAndType=Personnel_follow_in
prevTokenAndType=Contact_to
synPathEvType=Contact_object
anchor=gather
chunkPathAndType=Contact_follow_from
anchor=protest
prevTokenAndType=Contact_from
evTypeArg=Elect:Iraq
prevTokenAndType=Contact_and
chunkPath=follow_of
synPath=of
arg=government
prevToken=an
prevToken=was
chunkPath=follow_at
chunkPath=follow_to
arg=there
arg=Pyongyang
arg=Turkey
synPathEvType=Personnel_poss
prevTokenAndType=Personnel_of
anchor=put
anchor=negotiation/n
prevTokenAndType=Contact_a
anchor=murder/n
anchor=murder
anchor=casualty/n
prevTokenAndType=Life_when
prevTokenAndType=Life_of
anchor=death/n
anchor=back
chunkPath=precede_,
arg=another
arg=state
prevTokenAndType=Justice_to
synPathEvType=Justice_subject
prevTokenAndType=Justice_that
anchor=create
synPathTypes=Conflict_FACILITY_object
chunkPathAndType=Conflict_follow_on
chunkPathAndType=Conflict_follow_of
menType=FACILITY
prevToken=through
menType=LOCATION
chunkPath=follow_into
arg=airport
chunkPath=follow_for
anchor=capture
dist=16
anchor=deliver
prevTokenAndType=Transaction_,
prevTokenAndType=Transaction_of
arg=Seoul
arg=border
prevToken=enter
arg=mars
arg=here
chunkPathAndType=Movement_follow_into
arg=baghdad
arg=streets
arg=territory
arg=Baghdad
arg=city
arg=capital
arg=Jordan
evTypeArg=Transport:Iraq
arg=Karbala
arg=home
arg=area
arg=hospital
prevToken=around
prevTokenAndType=Movement_into
chunkPathAndType=Justice_follow_to
prevToken=near
prevToken=leave
arg=West_Bank
anchor=have
prevTokenAndType=Justice_of
chunkPathAndType=Justice_follow_of
anchor=serve
anchor=intifada/n
anchor=trial/n
anchor=e
anchor=receive
anchor=appeal/n
anchor=accuse
anchor=try
anchor=face
arg=court
evTypeArg=Attack:Monday
arg=last_year
prevToken=On
evTypeArg=Attack:today
arg=recent
arg=yesterday
prevTokenAndType=Contact_meeting
prevTokenAndType=Personnel_at
anchor=phone/n
anchor=e-mail
prevTokenAndType=Contact_.
prevToken=meeting
chunkPath=precede_get
prevToken=only
anchor=come
anchor=send
anchor=leave
anchor=drive
anchor=start
prevToken=or
anchor=return
anchor=visit/n
anchor=give
anchor=transfer
anchor=retire
anchor=join
anchor=appoint
anchor=resign
anchor=out
prevTokenAndType=Justice_on
anchor=appointment/n
anchor=pay
anchor=fine/n
prevTokenAndType=Life_killed
prevTokenAndType=Life_and
anchor=lose
prevTokenAndType=Life_,
prevTokenAndType=Movement_,
synPathEvType=Life_object
prevToken=injured
prevToken=killed
prevToken=off
chunkPath=follow_GPE
anchor=drop
prevTokenAndType=Movement_that
anchor=move
anchor=fly
chunkPathAndType=Movement_precede_
anchor=arrive
prevTokenAndType=Movement_.
anchor=lift
anchor=withdrawal/n
anchor=mission/n
prevTokenAndType=Conflict_killed
prevTokenAndType=Conflict_hit
anchor=crossfire/n
prevToken=hit
anchor=enter
anchor=travel
anchor=cross
anchor=advance/n
chunkPathAndType=Movement_follow_
anchor=push/n
prevTokenAndType=Movement_on
prevToken=until
anchor=acquire
anchor=buy
anchor=sale/n
prevTokenAndType=Transaction_in
prevTokenAndType=Transaction_for
prevTokenAndType=Movement_in
prevTokenAndType=Movement_at
prevToken=arrested
prevToken=fire
prevTokenAndType=Justice_arrested
anchor=step
anchor=re/n
chunkPathAndType=Justice_follow_
arg=tomorrow
arg=this_morning
evTypeArg=Attack:Tuesday
evTypeArg=Meet:tomorrow
arg=Tuesday
menType=Time
prevTokenAndType=Justice_for
arg=Friday
anchor=loan/n
arg=last_week
prevToken=during
menType=Age
anchor=bankruptcy/n
prevTokenAndType=Transaction_a
anchor=suit/n
anchor=sue
anchor=acquit
anchor=charge/n
prevTokenAndType=Justice_:
arg=Sunday
arg=Saturday
arg=Monday
arg=now
arg=today
synPathEvType=Contact_poss
evTypeArg=Meet:Bush
evTypeArg=Demonstrate:people
evTypeArg=Meet:leaders
prevTokenAndType=Contact_of
synPathTypes=Contact_PERSON_subject
evTypeArg=Phone-Write:I
evTypeArg=Phone-Write:you
anchor=letter/n
chunkPathAndType=Contact_follow_with
synPathEvType=Contact_subject
chunkPathAndType=Personnel_follow_to
synPathTypes=Contact_PERSON_object
synPathTypes=Contact_PERSON_poss
chunkPathAndType=Contact_follow_to
evTypeArg=Meet:Putin
evTypeArg=Meet:we
prevTokenAndType=Personnel_to
evTypeArg=Meet:North_Korea
prevTokenAndType=Contact_with
prevTokenAndType=Contact_that
arg=person
arg=woman
arg=mother
prevToken=leaving
arg=son
prevToken=out
arg=wife
arg=us
arg=I
arg=officials
arg=families
prevToken=so
synPathEvType=Personnel_subject
prevToken=while
arg=protesters
anchor=head
anchor=walk
arg=Putin
arg=leader
arg=i
arg=company
prevTokenAndType=Personnel_when
prevTokenAndType=Personnel_that
chunkPathAndType=Personnel_precede_be
anchor=retired
anchor=quit
prevTokenAndType=Personnel_as
prevTokenAndType=Personnel_from
synPathEvType=Personnel_object
arg=jordan
synPathTypes=Justice_PERSON_object
synPathEvType=Justice_object
prevTokenAndType=Contact_"
arg=companies
arg=SEC
evTypeArg=Injure:others
evTypeArg=Die:Arafat
synPathTypes=Life_PERSON_of
prevTokenAndType=Life_killing
evTypeArg=Die:civilians
chunkPathAndType=Life_follow_of
synPathEvType=Life_of
prevToken=kill
evTypeArg=Die:wife
evTypeArg=Die:son
prevTokenAndType=Life_kill
evTypeArg=Die:civilian
evTypeArg=Die:who
evTypeArg=Die:person
prevTokenAndType=Life_including
evTypeArg=Die:people
synPathTypes=Life_PERSON_subject
evTypeArg=Die:he
prevTokenAndType=Life_say
prevToken=think
synPathEvType=Life_subject
anchor=stab
prevTokenAndType=Life_by
chunkPath=precede_could
prevTokenAndType=Life_if
prevTokenAndType=Life_that
prevTokenAndType=Life_think
prevTokenAndType=Life_)
synPathTypes=Life_PERSON_object
chunkPathAndType=Life_precede_be
anchor=do
arg=boy
prevToken=killing
arg=civilian
arg=children
arg=diplomats
arg=convoy
chunkPath=precede_,_be
anchor=wound/n
anchor=hurt
arg=crew
arg=some
arg=baby
chunkPathAndType=Life_precede_'s
synPathTypes=Life_PERSON_poss
synPathEvType=Life_poss
chunkPathAndType=Life_precede_have_be
evTypeArg=Transport:United_States
prevToken=up
arg=someone
chunkPathAndType=Life_follow_by
evTypeArg=Transport:we
evTypeArg=Transport:They
evTypeArg=Transport:they
evTypeArg=Transport:you
chunkPathAndType=Movement_precede_have
synPathTypes=Movement_PERSON_subject
chunkPath=precede_did
evTypeArg=Transport:I
evTypeArg=Transport:he
evTypeArg=Transport:forces
prevTokenAndType=Movement_as
prevTokenAndType=Movement_of
prevTokenAndType=Movement_by
anchor=smuggle
anchor=deploy
anchor=deport
anchor=bring
chunkPathAndType=Movement_precede_be
prevTokenAndType=Movement_with
synPathEvType=Movement_subject
prevTokenAndType=Movement_and
prevTokenAndType=Movement_said
synPathTypes=Personnel_PERSON_subject
chunkPathAndType=Justice_precede_
prevTokenAndType=Justice_and
synPathTypes=Justice_PERSON_subject
chunkPathAndType=Justice_follow_by
prevTokenAndType=Justice_by
arg=Scott_Peterson
prevToken=Trial
evTypeArg=Attack:boy
evTypeArg=Attack:tanks
arg=guns
menType=WEA
menType=VEH
arg=vehicles
arg=tanks
prevToken=see
chunkPath=follow_the
prevToken=about
arg=plane
arg=guy
prevToken=give
arg=anthrax
evTypeArg=Attack:weapons
synPathTypes=Conflict_WEA_object
evTypeArg=Attack:anthrax
arg=missile
synPathTypes=Conflict_WEA_subject
evTypeArg=Attack:gun
arg=weapons
arg=gun
arg=arms
prevToken=acquire
synPathTypes=Transaction_WEA_object
evTypeArg=Transport:them
synPathEvType=Movement_poss
synPathTypes=Movement_PERSON_poss
synPathTypes=Movement_PERSON_object
evTypeArg=Transport:troops
synPathTypes=Transaction_FACILITY_object
evTypeArg=Transfer-Ownership:weapons
prevTokenAndType=Transaction_acquire
arg=base
synPathEvType=Movement_object
anchor=carry
anchor=voyage/n
chunkPathAndType=Movement_follow_of
prevTokenAndType=Movement_over
anchor=flee
evTypeArg=Transport:it
anchor=be
anchor=push
anchor=trip/n
anchor=reach
prevToken=get
synPathTypes=Movement_VEH_object
prevTokenAndType=Movement_take
prevToken=take
chunkPath=precede_will
prevTokenAndType=Movement_when
anchor=abandon
prevTokenAndType=Movement_for
arg=business
chunkPathAndType=Transaction_follow_
prevTokenAndType=Transaction_.
chunkPathAndType=Transaction_precede_be
chunkPathAndType=Transaction_precede_
evTypeArg=Transfer-Ownership:company
prevTokenAndType=Transaction_--
anchor=purchase
synPathEvType=Transaction_object
synPathTypes=Transaction_ORGANIZATION_object
arg=Ocalan
chunkPathAndType=Movement_follow_on
chunkPathAndType=Movement_follow_to
evTypeArg=Transport:mars
evTypeArg=Transport:Baghdad
chunkPathAndType=Movement_follow_in
prevTokenAndType=Movement_to
evTypeArg=Transport:area
prevTokenAndType=Movement_through
evTypeArg=Transport:city
evTypeArg=Transport:there
synPathTypes=Movement_FACILITY_object
synPathTypes=Movement_GPE_object
prevTokenAndType=Movement_from
evTypeArg=Transport:country
evTypeArg=Transport:hospital
evTypeArg=Transport:home
evTypeArg=Transport:capital
synPathTypes=Movement_VEH_subject
prevTokenAndType=Movement_leave
chunkPathAndType=Movement_follow_from
evTypeArg=Arrest-Jail:people
synPathTypes=Personnel_PERSON_object
anchor=marry
arg=Chiluba
synPathEvType=Justice_poss
chunkPathAndType=Justice_precede_be
synPathTypes=Justice_PERSON_poss
chunkPathAndType=Justice_precede_have_be
prevTokenAndType=Justice_if
menType=Job-Title
chunkPathAndType=Justice_follow_for
prevTokenAndType=Business_.
synPathEvType=Business_object
anchor=merger/n
synPathTypes=Business_ORGANIZATION_object
prevTokenAndType=Transaction_to
chunkPathAndType=Transaction_follow_to
prevTokenAndType=Transaction_by
synPathEvType=Transaction_subject
prevTokenAndType=Transaction_that
synPathTypes=Transaction_PERSON_subject
prevTokenAndType=Transaction_:
prevTokenAndType=Transaction_if
synPathTypes=Transaction_ORGANIZATION_subject
synPathTypes=Transaction_GPE_subject
anchor=donation/n
anchor=aid/n
synPathTypes=Transaction_PERSON_object
anchor=contribution/n
prevTokenAndType=Transaction_from
anchor=donate
menType=Numeric
arg=murdering_his_wife_Laci_and_their_unborn_son
menType=Crime
anchor=find
anchor=guilty
synPathTypes=Justice_ORGANIZATION_subject
evTypeArg=Sentence:he
arg=Dell
evTypeArg=Convict:he
prevTokenAndType=Justice_against
evTypeArg=Sue:Dell
prevTokenAndType=Justice_get
evTypeArg=Sentence:they
arg=the_death_penalty
evTypeArg=Sentence:the_death_penalty
menType=Sentence
arg=judge
23.749759900036327
21.171888710215455
23.988049750569257
14.937940381319569
21.8200291331519
18.357768147619623
19.47745275459785
12.26014154428785
7.45817915078381
12.26014154428785
7.45817915078381
9.736776058979883
19.844165998636946
20.408748152082364
0.24668657847871236
21.864055563003312
17.9457533251636
24.776249999070433
7.57077283659634
18.46665721737032
2.7012127756204363
-8.915221992794844
16.882345424799112
18.826524758016216
-13.62417902124997
23.568685742763172
-11.768680846039741
23.579222700538686
22.93852144928611
24.02248984274902
22.578880057562603
20.678164280499562
20.61311571754632
1.9265656319364155
22.96530923573099
10.470125429974246
25.530089955790714
34.38818096724572
-0.17186009222094698
9.432089683597553
-0.5040172303949202
5.53555860994962
4.89262173215727
7.150475606429436
5.382487235239649
-3.887088392903549
7.337175910448602
2.37381150449478
0.7650948441467849
-5.804857240659199
7.02525655058111
1.5809502902310015
-5.066484628998854
-1.2611128212251295
-10.067994723724174
-7.157923876404762
-4.5071409049280655
-3.9280009911139375
-25.31127645018841
-8.616189291835182
-0.7491092021707462
-17.936111629203392
-1.139941975017384
-7.131091761465364
-19.31652956339631
-3.016511841254572
7.581462998216468
-7.477894459838229
7.717401875645739
-25.51911516965368
-19.198759725106594
-11.354021165108552
7.899869076331715
-13.28083090038399
3.5607797397520518
6.156845015858926
7.769010305199849
4.249858263340206
2.7788747813741734
0.581424561906057
1.7012909288693816
-0.1417713405394707
0.5907608349436408
3.4139056054249
-13.037775188912558
-4.262559726429701
-0.9551822326087445
-6.794302532134697
-7.846643031425735
-4.537226402086352
-13.078056336076868
-4.228663993733802
-4.464054399369067
-16.20469409479221
-6.488726661955228
-8.355437613533539
-1.4064749712218267
-13.712957644085858
-11.51358486768414
-23.943833252060482
-18.357800870411886
-1.5197034357576804
-24.79590819165678
-13.45968067138454
-9.017656469621343
-11.02293448464794
-28.081686159805454
-20.60041825090978
-24.223034403239975
1.9633725329346685
5.638691727504172
1.732136350442408
5.989861871346975
3.4524630267558036
-3.9790736481838964
2.047513717880837
-6.77211001715235
2.309828392279269
3.9941883988191593
-0.005289204617651588
-2.7998044901698456
5.405943561716819
-3.3332108348062772
-10.862803160264995
3.8729637654828553
-30.359713249389145
0.34713187184776206
-5.309333324849231
-27.208859423085475
-10.695259828197615
-4.911217225179925
-4.045655649255765
-27.639897477767363
-2.1084944321899153
-12.02478738255553
-3.9373330169964076
-1.2828424786013812
-26.259888653513652
-4.91867753083919
-23.890437833179845
-23.44483116241879
2.859998291272917
0.8801951209991787
5.07334208407036
1.3712815597967718
5.818362200535218
0.431834098229666
-7.2014692054838765
1.2391574878056328
4.006216541435739
0.29733183142248887
-1.2286885998723323
-2.6381221192237194
3.4696511996118535
0.8169756249117506
-26.408941318333245
0.2781879905282314
-29.7247791900589
-0.801161775832028
-0.5685943839077865
-11.569020703316145
-2.873321726130342
-1.5529214274850092
-4.0707783880586215
-7.664311947556207
-0.809534704061488
-12.14690073083862
0.43124168222046366
-20.8175968411184
-24.55615773334762
-0.625468471352927
-20.76007241551012
-20.412862390964285
-17.733594639860616
3.227643080632392
5.202430832073229
6.200993871359316
8.922606912015999
3.4233210722008884
9.138765895550403
0.6630937452444075
0.9255386004458979
-4.892847252725067
-0.9165839674942167
-17.32802798511846
-3.4005541312735628
-0.8581098412529888
-5.1358564102501525
-14.85061416472781
2.9987118484082176
-12.609293527601098
-7.529822048229595
-2.478700252084418
-11.400246232976809
2.7794939139627823
-4.572801527845771
-7.6661420661575095
-6.139439766576187
-13.12015893535426
6.132909564792659
-1.7986053682735286
-1.4990316616312307
-2.2014323727210154
23.037701645006667
-9.03014548011636
-3.373735592253545
6.066158486140367
-1.303834323871563
6.6990023132356615
-34.51812253533725
6.696929635450632
-4.962262427699255
3.7979498815979533
2.3436498234309364
-29.435500588469324
0.005288317552215371
4.586298423487237
3.6439959750911597
2.7693353018204596
-12.848425526560042
1.500560034725845
-0.33046035279740993
-16.488664246579894
-1.0052814823797986
-3.3951206943433645
0.34911468819962166
-3.058608916921923
-5.984018489294432
-19.68678021968743
-3.1509808645003363
2.2922670294973018
0.5187282438339532
3.323551407289257
8.359745634863208
6.39685673201887
1.6012817404593909
3.850293968595625
-0.24903319718851957
10.998837787242177
-5.3498118479814565
-1.599779650459642
-1.2911635968767503
1.146615711191273
-9.910153887466308
4.0709528166149695
-4.1446820296426505
-10.98623721001869
-22.43117197569547
-8.959170697424431
-13.11817818362115
6.890999938196181
6.040248526903143
-5.277292635934189
-7.106353112565893
-5.822822602923754
-14.086398274920441
-18.933986192098725
31.468528231868177
12.75707856433681
1.198567661035484
27.318637437504428
-1.87154755734484
-6.512643791041585
-7.334820427626646
-15.411723882959162
4.640719397789538
5.8967731473502285
-9.317565993343589
4.293414523364707
1.1619545695459759
7.822292630825024
2.1245421980721653
-3.6476427775598044
0.04546044956669215
3.8823763109435117
-13.829176335038564
2.4402856875176804
0.7387998273417669
-3.806802470468969
-5.50624005666603
-9.593590170846161
5.5583044501776735
-13.557645264064803
5.750626737198621
11.267068611883964
-1.0517016855763863
8.151995416428294
1.7358496334406135
5.138693846801219
12.348547465435617
-1.5532378290169246
-14.707558508020714
-24.47449908398225
10.195040178566801
11.347824462693648
-4.315351173483967
13.911222897326041
-19.146173182752875
23.571741473648476
-2.483342286203353
0.5798571975139496
-11.649336896540323
17.5225725936321
3.439288132913486
6.750243283306526
30.23510264578693
7.809919568769546
-0.4841045924413306
11.399357301288719
11.012827881275598
-15.234075272834298
22.525859347904053
-9.674734755054246
5.9381370178748645
2.224102190511588
6.199319171099013
-2.2056066450661898
9.87257662039628
17.635862170114805
11.437047250762848
15.87695351891263
7.052679982735602
11.628532770147077
2.177296249807188
5.7196559036582695
8.54630611892766
5.410141639279328
6.445058595054318
-1.2563118814870493
3.7327297771419663
-4.439766553750101
5.630995392487112
4.818192786322301
-12.749430034319534
0.8743163587616896
-5.904803448391011
-6.565955145130014
-22.896617251085175
-24.599892523985787
0.04411203072569592
-5.741302990071903
-2.0752978878926784
-4.3138010178940664
-4.565818002806533
-4.285867786511632
-2.938108016300463
0.49275429162403084
-15.38927264574474
2.760717058701128
-12.126099436830254
4.50712524692116
-16.984073645648397
-17.693189907108906
-0.2664172745681924
6.469697795629967
7.224486123985564
5.241908945730074
11.339750662602016
7.037793759474012
8.069097762138682
-4.86076502512808
-9.796432665129696
5.3725270475833256
0.21892044971498148
-2.3406830647865653
2.008532324016919
-5.439946561542765
5.748112974363646
6.235856571870115
-1.7213961825240611
11.78978160342262
0.24056242793018145
-6.778548824244734
11.0058564164054
10.631644437724745
11.78494054127497
14.628575633802752
19.347291789318515
8.36346581701029
9.929459168792144
3.2820235637202826
9.259000290844714
-8.231562369550792
2.8670182332799294
-0.07900512988582598
11.601555184074538
7.595658636240197
2.900744796521832
6.549005743274824
-11.48000951986528
14.347198099304636
9.211190660689576
4.382040693134577
1.1597949063098811
17.634056013898878
24.442210333342736
8.156014696130615
5.216568583528305
23.03527760171564
9.216561390805
9.253621159440335
-21.334770402695746
-15.8520789200879
6.361813233623665
9.596963978850816
4.461550007946404
0.726313597711632
3.015073521077091
4.616853119366169
-9.633087311968612
5.726033081544463
15.69433839634413
12.353491503996354
6.095410532698646
8.264215275784558
0.00454716212883946
5.714178960839751
11.848250894132565
8.700868229952961
11.011717368545924
14.672817377443764
4.1405564619013004
16.48795960564691
8.436929137370326
13.766067889720524
9.958638446337318
7.644095792879788
14.795880515723576
7.939173273240139
35.93872591497896
13.42496617296025
18.505705312577067
19.879879521138243
12.769598232759368
4.279151717958724
-1.4367832526252229
1.2656791071678606
4.815480639071277
8.48661731769605
2.7516797929430394
-5.518244185268557
-0.4379265857031298
7.027036445114538
2.800350887567916
-15.133880291567259
5.826322847592547
-3.9220943134536306
2.7959666832727534
-4.2169852938249335
9.6026289972716
3.022390428068147
-8.084702999780948
-14.08524146882354
-1.4192436745517103
-3.2620137118816315
-11.618493397184908
-9.330275673999147
-10.694467996723018
12.767245547381204
4.409722934783994
2.120106262271373
-13.780887973041848
2.6136035412350553
7.904946272749685
12.029331035522294
3.261249312566976
6.371263153426402
4.607931452554233
-11.07613859884693
7.227007003161609
5.17362417495214
1.8259525563616654
7.682736863299708
19.012433148735685
8.735241299720018
7.333211502859105
10.381985192141084
-2.8344080206012143
1.5495826505309054
4.480546218643797
-2.550024257406534
5.385866946991268
7.472168393234057
5.248415098394492
3.965605056094618
-5.528647105962031
-21.811888692782475
8.48228871899785
2.5289759368319307
9.253347522305436
-13.85108157992382
2.0388027746036776
2.054239018367693
-5.009391016092774
-1.4462209203655
4.803906745596168
-1.8743786891260004
6.241948854289268
4.802788878511222
-1.6388084085461447
-7.6376193356111735
12.06416100525691
16.744234041174558
10.854922468818591
11.341260398647382
5.801647699014457
15.961877848349925
6.175254750032692
16.527487095049352
10.78502384629863
6.3356152589820445
25.308313056117136
21.92050266534368
3.712070978219461
44.82972690645688
5.363650641799114
3.223854429970526
3.5893473620772225
3.33587857727407
4.4230598705847655
3.2300535189521438
5.061172162690514
4.193334487353256
-15.123374969797656
3.133998299510372
-19.62544342124127
2.02212808637507
-19.060104509249737
4.076864031455671
-0.7084919749254808
2.6183233639391936
-1.9792932577096265
-3.8439662415622986
-5.03479776137751
-7.956070604832659
2.3056847423606905
1.599617302287852
2.6754363404335635
1.4519444122818237
4.074977945065584
-8.78996621932505
2.8691151047959282
10.349997575713951
15.687172551485887
22.471569381728628
16.790336944302904
-1.7975714098119713
20.661250577880907
21.79153231438193
6.921432166934003
21.593677326215147
11.988624595843492
-1.7228316873151694
13.99101616222239
9.65101451660037
1.24669646882404
17.16809132085435
10.712008306151498
16.0579405602214
15.817949885329659
23.829112794081325
38.139511471496796
3.82720846250799
30.049837726705203
5.121249988960314
18.25945599287183
9.264613804892402
5.08378577026027
-14.297738973589276
-46.51910617417621
18.675459264452527
10.08748854406025
-3.4298813772409815
-7.819233929941893
-20.423496082588198
-11.043641631141128
-17.55658257034475
-3.2806179652848555
-1.707188104813271
10.969091227689582
13.40095235196231
-13.485059399332535
-0.7846381294647821
3.261818468098848
1.4721042773525541
3.2203933604342616
7.3282079888905844
-0.9267130784081307
9.601155909333055
8.80455885837987
-4.369029403230279
3.10409444940307
0.39010497026538526
2.4074471696552706
-3.2379365296855602
12.088843259228494
14.649029184107675
4.697509014022762
0.35077002375047794
4.861906749566177
23.515381194250402
13.908633177773947
15.930706244313345
7.1466973734029375
22.84743022657371
1.2272380056809093
-13.428571326048559
-8.979140710366812
9.520763354986816
-0.9537429018754557
29.043568140139616
15.704450320755496
26.28221126961812
24.99857961084816
-4.065847542435503
-4.132870697857613
7.393092857618581
-23.961419077940466
-6.7585578462018425
3.8124840113355103
5.510181715382218
19.73619211392815
24.681114496541145
16.22878624189316
20.36402036806781
-12.452377475131582
10.681413537768748
6.663490815427632
-6.64284556002655
13.685048403401172
10.244374270341408
13.35676377425258
8.703811345890443
9.784858992137833
8.704446329007274
4.730049403546242
12.654670161366676
5.787437021560313
18.207644761242914
39.267152705599905
10.847104177911888
12.602404905075687
9.851658701774836
4.912063691851146
13.774618530737852
9.427339186534432
8.109275595940362
-10.520177164899295
-4.325800266261356
1.2799606877686156
19.602347454118576
-3.899681713944159
4.340994956683579
11.526490820583087
18.93960031974139
24.979813785382717
0.0018113778053010562
23.399548916192877
22.371421938369497
1.8602208109318383
16.459532821634646
4.67160240327334
2.116685581415764
19.648869209159404
3.096520398318554
24.300272696249564
20.99591404566093
4.389695359479709
20.147633704532655
22.783677806402977
37.95270682656747
9.628527903286335
12.69999880740749
14.97169728456485
3.222450795354748
16.615465098381485
11.361945700030427
31.409914107866875
7.950058358349392
16.336785179871857
8.44503124621973
26.253096606656346
14.682577570092496
10.908950861450911
19.042419098277012
-0.29700314046317006
14.520457782097832
5.773840205891333
9.41678300909609
13.604130940937527
18.95634247803716
3.1915096608930456
2.15215728804632
17.804788489429487
12.534376845188408
49.985636842045736
18.42754688941214
0.5629654807778737
7.935415567182079
18.01955885345863
13.983854058052003
18.90987537154639
16.831497525329397
13.273640987713295
6.975970891908392
2.1040300430744177
11.346927438028324
9.595479346236234
-6.4495708051077365
13.223002805631584
-18.129003064914603
7.734250734600749
-8.870589383503376
-0.007502616048230886
-3.0184778283168563
18.048360363941192
5.3896591562230824
-1.8038089721454666
2.249931610088037
10.965457494263957
14.132291397144602
19.44783640399793
7.127290950782445
-5.677199995408558
1.6041334062547055
-0.6765681554219183
20.124348746063596
23.724342939555225
-1.7176100966714511
14.45276705070223
17.199098932286365
18.961234503696396
9.580453816001235
11.03052728848597
18.124919499676846
1.8818878633179197
9.13783156985087
38.20077184663341
-9.367550514641241
15.026976154208018
12.567676919621515
-17.94078362172335
-14.399648491663092
-23.30969636721467
2.075986932885272
-15.536243042827346
3.5757251439360487
-4.8626484113670845
7.213853789033264
-18.0418724811689
-9.186324207756266
-11.6515148320279
-2.2834439310516954
-4.2325761719528785
-7.393146350968173
-7.537603481970571
14.056492774591934
9.790712028068889
10.135340984119884
21.727737003824963
14.339728004147632
0.22195016229767217
-2.0894174392411604
9.900693021193726
9.11375428335977
11.16439035066394
13.52187097587868
29.0874774345895
-0.4299236846741803
-1.9102119945161724
-7.553784518626848
12.272231425673871
10.878768508578123
11.893122040395857
22.520185899026146
-19.212743014195166
13.1470843840056
30.714365786826587
4.549745280611367
18.424513158927294
22.825320904452248
8.31581109933121
-1.0545860755985594
16.774276679592834
12.565100741646075
26.041056389851306
28.179994136560193
12.144081100498594
13.083293848802326
14.242651910410753
31.75408104611053
6.418416255517348
19.573589081368933
4.348038099015828
9.55490148632194
2.824938730912908
4.195862227362261
19.14473266054107
4.830031933047154
14.41480655812281
38.32087541968153
31.857481745298166
21.17021570812879
27.20778709273736
12.585017710526357
-2.1818078186368903
19.691589627080894
16.811037346042855
18.33583564668843
7.26586670667984
0.35184774651814993
34.15787991551791
12.08229102486716
3.1694209556231363
30.96529456944806
11.08405534526799
32.235757416302604
12.700710899388499
11.449959527802521
10.529374024227907
8.171437619606365
31.05970886811031
24.477599866310094
15.29638053052665
18.476121136035527
31.57065557357855
27.537634049264224
27.96577761880169
15.706131096101815
27.399369786543122
20.183487200375264
14.872077919796498
19.30273280197467
4.153169374237027
11.348883620850422
15.588923710538108
6.454812013034024
3.6412336813157165
9.732476604077492
23.64983294472961
16.257267000882777
17.68358607308928
14.833223740628469
22.393768555545716
6.115510693385167
-8.17096050384607
6.685224935353861
25.604085658190545
11.859312488677121
11.232102216841419
13.253999010929123
10.620182677066788
-11.685879206237795
-5.623997845713776
10.238265229312328
29.267413982806143
14.870872603151687
9.06473819956392
11.785538014179188
6.388166778043188
15.460884756639075
12.33782098760982
12.382573352125263
4.785791074777786
-4.341539136708898
29.059627927912175
26.83407800258539
17.31813434916042
-3.8907889150107415
13.351805831964834
16.51995037210037
25.52483521419555
6.038325254016351
11.286774616413618
11.215291471853176
25.29690348657261
10.914520351093067
14.795342762935963
9.598607364371963
6.2763268969716695
15.73510158681182
7.502782382195315
38.1153200729504
31.870085493638324
11.186757186826453
9.657240014970506
11.316795963399002
15.012781555300347
1.5780215474716905
24.747133963312002
10.898153492492728
6.108392888869171
3.8504218855829384
18.82746506713279
7.5454633195625425
48.312803361612076
11.143763237161627
9.555245053135977
6.355334646885949
17.18759359529037
17.577890008289142
33.91236420731453
16.41421530371833
9.00311471586513
4.323899835284463
20.87082535933725
28.31129773142271
13.462280497947456
14.861640702877747
-7.47948535977096
20.89945526714307
50.9317231336122
15.566611302815804
9.621482258263898
18.01722077494848
17.28973250688406
22.35436440204813
10.708734563948461
17.142155624402115
25.12783850964968
5.887089277887613
13.926116470995051
9.830371446718077
19.09376157035426
14.530749956255047
13.589864965557151
18.117982726891317
20.534934585261816
2.630314646675619
12.35709131543126
24.465293344281232
8.661869368221112
14.360077052050647
16.571356090433746
47.494285213360186
13.13020590261953
11.117782746442893
18.855160438208717
26.620315464299765
11.480723496064659
16.819603662002134
5.8450844461348215
69.03864377211778
15.837098592261015
23.193667085503638
30.22335812588172
-0.9334723535965164
10.999071145147461
30.506741330470884
16.923270420170205
-0.6815254430269955
25.832846119075327
6.150722438953349
6.235359842215766
4.872415184238827
9.104395447104492
-2.0421748379495392
-2.225491916509275
4.731003937792668
5.427791266546801
-0.5144211209960499
6.447107197418343
0.8800587779584639
-11.357823103037436
3.7685376862881386
-4.435461954845811
-2.5715569641239817
-5.423467695755364
11.050723762467902
2.5206295735472253
-2.1464503179496126
0.9012548090553874
-4.363616106573099
-8.996234921765202
4.81862998853657
-16.035574608654674
0.993464664418612
-9.78343854237153
15.064263031773555
-7.615795668580807
11.133194531193796
-21.434495323652843
-8.876093753098205
-6.677730940585741
-8.789327804109522
-1.283214223968495
13.349966074962587
-1.3966714644361296
3.1041607336370354
5.851033187482628
14.448030860656683
13.61998376996938
17.661669475224294
22.5557119466355
2.688026930487
-8.157698860127013
5.743425655830052
3.17068746214106
8.786335620591213
-7.719184070355863
4.669182146024626
3.600119486941593
0.9508774006837615
-7.532045248988155
5.441470854556366
18.761101777832266
5.9638926005801025
-5.699781948994392
-5.038501583942841
2.1182731916216113
4.51455696045792
3.94180692307283
-2.646352375194643
-5.577096311812676
-14.032004907663625
-9.41377719075568
-6.856474602850508
9.5372296335556
-13.412200514211609
7.358590724006336
2.8172388311155276
4.796583089552074
7.68792773079968
7.238611934244829
4.975113110645204
-5.308770328910847
23.157058201169747
-8.546875557585881
-4.928351133119002
-2.1495543994569246
8.707761842697229
7.2188196961454185
-11.760191016235034
10.617728635846817
17.046331192182134
-11.355137811158144
-15.582753546238187
12.582906291501338
1.195439351710647
9.732968912192275
13.485967505048745
29.867306093651884
15.589846881250406
9.989676279441337
7.656081775379244
4.27431886982307
16.84883518835747
11.890150248827501
8.697190312185585
-6.243100049551153
0.9296752109449464
16.068318769338457
26.066217519595064
23.812774648777925
11.282357352484336
40.991166929280816
42.9724671456697
11.57041473778661
-2.7252939068421242
16.965215964967825
9.727219185188016
-11.74699074846524
-0.9309704200439828
2.991958651343404
7.6652653724981175
9.99594117760003
0.13877669775593926
23.176251348844634
22.96362492914349
11.052110317663715
-11.361833512556712
-9.98703424524923
20.118649413415138
10.91289987740162
12.80248838048266
8.003147894068803
10.030883030135191
30.165307257752143
2.8100468944413275
3.857663729259268
6.923692819561741
-4.785346659566276
20.35026733997557
12.942165138875767
9.713053512790236
-0.23251351998891845
-1.6488281901771642
15.9398567880925
15.953801471629665
42.641113724487965
12.386957847507208
25.271212326582614
-6.92397555288823
2.51461596888519
1.807135569357519
-13.3839029146477
-5.370679149489026
0.38177987252091894
15.223382930061724
-2.9630516840261913
0.6158954731399751
2.629740491566227
1.1135870101277117
11.146340539763774
18.157390054176904
9.00832438210076
2.7248822842792446
-15.522965237605316
6.226804237166816
7.857754602509719
-3.615231864799341
16.7271058846152
-8.984760211426883
19.15787791268039
16.255097612804818
19.828458536962287
10.15717680962125
-21.102846650351072
13.412740060555953
7.895023298396072
23.121536290987596
12.428709140710017
1.9159282503724917
18.654202666422513
22.140686242892418
6.783906656120854
13.790509074607561
26.249678540518296
20.650583062250174
28.381210276565856
5.313724408731676
9.105436763391552
10.523000205146197
8.647368302937094
10.269032181392777
5.504229921582038
6.38606150033077
4.900158610951379
7.512912461213739
1.7538236740914044
10.22778987984751
10.676553314421005
32.63439081152698
13.03816413682548
11.080259731557419
20.873814878275905
22.832989428030256
27.74704635175949
13.023347888986804
25.111524278672974
8.421151123177387
7.529779573012511
14.351832505244735
13.968470565244388
2.80385479024052
-4.795611248755224
-1.2628634425621645
-0.2886630795188865
-12.338950877258329
-23.85018719491388
-13.8174941305552
-16.51874465932206
17.772764719707055
-1.1585010254578292
12.285290585926562
33.48471841997682
12.012697184976798
40.2974812191892
9.324618750324511
15.65195708515794
6.332269813733278
14.40434166581197
28.741665478822114
34.7150027612623
19.596228335672762
23.761474688676614
34.88142017073472
13.948305156509331
26.547640088880943
24.41725413353731
15.577076121271048
-8.241410069683726
21.56272416892256
22.9839023599793
36.30658395037741
16.566147004910082
0.9931657303464217
20.86974317778624
19.64122174308558
13.374087744821992
3.1374862180553027
15.433767084324659
-0.9739367477081831
16.246508799812283
0.1730555723113949
15.521096269112892
24.80818727273013
19.446943789312623
15.429733380941387
10.466876911643645
8.580486168732905
8.91231788010933
5.625476144954449
12.787289184457308
19.84784867938177
7.916662438811711
-1.9091153020457121
12.727489225290341
15.365488969480394
4.4205298066736844
9.67283029734974
9.818738724742333
6.600253040815127
8.027923376829799
14.788874612421889
-2.4095434942960297
16.78964423777007
21.265931956497678
0.37285039255738683
11.276363821068635
30.36601797170822
14.977305853720615
-3.259819339488452
11.595953350446461
48.51795066249384
10.739377225850514
-14.920895116613732
16.715011542786474
16.055931039824944
3.6196861958874593
10.917108370285765
2.321302461994368
20.90005737807752
14.716732939075818
9.168973668723293
18.1922114456614
42.43611523425328
14.039514786875143
8.652338819056224
20.999389318881086
30.110944182370577
48.878630620797814
38.87476879238945
43.8884814762268
8.607918293542006
17.788506629831492
36.6559977680443
50.87023364261278
18.178827658270322
15.719142518879158
19.069010298901638
24.96893842187704
6.710466660016036
10.837098288233374
18.79771479946443
3.6526160388812854
20.478261056985673
5.701989995496616
20.246511397430417
36.29238203934266
18.49672212229112
14.642804778494627
10.099887909476946
7.024800203447437
33.51383113416637
15.910525274296724
21.09808687990264
27.328418515651954
24.01014225656445
17.617189371921793
7.275348288579774
9.167926625735307
14.887966095557266
13.107296743784635
15.296131682264242
27.48155980383133
12.161081972253458
26.463098629596903
19.18396802648084
3.6436672143664954
23.098068622482835
35.95781093479515
16.276099136409293
1.5144224400763588
10.03800415365278
13.75096303282374
8.155523684728028
12.041575345507148
19.73920501874847
18.9489136359986
8.452432864123704
28.045984349432217
17.81280108862558
23.214665609894723
23.179076314003773
18.2487893216727
22.240513203031774
16.28948634378352
2.127208997127048
7.931505964517491
15.000619651111023
16.17523179629648
6.954511246953123
18.32958845542278
20.140171855029664
8.570484074368522
19.815739230194886
17.702841241935833
14.545634844802457
6.128177048135022
16.52784075322735
21.76238729297762
30.628952443545227
6.573641972511728
8.931172562480688
13.16366575693052
12.367453084694125
20.245874179015328
-0.13599163192336608
8.774496872764653
-6.103525428171455
12.508369169467013
16.848344169269403
28.95828177910065
21.314312944286165
-4.032576068647294
30.183614476736608
30.387975356124215
4.394853715275939
16.400196709100644
-3.9725827375617624
17.20180543355807
18.168953772370884
4.2924310294347245
23.61817805096946
51.274534687653784
17.96415637345781
24.772041699621663
12.782693009934468
17.91873817303895
17.943730192925592
-1.6131071347857011
8.289046307497273
11.431511793420622
18.915785416271394
0.6671880138699957
6.904797061104855
13.767949554434082
10.980092311979334
16.996195530265677
9.972257715299873
28.836323880168244
53.733958906921636
28.27417681191436
27.88760164800218
18.05710341594102
5.242135271778811
8.808426415491843
14.677404824904578
44.646196154990854
20.770620853863182
20.781155529389345
6.539317889637116
13.12121396623409
-3.9554869208382337
15.95873209496584
25.69505849958629
23.180274756521573
12.30868343765806
19.70899254397704
62.69950262443389
17.484954626798306
16.390462822423363
34.21365733927302
21.243010789766085
16.076098227518788
4.731295179375196
20.004333108596608
-1.828599600329827
23.250853223035183
15.430479748390692
28.222602898310605
2.5847936987532223
16.264953495114625
1.556472295176452
-1.9351754263982919
10.297548743472708
24.449230434275194
16.414705443100722
13.497918984954953
21.730801606812044
14.489402882472255
23.30240050420984
12.916303318326621
27.815655861542698
23.111502365772377
14.570314296587846
10.81534380986311
12.659365634809161
7.271102734109169
19.14332525029827
17.279456964405195
11.56083420017273
9.990462834855084
10.898426595153458
10.378888845733027
2.2423276825420535
22.943567627904862
14.112705768733374
45.70025496932639
19.517484018355052
6.097379067940074
1.264832562433163
6.82818567709447
12.070812762139546
-0.8590529966681667
-0.9237122026765134
5.379889232387014
9.185237057114035
-1.0571556736974521
2.3700169579624317
6.891599777348409
3.485865083598596
13.963223536452334
36.950125444655114
14.532747131839436
19.560702412029674
27.930403196917066
15.060906133065263
25.412196842610882
11.955669001836574
4.396837409658136
25.21758708020726
3.0236200725461537
2.3574586587277144
14.567365986212339
12.263702275844711
13.99524433387263
12.227339137138946
10.766701412006734
10.614311098507937
32.528996823150685
20.85960353505256
14.068039290745109
22.33917233341438
21.07614560341285
17.58652943470107
9.671244102839152
20.652347481064155
13.920366084310507
23.68970767882477
20.818772277406836
16.754851034461897
6.621676498039788
8.337033731345432
-1.5839290375515651
19.820794720041
-17.105128890783885
-9.926263071118528
8.023874582297172
2.3378079933851708
15.959492840576432
19.983172069526038
13.808744957125985
25.05733094428214
10.492259219068156
9.560333222192266
13.362344619214362
7.73197063086443
13.388956233887729
13.39090308239465
18.756438500216518
-18.00837154925234
-3.1406091737459465
-1.9787721343404128
9.363125072122195
-4.017414390850612
9.740696100957475
2.0265139140843873
10.46811110271289
-0.17656888654058966
4.86092530082129
7.005017900219325
1.561043187236315
-0.7767418501731327
12.805715972944766
-6.3022642814308885
4.297580524699772
16.29898482537947
21.487012539304242
33.63769356710907
26.39462741565157
13.698773196484593
10.029406953305433
16.97218789740921
7.906957505513791
12.919261323356466
6.260178350614966
-1.1193402110712651
6.591655819823744
-2.740726529729967
21.139071643435447
22.088133285514296
27.178859665274118
17.056517442610765
21.30106142252118
19.09518635761497
16.653707918186853
-11.83900159454287
19.80692976539391
10.744148149786993
22.16020857726059
23.917403178217896
24.809064202248397
14.856872606637353
-2.342765437760863
-2.404018476057032
19.782876540598323
14.25129051749972
-0.892106054021242
-6.3899310748384925
42.67587710140981
43.80948041987403
10.895980812601788
13.233767603738016
5.307878537230804
11.733647099297759
15.044863561864139
19.24222748993143
-6.39591907994097
28.009814847707908
16.937384086656063
10.90164929898107
19.933008377663583
13.682231146070729
17.7272852639328
-5.120247726484223
44.93794838540306
10.762227897046106
13.550982652192415
-3.7683548983181243
13.82853846206752
8.195358105900313
13.995806911478518
12.390235530476982
13.788700785713116
22.345173461709415
8.433948676274236
7.58793089401963
-10.665943946416183
24.621409369149458
22.926142289815758
11.013578070682502
15.882170116903525
26.225081548111437
21.49921805554778
14.1257065050379
23.21601426219457
6.083111844973839
11.39344721450618
-2.041130812491104
9.951357008327756
10.579855336479213
26.895329780118296
33.45861647260919
33.24134720659762
0.8207556979216095
28.321295985386577
6.4177041401814225
40.277728020159685
14.628920161649535
10.028517314766038
12.547720147230098
18.351318012086445
25.380172162695313
12.184314453258313
13.716649442758927
25.360988988857645
11.349619006315235
2.822586239254614
39.986219091920354
27.335619437149077
13.306182035991016
5.842247254973821
29.73652205899321
20.186394710707425
16.589671094531507
4.756123212218695
20.516392531963337
26.579660832046834
19.938996392308265
3.5864727717064127
11.853462364542015
23.550241211067902
14.3765875976488
-0.5323376683701981
12.72194128557063
7.2440243169191785
4.160283576004007
-15.833170959630674
11.142748961419786
19.453663498882033
15.593395599177448
8.060910296715692
24.73439101906914
0.36676340582973055
16.754033944977834
31.066143669862104
20.806267375927536
7.189218340542268
25.674132075999907
14.512380880070518
10.474722858479815
25.053890826375127
39.42372504460206
9.789122285232251
13.412084840256886
8.90550792409542
26.24075719004375
1.2419027239372573
17.1543496832845
31.690940012178906
29.638100503076053
17.340932590283337
9.080839811333743
20.186883927019036
28.428577121180552
-5.750978313399118
6.503329554502723
12.195332203053892
3.6892909540601644
11.869840550812992
12.109011832037076
7.178703157905201
16.287074755741866
18.48199000695065
24.17217372598047
20.757910883004655
14.365618426025325
24.039210385741182
20.14071804726217
15.414420541572426
19.8172398703303
31.538249257050477
15.948382565983785
27.628392674682736
9.40810111013033
18.863172498233318
11.909854908848441
13.366960164731472
6.130931551226246
30.604946948843825
17.594973381643534
28.40432750541619
27.314207809707334
35.25233053910121
25.143952343209282
18.958942078417454
6.854309202753122
36.32485552062577
10.51239034046991
39.123608296212986
27.873121321422875
25.060128723253488
21.700903854128285
41.19311140781966
30.13755157206163
39.46911299654141
10.999239097604738
20.306485387055176
21.742966237446655
17.71574418531552
9.684582766593413
10.719102733611273
18.371497632212236
14.358356400272129
20.533553082905886
25.56934460046156
13.109761098099966
21.964209348985605
3.113909071742124
6.03672015351208
16.13629312619824
37.3939670657135
10.298862759564956
20.336187291071965
9.357027905924177
9.62512411518269
37.11380277805435
11.540292156199646
37.493984888654026
24.240407274947337
14.027517120010414
25.350267151585502
23.379295948180452
9.99479971376842
13.534653201434294
16.28913390918532
25.29652438328956
47.04225084137693
14.597816947321096
12.38950051785906
15.674035336068462
23.426014437834354
17.277505575683772
13.362616110847057
13.138982899545322
27.146479776981693
24.87544596960541
31.44128120621973
43.417678486991946
19.261118196654753
22.260064552160415
22.76959403245308
15.464014092122193
43.50369906725314
19.945243747443136
18.484458591973866
21.208970014256625
26.846130618164946
13.93748103586457
38.730662821902
-22.881485089888784
51.22159625207857
6.998845986228622
6.253585309454125
36.95932330096666
20.79716650252206
26.446271612221807
16.17208396543379
21.554452109756134
18.64288469984735
5.1346825976161
10.203952860415065
36.88596348610843
28.09092993431247
22.71454396568736
13.558787239990506
25.829560466618027
19.13311646548466
4.809244861009239
5.491116319215857
9.474068800375289
8.189280574779879
2.5994025677898684
12.189173128321853
29.791918525480344
16.995109075749625
15.642985810627158
20.949837229062705
40.81475085770437
25.848611314321467
27.800895591623014
15.905066081864486
23.24690665849845
10.795453381513449
6.0672064118248334
25.558385533293855
7.524309794451615
15.43159299395418
-1.1497355663652706
6.474154706557296
7.0939614852034625
5.0575557077023445
14.702838164714976
22.492773052101434
16.795631346752714
19.17912455282059
6.570854971031004
15.955005546615348
9.612414406426144
12.3662004834163
-4.289027699174265
-9.36790800630993
6.060595725739983
22.733626026013162
32.91610595809709
33.394796298836994
-2.3491962703352334
2.823361051362021
13.833878480425268
29.648148749312654
10.821347802859755
33.42506698035448
15.492701025371748
11.348033744738888
13.059615386710174
39.115120494546936
15.256340776614508
2.076834922301365
10.231948444487042
29.402562868589882
21.035755371444793
53.87816708403599
22.262144323356104
10.415983916642647
27.378665320339554
23.1134620813158
20.02895868417968
25.11141942672969
28.34600445253177
31.60456231669921
5.096691296368149
25.61550590165377
12.99257856619629
17.755718163277937
15.792266393748376
32.38489857311636
19.81526373310984
26.128282356136513
22.110846131602678
22.397459091499226
23.153898325256453
14.976728324106864
46.146812230189475
28.161714419980733
7.963635186950777
13.105753695827374
27.55588354756683
16.021878516618052
13.47572654537937
16.708465367639757
11.961578164578894
30.164568853745173
22.441288533153223
6.444265451105173
29.94819680277366
32.142260969706996
25.64698258590983
16.832458040285676
25.120798705699038
2.832880616066891
13.511218437334348
35.703989068019375
28.444346828561613
24.273251287872725
13.763664843837775
28.775630673439302
20.924473049458907
44.460271811699464
28.9160433573482
3.073242129017539
21.64395865119296
26.290285339682423
34.263952592121846
12.087554108578972
18.27695420138094
30.294379864003897
21.68647796974036
52.468810915470804
29.335164493003738
29.370192281517856
17.87974294449761
32.66221461282495
29.822407227545128
21.960102768941827
19.94172154442286
9.880936576510237
22.56920225463979
20.137165776023174
23.0179781085541
16.8654633008475
20.1100668969066
24.34589905693166
19.970837942965076
22.26989145228029
17.232920850606963
14.727962542055637
21.200689780913223
18.434172523690453
25.178861312551817
14.735740703519319
22.181353119678292
15.545490281120037
22.49062109432559
7.466131134728441
11.33249528756867
24.03505243938999
19.415822295876314
10.450284878210194
10.553619886807821
24.522606512392876
14.940621920459645
15.688103693147799
22.085034467530864
6.657688091583311
18.693750433713088
20.883989527706014
20.51184665241437
10.974189519586462
18.12918955392481
28.4411903140754
4.328611887409028
21.454461776087467
18.05500613979035
34.386028881295495
19.743330746326475
32.023932257955934
22.865669044711748
13.597289281995355
16.056697651126786
23.711931417797057
18.22448982376125
27.471232995948892
29.033757970007944
16.18828377194442
20.212474961844908
15.655471357576378
22.254637361445717
25.02837967120438
16.486760229453715
16.010669551362056
7.251339602851553
16.581868261581114
11.408458021621147
18.28897716490483
19.550767262367973
12.037301116135954
10.54100548660937
29.689079537664735
14.963509038042307
-3.184259271661738
19.189379493649458
-0.15357428485535707
15.918409679939302
26.405606815745664
10.56426553540134
18.063997837561406
17.70090654165856
13.31461488355315
18.071677677312245
23.021759993937135
12.697644721934234
5.644209411525917
1.6580880758825023
13.729495921018138
12.194120234891342
3.689641896059503
16.374871334408923
21.35164217216226
4.0192407547041835
4.922372895629103
16.055268856163202
9.390249258784548
9.454722333706846
20.588672596500672
22.78365811330448
28.727416393382526
40.95949716710742
23.021759993937135
12.697644721934234
5.644209411525917
4.935538780958774
5.92167429098504
21.945190417941312
16.01724796613004
4.982657869038006
9.569488126569
23.502331153874557
12.865137500430194
14.190105686427534
24.50416085542522
17.066735758984564
20.51879209154145
20.014478115144826
16.332034071486255
11.52013450377153
-0.516465093231754
-17.054756139297677
-1.6591419360175585
13.139506230761423
11.64253613232602
13.399957133881097
9.778753956500893
10.603382641018927
7.797846042218037
2.2072689153043927
23.992374507352718
-1.0428433265605532
-0.19603692972474374
-8.737407496400131
1.2369184589909112
-31.022424509948646
-0.06915080229088731
9.022350407374795
-16.2809707596043
-17.153668999381935
1.183421274793845
15.78239669435903
14.672203330477501
20.631461163542617
15.645080403828288
-6.765731378222309
14.021956001841232
19.341397526994463
12.797162263882399
-1.936863869098311
11.946390990809443
11.21573927897577
6.899473048191674
55.307677031198885
4.195029612582985
17.03312843946236
6.345734302734067
7.951567011379063
14.711565699837347
-8.799530738092589
23.284680947686297
18.975732170055508
-8.898212263509066
-1.02796073370666
-3.8223332591303794
-10.269295953439913
-11.982675437158145
5.4349413814582075
5.1135404001430445
6.427461937598776
-3.411256580420226
2.5025624461114018
17.134785483976952
16.19333338980355
12.807775160684477
13.166453278900141
30.83116298647662
8.179167250295508
16.83955647808971
9.923158293450863
12.005629045932452
5.876355947470135
25.33579330441542
16.079006225590813
30.9313350897829
25.599842609225565
13.155128099683052
11.615895847229385
16.38287600203734
9.86554705846284
14.89368890041914
7.6354188159566965
38.19999505325178
23.135869202147447
7.470204060983177
11.510019669894442
6.675057630316469
21.868110533821678
19.202511664181195
32.92929840201412
17.12008425242553
20.20711308190078
23.71384422491732
18.077313891127083
18.901872718670596
13.078728739504976
12.035280686501768
-16.964624620388424
15.349199925867264
15.156121763347308
15.74279646987058
9.474722637448263
7.845561241727395
2.8993949309136413
16.111561603058433
12.32693084634319
-3.6175282334957504
1.6277760425131014
23.151480213028577
14.830958776691716
8.310120562007823
23.293675125389456
10.83325421439261
-2.116944515976736
17.313173245918573
10.729296574158862
22.73978801763503
12.521988500133121
15.004022221774251
9.802402122560688
13.543110489769331
17.318613855163267
17.48106461730789
9.542255926274962
21.418815342984626
18.672011163914345
0.03552212672362266
3.324564208314893
2.5472330426113228
22.235480348729517
18.65947455925995
7.4539340672686265
3.1274578170899394
2.1510010555191785
23.247118163864556
22.873461985956734
8.45463379734019
17.749469431558666
6.2004197258711535
21.015563936904254
18.60320164841956
18.81629223786449
1.6341577222042056
-9.761285093207425
23.4839583415292
35.485671743104064
13.804494018535413
11.817393938043612
20.095217046040137
26.833927391430933
18.899490855453354
7.074823085329756
10.169689943491182
24.303982522188843
-1.5343659619563974
-6.14022746300288
13.715766129004242
-12.985557820965463
8.09772511537466
-1.0489509594998978
13.707910735521455
19.587937997059598
3.9294194797348876
11.407494094612648
21.25090637680215
20.59412325228001
52.647768132552656
20.603013974007826
-3.897516804006763
45.90308797677789
70.93130836015447
8.554896272238596
13.383122638590484
33.126142763492744
32.11811121554663
40.993024441908986
22.158057100206626
21.26935183941835
34.03258856369015
14.96992857064501
18.27865644999215
23.776969357564056
9.392541080877482
5.510140423361794
15.886501445086667
26.06862900068974
4.386627413682478
18.23344760985615
23.500169974490642
2.4149018373922693
4.87663778391709
3.953158771115328
12.27990949858973
18.988181912391443
2.0274252445163925
28.824235994581155
9.290280473889899
0.8945761793698814
13.771456473479146
12.860073996350511
4.438531736548917
-6.981612313843085
-11.942435214344316
8.705988060636837
13.971795698900461
7.34113834514769
-0.31481731772764937
3.833992655793464
9.684659149398852
8.221468286504134
16.68203566750344
20.81805181807585
13.310186521730703
6.881093733669739
-6.599849147758935
5.827249414462527
-4.819409448411047
-5.779060595891721
27.90834451069245
-4.546840143064023
8.62997222383187
36.19263249883948
-68.3073566308474
4.7136427920972075
-40.3689959803134
6.389249322299923
18.15062209158259
15.279558563256586
12.972379465669958
14.744266711342064
-2.6820276519882684
-4.032899625725593
-1.9535238142176983
-5.871058038907478
-11.217549771459195
11.184530072468775
-15.08899197872927
7.9342771266800245
-1.8989450428908066
16.273059012592416
17.83520693316318
18.55007642883675
18.268556288539433
10.783204597324445
-10.316636143477982
8.616815730814148
15.897650734479726
-0.4962520096653582
2.9697414830527546
35.81435926542788
14.186646106693892
7.137825671426379
17.85339511068242
7.961682633226665
17.36325077784025
14.868036603972277
21.81877427718239
21.589276519162087
37.98587384203852
18.238180110538348
24.232090094948514
23.552923809547202
34.78209497606393
20.877054739013072
23.21827572820683
18.21022956887998
4.875046116683547
33.429460066339345
25.85532342715481
9.133200763080602
45.573287077319286
8.250454400691666
6.4137623230542955
24.656325194998406
22.929220768084317
35.17649520727309
4.910829248680231
6.516017273322495
12.34362806577042
23.922806493849926
5.027936564331446
6.315885069788859
18.778146658586394
11.89280268634283
15.107319524741756
18.67896858457315
29.998610921460564
23.748502966526715
6.425306855567104
25.44449068379665
9.46125592137832
17.5641542487426
1.3949405152809378
24.597446518516147
25.778894334574105
-4.565321586933155
1.1524276366573694
14.84202685981967
-6.976955295741454
-9.512133461729023
23.02587803144011
18.948137087265295
28.52851734435781
17.617666232544206
19.69421914789273
26.116989945124736
12.0275731825139
-3.1066221851339066
-6.226177424910578
26.44081182556595
18.07754831200851
20.307200365410214
27.718088661186687
41.782073789904814
35.80148767977886
10.716777621229138
13.684704196404294
8.63420797946153
18.282060332602185
21.278245932612307
27.741259271381246
27.420572697899058
17.58687220584857
38.66438183439167
0.8254843957441902
-2.633952300039182
48.519689875366936
9.834763732907584
-3.914306465710655
19.293396109521684
69.81835316546145
16.508730191896007
8.366825242454471
39.075179777985355
10.347865859756597
30.209442645393796
14.247005322404828
44.694741662986715
20.82662868888165
20.80214357025972
16.869930239269102
15.740172307583446
10.455673656063624
38.09858967270769
11.982002783705045
2.962515618581521
51.97317436418324
19.517776109283172
4.718822132981202
18.117644612316475
17.563272258921202
21.02793544774675
18.252273983459794
31.523010201262117
8.696846308967093
26.80897347610799
34.29766608425512
15.761744274072775
17.656713356504824
19.535280915378998
20.33322171300374
9.940252112104504
-5.0177114272584316
27.374777741261845
36.31164543374893
37.92014934071912
0.9303947052439119
12.615073680858229
10.988163789613376
20.971933042388407
31.45477914573017
32.199806524605
8.44774127917664
15.43317365801993
13.469326701766173
25.459761786565974
27.17047324939208
7.284004184670612
17.73696557075737
12.919157813515316
26.62927795236626
32.52360813117202
12.741514227246556
5.1114897359569325
49.228412385591476
26.704461520995245
16.968161095053624
16.53880422959217
16.560100740471817
37.22408042257864
46.64159593783996
6.842379405378942
13.865937564295258
24.466355420101536
37.437457432941336
31.12797148470824
6.021854654706834
5.942525839782546
43.127161252648946
12.098731358517208
20.907037283891412
3.459608854090376
11.084528405228415
9.659728655441283
6.5127496698870955
-2.0712686130362195
15.399405866240143
-0.9680163152882723
6.788516266531127
5.670871755106763
3.0217900654462357
9.514521963474756
8.549000142487575
2.1979015260338275
12.559348363443034
17.94481242217137
9.086031466638072
7.926181377358396
6.097885459806417
8.289638767276559
14.096228112084544
21.682423328653094
11.919291986077653
-5.285963721292289
27.069355863438467
15.356695947226129
12.957409484746398
32.51610640999286
25.28751436266893
15.851758898867262
31.3244721358622
25.277023145264533
49.17653818785738
18.89214361852571
36.512235917547656
20.225684723130282
33.77329024462865
7.481134802296281
28.989907892170486
23.228965468504708
31.436114532958097
14.024708178070037
8.84650720503154
-4.816844137417428
21.598941801700636
14.672557051826821
7.666559110742247
9.15205040314752
10.421918143902891
11.927559390325477
20.209250844907718
3.5810071802529873
8.664562544906715
0.008095229820874898
8.039587668315678
31.672330899591767
25.44285685879902
13.805664511576094
8.331631072398046
10.512099410724732
11.531831735187279
16.859968279543693
38.239704843374966
25.87421763023811
15.734325594149546
39.70186248098484
53.7905726057985
21.735835688821595
21.551204549514267
18.69253778306443
15.095519329342496
21.137771733430572
12.79257610114535
23.08411760787335
27.11104562421086
14.087189717598738
20.318318508871172
19.831898796409504
9.11281241578071
22.80257400206176
7.426211988372544
24.283327387003023
55.338101437627024
17.096269210821948
25.784830932156414
32.701575043347255
30.200773861527473
4.591615446461298
27.328224915808363
6.5307081336619675
18.571814377945646
24.32831730150551
10.344263633573007
10.784990810329191
28.439835443397513
35.84740901910935
10.680168946469351
17.460071112178408
28.80505038296718
16.296055003981103
9.993825787598368
17.38350355585355
13.220040330030619
0.6872017493482627
6.7880491911247995
17.81561894921858
22.487695828599573
11.523701115370212
-9.138626860086921
-9.982000686723929
2.1285343037068345
29.654284889168895
39.823361258598524
36.02226250378257
8.203564647935472
-18.44658964216306
16.11548382217586
19.65561327552232
19.6082940676496
34.4992493146085
17.56909505523192
27.699301682856547
33.67183076484703
26.128095644440634
26.36299575807231
25.94913054918922
34.50576825261256
18.18250659663145
43.69824479472148
10.152402903641134
31.569388431655064
26.489645910979203
0.8736972192065875
34.542809565218775
21.453002385147276
-1.113355822119248
20.499350946118653
10.385227825205643
20.570837958399427
19.036697286540118
13.327279496653704
19.303925241394303
0.8746990486816814
14.515298613657308
19.465165461746537
7.386483311179017
8.145189483867808
38.074245073710394
5.056612715183114
18.424813786967633
27.532655930720463
37.06255638194703
19.886756655790585
18.822617583817088
32.31470737725949
9.267343286195501
12.281773697014525
21.196975390013854
29.147930437607485
29.274065302535753
14.543769804439043
32.08913523282374
16.79207593287194
-2.997773845981865
17.894039553533823
23.181896877854104
21.86952341006849
21.2375670506197
15.484203481249384
21.276211209320095
28.941835342122797
1.8001174081300528
22.871102408596915
20.18693551129899
12.981325298087686
24.8466142475137
11.632428259107938
32.27902156637757
8.868065597685643
19.030196111326553
14.311435782498965
17.4068266035606
15.230716174275326
15.587046837788249
11.966706969971623
23.76979068076937
18.853102159464207
36.54637811204413
11.10341656927313
32.1103063427698
20.378042176155756
33.67014235888474
58.018548673116456
12.820394763419179
30.41966254670488
19.887800679590182
28.80814721755463
23.149998958883824
40.80051015808188
24.078522797908622
43.49775544502166
11.696846084886799
-1.6850528475810764
24.942706032992113
32.02003760318926
17.874055178488756
23.152290697074818
22.69236462739836
3.773382982082002
29.64645354969216
16.808891895927776
24.064448832994184
18.97039395868512
20.11705739878658
25.63610831769693
22.846099918475705
10.380697762197023
22.69893991417313
30.56483703339402
16.360353810451677
19.39793700616523
27.587389336808773
12.585032147215637
35.416223058976115
22.923180889586096
20.061328100908074
12.128058375122286
35.3099677478331
17.008927843415744
26.714497123102337
6.215038321771154
23.69515569715274
18.92597203607342
21.081144725105208
16.95969610381023
21.992006792316392
8.50776109041747
15.49714924166759
29.530188840587666
16.614464951083523
10.823249468269314
42.758321284019964
-3.504722348278199
38.58329309418884
32.12444637679208
9.977660985362373
19.478317310950132
29.758708287699122
10.38558841647549
23.416081529356703
25.88990866006601
17.11990016790663
6.758483023108956
23.134218363090753
7.758284565797917
15.894112390982807
12.633457232885878
8.407635331458476
17.050632422189253
21.021209553755767
2.006673063637971
35.58407395600638
10.665356310814296
17.14943409458192
29.280578897939733
15.583373548568101
29.055434956298733
17.520723758374224
17.370072813990728
33.72049526239574
24.475599644071547
31.1683819213849
17.82068788849585
18.50650934308877
12.177243576082075
26.897006251373863
55.827062078138965
55.929450220691116
27.090708776336783
31.187361848735037
13.840061837620047
10.98588923311219
18.136882685298374
15.939861507897986
18.960916837405367
10.133873438486562
12.796307705862901
26.261454638356952
13.254716076542728
11.560618311871357
21.777398891508593
30.17129144541248
9.045847661181332
14.991428501722487
27.7517954326265
31.90662702784068
23.689216655806845
66.7187903741087
53.514532894242215
16.575445278688456
24.404526631632283
14.590061190639346
31.658087080835376
22.030075462852203
34.99107891442107
45.17226901829143
43.59375761619944
31.272366704092274
15.900844657433955
30.276936513274947
16.854311519402987
25.130187994094257
34.090886042587165
7.671925233357374
15.674290504126194
41.68012569325523
19.302174066942726
8.895419964381443
17.149694928569673
26.325178973778687
13.474775961246976
17.925205561412284
27.851370977246276
15.98736287661752
18.989298669513282
23.088774647684833
26.395971465694217
20.376608192362816
33.089929482249346
16.904536126502812
33.54325711584802
27.80185125863836
21.173533032529598
25.144042300098725
28.752114750398203
10.758649589858864
0.47864210600828055
14.145873821715282
32.847062617203946
7.805454403265209
27.591776934795448
16.344991844363257
25.175864401705223
4.803923764001851
20.151840210229206
10.758649589858864
0.47864210600828055
30.24971348500802
32.766030943693664
35.79121710071595
33.69718305602844
15.296757879041554
11.221313025501878
19.49519075620794
3.974352194491379
24.353786255070737
56.12033598397435
10.05700959610851
6.3052107200158645
-2.636246706838515
14.227783734300575
8.98450701954896
20.098884218372117
25.692945236707683
6.861285570632584
18.2094098578345
25.348624050329498
11.400276061770837
11.959527483007747
24.913614871173067
6.313588413523538
11.534945377356252
15.768156324914063
-1.124613088756151
46.40944432698051
-7.595978405242513
-1.6041930494051349
13.097688083397223
17.778320495757768
7.356178724813844
20.900087689241907
10.266747511247143
23.695446940117435
27.055858125522104
7.6657674699362515
-2.5641975545812654
16.570148061776827
9.716218760891794
16.358394767316092
7.586027262724003
-2.0414429909511793
33.11893029427723
33.64869870845165
25.066143471849582
12.37600423494913
36.193962527709715
13.432291383730046
-0.34443680545546934
13.300876693381225
22.515171274984432
21.43103080510267
20.300382851579474
37.617519403147575
43.11375743040632
0.3997268226075605
-1.8783810038990436
22.396783312633552
10.950253389245331
15.52588256449626
3.6810586310888262
52.08019778621963
32.561599768388305
12.185791614272054
22.355372154937964
19.90443761057759
-2.07826534904716
30.75968666589049
23.114687056827
1.7362116834595975
5.29202338445982
9.58499792037139
6.063660183854683
3.9925337510812606
30.171017005054757
8.869011937046086
24.510002074182516
31.001514034526046
28.238210496557063
9.579573324269072
26.425785977990206
14.000603240003135
12.300991756500816
6.763839151382555
20.104450086822393
15.524443278964322
24.718418889923434
16.03648024160533
19.431893295240013
15.66453231203811
-7.246760215124634
10.626094289000555
13.906090185255051
21.314652731015762
23.24694235291541
15.656570883384386
-0.6802474467681059
17.380065199731636
28.183010725792702
11.09698857013975
13.995190528559757
9.463303586767953
20.997249154043168
20.744819112811342
9.225451050768758
32.53321645201415
27.11990345326242
22.79414946520784
15.639192131613159
16.239127097921962
12.71168806454538
17.2672432032664
42.568242790908826
57.42338573982322
4.902065916423809
8.250369477022351
6.948911993106366
35.270600582312056
28.53226331189083
32.209362335041625
37.57786092597771
18.494971231582117
45.72891067914685
42.157011057466605
15.911183328808907
1.3158471442930348
11.180125087149957
24.737696554657575
16.268338302733888
1.958236218837561
1.2652046269975612
11.080955307083155
20.660582193869637
16.686213081198606
38.05677175600888
22.513563721427605
-2.5916771894280286
14.979993065292419
-5.293180570078686
17.81273258884901
14.0369193952766
8.949736895036269
14.570493465624407
30.09961487750525
5.561080416660895
38.74764124708872
11.763366781902747
18.22691257249045
20.251275930192758
20.6289270219489
16.904876142811972
27.841618285639854
10.222496567579055
6.940626560981432
-4.986032032469053
13.609105224111957
9.15799874483839
11.37802373735481
3.6631123578966793
10.706718080294863
14.31732479937359
9.68479009014336
43.97977460129563
12.062732637376614
12.589240233313438
29.5168031001043
16.31769952583321
24.420149932756576
30.78754726001506
12.483491815414034
44.00979096570943
23.81993418895665
0.9924528887321812
29.679656572695084
16.405401459474277
13.603171107332669
30.865904667719615
21.961500419940336
20.375514632743016
15.046557384312724
9.581117651832363
13.961854133640617
17.0283384412061
19.53594866184137
17.550173179443807
11.985208666775764
11.760718979314447
13.412268093971994
16.69789567961881
14.043615874224503
7.464141061123991
-3.703833061344985
19.97722988631235
20.123580416507245
24.300705841995104
-2.205241226740759
10.27163621784831
11.707573865899082
20.571406344168068
13.623049697948412
3.9566718276836044
16.816620112255464
40.32892370654959
2.5481246158249795
8.823632105479243
12.495879852248224
22.502217220401164
15.300439941312945
32.50345603233885
34.934669906489006
0.480303108372075
12.919504873974512
21.800910730913323
16.415318828085397
19.64114465888553
31.30311227725229
22.95842125166977
26.97136598236338
5.513039538566697
17.109101426828236
25.887816315076915
28.982538979469556
6.329859611321603
21.811198873925274
27.09264809939395
32.69362160745163
2.587586620275986
46.91296858029131
8.610058358405114
18.530194100905803
16.42560256709672
14.570397924463714
5.331063615233612
34.41135602156807
13.85984603950589
13.287796411595114
32.93091709900538
16.787434183673682
12.975056306817313
17.711406898458737
31.015541709345516
11.10970763027753
17.36065260679343
21.674621607029128
21.360213429735445
28.44654634359859
19.773998087633174
30.42346258690254
16.050726698733012
-3.995084645565429
11.391142941106512
13.28826736736111
-6.252656126910554
11.693621209679868
37.32034669636774
31.60119526965809
6.023326178113646
24.882340108670604
8.009898375022434
18.409471202239125
11.502841940993315
-2.9475373897426795
16.504803762327704
21.41006907569963
29.687914569281737
32.95144153644618
15.166738635527622
21.92208652441333
15.50459688017459
19.322781926738692
30.088828573583235
31.166354500184433
-9.978369600453892
15.435472318813824
14.676596811835475
21.286646468778514
31.284115648751424
22.188162387442546
28.287364303533675
32.81652404557038
24.928845411298308
25.974876837574577
21.779450561259065
37.69986465481042
46.47445454006295
28.032515617032168
55.26979057964013
17.75402476034536
22.786658995230383
17.12462066640988
35.05254544932037
6.038676627108233
16.9725302809711
7.8429588401938055
22.961104155212098
10.698362806959128
28.504804629629046
30.88204346167523
16.051740189940208
25.455807375398074
4.987787708366871
30.726368889108546
21.851210497747097
11.968346182886547
22.920958036405477
10.966606392935443
12.665824007681202
12.825012203348017
32.61512354425486
13.757009490963732
26.016992590476114
20.160643285935453
12.192837748264322
15.482676880403123
11.614074419969516
30.895493193692595
22.92675205817375
16.315165787033223
18.18032767473418
18.538522409560326
20.342982568867424
25.584596657439626
34.95781743035895
15.369121921126926
20.802978497507358
18.538522409560326
20.342982568867424
20.76573674139186
23.341342564256482
36.59029839150501
33.26786387717451
28.59862237651102
34.61529973260861
32.441587395146236
29.673346594489523
29.38158043305918
30.04590933639683
4.995701131653147
32.43748145147197
6.820177624760508
19.415425685129723
0.2557665991103936
32.07224646388223
15.121639594208018
37.710588951905386
40.79718431996457
37.8330972417945
0.4102883888197953
63.1397258275458
40.860357594510496
31.226620971005765
16.39889706362293
37.32046586587077
21.516865601493546
34.51017936468033
53.562229844187286
28.30763878923961
54.02526824822315
13.495558527591761
17.446614362143187
50.14538361953814
44.64242562147234
37.28445723071731
1.336988160750738
37.975781348713866
41.54354689857595
30.400317799044625
20.566586384799923
21.86478386861591
21.847382746299537
8.497803587749853
48.545147744501165
19.55942028635456
9.444714262137289
3.3354532238198282
40.00560787616998
22.624759614320958
2.6654573905888865
12.697245341181427
26.939376804757813
17.343593691184637
12.746291789067087
22.890251490464536
30.31719448238014
45.80704517090136
22.702295061149176
26.108457199234103
12.072797915849936
19.20142647166752
43.25682827750665
21.788884704820752
35.53283527074614
23.372682523062224
19.783930982186913
29.28299064693121
30.693230185428842
23.81833533916358
20.560267855743827
32.95644253693879
15.522469898674357
15.562677829033099
33.55143266856274
12.660674789801064
27.93326328014635
13.996057109620589
15.824663635299805
16.266839125038494
28.875285839987036
13.126261543519428
14.008330639803528
20.879332617059685
18.257339753577366
15.522469898674357
18.2256480558325
15.061203443366345
21.244453402214027
20.879332617059685
19.959315602463853
14.8085981317465
24.505167884526895
1.212238813550958
19.164982405052957
3.1687009243038897
10.286587326553818
21.675909812980542
15.929254424189189
34.62992682602495
13.784230918830321
23.381795883902278
18.717218956356326
16.20013866641607
23.10075556582528
13.18802676302635
30.338441267703615
29.37853037247915
22.982269654453873
3.930847967110035
32.54953421356634
13.63098365260791
30.253428651003507
20.13159211163225
43.134991560764284
19.580881933261164
13.1538601667388
7.686494860967686
32.73713169290467
37.344445511940776
12.932594313911705
5.205313935871233
27.65462610188061
35.38208633278626
23.866806026875
13.904644980139988
13.861560138777127
16.140721080042773
20.0249013613838
45.90486247549191
20.650363976074026
13.624352638730123
16.730025859637003
23.71140606545377
14.027950156999296
11.154443202017273
49.260366410309885
16.061671953272047
15.313402894678115
16.845016693668416
38.602183857021295
18.67020048737195
9.8617119487929
8.248629383490135
38.451157177709476
18.14762160081223
44.25560087433613
3.347585659922618
16.289721826356185
-1.928982819450638
12.788073337232348
38.73869831022427
13.905135944754715
10.584025280323194
14.276015631627752
30.12445128440383
33.18528989383242
38.70080896720258
34.01608994605746
12.99180592149189
15.07161871402012
17.198025126974276
15.662497905882159
7.224058406391073
35.79943684190641
22.481459736244194
-2.441279661688391
10.798906937708997
8.534151821088601
24.493618700249943
10.887806132760556
32.20512340468414
12.791573848655545
22.602546327081885
12.168262684761919
23.642965340549633
10.903598341766877
26.41065009102558
12.01830386107738
3.1729771073067963
18.3249593679758
32.098268561864906
41.89459688011565
26.79353380663258
22.8012018427721
5.1772366096410884
15.105873655626066
-1.124351083339588
22.242648100995105
29.96043686210062
11.220612703354677
13.560169335067012
8.800438728052882
19.541788308394523
12.377348483483747
16.248768714451504
17.651862437057726
20.812425335804836
22.509893356032713
22.26314219949552
20.751863143330105
21.310469926980605
15.084385218732475
20.375219264053815
21.511084607604165
23.344221924091375
25.775524597043862
22.052867521858897
14.877081612945531
13.199065929018783
6.789231748873172
20.023029231457123
34.07326440269262
30.698537190854445
32.08834669311769
12.563485739804483
10.244051004518017
16.47268327587211
9.61570396036851
14.08287262661426
11.715490122601421
23.115116619684557
44.49560767628936
21.023250973408537
17.3490112896844
13.774778643584673
38.36343172304262
11.320450091425803
38.18015677899847
30.62795264004582
12.291773504543526
14.110697107030745
11.235785384362172
11.422371821063294
18.297981325915387
14.925848518068664
11.235785384362172
18.837235811317985
18.93640799219654
22.99664940176784
18.837235811317985
23.15758253903658
14.69363411794185
37.767071782482994
15.36160726693279
30.39780221275757
23.289797279247306
22.373751644892607
12.570398473133006
19.474761519355937
15.324336883037061
0.3634368796942855
4.175386633940343
25.49830766196579
15.669179625937403
16.162209819164723
-3.7154034315871494
24.419103361274566
15.824244405447294
20.03421020228106
6.001258418330922
32.455248676903295
12.293589702653481
8.757892812476822
9.865619269326825
10.639183619820884
14.399377146938445
36.45119432700515
21.081981358628063
15.164002405394804
15.02242006720317
15.202526034217792
-11.258213540774346
19.994890520904697
15.299479927227834
9.281443573423807
19.113567618090386
11.072250012313399
16.968890596875372
24.867487296005816
6.990062322678013
-0.8404900851472831
25.17573002706409
-0.341127523902728
15.251811908852517
24.233254241199063
13.355524558541862
11.460410936898104
7.13961328351669
-3.962582511478706
13.944027562007093
1.3395652805367357
3.638809385852738
-5.290345092725209
25.10394342917608
33.77328915806124
11.191538678980208
16.25300721176139
12.834103521315557
11.225245665642001
31.73238079842577
22.774132227332533
38.691271490712275
20.845670719742426
36.460560445605296
17.88471937439405
28.956883841585075
31.497465468408894
16.253330942617524
25.26299005296033
23.683001564652407
31.727498043627108
65.0593108041172
27.570656731124622
12.50864491635935
33.318445222201454
31.33544210196906
31.35192705702107
19.314916475356004
11.017832002511277
14.144687268383693
18.327798812933988
14.121550079894927
32.745037147113166
38.63169071519197
18.43268519236314
16.512612829966884
10.25535930508388
14.736700696093948
10.266903074740146
15.485400400440291
7.079367864882722
15.485400400440291
7.079367864882722
17.08554059869843
18.588559088547914
32.87442637677688
53.957113190283295
21.851538186556176
13.713908898062067
18.545970737149027
9.75467171932076
40.355495831504975
10.093398000852188
6.582853036674794
15.193303439503369
53.54604446080457
19.041042763629303
-1.353840345695531
19.15941804296284
16.961828136051682
29.43677638077958
20.01499995226526
13.74341512403862
18.491498728270283
21.505465243931337
11.017275248612568
22.32948558519371
20.48153604442132
-7.384842655338864
13.665924217513927
27.610233032349118
15.494009023699494
21.768646186039316
20.888165388675013
28.070861680527827
23.297097723410285
4.2708978911966184
20.352789887238398
16.765523681487444
14.371982585920263
13.530897044612939
6.894045422864869
19.178058566405948
29.825406609062686
14.525064764605402
16.193986646975738
22.500216907970604
21.577355850369905
19.18763404503349
19.228589076194165
27.493375226318545
25.942305616115675
2.709030861881454
16.385794294685812
23.116249195693367
22.545627797345368
19.875244488234667
12.561900427274665
-8.037057676675031
17.97106886165171
26.87497948181879
2.674689288793765
23.582702903979044
37.5574663825308
39.22248015991366
6.431794481161082
15.636727913439636
40.37761962838676
7.754783872635558
16.497864423039257
22.50911098858561
54.053252801135066
20.943495377217648
24.42239213763193
17.7713298393432
9.159860790883284
8.504185328372854
7.256154246056031
21.49785529486652
18.642015277079086
12.820449988892703
40.043082600417314
43.485163240001704
32.92011067721772
15.11205437507128
42.4212853804211
20.495813581802032
16.47275679729322
19.651856565839523
-1.6938813513908033
21.130491141573476
13.221361232423956
15.36681556559814
16.40141095873747
25.448503544449267
14.81662192829213
23.16616662616771
24.8140865897417
21.227658308945955
20.85067976096083
25.536695694146864
14.989955519358507
24.44088259771928
13.210903428603416
17.586924813502343
14.891661173119914
9.399745009215277
21.00018175683251
15.0258852239408
34.91965653663538
14.00453589150929
28.839297341667418
36.228710317266206
35.713563527792836
29.134845352382246
23.532014183702753
20.407080089223133
23.488774201275763
14.546485524487323
6.5425871640401905
27.314275569771862
69.21584803694381
20.997097273088283
-33.110439897017656
35.68227287991276
15.342086285982116
20.249667694379923
31.297851342757923
15.713453352904278
39.36664768556169
-2.4612260795734757
29.436653503812067
1.1787016386855103
21.50830694127172
1.7505397901181292
19.55805879936376
0.9819534526578103
27.902649100078712
19.751721781053707
15.739110224719026
23.60736977147541
36.63204813971995
59.88170812690173
35.08797436834908
23.766010500669424
18.722275126871363
40.89524878088821
21.995874327941504
26.687245451099077
57.50921000215605
52.66047225830827
18.2835828486634
22.384886201190593
31.406679666766603
20.992065988366143
16.290218637957505
25.911850071374484
26.39393705441586
27.467770450429413
27.992138991848005
30.78905913224185
21.362987795193987
23.060154813311293
16.332535062268313
23.169394380870646
19.71556657560732
16.09911042944037
18.310541402261027
15.38627298375477
24.984638335875022
19.526811239453906
27.108629716882067
31.849101450098956
14.891493630499463
13.084486794619712
19.442588977936296
21.150943636280363
21.150943636280363
18.04178402443699
22.222259066623895
27.334191203183945
18.829915562277197
14.891493630499463
51.7029512361266
11.40008697123396
11.925674735944558
9.983242450770975
8.279297231383486
8.381768301019392
10.582693402425054
5.448581218735482
14.725181945397166
15.91275762684662
59.06722153203872
35.77490430283953
3.6011067292997816
32.66404960715042
44.575373966311616
39.55165881010117
1.5277522561162407
15.248431844821567
18.852305610827138
5.629376172171867
19.83333189738469
14.840356892663905
20.06430503922658
9.39615715703295
32.287125386139714
13.830063076950834
24.435492565365585
17.523144865604145
17.47968711221238
26.49889906154813
34.34966058024625
-4.754676483272994
24.934601889433146
30.525494729498895
11.302692669364191
13.973174269231695
19.46437648362419
37.22592161658885
24.7314118980996
22.857541333748983
39.03946569627493
24.376463671315765
14.314232163967969
28.809761120484445
85.17069462088313
9.290612828942587
9.668870170437458
5.362513041608393
19.606636805813263
8.993753653994405
12.274009715686953
23.033707079300317
7.772375821911864
29.469223842451136
7.772375821911864
29.469223842451136
-4.009345861091785
29.167448352518132
14.665902271213431
18.925478500471247
39.50926394402256
16.83012058623204
28.805890803169564
19.98030480856275
33.75788734463831
66.68081995232339
23.386866510258745
31.24923029391442
38.55047571435365
27.98560854102828
24.9519085775688
15.653929601419543
19.793041193070888
15.458840517273911
16.79920211997801
18.76197749446135
26.899046081841046
11.481137185328995
43.169835176925986
-2.0426000723249245
25.849393061353435
30.64022686128401
30.9027660949549
26.248869241232363
29.37313439029484
19.960789096372817
11.65420515326936
43.08039354635156
10.670780229317717
19.64798562607025
7.598373232087494
19.267062730637203
20.840743458254966
17.79084788574033
10.499595175367936
17.96712694128697
35.265173335874785
23.115576584272606
4.475813507301253
26.696031433177854
15.620656626601342
33.68239020117126
40.48745684695618
25.38925393740448
35.67466479692854
26.115673850414996
60.13047341650279
16.698395541357883
14.12671078913807
9.851315247088522
20.055132014401508
11.013981142647841
24.865975141001773
0.49935160051136984
15.484676899789186
30.92759990479117
19.742849961256017
13.782384268389421
13.410318863645434
19.64645501838938
20.52505425361471
33.50917628753628
17.98187976699129
11.283154420046037
8.313764320361887
11.034877748071745
19.405151515397723
18.411273667991505
26.312219816830503
11.065986696364568
20.559781117120224
17.892103697140392
12.545400536666747
24.93821907604972
18.70327794427592
19.3046173459473
13.774907775974386
7.463535168815147
24.495300755320795
13.209161535995246
21.979720049875223
9.851637601412483
19.52737206897884
17.79630866962399
7.90613276928952
17.223368146292284
11.775237665068147
24.848749600527086
20.00045529953776
19.90298620247111
